Language model created by QuickLM on Fri Sep 23 19:56:49 EDT 2022
Copyright (c) 1996-2010 Carnegie Mellon University and Alexander I. Rudnicky

The model is in standard ARPA format, designed by Doug Paul while he was at MITRE.

The code that was used to produce this language model is available in Open Source.
Please visit http://www.speech.cs.cmu.edu/tools/ for more information

The (fixed) discount mass is 0.5. The backoffs are computed using the ratio method.
This model based on a corpus of 1408 sentences and 1969 words

\data\
ngram 1=1969
ngram 2=3637
ngram 3=2715

\1-grams:
-4.0494 1 -0.2427
-4.0494 14 -0.2427
-4.0494 2 -0.2427
-4.0494 24 -0.2427
-4.0494 3 -0.2427
-4.0494 346E -0.2427
-4.0494 4X4 -0.2427
-4.0494 5150 -0.2427
-4.0494 5C077 -0.2427
-4.0494 5C077-EVIL -0.2991
-4.0494 9001 -0.2427
-0.9008 </s> -0.3010
-0.9008 <s> -0.2286
-3.4473 A -0.3007
-4.0494 ABANDON -0.3010
-3.7483 ABDUCTION -0.2427
-4.0494 ABOND -0.2964
-4.0494 ABOUT -0.3010
-4.0494 ABYSSAL -0.3009
-4.0494 ACADEMY -0.3010
-3.4473 ACCESS -0.2426
-4.0494 ACCORD -0.2427
-3.7483 ACTION -0.2427
-4.0494 ADAPTOID -0.2427
-4.0494 ADVANTAGE -0.2427
-4.0494 ADVENTURER -0.2427
-4.0494 AGAINST -0.3009
-3.4473 AGENT -0.3009
-4.0494 AGUNG -0.2427
-4.0494 AJA -0.2964
-3.7483 ALAKA -0.2427
-4.0494 ALAKAS -0.3007
-4.0494 ALERT -0.2427
-4.0494 ALI -0.2427
-3.5723 ALL -0.2426
-3.5723 ALLIANCE -0.2424
-4.0494 ALLIES -0.2427
-4.0494 ALLUSIONS -0.2973
-4.0494 ALMSMASTER -0.2427
-4.0494 ALMSMASTER-EVIL -0.2991
-4.0494 ALTAR -0.2427
-4.0494 ALTRUISTS -0.3010
-4.0494 ALTUM -0.2427
-4.0494 ALYS -0.2427
-3.2043 AMBASSADOR -0.2427
-3.3504 AMBER -0.2423
-4.0494 AMBER-VAC -0.2427
-3.7483 AMBERFIN -0.3009
-4.0494 AMBERHEART -0.2427
-4.0494 AMBERLUTION -0.2427
-4.0494 AMBERMANCY -0.2427
-4.0494 AMBERSPINE -0.3010
-4.0494 AMBERTRACKER -0.2427
-4.0494 AMBROSIUS -0.2427
-4.0494 AMBROSIUS-EVIL -0.2991
-4.0494 AMMONIA -0.3010
-4.0494 AMPHORA -0.3010
-4.0494 AN -0.3009
-4.0494 ANAHITA -0.2964
-3.7483 ANALYSIS -0.2427
-4.0494 ANALYST -0.2427
-4.0494 ANAPHIEL -0.2427
-3.5723 ANCIENT -0.3006
-3.7483 AND -0.3010
-4.0494 ANGA -0.2427
-4.0494 ANGER -0.2427
-4.0494 ANGRY -0.3010
-4.0494 ANGWISH -0.2427
-4.0494 ANIMATOR -0.2427
-4.0494 ANKYLO -0.3010
-4.0494 ANNIHILATION -0.3008
-4.0494 ANNOYS -0.2427
-4.0494 ANOMALY -0.3010
-4.0494 ANTENNA -0.2427
-4.0494 ANTONY -0.2427
-4.0494 ANVIL -0.2427
-3.7483 APE -0.2427
-4.0494 ARCHAEOLOGIST -0.2427
-4.0494 ARCHIMEDES -0.2427
-4.0494 ARCHIVES -0.2427
-3.7483 ARCHIVIST -0.2427
-4.0494 ARCHONIS -0.2427
-3.5723 ARCHONS -0.2426
-4.0494 ARDENT -0.3010
-4.0494 ARISE -0.2427
-4.0494 ARMADRONE -0.2427
-4.0494 ARMADRONE-EVIL -0.2991
-4.0494 ARMAGEDDON -0.3010
-3.5723 ARMOR -0.2427
-4.0494 ARMORSMITH -0.2427
-4.0494 ARMORY -0.3005
-4.0494 ARMSMASTER -0.3010
-4.0494 ARRAY -0.2427
-4.0494 ASP -0.2427
-4.0494 ASSAULT -0.2427
-4.0494 ASSERT -0.3010
-4.0494 ATTENDANT -0.2427
-4.0494 AUBADE -0.2964
-4.0494 AUGUR -0.2427
-4.0494 AUGUR-EVIL -0.2991
-3.7483 AURA -0.2427
-3.7483 AUSTERALIS -0.2427
-4.0494 AUTO-ENCODER -0.2427
-4.0494 AUTO-LEGIONARY -0.2427
-4.0494 AUTO-VAC -0.3010
-4.0494 AUTOCANNON -0.2427
-4.0494 AUTOMATA -0.2427
-4.0494 AUTOMATON -0.2427
-4.0494 AUXILIARY -0.2427
-4.0494 AVALANCHE -0.2427
-4.0494 AVENGING -0.3010
-3.7483 AWAY -0.2427
-4.0494 AXIOM -0.2973
-4.0494 BABBLE -0.2427
-4.0494 BABBLING -0.3010
-3.5723 BACKUP -0.2426
-3.7483 BAD -0.3009
-4.0494 BADGEMAGUS -0.2427
-4.0494 BAIT -0.3010
-4.0494 BALANCE -0.2427
-4.0494 BALDRIC -0.2964
-4.0494 BALL -0.2427
-4.0494 BALLCANO -0.2427
-3.2043 BANE -0.2427
-4.0494 BANGBANG -0.2427
-4.0494 BANISH -0.2427
-4.0494 BANK -0.2427
-4.0494 BANK-EVIL -0.2991
-4.0494 BANNER -0.2973
-4.0494 BARB -0.2427
-4.0494 BAREHANDED -0.2427
-4.0494 BARN -0.3010
-3.7483 BARON -0.2427
-4.0494 BARRISTER -0.3010
-4.0494 BATDRONE -0.2427
-3.4473 BATTLE -0.2427
-4.0494 BATTLEFIELD -0.2427
-4.0494 BAUBLE -0.2427
-4.0494 BAUTREM -0.2427
-4.0494 BEACH -0.3010
-4.0494 BEAMBUCKLER -0.2427
-3.3504 BEAR -0.2427
-4.0494 BEAR-EVIL -0.2991
-4.0494 BEARD -0.2427
-4.0494 BEARD-EVIL -0.2991
-4.0494 BEASTS -0.3008
-4.0494 BEGONE -0.2427
-4.0494 BELLOWING -0.3010
-4.0494 BERINON -0.2427
-4.0494 BERSERKER -0.3010
-3.7483 BESTIARII -0.3010
-4.0494 BEVOR -0.2427
-4.0494 BEVOR-EVIL -0.2991
-4.0494 BEWARE -0.2964
-4.0494 BIBLIOPHILE -0.2427
-4.0494 BIG -0.3008
-4.0494 BIGTWIG -0.2427
-4.0494 BILGEWARDEN -0.2427
-4.0494 BILGUM -0.3010
-4.0494 BIN -0.2427
-3.7483 BINARY -0.3010
-4.0494 BINATE -0.3010
-3.7483 BINDING -0.2427
-4.0494 BINGLE -0.3010
-4.0494 BIOMATRIX -0.3009
-4.0494 BIOME -0.3009
-4.0494 BIRDS -0.2427
-3.3504 BLAST -0.2426
-2.9702 BLASTER -0.2427
-4.0494 BLATANT -0.3010
-4.0494 BLESSING -0.2427
-4.0494 BLINDING -0.3009
-3.5723 BLOOD -0.2384
-4.0494 BLOODSHADOW -0.2427
-4.0494 BLOODSHARD -0.3008
-4.0494 BLOOM -0.2427
-4.0494 BLORB -0.2427
-4.0494 BLOSSOM -0.3010
-3.7483 BLOW -0.2427
-4.0494 BLYPYP -0.2427
-4.0494 BO -0.3010
-4.0494 BODIES -0.2427
-4.0494 BOIL -0.2427
-4.0494 BOLD -0.2427
-3.7483 BOLT -0.2427
-4.0494 BOLTER -0.2427
-4.0494 BOLTON -0.2427
-4.0494 BOMB -0.2427
-4.0494 BOMBARDMENT -0.2427
-4.0494 BOMBYX -0.2427
-4.0494 BONEROT -0.3010
-4.0494 BONESAW -0.2427
-4.0494 BOOBY -0.3010
-3.7483 BOOK -0.2973
-3.7483 BOOKTON -0.2427
-4.0494 BOOMY -0.2427
-4.0494 BOOTS -0.2427
-4.0494 BORDAN -0.2964
-3.7483 BORR -0.3010
-4.0494 BORROW -0.2427
-4.0494 BOSS -0.3010
-3.7483 BOT -0.2426
-4.0494 BOUNCING -0.3010
-4.0494 BOUNTY -0.2427
-4.0494 BOX -0.2427
-4.0494 BRABBLE -0.2427
-4.0494 BRACCHANALIA -0.2427
-4.0494 BRACCHUS -0.2427
-4.0494 BRACHIADITUS -0.2427
-3.5723 BRAIN -0.3009
-4.0494 BRAMBLE -0.3010
-4.0494 BRAMMO -0.2427
-4.0494 BREAK-KEY -0.2427
-4.0494 BREAKER -0.3010
-4.0494 BREND -0.2964
-3.1463 BREW -0.2427
-4.0494 BRIAR -0.3010
-4.0494 BRING -0.3010
-3.7483 BROBNAR -0.3005
-4.0494 BROKEN -0.3010
-4.0494 BRONZE -0.3007
-4.0494 BROTHERHOOD -0.2427
-4.0494 BROTHERS -0.3009
-4.0494 BRUNO -0.2427
-4.0494 BRUTODON -0.3010
-4.0494 BUBBLES -0.2427
-4.0494 BUG -0.2427
-4.0494 BUGGY -0.2427
-4.0494 BULL-WARK -0.2427
-4.0494 BULLETEYE -0.2427
-4.0494 BULLETS -0.2427
-4.0494 BULWARK -0.2427
-4.0494 BUMBLEBIRD -0.2427
-4.0494 BUMPSY -0.2427
-4.0494 BUREAUCRAT -0.2427
-4.0494 BURN -0.2964
-4.0494 BURNING -0.3010
-4.0494 BURY -0.3010
-4.0494 BUZZLE -0.2427
-3.7483 BY -0.3009
-4.0494 CADET -0.2427
-3.4473 CALL -0.2379
-4.0494 CALLBACK -0.2427
-4.0494 CALLIPYGIAN -0.3010
-4.0494 CALV-1N -0.2427
-4.0494 CAMOUFLAGE -0.2427
-4.0494 CAMP -0.2427
-4.0494 CAN -0.3009
-4.0494 CANDLE -0.3010
-3.7483 CANNON -0.2427
-4.0494 CAPER -0.2427
-3.3504 CAPTAIN -0.3008
-4.0494 CAPTURA -0.2427
-4.0494 CARD -0.2427
-4.0494 CARGO -0.2427
-4.0494 CARLO -0.3010
-4.0494 CARPE -0.3010
-4.0494 CARPET -0.3010
-4.0494 CAULDRON -0.3010
-4.0494 CAUSAL -0.3010
-4.0494 CAVE -0.2427
-4.0494 CAVERN -0.2427
-4.0494 CEASEFORGE -0.2427
-4.0494 CEMENT -0.3010
-3.7483 CENSOR -0.3010
-4.0494 CENSUS -0.2427
-3.5723 CENTURION -0.2427
-4.0494 CEPHALOIST -0.2427
-4.0494 CH-337A -0.2427
-4.0494 CH-337A-EVIL -0.2991
-3.7483 CHAIN -0.2426
-4.0494 CHAINED -0.2427
-4.0494 CHALLE -0.2964
-4.0494 CHALLENGE -0.2427
-4.0494 CHAMBER -0.2427
-3.7483 CHAMPION -0.3010
-4.0494 CHAMPIONS -0.3010
-4.0494 CHAN -0.2427
-4.0494 CHANS -0.3006
-3.5723 CHANT -0.2384
-4.0494 CHAOS -0.3010
-4.0494 CHAPMAN -0.2427
-4.0494 CHAPMAN-EVIL -0.2991
-4.0494 CHARETTE -0.2427
-3.3504 CHARGE -0.2427
-4.0494 CHARYBDIS -0.2427
-4.0494 CHELONIA -0.2427
-4.0494 CHELONIA-EVIL -0.2991
-4.0494 CHENILLE -0.2427
-4.0494 CHEST -0.2427
-3.5723 CHIEF -0.3008
-3.7483 CHIEFTAIN -0.2427
-4.0494 CHIEFTAINS -0.3007
-4.0494 CHIP -0.2427
-4.0494 CHONKERS -0.2427
-3.5723 CHOSEN -0.2424
-4.0494 CHOTA -0.3010
-4.0494 CHRONICLES -0.2427
-4.0494 CHRONOPHAGE -0.2427
-4.0494 CHRONUS -0.2427
-4.0494 CHUFF -0.3010
-4.0494 CINCINNATUS -0.3009
-4.0494 CIRCUMSPECT -0.2427
-4.0494 CIRCUMSPECT-EVIL -0.2991
-4.0494 CITIZEN -0.3009
-4.0494 CITY -0.3010
-4.0494 CITY-STATE -0.3010
-4.0494 CLAIM -0.2427
-4.0494 CLARIEL -0.2427
-4.0494 CLARIEL-EVIL -0.2991
-4.0494 CLASH -0.2427
-4.0494 CLAWDE -0.2427
-4.0494 CLEANSING -0.3009
-3.7483 CLEAR -0.2425
-3.7483 CLOAK -0.2427
-4.0494 CLOAKING -0.3010
-4.0494 CLOUDS -0.2427
-4.0494 CODE -0.3010
-4.0494 COIL -0.2427
-4.0494 COINS -0.2427
-4.0494 COLD -0.2427
-4.0494 COLLAR -0.2973
-3.7483 COLLECTION -0.2427
-3.7483 COLLECTOR -0.2427
-4.0494 COLLISION -0.2427
-3.7483 COLONIST -0.3010
-4.0494 COLOSSEUM -0.2427
-3.5723 COM -0.3005
-4.0494 COMBAT -0.3010
-4.0494 COME -0.2427
-4.0494 COMING -0.2427
-3.7483 COMMAND -0.2427
-4.0494 COMMANDEER -0.2427
-3.5723 COMMANDER -0.3009
-4.0494 COMMON -0.3010
-4.0494 COMMPOD -0.2427
-4.0494 COMMUNE -0.2427
-4.0494 COMPILER -0.2427
-4.0494 CONDUCTION -0.3010
-4.0494 CONJECTURE -0.2427
-4.0494 CONSUL -0.3009
-4.0494 CONTAINMENT -0.3009
-4.0494 CONTROL -0.2964
-4.0494 COOPERATIVE -0.3009
-4.0494 COPY -0.2427
-4.0494 CORE -0.2427
-4.0494 CORNICEN -0.3010
-4.0494 CORPULENT -0.3010
-4.0494 CORRODE -0.2427
-4.0494 CORRUPTION -0.2427
-3.7483 COUNCIL -0.2427
-4.0494 COWARDS -0.3010
-3.7483 COWFYNE -0.2427
-4.0494 COWFYNES -0.3007
-3.7483 CR -0.3005
-4.0494 CRAFT -0.2427
-4.0494 CRAG -0.2427
-4.0494 CRASH -0.3010
-4.0494 CRASSOSAURUS -0.2427
-4.0494 CRAWLER -0.2427
-4.0494 CRAZY -0.3010
-3.7483 CREED -0.2973
-4.0494 CREEPER -0.2427
-4.0494 CREEPING -0.3010
-4.0494 CREWMAN -0.3010
-4.0494 CROCAG -0.2427
-4.0494 CROSS -0.3010
-4.0494 CRUSHING -0.3008
-3.7483 CRYSTAL -0.3009
-4.0494 CULF -0.2964
-4.0494 CULL -0.2964
-4.0494 CUNNING -0.2427
-4.0494 CUP -0.2973
-4.0494 CURATOR -0.2427
-4.0494 CURIA -0.3010
-4.0494 CURIOSITY -0.2427
-4.0494 CURSE -0.2973
-4.0494 CUSTOM -0.3010
-4.0494 CUSTOMS -0.3010
-4.0494 CUTPURSE -0.2427
-4.0494 CUTTHROAT -0.3009
-4.0494 CXO -0.3010
-4.0494 CYBER-CLONE -0.2427
-4.0494 CYBERGIANT -0.3010
-4.0494 CYCLE -0.2427
-4.0494 D1-V3 -0.3010
-4.0494 DAGGER -0.2427
-3.7483 DAMNED -0.2427
-4.0494 DAMO-ALIEN -0.2427
-4.0494 DAMO-BEAST -0.2427
-4.0494 DAMO-BOT -0.2427
-4.0494 DAMO-KNIGHT -0.2427
-4.0494 DAMO-SAURUS -0.2427
-4.0494 DAMO-THIEF -0.2427
-4.0494 DANCE -0.2973
-3.1463 DARK -0.3001
-4.0494 DARKNESS -0.2427
-4.0494 DARTS -0.2427
-4.0494 DATA -0.3009
-4.0494 DAUGHTER -0.2427
-3.7483 DAWN -0.2427
-4.0494 DAWN-EVIL -0.2991
-4.0494 DAY -0.2427
-3.7483 DEAD -0.2427
-4.0494 DEATH -0.2427
-4.0494 DEATHQUARK -0.2427
-4.0494 DECADENCE -0.2427
-4.0494 DECIMUS -0.2427
-3.5723 DEEP -0.2426
-4.0494 DEEPWATER -0.3010
-4.0494 DEEPWOOD -0.3010
-4.0494 DEFENSE -0.3010
-4.0494 DEIPNO -0.3010
-4.0494 DELIVERY -0.2427
-3.7483 DEMON -0.2427
-4.0494 DEMONS -0.3008
-4.0494 DEN -0.2427
-4.0494 DENDRIX -0.2427
-4.0494 DENIED -0.2427
-4.0494 DERRIC -0.3010
-4.0494 DESIRE -0.2427
-4.0494 DESTROY -0.3010
-4.0494 DESTRUCTIVE -0.3010
-4.0494 DETENTION -0.3010
-4.0494 DEUSILLUS -0.2427
-4.0494 DEVICE -0.2427
-4.0494 DEW -0.3010
-4.0494 DEXTRE -0.2427
-4.0494 DEXUS -0.2427
-4.0494 DHARNA -0.2427
-4.0494 DHRXGAR -0.2427
-4.0494 DIAMETRIC -0.3008
-4.0494 DICE -0.2427
-4.0494 DIDNT -0.2427
-4.0494 DIMENSION -0.3010
-4.0494 DINO -0.3010
-4.0494 DINO-ALIEN -0.2427
-4.0494 DINO-BEAST -0.2427
-4.0494 DINO-BOT -0.2427
-4.0494 DINO-FIEND -0.2427
-4.0494 DINO-KNIGHT -0.2427
-4.0494 DINO-THIEF -0.2427
-4.0494 DINOSAUR -0.3010
-4.0494 DINOSAURS -0.3008
-4.0494 DIPLO-MACY -0.2427
-4.0494 DIPLOMAT -0.3010
-4.0494 DIRECTOR -0.2973
-3.2043 DIS -0.2421
-4.0494 DISCOMBOBULATOR -0.2427
-4.0494 DISCORD -0.2427
-3.5723 DISCOVERY -0.2427
-4.0494 DISGUISE -0.2427
-4.0494 DISINTEGRATOR -0.2427
-4.0494 DISRUPTION -0.3009
-4.0494 DISTRACTION -0.2427
-4.0494 DIVE -0.3009
-4.0494 DOC -0.3010
-4.0494 DOCTOR -0.3010
-4.0494 DODGER -0.2427
-4.0494 DOLL -0.2427
-4.0494 DOMINANCE -0.2427
-3.7483 DOMINATOR -0.2427
-4.0494 DONGLE -0.2427
-3.4473 DOOM -0.2425
-4.0494 DOOR -0.2427
-4.0494 DOORSTEP -0.3006
-4.0494 DOUBLE -0.3009
-4.0494 DOWN -0.2427
-3.5723 DR -0.3009
-4.0494 DRACO -0.3010
-4.0494 DRAGON -0.2427
-4.0494 DRAIN -0.2427
-4.0494 DRAINING -0.3009
-4.0494 DRAKE -0.2427
-4.0494 DRAWN -0.3010
-4.0494 DREADBONE -0.3010
-4.0494 DREAMS -0.2427
-4.0494 DRECKER -0.2427
-4.0494 DREDGING -0.3010
-4.0494 DRIFT -0.2427
-4.0494 DRISCOLL -0.2427
-3.7483 DRUID -0.2427
-4.0494 DRUMBLE -0.2427
-4.0494 DRUMMERNAUT -0.2427
-4.0494 DRY -0.2964
-4.0494 DUMA -0.2964
-4.0494 DUSK -0.3010
-4.0494 DUSKRUNNER -0.2427
-4.0494 DUSKWITCH -0.2427
-3.7483 DUST -0.3007
-4.0494 DUX -0.2427
-4.0494 DYNAMO -0.2427
-4.0494 DYSANIA -0.2427
-4.0494 EARLY -0.3010
-4.0494 EARTHBIND -0.2427
-4.0494 EARTHSHAKER -0.2427
-4.0494 EASY -0.3010
-3.7483 EATER -0.2384
-4.0494 ECHO -0.3010
-3.5723 ECLECTIC -0.3009
-4.0494 ECLIPSE -0.2427
-4.0494 ECONOMIST -0.2427
-4.0494 EDAI -0.3010
-4.0494 EDIE -0.3010
-4.0494 EE -0.3010
-4.0494 EFFERVESCENT -0.3010
-4.0494 EFFIGY -0.2973
-4.0494 EGAD -0.2427
-4.0494 EGAD-EVIL -0.2991
-4.0494 EGG -0.2427
-4.0494 EL-SAMRA -0.2427
-4.0494 ELDER -0.2427
-4.0494 ELDEST -0.3008
-4.0494 EMBER -0.3008
-4.0494 EMERITUS -0.3010
-4.0494 EMISSION -0.2427
-4.0494 EMITTER -0.2427
-4.0494 EMP -0.3008
-4.0494 ENCOUNTER -0.3010
-3.7483 END -0.2427
-4.0494 ENFORCER -0.2427
-4.0494 ENFORCER-EVIL -0.2991
-3.5723 ENGINEER -0.2426
-4.0494 ENLIST -0.3010
-4.0494 ENSIGN -0.3010
-3.7483 ENTROPIC -0.3010
-4.0494 ENVY -0.2427
-4.0494 EPIC -0.3010
-4.0494 EQUALIZE -0.2427
-4.0494 EQUILIBRIUM -0.2427
-4.0494 ESCOTERA -0.2427
-4.0494 ESPION -0.2427
-4.0494 ESPION-EVIL -0.2991
-4.0494 ESSENCE -0.3010
-4.0494 ETANS -0.3010
-4.0494 ETAROMME -0.2427
-4.0494 ETHER -0.3010
-4.0494 EUNOIA -0.2427
-4.0494 EUREKA -0.2427
-4.0494 EVASION -0.3009
-4.0494 EVEN -0.3010
-4.0494 EVERLASTING -0.2427
-4.0494 EVERYWHERE -0.2427
-4.0494 EVIL -0.3009
-4.0494 EVOLUTION -0.2427
-4.0494 EWER -0.2427
-3.7483 EXCHANGE -0.2421
-4.0494 EXHUME -0.2427
-4.0494 EXILE -0.2427
-4.0494 EXPERIMENTAL -0.3010
-4.0494 EXPERIMENTATION -0.2427
-4.0494 EXPLO-ROVER -0.2427
-4.0494 EXPLOIT -0.2427
-4.0494 EXPLOITER -0.2427
-4.0494 EXPLORATORY -0.3010
-3.7483 EXTERMINATE -0.2426
-4.0494 EXTINCTION -0.2427
-3.4473 EYE -0.2384
-4.0494 EYEGOR -0.2427
-3.7483 FAERIE -0.2427
-3.7483 FAIR -0.2427
-4.0494 FAMINE -0.2427
-4.0494 FANATIC -0.2427
-4.0494 FANDANGLE -0.2427
-4.0494 FANGHOUSE -0.2427
-4.0494 FANGS -0.2973
-4.0494 FANGTOOTH -0.3010
-4.0494 FATES -0.2427
-4.0494 FATHER -0.2427
-3.7483 FAUST -0.2374
-4.0494 FAVIAN -0.2427
-4.0494 FAVOR -0.2973
-4.0494 FAYE -0.2427
-4.0494 FAYE-EVIL -0.2991
-4.0494 FAYGIN -0.2427
-4.0494 FEAR -0.2427
-4.0494 FEATHERED -0.3010
-4.0494 FEEDING -0.3009
-4.0494 FELIX -0.2427
-4.0494 FELIX-EVIL -0.2991
-4.0494 FENCE -0.2427
-4.0494 FERTILITY -0.3009
-4.0494 FESTERING -0.3009
-4.0494 FETCHDRONES -0.2427
-4.0494 FEW -0.2427
-4.0494 FIDDLE -0.2427
-4.0494 FIDGIT -0.2427
-3.5723 FIELD -0.2427
-4.0494 FIERCE -0.2427
-4.0494 FIFALDE -0.2427
-4.0494 FIGHT -0.2427
-4.0494 FILA -0.2964
-4.0494 FINAL -0.3010
-4.0494 FINCH -0.3010
-4.0494 FINGER -0.2427
-4.0494 FINGERS -0.2427
-4.0494 FINGERTRAP -0.2427
-4.0494 FINISHED -0.3009
-4.0494 FINISHING -0.3010
-3.7483 FIRE -0.2427
-4.0494 FIRESPITTER -0.2427
-3.3504 FIRST -0.2413
-4.0494 FISHES -0.2427
-4.0494 FISSION -0.3010
-4.0494 FITTEST -0.2427
-4.0494 FIX -0.3010
-4.0494 FLAME-WREATHED -0.2427
-4.0494 FLAMEFIST -0.2427
-3.7483 FLAMEGILL -0.3010
-4.0494 FLAMETHROWER -0.2427
-4.0494 FLAMEWAKE -0.3010
-4.0494 FLASH -0.3010
-4.0494 FLAXIA -0.2427
-4.0494 FLEET -0.2427
-4.0494 FLEX -0.2427
-4.0494 FLOOMF -0.2427
-4.0494 FLOOR -0.3010
-4.0494 FLOWERS -0.2427
-4.0494 FLUTE -0.2427
-4.0494 FLUX -0.2427
-4.0494 FLYIN -0.3010
-4.0494 FOGBANK -0.2427
-4.0494 FOGGIFY -0.2427
-4.0494 FOLLOW -0.2964
-4.0494 FONT -0.2973
-4.0494 FOOZLE -0.2427
-4.0494 FOR -0.3009
-4.0494 FORCE -0.3009
-4.0494 FOREST -0.2427
-3.4473 FORGE -0.2427
-4.0494 FORGEMASTER -0.3010
-4.0494 FORGET -0.2427
-4.0494 FORGING -0.3010
-4.0494 FORGIVE -0.3006
-4.0494 FORGOTTEN -0.2427
-4.0494 FORMATION -0.2427
-4.0494 FORUM -0.2973
-4.0494 FOUND -0.2427
-4.0494 FRANCIS -0.2964
-4.0494 FRANCUS -0.2427
-4.0494 FRANE -0.2427
-4.0494 FRANES -0.3006
-4.0494 FRAY -0.2427
-4.0494 FREE -0.3010
-3.7483 FREEBOOTER -0.3010
-4.0494 FREEZE -0.2427
-4.0494 FRIGORIFIC -0.3010
-4.0494 FRINGES -0.2427
-3.7483 FROM -0.2964
-4.0494 FRONTIERS -0.2427
-4.0494 FUGURU -0.2427
-4.0494 FULL -0.3010
-4.0494 FURTIVE -0.3010
-4.0494 FURY -0.2427
-4.0494 FUTURE -0.3010
-4.0494 FUZZY -0.3010
-4.0494 FYRE-BREATH -0.2427
-4.0494 GABOON -0.2427
-4.0494 GABOS -0.3010
-4.0494 GALACTIC -0.3010
-4.0494 GALEATOPS -0.2427
-4.0494 GALLIM -0.2427
-4.0494 GAMBLING -0.3010
-4.0494 GAME -0.2427
-4.0494 GAMGEE -0.2427
-3.7483 GANG -0.2427
-3.7483 GANGER -0.3010
-4.0494 GANYMEDE -0.3010
-4.0494 GARCIA -0.2427
-4.0494 GARCIAS -0.3006
-4.0494 GARGANTES -0.3010
-4.0494 GARGANTODON -0.2427
-4.0494 GARWYNNE -0.2427
-4.0494 GARWYNNE-EVIL -0.2991
-4.0494 GAS-PIPES -0.3010
-4.0494 GATEKEEPER -0.2427
-4.0494 GATES -0.2427
-3.7483 GATEWAY -0.2422
-4.0494 GAUNTLET -0.2973
-4.0494 GAZE -0.2427
-4.0494 GEBUK -0.2427
-4.0494 GEL -0.2427
-3.5723 GENERAL -0.3009
-4.0494 GENEROSITY -0.2427
-4.0494 GENETIC -0.3010
-4.0494 GHOSTFORM -0.2427
-4.0494 GHOSTHAWK -0.2427
-4.0494 GHOSTLY -0.3009
-3.5723 GIANT -0.2426
-3.7483 GIANTS -0.2424
-4.0494 GIGANTICA -0.2427
-3.5723 GILTSPINE -0.2426
-3.7483 GIZELHART -0.2427
-3.5723 GIZELHARTS -0.3008
-4.0494 GIZMO -0.2427
-4.0494 GLADIODONTUS -0.2427
-4.0494 GLARE -0.2427
-4.0494 GLEBE -0.2427
-4.0494 GLEEFUL -0.3010
-4.0494 GLIMMER -0.2427
-4.0494 GLOOM -0.2427
-4.0494 GLORIANA -0.2427
-4.0494 GLORIANAS -0.3010
-4.0494 GLORIOUS -0.3010
-4.0494 GLORY -0.2427
-4.0494 GLOW -0.2427
-4.0494 GLOW-EVIL -0.2991
-4.0494 GLUTTONY -0.2427
-4.0494 GLYXL -0.3010
-4.0494 GNAWBILL -0.2427
-4.0494 GOBLIN -0.2427
-4.0494 GOLD -0.3007
-3.7483 GOLDEN -0.3009
-4.0494 GOLGOTHA -0.2427
-4.0494 GONGOOZLE -0.2427
-4.0494 GOOD -0.2973
-4.0494 GORKUS -0.2427
-4.0494 GORM -0.2973
-4.0494 GORVENAL -0.2427
-4.0494 GRABBER -0.3010
-4.0494 GRAFT -0.2427
-4.0494 GRAMMARBOT -0.2427
-3.7483 GRAND -0.3009
-4.0494 GRANDEUR -0.2427
-4.0494 GRASPING -0.3010
-4.0494 GRAVE -0.2427
-4.0494 GRAVELGUTS -0.2427
-4.0494 GRAVID -0.3010
-4.0494 GRAVITRON -0.2427
-4.0494 GRAY -0.2427
-4.0494 GREAT -0.2427
-4.0494 GREATER -0.3010
-3.7483 GREED -0.2427
-4.0494 GREEN -0.2427
-4.0494 GREKING -0.2427
-4.0494 GRENADE -0.3010
-3.3504 GREY -0.2425
-3.5723 GRIM -0.2426
-4.0494 GRIMLOCUS -0.3010
-4.0494 GRISK -0.2427
-4.0494 GROGGINS -0.2427
-3.7483 GROKE -0.2427
-4.0494 GROKES -0.3007
-4.0494 GROMMID -0.2427
-3.7483 GRON -0.3010
-4.0494 GRONS -0.3007
-4.0494 GROSS -0.2427
-4.0494 GROUNDBREAKING -0.3009
-4.0494 GROUNDS -0.2427
-3.7483 GROUPTHINK -0.3010
-4.0494 GROVEKEEPER -0.2427
-4.0494 GROWTH -0.3009
-4.0494 GRUBBLING -0.2427
-3.7483 GRUEN -0.2427
-4.0494 GRUMP -0.3010
-3.7483 GRUMPUS -0.2427
-4.0494 GUARD -0.3010
-3.5723 GUARDIAN -0.2426
-4.0494 GUB -0.2427
-4.0494 GUILTY -0.3010
-4.0494 GUJI -0.3010
-4.0494 GUN -0.2427
-4.0494 HACK -0.2427
-4.0494 HADRON -0.3010
-4.0494 HAEDROTHS -0.3010
-4.0494 HALACOR -0.2427
-3.7483 HALLOWED -0.3005
-4.0494 HAMMER -0.2427
-4.0494 HAMMER-GRAM -0.2427
-3.5723 HAND -0.2383
-4.0494 HAPLESS -0.3010
-4.0494 HAPSIS -0.2427
-3.7483 HARBINGER -0.2384
-3.7483 HARD -0.3010
-4.0494 HARDER -0.3010
-4.0494 HARLAND -0.3010
-4.0494 HARM -0.2427
-4.0494 HARMONIA -0.2427
-4.0494 HARMONIC -0.3008
-4.0494 HARUSPEX -0.2427
-4.0494 HARVEST -0.3010
-4.0494 HARVESTER -0.2427
-4.0494 HASTATUS -0.3010
-4.0494 HATE -0.2427
-4.0494 HAWKINS -0.2427
-4.0494 HAWKINS-EVIL -0.2991
-4.0494 HAYDEN -0.3010
-4.0494 HAYYEL -0.2964
-4.0494 HAZRI -0.2427
-4.0494 HEADHUNTER -0.2427
-4.0494 HEAL -0.3006
-4.0494 HEALING -0.3008
-3.7483 HEART -0.2384
-4.0494 HEARTS -0.2427
-4.0494 HEAVEN -0.2427
-4.0494 HEBE -0.2964
-4.0494 HECATOMB -0.2427
-4.0494 HEDONISTIC -0.3010
-4.0494 HEIST -0.3010
-4.0494 HELMSMAN -0.3010
-4.0494 HELP -0.3010
-4.0494 HELPER -0.3010
-4.0494 HERD -0.2427
-4.0494 HERO -0.2427
-4.0494 HEXPION -0.2427
-4.0494 HIDDEN -0.3010
-4.0494 HIDEAWAY -0.3010
-4.0494 HIGH -0.3010
-4.0494 HILL -0.2427
-4.0494 HINGS -0.2427
-4.0494 HISSARO -0.2427
-4.0494 HIT -0.3010
-4.0494 HIVE -0.2427
-4.0494 HOBNOBBER -0.2427
-4.0494 HOBNOBBER-EVIL -0.2991
-4.0494 HOCK -0.2427
-4.0494 HOLD -0.2964
-4.0494 HOLDFAST -0.2427
-4.0494 HOLE -0.2427
-4.0494 HOLOGRAMMOPHONE -0.2427
-4.0494 HONOR -0.3006
-4.0494 HONORABLE -0.3010
-4.0494 HONORS -0.3010
-4.0494 HOOKMASTER -0.2427
-4.0494 HOPE -0.2427
-4.0494 HORN -0.2427
-4.0494 HORNS -0.2427
-4.0494 HORNSWOGGLE -0.2427
-3.7483 HORRID -0.3010
-3.4473 HORSEMAN -0.2973
-4.0494 HOSTAGES -0.2427
-4.0494 HOUNDS -0.2427
-4.0494 HOUSE -0.2427
-4.0494 HOWLING -0.3009
-4.0494 HUBRIS -0.2427
-4.0494 HUGE -0.2427
-4.0494 HUGGER-MUGGER -0.2427
-4.0494 HUMAN -0.2427
-4.0494 HUMANS -0.3008
-4.0494 HUMBLE -0.2427
-4.0494 HUNT -0.2427
-4.0494 HUNTED? -0.2427
-3.7483 HUNTER -0.2422
-3.5723 HUNTING -0.2425
-4.0494 HYDE -0.2427
-4.0494 HYDROCATALOGUER -0.2427
-4.0494 HYPNOBEAM -0.2427
-4.0494 HYPNOTIC -0.3010
-4.0494 HYSTERIA -0.2427
-4.0494 HYSTRICOG -0.2427
-4.0494 I -0.3010
-4.0494 ID -0.2427
-4.0494 IDEAL -0.2427
-4.0494 IDES -0.2427
-3.7483 IGON -0.2964
-4.0494 ILLUMINATOR -0.2427
-3.2043 IMP -0.2427
-4.0494 IMP-LOSION -0.2427
-3.4473 IMPERIAL -0.3008
-4.0494 IMPERIUM -0.2427
-4.0494 IMPRINTED -0.3009
-4.0494 IMPSPECTOR -0.2427
-3.5723 IN -0.2962
-4.0494 INCONSPICUOUS -0.2427
-4.0494 INCUBATION -0.3010
-4.0494 INDOMINUS -0.2427
-4.0494 INFIGHTING -0.2427
-4.0494 INFOMANCER -0.2427
-4.0494 INFOMORPH -0.2427
-3.7483 INFORMATION -0.3004
-4.0494 INFURNACE -0.2427
-4.0494 INGRAM -0.2427
-4.0494 INGRAMS -0.3006
-4.0494 INITIATIVE -0.2427
-4.0494 INKA -0.2964
-4.0494 INKY -0.3010
-4.0494 INQUIRY -0.2427
-4.0494 INSPIRATION -0.2427
-4.0494 INSTINCT -0.2427
-4.0494 INSTRUMENT -0.2973
-4.0494 INTENT -0.2427
-4.0494 INTERDIMENSIONAL -0.3010
-4.0494 INTEREST -0.2427
-3.7483 INTO -0.2964
-4.0494 INVASION -0.3010
-4.0494 INVESTORS -0.2427
-3.7483 INVIDIUS -0.2427
-4.0494 INVISIBILITY -0.2427
-4.0494 INVULNERABILITY -0.2427
-4.0494 IRESTAFF -0.2427
-4.0494 IRON -0.3010
-4.0494 IRONS -0.2427
-4.0494 IRRADIATED -0.3008
-3.7483 IS -0.3008
-4.0494 ISOTROPIC -0.3010
-4.0494 ISS -0.3010
-4.0494 IT -0.3010
-4.0494 ITS -0.3010
-4.0494 IVAN -0.2427
-4.0494 IXXYXLI -0.3010
-4.0494 J -0.3010
-4.0494 JACKIE -0.3010
-4.0494 JAGA -0.2427
-3.7483 JAMMER -0.2426
-4.0494 JAR -0.2427
-4.0494 JARGOGLE -0.2427
-4.0494 JARK -0.2427
-4.0494 JARTA -0.2427
-4.0494 JAVELIN -0.2427
-4.0494 JEHU -0.2964
-4.0494 JERICHO -0.2427
-3.7483 JOB -0.2427
-4.0494 JOHN -0.3010
-4.0494 JOHNNY -0.3010
-4.0494 JON -0.3010
-4.0494 JOURNEY -0.2427
-4.0494 JOYA -0.2427
-4.0494 JUDGMENT -0.2427
-4.0494 JUSTICE -0.2427
-4.0494 JöRG -0.2427
-4.0494 KALOCH -0.3010
-4.0494 KANGAPHANT -0.2427
-4.0494 KARTANOO -0.2427
-4.0494 KAUPE -0.2427
-4.0494 KAUPE-EVIL -0.2991
-4.0494 KEKOA -0.2427
-4.0494 KELIFI -0.3010
-4.0494 KERING -0.2427
-4.0494 KERWOLLOP -0.2427
-3.0951 KEY -0.2373
-4.0494 KEYFORGERY -0.2427
-4.0494 KEYFROG -0.2427
-4.0494 KEYLOCK -0.2427
-4.0494 KEYSIS -0.2427
-4.0494 KHRKHAR -0.2427
-4.0494 KHRKHARS -0.3006
-4.0494 KILIGOGS -0.3010
-4.0494 KILLING -0.3010
-4.0494 KILLZORD -0.3010
-4.0494 KINDRITH -0.3010
-4.0494 KING -0.2973
-3.7483 KIRBY -0.2427
-4.0494 KIRBYS -0.3006
-4.0494 KIRI -0.3009
-4.0494 KNIFE -0.2427
-3.4473 KNIGHT -0.2427
-4.0494 KNOWDRONE -0.2427
-3.7483 KNOWLEDGE -0.2426
-4.0494 KNOXX -0.2427
-4.0494 KNUCKLES -0.3010
-4.0494 KOMPSOS -0.3010
-4.0494 KONG -0.2427
-4.0494 KRAKEN -0.2427
-4.0494 KRESAGE -0.2427
-4.0494 KRESAGE-EVIL -0.2991
-4.0494 KRRRZZZAAAP -0.2427
-4.0494 KRUMP -0.2427
-4.0494 KYMOOR -0.3010
-4.0494 LABORATORY -0.2427
-3.7483 LABWORK -0.2427
-4.0494 LACUS -0.2427
-3.7483 LADY -0.3010
-4.0494 LAKE -0.2427
-4.0494 LAKE-EVIL -0.2991
-4.0494 LAMINDRA -0.2427
-4.0494 LANCE -0.2427
-4.0494 LAND -0.2427
-4.0494 LANDING -0.2427
-3.7483 LANDS -0.2426
-4.0494 LANG -0.2427
-4.0494 LAPISAURUS -0.2427
-4.0494 LAPISAURUS-EVIL -0.2991
-3.7483 LARIE -0.2973
-4.0494 LASH -0.2973
-3.7483 LAST -0.2426
-4.0494 LATERAL -0.3010
-3.7483 LAVA -0.2427
-4.0494 LAY -0.2973
-4.0494 LCDR -0.3010
-4.0494 LEADER -0.2427
-4.0494 LEGATUS -0.3010
-4.0494 LEGIONARY -0.2427
-4.0494 LEGIONS -0.3010
-4.0494 LEQ -0.2427
-4.0494 LESSER -0.3010
-4.0494 LETHAL -0.3010
-4.0494 LETHOLOGICA -0.2427
-4.0494 LIAM -0.3010
-4.0494 LIBRARIAN -0.2427
-3.3504 LIBRARY -0.2971
-3.5723 LIEUTENANT -0.3009
-3.4473 LIFE -0.2427
-4.0494 LIFEWARD -0.2427
-4.0494 LIFEWEB -0.2427
-3.5723 LIGHT -0.2384
-4.0494 LIGHTBRINGER -0.2427
-4.0494 LIGHTS -0.3010
-3.7483 LIGHTSMITH -0.3010
-4.0494 LILITHAL -0.2427
-4.0494 LINE -0.2427
-4.0494 LION -0.3010
-3.7483 LITTLE -0.3010
-4.0494 LIU -0.2427
-4.0494 LIVIA -0.2964
-4.0494 LLACK -0.3010
-3.7483 LOGOS -0.3005
-4.0494 LOLLOP -0.2964
-4.0494 LOMIR -0.3010
-4.0494 LONGARMS -0.2427
-4.0494 LONGFINGERS -0.2427
-4.0494 LONGFUSED -0.3010
-4.0494 LONGSHOT -0.2427
-3.7483 LOOK -0.3009
-4.0494 LOOP -0.2427
-3.7483 LOOT -0.2960
-4.0494 LOOTER -0.3010
-3.7483 LORD -0.3009
-4.0494 LOREENA -0.2427
-4.0494 LOST -0.3009
-4.0494 LOTTERY -0.2427
-3.7483 LOW -0.2426
-4.0494 LUCKY -0.3010
-3.7483 LUDO -0.2427
-4.0494 LUMILU -0.2427
-4.0494 LUPO -0.2964
-4.0494 LYCO-ALIEN -0.2427
-4.0494 LYCO-BOT -0.2427
-4.0494 LYCO-FIEND -0.2427
-4.0494 LYCO-KNIGHT -0.2427
-4.0494 LYCO-SAURUS -0.2427
-4.0494 LYCO-THIEF -0.2427
-4.0494 LYNX -0.2427
-4.0494 MAB -0.2964
-4.0494 MACHINE -0.2427
-4.0494 MACIS -0.3010
-4.0494 MACK -0.2964
-3.7483 MAD -0.2427
-4.0494 MAGDA -0.2964
-3.7483 MAGISTRA -0.3010
-3.7483 MAKE -0.3009
-4.0494 MAKER -0.2427
-4.0494 MAKES -0.3010
-4.0494 MALEFACTION -0.2427
-4.0494 MALEFICORN -0.2427
-4.0494 MALISON -0.2427
-4.0494 MALKIN -0.3009
-4.0494 MALONE -0.2427
-4.0494 MALSTROM -0.2427
-4.0494 MAMA -0.3010
-4.0494 MAN -0.2427
-4.0494 MANCHEGO -0.2427
-4.0494 MANEUVER -0.2427
-4.0494 MANIPULATOR -0.2427
-4.0494 MANS -0.3010
-4.0494 MANTLE -0.2973
-3.5723 MANY -0.2427
-4.0494 MAP -0.2427
-4.0494 MARAUDER -0.2427
-4.0494 MARCH -0.2427
-4.0494 MARK -0.2973
-4.0494 MARKED -0.2427
-4.0494 MARKETS -0.2427
-4.0494 MARKS -0.2427
-4.0494 MARMO -0.3010
-4.0494 MARROWS -0.2427
-3.5723 MARS -0.3005
-4.0494 MARSHAL -0.3010
-3.7483 MARTIAN -0.3010
-4.0494 MARTIANOLOGIST -0.2427
-4.0494 MARTIANS -0.3010
-4.0494 MARTYR -0.2427
-4.0494 MARTYRS -0.3010
-4.0494 MARUCK -0.2964
-4.0494 MASS -0.3010
-3.2712 MASTER -0.2331
-4.0494 MASTERMINDY -0.2427
-4.0494 MASTERPLAN -0.2427
-4.0494 MASTERY -0.2427
-4.0494 MATING -0.3010
-3.7483 MATTER -0.2427
-4.0494 MAUL -0.2427
-4.0494 MAXENA -0.2427
-4.0494 MAYHEM -0.2427
-4.0494 MECHABUOY -0.2427
-4.0494 MECHANIC -0.2427
-4.0494 MEDIC -0.3010
-4.0494 MEDICUS -0.3010
-3.1463 MEGA -0.3004
-4.0494 MEGAMOUTH -0.2427
-4.0494 MELEE -0.2427
-4.0494 MELERUKH -0.2427
-4.0494 MEMOLITH -0.2427
-4.0494 MEMORY -0.3010
-4.0494 MENGEVIN -0.2427
-4.0494 MERCHANT -0.2427
-4.0494 MERCY -0.3010
-4.0494 METEOR -0.2427
-3.7483 MIASMA -0.2427
-4.0494 MIGHT -0.3010
-3.5723 MIGHTY -0.3009
-4.0494 MILLI -0.2427
-4.0494 MIMIC -0.3010
-4.0494 MIMICRY -0.2427
-3.4473 MIND -0.2425
-4.0494 MINDFIRE -0.2427
-4.0494 MINDLOCK -0.2427
-4.0494 MINDWARPER -0.2427
-4.0494 MINDWORM -0.2427
-4.0494 MINES -0.2427
-4.0494 MINI -0.3010
-4.0494 MINION -0.2427
-4.0494 MIRROR -0.2427
-4.0494 MISERY -0.3010
-4.0494 MISSION -0.2427
-4.0494 MK -0.3010
-4.0494 MOB -0.2427
-4.0494 MOBIUS -0.3010
-4.0494 MODE -0.2427
-3.7483 MOGGHUNTER -0.2427
-4.0494 MOGGHUNTERS -0.3007
-4.0494 MOLE -0.2427
-4.0494 MOLEPHIN -0.2427
-4.0494 MOLINA -0.2427
-4.0494 MOLINAS -0.3006
-4.0494 MOLLYMAWK -0.2427
-4.0494 MONEY -0.2427
-4.0494 MONGREL -0.2427
-4.0494 MONK -0.2427
-4.0494 MONKEY -0.2427
-4.0494 MONKEYS -0.2427
-3.7483 MONTY -0.3010
-3.3504 MONUMENT -0.3006
-4.0494 MOOKLING -0.2427
-4.0494 MOOKLING-EVIL -0.2991
-3.7483 MOON -0.2427
-4.0494 MOONCURSER -0.2427
-4.0494 MOOR -0.3010
-4.0494 MORAY -0.2427
-4.0494 MORAY-EVIL -0.2991
-4.0494 MORPHEUS -0.2427
-3.7483 MOTHER -0.2427
-4.0494 MOTHERGUN -0.2427
-4.0494 MOTHERSHIP -0.3010
-4.0494 MUCH -0.3006
-4.0494 MUG -0.2427
-4.0494 MUGWUMP -0.2427
-4.0494 MULDOON -0.2427
-4.0494 MUNCHLING -0.2427
-4.0494 MURKENS -0.2427
-3.5723 MURMOOK -0.2427
-3.7483 MUSHROOM -0.3009
-4.0494 MUSTHIC -0.3009
-4.0494 MUTAGENESIS -0.3009
-4.0494 MUTAGENIC -0.3010
-4.0494 MUTANT -0.3010
-3.5723 MUTATION -0.2973
-4.0494 MYLIOBE -0.2427
-4.0494 MYSTICETI -0.2427
-3.7483 NARP -0.2427
-4.0494 NARPS -0.3007
-3.7483 NATURE -0.2427
-4.0494 NATURES -0.3009
-4.0494 NAVIGATOR -0.3010
-4.0494 NEEDLE -0.2427
-4.0494 NEEDS -0.3008
-4.0494 NEFFRU -0.2427
-4.0494 NEL -0.2427
-4.0494 NEPENTHE -0.3010
-4.0494 NEPETA -0.3010
-4.0494 NEROTAURUS -0.2427
-4.0494 NERVE -0.3008
-4.0494 NETCASTER -0.2427
-4.0494 NETCASTER-EVIL -0.2991
-4.0494 NETWORK -0.2427
-4.0494 NEURO -0.3010
-4.0494 NEUTRON -0.3010
-4.0494 NEW -0.3010
-4.0494 NEXUS -0.2427
-4.0494 NIFF -0.2427
-3.4473 NIFFLE -0.3008
-3.7483 NIGHT -0.2427
-4.0494 NIGHTFORGE -0.2427
-4.0494 NIGHTMARE -0.2427
-3.7483 NINE-TOES -0.2427
-4.0494 NIT -0.2427
-4.0494 NITHING -0.2427
-4.0494 NITS -0.3009
-4.0494 NIZAK -0.2964
-3.4473 NO -0.3007
-4.0494 NOCTURNAL -0.3010
-4.0494 NODDY -0.2964
-4.0494 NOGI -0.3010
-4.0494 NONAME -0.2427
-4.0494 NORTHELLE -0.2427
-3.7483 NOT -0.2427
-3.7483 NOVU -0.3010
-4.0494 NOZZLE -0.2427
-4.0494 NUMBERS -0.2427
-4.0494 NUMERI -0.2427
-4.0494 NUMQUID -0.2964
-4.0494 NURSE -0.3010
-4.0494 NURTURE -0.2427
-4.0494 NYZYK -0.3010
-4.0494 OATH -0.2973
-4.0494 OBELISK -0.2427
-4.0494 OBLIVION -0.2427
-4.0494 OBSERV-U-MAX -0.2427
-4.0494 OBSIDIAN -0.3009
-3.7483 OCTAVIA -0.2427
-4.0494 ODD -0.3010
-4.0494 ODOAC -0.2964
-2.0671 OF -0.2927
-4.0494 OFFER -0.2427
-4.0494 OFFICE -0.2427
-2.9032 OFFICER -0.2420
-4.0494 OFFICERS -0.3006
-4.0494 OG -0.2427
-4.0494 OGOPOGO -0.2427
-4.0494 OGRE -0.2427
-3.7483 OL -0.3010
-3.3504 OLD -0.3008
-4.0494 OMM -0.2427
-4.0494 OMNIPUS -0.2427
-4.0494 ON -0.2964
-3.2712 ONE -0.2425
-3.7483 ONE-EYED -0.3010
-4.0494 ONYX -0.3009
-4.0494 OPAL -0.3009
-4.0494 OPERATIONS -0.3005
-3.7483 OPERATIVE -0.3010
-4.0494 OPPORTUNIST -0.2427
-4.0494 OPPOSITION -0.3009
-4.0494 OPTIO -0.3010
-2.9702 OR -0.3005
-4.0494 ORATOR -0.3010
-3.7483 ORB -0.2973
-4.0494 ORBITAL -0.3010
-4.0494 ORDER -0.3010
-4.0494 ORDINATION -0.2427
-4.0494 ORPHIEL -0.3010
-4.0494 ORPHION -0.3010
-4.0494 ORTANNU -0.2964
-4.0494 ORTANNUS -0.3010
-4.0494 OSTRACIZE -0.2427
-4.0494 OSWIN -0.2427
-4.0494 OTTO -0.2427
-4.0494 OUBLIETTE -0.2427
-4.0494 OUT -0.2427
-3.7483 OVER -0.3009
-4.0494 OVERLORD -0.3010
-4.0494 OVERRUN -0.2427
-3.7483 OXTET -0.2427
-4.0494 OZMO -0.3010
-3.7483 PACK -0.2427
-4.0494 PADDY -0.2427
-4.0494 PADDY-EVIL -0.2991
-3.5723 PAIN -0.2427
-4.0494 PAINMAIL -0.2427
-4.0494 PALE -0.3010
-4.0494 PANDEMONIUM -0.2427
-3.7483 PANPACA -0.3010
-4.0494 PARAGUARDIAN -0.2427
-4.0494 PARTICLE -0.3010
-4.0494 PAST -0.2427
-4.0494 PATRICIAN -0.2427
-4.0494 PATRIZATE -0.2427
-4.0494 PATRONAGE -0.2427
-4.0494 PAWN -0.3010
-4.0494 PEACE -0.3010
-4.0494 PEARL -0.2427
-3.7483 PENNY -0.2427
-4.0494 PERILOUS -0.3008
-4.0494 PERPLEXING -0.3010
-4.0494 PERSISTENCE -0.3009
-4.0494 PESTERGROVE -0.2427
-4.0494 PESTERING -0.3010
-4.0494 PESTILENCE -0.2427
-4.0494 PETE -0.2427
-4.0494 PHALANX -0.3010
-4.0494 PHANTOM -0.2427
-4.0494 PHASE -0.3010
-4.0494 PHEROMONES -0.2427
-4.0494 PHILO -0.2427
-4.0494 PHILO-EVIL -0.2991
-4.0494 PHILOPHOSAURUS -0.2427
-3.7483 PHLOXEM -0.2426
-4.0494 PHOENIX -0.3010
-4.0494 PHOSPHORUS -0.3010
-4.0494 PHOTIC -0.3010
-4.0494 PHYLYX -0.2964
-3.7483 PHYSICUS -0.3010
-3.7483 PI -0.3010
-4.0494 PICAROON -0.2427
-4.0494 PILE -0.2973
-4.0494 PILLAGE -0.2427
-4.0494 PINCERATOR -0.2427
-4.0494 PINGLE -0.3010
-3.7483 PIP -0.2426
-4.0494 PIRANHA -0.3010
-4.0494 PISMIRE -0.2427
-3.5723 PIT -0.2426
-4.0494 PITLORD -0.2427
-3.7483 PIXIE -0.2427
-4.0494 PIXIES -0.2427
-4.0494 PLACE -0.2427
-3.7483 PLAGUE -0.3007
-4.0494 PLAN -0.2427
-4.0494 PLANET -0.3010
-4.0494 PLANK -0.2427
-3.2712 PLANT -0.2427
-4.0494 PLASMA -0.3010
-4.0494 PLASMATE -0.2427
-4.0494 PLATFORM -0.2427
-4.0494 PLAY -0.2427
-4.0494 POCKET -0.3010
-4.0494 POD -0.2427
-4.0494 POISON -0.3009
-4.0494 POKE -0.2427
-4.0494 POLLIASAURUS -0.2427
-4.0494 POLTERGEIST -0.2427
-4.0494 POMPITUS -0.2427
-4.0494 PORCUPINE -0.2427
-4.0494 PORPOISES -0.2427
-3.7483 PORTAL -0.2427
-4.0494 PORTALMONGER -0.2427
-4.0494 POS -0.3010
-4.0494 POSITRON -0.3010
-4.0494 POTION -0.2973
-4.0494 POUND -0.2427
-4.0494 POUR-TAL -0.2427
-4.0494 POVERTY -0.2427
-3.5723 POWER -0.2384
-4.0494 PRAECO -0.2427
-4.0494 PRAEFECTUS -0.3010
-4.0494 PRESCRIPTIVE -0.3010
-4.0494 PRESERVATION -0.2427
-4.0494 PRESSURE -0.2427
-4.0494 PREY -0.2427
-4.0494 PRIDE -0.2427
-3.7483 PRIEST -0.3010
-4.0494 PRIMAL -0.3010
-3.5723 PRIMUS -0.2427
-4.0494 PRINCE -0.3010
-3.7483 PRINCIPLE -0.2427
-4.0494 PROBE -0.2427
-4.0494 PROCLAMATION -0.3010
-3.5723 PROF -0.3009
-3.7483 PROFESSOR -0.3010
-4.0494 PROJECT -0.3009
-4.0494 PROLIFERATOR -0.2427
-4.0494 PROPHET -0.3010
-3.7483 PROTECT -0.2374
-4.0494 PROTECTRIX -0.2427
-4.0494 PSIONIC -0.3005
-3.7483 PSYCHIC -0.3010
-4.0494 PULPATE -0.2427
-4.0494 PULSE -0.2427
-3.5723 PUNCH -0.2427
-4.0494 PUNCTUATED -0.3010
-4.0494 PURIFIER -0.2973
-4.0494 PURIFY -0.2427
-4.0494 Q-MECHS -0.2427
-4.0494 QINCAN -0.2427
-4.0494 QINCANS -0.3006
-4.0494 QUADRACORDER -0.2427
-4.0494 QUANT -0.2427
-4.0494 QUANTUM -0.3010
-3.5723 QUEEN -0.2427
-4.0494 QUEST -0.2427
-4.0494 QUESTOR -0.3010
-4.0494 QUICKSAND -0.2427
-3.7483 QUIET -0.2427
-4.0494 QUINTINA -0.2427
-4.0494 QUINTRINO -0.3010
-4.0494 QUIXO -0.2964
-4.0494 QUIXXLE -0.3010
-4.0494 QYXXLYX -0.3010
-4.0494 RAD -0.3010
-4.0494 RADIANT -0.3010
-4.0494 RAGNAROK -0.2427
-4.0494 RAGWARG -0.2427
-4.0494 RAIDER -0.2427
-4.0494 RAIDING -0.3009
-4.0494 RAKUZEL -0.2427
-4.0494 RAKUZELS -0.3009
-4.0494 RANDOM -0.3009
-4.0494 RANSACK -0.2427
-4.0494 RANSOM -0.2427
-4.0494 RAPID -0.3010
-4.0494 RAPSCAL -0.2427
-3.7483 RAPTOR -0.2427
-3.7483 RAT -0.2427
-4.0494 RAY -0.3010
-4.0494 RAZING -0.2427
-4.0494 REACH -0.3010
-4.0494 REACTION -0.2427
-3.7483 REAP -0.2422
-4.0494 REAPER -0.2427
-4.0494 REASSEMBLING -0.3010
-4.0494 RECALL -0.2427
-3.7483 RECKLESS -0.3010
-4.0494 RECLAIMED -0.3010
-4.0494 RECYCLE -0.3010
-3.5723 RED -0.3009
-4.0494 RED-HOT -0.3009
-4.0494 REDACTED -0.2427
-4.0494 REDEEMED -0.2427
-4.0494 REDHAND -0.3010
-4.0494 REDLOCK -0.2427
-4.0494 REDRESS -0.2427
-4.0494 REFRAIN -0.2427
-4.0494 REGISTRY -0.2427
-4.0494 REGRETTABLE -0.3010
-4.0494 REGROWTH -0.2427
-3.5723 RELENTLESS -0.3009
-4.0494 RELIC -0.2427
-4.0494 RELIQUARY -0.2427
-4.0494 REMIEL -0.2427
-4.0494 REMINDER -0.2427
-4.0494 REMOTE -0.3009
-4.0494 REPLICATOR -0.2427
-3.5723 RESEARCH -0.2427
-3.5723 RESEARCHER -0.2427
-4.0494 RESONATOR -0.2427
-4.0494 RESTRINGUNTUS -0.2427
-4.0494 RESURGENCE -0.2427
-4.0494 RETURNING -0.2427
-4.0494 REVENGE -0.2427
-4.0494 REVERSE -0.3010
-3.5723 REX -0.2427
-4.0494 RHETOR -0.3010
-4.0494 RICHES -0.2427
-4.0494 RIDER -0.2427
-4.0494 RIG -0.2427
-4.0494 RIGGED -0.3010
-4.0494 RIGHT -0.2427
-4.0494 RING -0.2973
-3.2712 RITUAL -0.2384
-4.0494 RIVER -0.2427
-4.0494 RIZZO -0.2427
-4.0494 ROAD -0.2427
-4.0494 ROCK-HURLING -0.3009
-4.0494 ROCKET -0.3010
-3.7483 ROCKETEER -0.3010
-4.0494 ROD -0.2427
-4.0494 ROGUE -0.3010
-4.0494 RONNIE -0.3010
-4.0494 ROOFTOP -0.3010
-4.0494 ROSTRUM -0.2427
-4.0494 ROTGRUB -0.2427
-4.0494 ROTHAIS -0.2964
-4.0494 ROUND -0.3010
-4.0494 ROUTINE -0.3010
-4.0494 ROXADOR -0.2427
-4.0494 RUIN -0.2427
-4.0494 RUINS -0.2973
-4.0494 RUN -0.2427
-4.0494 RUPTURE -0.2427
-4.0494 RUSTGNAWER -0.2427
-4.0494 RUSTMISER -0.2427
-4.0494 RUTH -0.2427
-4.0494 SABOTAGE -0.3010
-4.0494 SACK -0.2973
-4.0494 SACRIFICE -0.2427
-4.0494 SACRIFICIAL -0.3010
-4.0494 SACRO-ALIEN -0.2427
-4.0494 SACRO-BEAST -0.2427
-4.0494 SACRO-BOT -0.2427
-4.0494 SACRO-FIEND -0.2427
-4.0494 SACRO-SAURUS -0.2427
-4.0494 SACRO-THIEF -0.2427
-3.5723 SAFE -0.3005
-4.0494 SAFEGUARD -0.2427
-4.0494 SAFETY -0.3009
-4.0494 SAGITTARIIS -0.3010
-4.0494 SALT -0.2427
-4.0494 SAMPLE -0.3010
-4.0494 SANCTUM -0.3009
-4.0494 SANDALS -0.2427
-4.0494 SANITATION -0.3009
-4.0494 SARGASSA -0.2427
-4.0494 SARGASSA-EVIL -0.2991
-4.0494 SAURARIUM -0.2427
-3.7483 SAURIAN -0.3008
-4.0494 SAUROPOD -0.2427
-3.7483 SAURUS -0.2426
-4.0494 SAURY -0.3010
-4.0494 SAVAGE -0.3010
-4.0494 SAVE -0.2964
-4.0494 SAY -0.2427
-4.0494 SCALE -0.2427
-4.0494 SCARRED -0.2427
-3.7483 SCI -0.3005
-4.0494 SCIENCE -0.2427
-4.0494 SCIENTIFICAL -0.3010
-4.0494 SCIENTISTS -0.3008
-4.0494 SCOOPED -0.2427
-3.7483 SCOUT -0.2427
-4.0494 SCOWLY -0.3010
-4.0494 SCRAMBLER -0.3009
-4.0494 SCRAPPER -0.2427
-4.0494 SCREAMING -0.3010
-4.0494 SCREECHBOMB -0.2427
-4.0494 SCRIVENER -0.3010
-3.7483 SCROLL -0.2427
-4.0494 SCUTUM -0.2427
-4.0494 SCYLLA -0.2427
-4.0494 SCYPHOS -0.2427
-3.7483 SEA -0.3009
-4.0494 SEABORG -0.2427
-4.0494 SEABRINGER -0.3010
-4.0494 SEAS -0.3009
-4.0494 SEASON -0.2427
-4.0494 SECURI-DROID -0.2427
-4.0494 SEED -0.2427
-3.7483 SEEKER -0.2973
-4.0494 SEISMO-ENTANGLER -0.2427
-4.0494 SELECTION -0.2427
-4.0494 SELECTIVE -0.3010
-3.7483 SELF -0.2427
-4.0494 SELF-BOLSTERING -0.3010
-4.0494 SELWYN -0.2964
-4.0494 SEMPER -0.3010
-3.5723 SENATOR -0.3008
-3.7483 SENESCHAL -0.3010
-4.0494 SENSOR -0.3009
-4.0494 SEPDIA -0.2427
-4.0494 SEQUIS -0.2427
-4.0494 SERAPHIC -0.3009
-4.0494 SERGEANT -0.3010
-4.0494 SERUM -0.2427
-4.0494 SGS -0.3010
-3.5723 SHADOW -0.2971
-4.0494 SHADOWS -0.3008
-4.0494 SHADOWSAURUS -0.2427
-4.0494 SHADOWSMITH -0.2427
-4.0494 SHAFFLES -0.2427
-3.7483 SHAMAN -0.2427
-3.2043 SHARD -0.2973
-3.7483 SHARK -0.2427
-4.0494 SHARK-EVIL -0.2991
-4.0494 SHATTER -0.3009
-4.0494 SHATTERED -0.3010
-4.0494 SHERMAN -0.2427
-3.7483 SHIELD -0.2384
-4.0494 SHIELD-U-LATER -0.2427
-4.0494 SHIELD-U-LATER-EVIL -0.2991
-4.0494 SHIELDING -0.2427
-3.7483 SHIFT -0.2427
-4.0494 SHIFTING -0.3010
-4.0494 SHIP -0.2427
-4.0494 SHOCKWORM -0.2427
-4.0494 SHOES -0.2427
-4.0494 SHOOLER -0.2427
-3.7483 SHORTY -0.2427
-4.0494 SHORTYS -0.3007
-3.7483 SHOULDER -0.3009
-3.5723 SHRIX -0.2427
-4.0494 SIC -0.3010
-3.4473 SIGIL -0.2384
-4.0494 SIGNAL -0.3010
-4.0494 SILENCE -0.2427
-4.0494 SILENT -0.3010
-4.0494 SILVER -0.3007
-4.0494 SILVERTOOTH -0.2427
-4.0494 SIMPSON -0.2427
-4.0494 SIMPSON-EVIL -0.2991
-4.0494 SINDER -0.2427
-4.0494 SINESTRA -0.2427
-4.0494 SINK -0.3006
-3.5723 SIR -0.3009
-4.0494 SIREN -0.3010
-4.0494 SKELETON -0.3007
-4.0494 SKIPPY -0.3010
-4.0494 SKIXUNO -0.2427
-4.0494 SKULLION -0.2427
-4.0494 SKULLS -0.2427
-4.0494 SKYBOOSTER -0.3010
-4.0494 SKöLL -0.2427
-4.0494 SLAM -0.2427
-4.0494 SLEEP -0.3009
-4.0494 SLIMY -0.3010
-4.0494 SLOPPY -0.3010
-3.7483 SLOTH -0.2427
-4.0494 SLRS -0.3010
-4.0494 SMAAASH -0.2427
-4.0494 SMARTFIST -0.2427
-4.0494 SMARTYPANTS -0.2427
-4.0494 SMILING -0.3010
-4.0494 SMITE -0.2427
-4.0494 SMITH -0.2427
-4.0494 SMOKO -0.2427
-4.0494 SMYTH -0.2427
-4.0494 SNAG -0.2427
-4.0494 SNAGLET -0.2427
-4.0494 SNAGS -0.3010
-4.0494 SNARETTE -0.2427
-4.0494 SNATCHER -0.2427
-4.0494 SNEKLIFTER -0.2427
-4.0494 SNIB -0.2427
-4.0494 SNIFFER -0.2427
-4.0494 SNUDGE -0.2427
-4.0494 SNUFFLEGATOR -0.2427
-4.0494 SO -0.2427
-4.0494 SOBOGGS -0.3010
-4.0494 SOFT -0.3010
-4.0494 SOLDIERS -0.3006
-3.7483 SONG -0.2973
-4.0494 SOPHISTRY -0.2427
-4.0494 SORRY -0.2427
-4.0494 SOTO -0.2427
-3.7483 SOUL -0.3010
-4.0494 SOULKEEPER -0.2427
-3.7483 SOULS -0.2427
-4.0494 SOUND -0.2964
-3.7483 SOW -0.2427
-4.0494 SPANGLER -0.3010
-4.0494 SPARKFIST -0.2427
-4.0494 SPARTASAUR -0.2427
-4.0494 SPEARS -0.2427
-3.7483 SPECIAL -0.3008
-4.0494 SPECTER -0.2427
-4.0494 SPECTRAL -0.3010
-4.0494 SPEED -0.3009
-3.7483 SPIDER -0.2427
-3.7483 SPIKE -0.2426
-4.0494 SPIRAL -0.2427
-4.0494 SPIRIT -0.2427
-4.0494 SPIRITS -0.3008
-4.0494 SPLINTER -0.2427
-4.0494 SPOILS -0.2973
-4.0494 SPOREGORGER -0.2427
-4.0494 SPOREGORGER-EVIL -0.2991
-4.0494 SPRING -0.2427
-4.0494 SPYMASTER -0.2427
-4.0494 SPYYYDER -0.2427
-4.0494 SQUADRON -0.2427
-4.0494 SQUAWKER -0.2427
-4.0494 SQUIRE -0.3010
-4.0494 STAMPEDE -0.2427
-4.0494 STANDARD -0.2427
-4.0494 STANDARDIZED -0.3010
-3.7483 STAR -0.2426
-3.7483 STARS -0.2427
-4.0494 STASH -0.2427
-3.7483 STATIC -0.3008
-4.0494 STAUNCH -0.3009
-4.0494 STEALER -0.2973
-4.0494 STEALTH -0.3010
-4.0494 STEALTHSTER -0.2427
-4.0494 STEELHEART -0.2427
-4.0494 STEELHEART-EVIL -0.2991
-4.0494 STEM -0.3010
-4.0494 STENOPIUS -0.2427
-4.0494 STILT-KIN -0.2427
-4.0494 STIMRAGER -0.2427
-4.0494 STING -0.2427
-4.0494 STIR -0.3010
-4.0494 STIRRING -0.3010
-4.0494 STOCKPILE -0.2427
-4.0494 STOMP -0.2427
-3.7483 STONE -0.2427
-4.0494 STOOD -0.3010
-3.4473 STORM -0.2425
-3.7483 STRANGE -0.3010
-4.0494 STREKE -0.2427
-4.0494 STRENGTH -0.2427
-4.0494 STRIKE -0.2427
-4.0494 STUNNER -0.2427
-4.0494 SUBDUE -0.2427
-4.0494 SUBJECT -0.3010
-4.0494 SUBMERSIBLE -0.2427
-4.0494 SUBMERSIVE -0.3010
-4.0494 SUBORDINATION -0.2427
-3.5723 SUBTLE -0.3009
-4.0494 SUCCUBUS -0.2427
-4.0494 SUCKER -0.3009
-4.0494 SUIT -0.2427
-4.0494 SUPPORT -0.2427
-3.5723 SURGE -0.2427
-4.0494 SURVEY -0.2427
-4.0494 SUSURRUS -0.2427
-4.0494 SUTTERKIN -0.2427
-4.0494 SWALLOW -0.3010
-4.0494 SWAP -0.3010
-4.0494 SWARM -0.2427
-4.0494 SWEEP -0.2427
-4.0494 SWEVEN -0.2427
-4.0494 SWEVEN-EVIL -0.2991
-4.0494 SWIM -0.2427
-4.0494 SWINDLE -0.2427
-4.0494 SWIRL -0.2427
-4.0494 SWITCH -0.2427
-4.0494 SYMON -0.2427
-4.0494 SYNAN -0.2427
-4.0494 SYNAN-EVIL -0.2991
-4.0494 SYPHON -0.2427
-4.0494 T3R-35A -0.2427
-4.0494 TABER -0.2427
-4.0494 TABLE -0.2427
-4.0494 TABRIS -0.2427
-4.0494 TACHYON -0.3010
-4.0494 TACTICAL -0.3005
-3.7483 TAKE -0.3009
-3.7483 TALMAGE -0.3010
-4.0494 TAMER -0.2427
-4.0494 TANIWHA -0.2427
-4.0494 TANIWHA-EVIL -0.2991
-3.7483 TANK -0.2427
-4.0494 TANTADLIN -0.2427
-4.0494 TAR -0.2427
-4.0494 TAUTAU -0.3010
-4.0494 TAXING -0.3010
-4.0494 TE-WHEKE -0.3010
-4.0494 TEAM -0.2427
-4.0494 TECHIVORE -0.3010
-4.0494 TECHNICIAN -0.2427
-4.0494 TECHNO-ALIEN -0.2427
-4.0494 TECHNO-BEAST -0.2427
-4.0494 TECHNO-FIEND -0.2427
-4.0494 TECHNO-KNIGHT -0.2427
-4.0494 TECHNO-SAURUS -0.2427
-4.0494 TECHNO-THIEF -0.2427
-4.0494 TECHNOBABBLE -0.2427
-4.0494 TELEPORTER -0.3009
-4.0494 TELIGA -0.2427
-4.0494 TEMPTING -0.3010
-4.0494 TENDRILS -0.2973
-4.0494 TENTACLID -0.2427
-4.0494 TENTACUS -0.2427
-4.0494 TERATO -0.2427
-4.0494 TERMS -0.2973
-4.0494 TERRIBLE -0.2427
-4.0494 TERROR -0.2427
-4.0494 TERRORDACTYL -0.2427
-4.0494 TERTIATE -0.2427
-4.0494 TESTING -0.2427
-4.0494 TEZMAL -0.2427
-4.0494 THALASSOPHOBIA -0.2427
-3.7483 THAT -0.2427
-1.9775 THE -0.2947
-4.0494 THEM -0.3009
-4.0494 THEORIST -0.2427
-3.5723 THEORY -0.2422
-4.0494 THERAPY -0.2427
-4.0494 THERE -0.2427
-4.0494 THERO -0.3009
-4.0494 THEY -0.3010
-4.0494 THEY'RE -0.3010
-4.0494 THIEF -0.2427
-4.0494 THIEVERY -0.2427
-4.0494 THIEVES -0.3008
-4.0494 THIN -0.2964
-4.0494 THINGAMABOB -0.2427
-4.0494 THINK -0.3010
-4.0494 THINKDRONE -0.2427
-4.0494 THORIUM -0.3010
-4.0494 THREE -0.3010
-4.0494 THRONE -0.2427
-4.0494 THROWING -0.3010
-4.0494 THUNDERTOW -0.2427
-4.0494 TIDAL -0.3009
-3.7483 TIDE -0.3009
-4.0494 TIGER -0.2427
-3.7483 TIME -0.2427
-4.0494 TIMEHOG -0.2427
-4.0494 TIMEQUAKE -0.2427
-4.0494 TIMETRAVELLER -0.2427
-4.0494 TINK -0.2427
-4.0494 TIRELESS -0.3010
-3.4473 TITAN -0.3007
-4.0494 TITANIC -0.2427
-4.0494 TITANS -0.2427
-3.0080 TO -0.3001
-4.0494 TOAD -0.2427
-4.0494 TOCSIN -0.2427
-4.0494 TOGETHER -0.2427
-4.0494 TOGNATH -0.2427
-4.0494 TOLAS -0.2427
-3.7483 TOMWA -0.2973
-4.0494 TOO -0.3010
-4.0494 TORVUS -0.2427
-4.0494 TOTAL -0.3010
-3.5723 TOUCH -0.2427
-4.0494 TRACKER -0.2427
-4.0494 TRADER -0.2427
-4.0494 TRAINING -0.2427
-4.0494 TRAITOR -0.2427
-4.0494 TRANSLATOR -0.2427
-4.0494 TRANSPORTER -0.3010
-4.0494 TRANSPOSITION -0.3010
-3.7483 TRAP -0.2427
-4.0494 TREASURE -0.3010
-3.7483 TREE -0.2427
-4.0494 TREMOR -0.2427
-4.0494 TRENCH -0.2427
-4.0494 TRIAL -0.3010
-4.0494 TRIBUNE -0.3010
-4.0494 TRIBUTE -0.2427
-4.0494 TRICERIAN -0.3010
-4.0494 TRICKLE-DOWN -0.3009
-4.0494 TRIGON -0.2427
-4.0494 TRIMBLE -0.2427
-4.0494 TRIUMPH -0.2427
-4.0494 TROJAN -0.3010
-4.0494 TROLL -0.2427
-4.0494 TROOP -0.3009
-4.0494 TROUBLE -0.2427
-4.0494 TRUEBARU -0.2427
-4.0494 TRUST -0.3009
-3.7483 TRUTH -0.2427
-4.0494 TRYSKA -0.2427
-4.0494 TRYSKA-EVIL -0.2991
-4.0494 TUNK -0.2427
-4.0494 TUNNELER -0.2427
-4.0494 TURNKEY -0.2427
-4.0494 TWICE -0.2427
-2.3504 TWIN -0.2426
-4.0494 TWO -0.3009
-4.0494 TYRANNOSAURUS -0.2427
-4.0494 TYXL -0.3010
-4.0494 ULFBERHT -0.3010
-4.0494 ULTRA -0.3010
-4.0494 ULYQ -0.3010
-4.0494 UMBRA -0.2427
-4.0494 UMBRA-ALIEN -0.2427
-4.0494 UMBRA-BEAST -0.2427
-4.0494 UMBRA-BOT -0.2427
-4.0494 UMBRA-FIEND -0.2427
-4.0494 UMBRA-KNIGHT -0.2427
-4.0494 UMBRA-SAURUS -0.2427
-4.0494 UNCHARTED -0.3010
-4.0494 UNDAGNATHUS -0.2427
-4.0494 UNDAGNATHUS-EVIL -0.2991
-4.0494 UNDER -0.3010
-4.0494 UNGUARDED -0.3010
-4.0494 UNGUIS -0.2427
-4.0494 UNIFIER -0.2427
-3.7483 UNIT -0.2427
-4.0494 UNITED -0.3010
-4.0494 UNITY -0.3006
-3.5723 UNIVERSAL -0.3009
-4.0494 UNIVERSE -0.2427
-4.0494 UNLOCKED -0.3010
-4.0494 UNNATURAL -0.3010
-4.0494 UNSUSPECTING -0.3010
-3.7483 UNTAMED -0.3005
-3.7483 UP -0.2427
-3.7483 URCHIN -0.2427
-4.0494 URCHIN-EVIL -0.2991
-3.7483 URIEN -0.2964
-4.0494 URSO -0.2427
-4.0494 URSO-EVIL -0.2991
-4.0494 UXLYX -0.2964
-4.0494 VAL -0.3010
-4.0494 VALDR -0.2427
-4.0494 VALMART -0.2427
-4.0494 VALOOCANTH -0.2427
-4.0494 VANDALIZE -0.2427
-4.0494 VANITY -0.2427
-4.0494 VAPORS -0.2427
-4.0494 VAULT -0.2427
-4.0494 VAULTKEEPER -0.2427
-4.0494 VAULTS -0.3010
-4.0494 VEEMOS -0.3010
-4.0494 VELUM -0.2427
-4.0494 VENATOR -0.3010
-4.0494 VENOM -0.2427
-4.0494 VEROKTER -0.2427
-4.0494 VESPILON -0.3010
-4.0494 VEYLAN -0.3010
-4.0494 VEZYMA -0.3010
-4.0494 VIEW -0.2427
-4.0494 VIGOR -0.2427
-3.7483 VINDA -0.2427
-4.0494 VINEAPPLE -0.3010
-4.0494 VINES -0.2427
-4.0494 VINUM -0.2427
-4.0494 VIRTUOUS -0.3010
-4.0494 VIRUS -0.2427
-4.0494 VITA -0.2427
-4.0494 VITA-EVIL -0.2991
-4.0494 VOICE -0.2973
-4.0494 VOID -0.2427
-4.0494 WAIL -0.2973
-4.0494 WAKING -0.3010
-4.0494 WALK -0.2964
-4.0494 WALL -0.2427
-3.7483 WALLS -0.2422
-3.7483 WAR -0.2426
-4.0494 WARCHEST -0.2427
-4.0494 WARDRUMMER -0.2427
-4.0494 WARP -0.2427
-4.0494 WARRIORS -0.3010
-4.0494 WARSONG -0.2427
-4.0494 WASHED -0.3010
-4.0494 WASTE -0.3010
-3.7483 WATER -0.2427
-3.4473 WAVE -0.2427
-3.3504 WAY -0.2384
-4.0494 WE -0.3010
-3.5723 WEAK -0.2427
-4.0494 WEASAND -0.2427
-4.0494 WHAT -0.3010
-4.0494 WHIRLPOOL -0.2427
-4.0494 WHISPER -0.2427
-4.0494 WHISPERING -0.3010
-4.0494 WHISPERS -0.2427
-4.0494 WHISTLING -0.3010
-4.0494 WHO -0.3010
-4.0494 WHOLE -0.2427
-4.0494 WIDESPREAD -0.3010
-4.0494 WIDGET -0.2427
-4.0494 WIKOLIA -0.2427
-4.0494 WIKOLIA-EVIL -0.2991
-3.3504 WILD -0.2425
-4.0494 WILDS -0.2427
-4.0494 WILLA -0.2427
-4.0494 WILLA-EVIL -0.2991
-4.0494 WIN -0.2427
-4.0494 WIPE -0.3010
-3.3504 WITCH -0.2384
-3.5723 WITH -0.2962
-3.7483 WOLF -0.2427
-4.0494 WONDER -0.2427
-4.0494 WOODS -0.2427
-4.0494 WORD -0.2973
-4.0494 WORKS -0.2427
-4.0494 WORLD -0.3010
-4.0494 WORM -0.2427
-3.7483 WORMHOLE -0.2427
-3.5723 WRATH -0.2422
-4.0494 WRETCHED -0.3010
-4.0494 WRISTCLOCKS -0.2427
-4.0494 XALVADOR -0.2427
-4.0494 XANTHYX -0.3010
-4.0494 XENO-BEAST -0.2427
-4.0494 XENO-BOT -0.2427
-4.0494 XENO-FIEND -0.2427
-4.0494 XENO-KNIGHT -0.2427
-4.0494 XENO-SAURUS -0.2427
-4.0494 XENO-THIEF -0.2427
-4.0494 XENOS -0.3010
-4.0494 XENOTRAINING -0.2427
-4.0494 YANTZEE -0.3010
-4.0494 YO -0.3010
-3.7483 YOU -0.2427
-3.7483 YOUNGEST -0.3008
-4.0494 YSHI -0.2427
-3.5723 YURK -0.2427
-4.0494 YXILI -0.3010
-4.0494 YXILO -0.3010
-4.0494 YXILX -0.3010
-4.0494 YXLYX -0.3010
-4.0494 YZPHYZ -0.3010
-4.0494 Z-FORCE -0.3009
-4.0494 Z-PARTICLE -0.3010
-4.0494 Z-RAY -0.3006
-4.0494 Z-WAVE -0.3010
-4.0494 ZAKIEL -0.2427
-4.0494 ZAP -0.2427
-4.0494 ZAREK -0.2427
-3.5723 ZEALOT -0.2427
-4.0494 ZENZIZENZIZENZIC -0.2427
-4.0494 ZOOKEEPER -0.2427
-4.0494 ZORG -0.2427
-4.0494 ZYSYSYX -0.3010
-3.5723 ZYX -0.2426
-4.0494 ZYZZIX -0.2964

\2-grams:
-0.3010 1 </s> -0.3010
-0.3010 14 </s> -0.3010
-0.3010 2 </s> -0.3010
-0.3010 24 </s> -0.3010
-0.3010 3 </s> -0.3010
-0.3010 346E </s> -0.3010
-0.3010 4X4 </s> -0.3010
-0.3010 5150 </s> -0.3010
-0.3010 5C077 </s> -0.3010
-0.3010 5C077-EVIL TWIN -0.0086
-0.3010 9001 </s> -0.3010
-3.4496 <s> 5C077 0.0000
-3.4496 <s> 5C077-EVIL 0.0000
-3.1486 <s> A -0.1761
-3.4496 <s> ABANDON 0.0000
-3.4496 <s> ABOND 0.0000
-3.4496 <s> ABYSSAL 0.0000
-3.4496 <s> ACADEMY 0.0000
-3.4496 <s> ACCESS -0.2430
-3.4496 <s> ADAPTOID 0.0000
-3.1486 <s> AGENT -0.1761
-3.4496 <s> AJA 0.0000
-3.4496 <s> ALAKA 0.0000
-3.4496 <s> ALAKAS 0.0000
-3.4496 <s> ALL -0.2218
-3.4496 <s> ALLUSIONS 0.0000
-3.4496 <s> ALMSMASTER 0.0000
-3.4496 <s> ALMSMASTER-EVIL 0.0000
-3.4496 <s> ALTRUISTS 0.0000
-3.4496 <s> AMBASSADOR -0.2688
-3.1486 <s> AMBER -0.2041
-3.4496 <s> AMBER-VAC 0.0000
-3.1486 <s> AMBERFIN 0.0000
-3.4496 <s> AMBERHEART 0.0000
-3.4496 <s> AMBERLUTION 0.0000
-3.4496 <s> AMBERMANCY 0.0000
-3.4496 <s> AMBERSPINE 0.0000
-3.4496 <s> AMBERTRACKER 0.0000
-3.4496 <s> AMMONIA 0.0000
-3.4496 <s> AMPHORA 0.0000
-3.4496 <s> ANAHITA 0.0000
-2.9725 <s> ANCIENT 0.0000
-3.4496 <s> ANGER 0.0000
-3.4496 <s> ANGRY 0.0000
-3.4496 <s> ANGWISH 0.0000
-3.4496 <s> ANIMATOR 0.0000
-3.4496 <s> ANKYLO 0.0000
-3.4496 <s> ANNIHILATION 0.0000
-3.4496 <s> ANOMALY 0.0000
-3.4496 <s> ANTONY 0.0000
-3.4496 <s> ARCHIMEDES 0.0000
-3.1486 <s> ARCHONS -0.1249
-3.4496 <s> ARDENT 0.0000
-3.4496 <s> ARISE 0.0000
-3.4496 <s> ARMADRONE 0.0000
-3.4496 <s> ARMADRONE-EVIL 0.0000
-3.4496 <s> ARMAGEDDON 0.0000
-3.4496 <s> ARMORY 0.0000
-3.4496 <s> ARMSMASTER 0.0000
-3.4496 <s> ASSERT 0.0000
-3.4496 <s> AUBADE 0.0000
-3.4496 <s> AUSTERALIS -0.1761
-3.4496 <s> AUTO-ENCODER 0.0000
-3.4496 <s> AUTO-LEGIONARY 0.0000
-3.4496 <s> AUTO-VAC 0.0000
-3.4496 <s> AUTOCANNON 0.0000
-3.4496 <s> AVENGING 0.0000
-3.4496 <s> AWAY -0.1761
-3.4496 <s> AXIOM 0.0000
-3.4496 <s> BABBLING 0.0000
-3.1486 <s> BACKUP -0.1249
-3.4496 <s> BAD -0.1761
-3.4496 <s> BADGEMAGUS 0.0000
-3.4496 <s> BAIT 0.0000
-3.4496 <s> BALDRIC 0.0000
-3.4496 <s> BALLCANO 0.0000
-3.4496 <s> BANISH 0.0000
-3.4496 <s> BANNER 0.0000
-3.4496 <s> BAREHANDED 0.0000
-3.4496 <s> BARN 0.0000
-3.4496 <s> BARON -0.1761
-3.4496 <s> BARRISTER 0.0000
-3.4496 <s> BATDRONE 0.0000
-3.4496 <s> BATTLE -0.2430
-3.4496 <s> BEACH 0.0000
-3.4496 <s> BEAR -0.2553
-3.4496 <s> BEASTS 0.0000
-3.4496 <s> BEGONE 0.0000
-3.4496 <s> BELLOWING 0.0000
-3.4496 <s> BERINON 0.0000
-3.4496 <s> BERSERKER 0.0000
-3.1486 <s> BESTIARII 0.0000
-3.4496 <s> BEWARE 0.0000
-3.4496 <s> BIGTWIG 0.0000
-3.4496 <s> BILGEWARDEN 0.0000
-3.4496 <s> BILGUM 0.0000
-3.1486 <s> BINARY 0.0000
-3.4496 <s> BINATE 0.0000
-3.4496 <s> BINDING -0.1761
-3.4496 <s> BINGLE 0.0000
-3.4496 <s> BIOMATRIX 0.0000
-3.4496 <s> BIOME 0.0000
-3.1486 <s> BLAST -0.2041
-3.4496 <s> BLATANT 0.0000
-3.4496 <s> BLINDING 0.0000
-3.1486 <s> BLOOD -0.1249
-3.4496 <s> BLOODSHARD 0.0000
-3.4496 <s> BLORB 0.0000
-3.4496 <s> BLOSSOM 0.0000
-3.4496 <s> BLYPYP 0.0000
-3.4496 <s> BO 0.0000
-3.4496 <s> BOMBYX 0.0000
-3.4496 <s> BONEROT 0.0000
-3.4496 <s> BONESAW 0.0000
-3.4496 <s> BOOBY 0.0000
-3.1486 <s> BOOK 0.0000
-3.4496 <s> BORDAN 0.0000
-3.1486 <s> BORR 0.0000
-3.4496 <s> BORROW 0.0000
-3.4496 <s> BOSS 0.0000
-3.4496 <s> BOT -0.1761
-3.4496 <s> BOUNCING 0.0000
-3.4496 <s> BRABBLE 0.0000
-3.4496 <s> BRACCHANALIA 0.0000
-3.4496 <s> BRACHIADITUS 0.0000
-2.9725 <s> BRAIN 0.0000
-3.4496 <s> BRAMBLE 0.0000
-3.4496 <s> BRAMMO 0.0000
-3.4496 <s> BREAK-KEY 0.0000
-3.4496 <s> BREAKER 0.0000
-3.4496 <s> BREND 0.0000
-3.4496 <s> BRIAR 0.0000
-3.4496 <s> BRING 0.0000
-3.1486 <s> BROBNAR 0.0000
-3.4496 <s> BRONZE 0.0000
-3.4496 <s> BROTHERS 0.0000
-3.4496 <s> BRUTODON 0.0000
-3.4496 <s> BUBBLES 0.0000
-3.4496 <s> BULL-WARK 0.0000
-3.4496 <s> BULLETEYE 0.0000
-3.4496 <s> BULWARK 0.0000
-3.4496 <s> BUMBLEBIRD 0.0000
-3.4496 <s> BUMPSY 0.0000
-3.4496 <s> BURN 0.0000
-3.4496 <s> BURNING 0.0000
-3.4496 <s> BURY 0.0000
-3.4496 <s> BUZZLE 0.0000
-3.1486 <s> CALL -0.1761
-3.4496 <s> CALV-1N 0.0000
-3.4496 <s> CAMOUFLAGE 0.0000
-3.4496 <s> CANDLE 0.0000
-3.4496 <s> CANNON 0.0000
-2.7507 <s> CAPTAIN 0.0000
-3.4496 <s> CARLO 0.0000
-3.4496 <s> CARPE 0.0000
-3.4496 <s> CARPET 0.0000
-3.4496 <s> CAULDRON 0.0000
-3.4496 <s> CAUSAL 0.0000
-3.4496 <s> CEASEFORGE 0.0000
-3.4496 <s> CEMENT 0.0000
-3.1486 <s> CENSOR 0.0000
-3.4496 <s> CENTURION -0.2218
-3.4496 <s> CEPHALOIST 0.0000
-3.4496 <s> CH-337A 0.0000
-3.4496 <s> CH-337A-EVIL 0.0000
-3.4496 <s> CHAIN -0.1761
-3.4496 <s> CHALLE 0.0000
-3.1486 <s> CHAMPION 0.0000
-3.4496 <s> CHAMPIONS 0.0000
-3.4496 <s> CHANS 0.0000
-3.4496 <s> CHANT -0.2218
-3.4496 <s> CHAOS 0.0000
-3.4496 <s> CHARETTE 0.0000
-3.4496 <s> CHARGE 0.0000
-3.4496 <s> CHARYBDIS 0.0000
-3.4496 <s> CHELONIA 0.0000
-3.4496 <s> CHELONIA-EVIL 0.0000
-3.4496 <s> CHENILLE 0.0000
-3.4496 <s> CHIEF -0.2218
-3.4496 <s> CHIEFTAINS 0.0000
-3.4496 <s> CHONKERS 0.0000
-3.4496 <s> CHOTA 0.0000
-3.4496 <s> CHRONOPHAGE 0.0000
-3.4496 <s> CHRONUS 0.0000
-3.4496 <s> CHUFF 0.0000
-3.4496 <s> CINCINNATUS 0.0000
-3.4496 <s> CITIZEN 0.0000
-3.4496 <s> CITY 0.0000
-3.4496 <s> CITY-STATE 0.0000
-3.4496 <s> CLEANSING 0.0000
-3.4496 <s> CLEAR -0.1761
-3.4496 <s> CLOAKING 0.0000
-3.4496 <s> CODE 0.0000
-3.4496 <s> COLLAR 0.0000
-3.4496 <s> COLLECTOR -0.1761
-3.1486 <s> COLONIST 0.0000
-2.9725 <s> COM 0.0000
-3.4496 <s> COMBAT 0.0000
-3.4496 <s> COMMANDEER 0.0000
-2.9725 <s> COMMANDER 0.0000
-3.4496 <s> COMMPOD 0.0000
-3.4496 <s> COMMUNE 0.0000
-3.4496 <s> CONSUL 0.0000
-3.4496 <s> CONTAINMENT 0.0000
-3.4496 <s> CONTROL 0.0000
-3.4496 <s> COOPERATIVE 0.0000
-3.4496 <s> CORNICEN 0.0000
-3.4496 <s> CORRODE 0.0000
-3.4496 <s> COWARDS 0.0000
-3.4496 <s> COWFYNE 0.0000
-3.4496 <s> COWFYNES 0.0000
-3.1486 <s> CR 0.0000
-3.4496 <s> CRASH 0.0000
-3.4496 <s> CRASSOSAURUS 0.0000
-3.4496 <s> CRAZY 0.0000
-3.1486 <s> CREED 0.0000
-3.4496 <s> CREEPING 0.0000
-3.4496 <s> CREWMAN 0.0000
-3.4496 <s> CROSS 0.0000
-3.4496 <s> CRUSHING 0.0000
-3.1486 <s> CRYSTAL 0.0000
-3.4496 <s> CULF 0.0000
-3.4496 <s> CULL 0.0000
-3.4496 <s> CUP 0.0000
-3.4496 <s> CURIA 0.0000
-3.4496 <s> CURIOSITY 0.0000
-3.4496 <s> CURSE 0.0000
-3.4496 <s> CUSTOM 0.0000
-3.4496 <s> CUSTOMS 0.0000
-3.4496 <s> CUTTHROAT 0.0000
-3.4496 <s> CXO 0.0000
-3.4496 <s> CYBER-CLONE 0.0000
-3.4496 <s> CYBERGIANT 0.0000
-3.4496 <s> D1-V3 0.0000
-3.4496 <s> DAMO-ALIEN 0.0000
-3.4496 <s> DAMO-BEAST 0.0000
-3.4496 <s> DAMO-BOT 0.0000
-3.4496 <s> DAMO-KNIGHT 0.0000
-3.4496 <s> DAMO-SAURUS 0.0000
-3.4496 <s> DAMO-THIEF 0.0000
-3.4496 <s> DANCE 0.0000
-2.5465 <s> DARK 0.0000
-3.4496 <s> DATA 0.0000
-3.4496 <s> DAUGHTER 0.0000
-3.4496 <s> DEAD -0.1761
-3.4496 <s> DECADENCE 0.0000
-3.1486 <s> DEEP -0.1249
-3.4496 <s> DEEPWATER 0.0000
-3.4496 <s> DEEPWOOD 0.0000
-3.4496 <s> DEFENSE 0.0000
-3.4496 <s> DEIPNO 0.0000
-3.4496 <s> DEMONS 0.0000
-3.4496 <s> DENDRIX 0.0000
-3.4496 <s> DESIRE 0.0000
-3.4496 <s> DESTROY 0.0000
-3.4496 <s> DESTRUCTIVE 0.0000
-3.4496 <s> DETENTION 0.0000
-3.4496 <s> DEUSILLUS 0.0000
-3.4496 <s> DEW 0.0000
-3.4496 <s> DEXTRE 0.0000
-3.4496 <s> DEXUS 0.0000
-3.4496 <s> DHARNA 0.0000
-3.4496 <s> DIAMETRIC 0.0000
-3.4496 <s> DIMENSION 0.0000
-3.4496 <s> DINO 0.0000
-3.4496 <s> DINO-ALIEN 0.0000
-3.4496 <s> DINO-BEAST 0.0000
-3.4496 <s> DINO-BOT 0.0000
-3.4496 <s> DINO-FIEND 0.0000
-3.4496 <s> DINO-KNIGHT 0.0000
-3.4496 <s> DINO-THIEF 0.0000
-3.4496 <s> DINOSAURS 0.0000
-3.4496 <s> DIPLO-MACY 0.0000
-3.4496 <s> DIPLOMAT 0.0000
-3.4496 <s> DIRECTOR 0.0000
-3.1486 <s> DIS -0.2341
-3.4496 <s> DISCOMBOBULATOR 0.0000
-3.4496 <s> DISRUPTION 0.0000
-3.4496 <s> DIVE 0.0000
-3.4496 <s> DOC 0.0000
-3.4496 <s> DOCTOR 0.0000
-3.4496 <s> DODGER 0.0000
-3.4496 <s> DOMINATOR -0.1761
-3.4496 <s> DOOM -0.2430
-3.4496 <s> DOORSTEP 0.0000
-3.4496 <s> DOUBLE 0.0000
-2.9725 <s> DR 0.0000
-3.4496 <s> DRACO 0.0000
-3.4496 <s> DRAINING 0.0000
-3.4496 <s> DRAWN 0.0000
-3.4496 <s> DREADBONE 0.0000
-3.4496 <s> DRECKER 0.0000
-3.4496 <s> DREDGING 0.0000
-3.4496 <s> DRUMBLE 0.0000
-3.4496 <s> DRUMMERNAUT 0.0000
-3.4496 <s> DRY 0.0000
-3.4496 <s> DUMA 0.0000
-3.4496 <s> DUSK 0.0000
-3.4496 <s> DUSKRUNNER 0.0000
-3.4496 <s> DUSKWITCH 0.0000
-3.1486 <s> DUST 0.0000
-3.4496 <s> DYSANIA 0.0000
-3.4496 <s> EARLY 0.0000
-3.4496 <s> EARTHBIND 0.0000
-3.4496 <s> EARTHSHAKER 0.0000
-3.4496 <s> EASY 0.0000
-3.4496 <s> EATER -0.1761
-3.4496 <s> ECHO 0.0000
-2.9725 <s> ECLECTIC 0.0000
-3.4496 <s> EDAI 0.0000
-3.4496 <s> EE 0.0000
-3.4496 <s> EFFERVESCENT 0.0000
-3.4496 <s> EFFIGY 0.0000
-3.4496 <s> ELDEST 0.0000
-3.4496 <s> EMBER 0.0000
-3.4496 <s> EMP 0.0000
-3.4496 <s> ENCOUNTER 0.0000
-3.4496 <s> ENLIST 0.0000
-3.4496 <s> ENSIGN 0.0000
-3.1486 <s> ENTROPIC 0.0000
-3.4496 <s> ENVY 0.0000
-3.4496 <s> EPIC 0.0000
-3.4496 <s> EQUALIZE 0.0000
-3.4496 <s> ESSENCE 0.0000
-3.4496 <s> ETANS 0.0000
-3.4496 <s> ETAROMME 0.0000
-3.4496 <s> ETHER 0.0000
-3.4496 <s> EUNOIA 0.0000
-3.4496 <s> EUREKA 0.0000
-3.4496 <s> EVASION 0.0000
-3.4496 <s> EVEN 0.0000
-3.4496 <s> EXCHANGE -0.1761
-3.4496 <s> EXHUME 0.0000
-3.4496 <s> EXILE 0.0000
-3.4496 <s> EXPERIMENTAL 0.0000
-3.4496 <s> EXPLO-ROVER 0.0000
-3.4496 <s> EXPLORATORY 0.0000
-3.4496 <s> EXTERMINATE -0.1761
-3.4496 <s> EXTINCTION 0.0000
-3.4496 <s> EYE -0.2430
-3.4496 <s> EYEGOR 0.0000
-3.4496 <s> FANDANGLE 0.0000
-3.4496 <s> FANGHOUSE 0.0000
-3.4496 <s> FANGS 0.0000
-3.4496 <s> FANGTOOTH 0.0000
-3.4496 <s> FAUST -0.1761
-3.4496 <s> FAVOR 0.0000
-3.4496 <s> FAYGIN 0.0000
-3.4496 <s> FEAR 0.0000
-3.4496 <s> FEEDING 0.0000
-3.4496 <s> FERTILITY 0.0000
-3.4496 <s> FESTERING 0.0000
-3.4496 <s> FETCHDRONES 0.0000
-3.4496 <s> FIDGIT 0.0000
-3.4496 <s> FIFALDE 0.0000
-3.4496 <s> FIGHT 0.0000
-3.4496 <s> FILA 0.0000
-3.4496 <s> FINAL 0.0000
-3.4496 <s> FINCH 0.0000
-3.4496 <s> FINISHING 0.0000
-3.4496 <s> FIRESPITTER 0.0000
-2.9725 <s> FIRST -0.1461
-3.4496 <s> FISSION 0.0000
-3.4496 <s> FLAME-WREATHED 0.0000
-3.1486 <s> FLAMEGILL 0.0000
-3.4496 <s> FLAMETHROWER 0.0000
-3.4496 <s> FLAMEWAKE 0.0000
-3.4496 <s> FLASH 0.0000
-3.4496 <s> FLAXIA 0.0000
-3.4496 <s> FLOOMF 0.0000
-3.4496 <s> FOGBANK 0.0000
-3.4496 <s> FOGGIFY 0.0000
-3.4496 <s> FOLLOW 0.0000
-3.4496 <s> FONT 0.0000
-3.4496 <s> FOOZLE 0.0000
-3.4496 <s> FORCE 0.0000
-3.4496 <s> FORGE -0.2430
-3.4496 <s> FORGEMASTER 0.0000
-3.4496 <s> FORGING 0.0000
-3.4496 <s> FORGIVE 0.0000
-3.4496 <s> FORUM 0.0000
-3.4496 <s> FRANCIS 0.0000
-3.4496 <s> FRANCUS 0.0000
-3.4496 <s> FRANES 0.0000
-3.4496 <s> FREE 0.0000
-3.1486 <s> FREEBOOTER 0.0000
-3.4496 <s> FRIGORIFIC 0.0000
-3.4496 <s> FUGURU 0.0000
-3.4496 <s> FULL 0.0000
-3.4496 <s> FURTIVE 0.0000
-3.4496 <s> FUZZY 0.0000
-3.4496 <s> FYRE-BREATH 0.0000
-3.4496 <s> GABOS 0.0000
-3.4496 <s> GALACTIC 0.0000
-3.4496 <s> GALEATOPS 0.0000
-3.4496 <s> GAMBLING 0.0000
-3.4496 <s> GAMGEE 0.0000
-3.4496 <s> GANGER 0.0000
-3.4496 <s> GANYMEDE 0.0000
-3.4496 <s> GARCIAS 0.0000
-3.4496 <s> GARGANTES 0.0000
-3.4496 <s> GARGANTODON 0.0000
-3.4496 <s> GAS-PIPES 0.0000
-3.4496 <s> GATEKEEPER 0.0000
-3.4496 <s> GATEWAY -0.1761
-3.4496 <s> GAUNTLET 0.0000
-3.4496 <s> GEBUK 0.0000
-2.9725 <s> GENERAL 0.0000
-3.4496 <s> GENETIC 0.0000
-3.4496 <s> GHOSTFORM 0.0000
-3.4496 <s> GHOSTHAWK 0.0000
-3.4496 <s> GHOSTLY 0.0000
-3.1486 <s> GIANT -0.1249
-3.4496 <s> GIANTS -0.1761
-3.1486 <s> GILTSPINE -0.1249
-2.9725 <s> GIZELHARTS 0.0000
-3.4496 <s> GLADIODONTUS 0.0000
-3.4496 <s> GLEEFUL 0.0000
-3.4496 <s> GLIMMER 0.0000
-3.4496 <s> GLORIANAS 0.0000
-3.4496 <s> GLORIOUS 0.0000
-3.4496 <s> GLUTTONY 0.0000
-3.4496 <s> GLYXL 0.0000
-3.4496 <s> GOLD 0.0000
-3.4496 <s> GOLDEN -0.1761
-3.4496 <s> GONGOOZLE 0.0000
-3.4496 <s> GOOD 0.0000
-3.4496 <s> GORM 0.0000
-3.4496 <s> GRABBER 0.0000
-3.1486 <s> GRAND 0.0000
-3.4496 <s> GRASPING 0.0000
-3.4496 <s> GRAVELGUTS 0.0000
-3.4496 <s> GRAVID 0.0000
-3.4496 <s> GREATER 0.0000
-3.4496 <s> GREED 0.0000
-3.4496 <s> GRENADE 0.0000
-2.9725 <s> GREY -0.1461
-3.4496 <s> GRIM -0.2218
-3.4496 <s> GRIMLOCUS 0.0000
-3.4496 <s> GROGGINS 0.0000
-3.4496 <s> GROKE 0.0000
-3.4496 <s> GROKES 0.0000
-3.4496 <s> GROMMID 0.0000
-3.4496 <s> GRON 0.0000
-3.4496 <s> GRONS 0.0000
-3.4496 <s> GROUNDBREAKING 0.0000
-3.4496 <s> GROUPTHINK 0.0000
-3.4496 <s> GROVEKEEPER 0.0000
-3.4496 <s> GROWTH 0.0000
-3.4496 <s> GRUMP 0.0000
-3.4496 <s> GRUMPUS -0.1761
-3.4496 <s> GUARD 0.0000
-3.4496 <s> GUARDIAN -0.2218
-3.4496 <s> GUB 0.0000
-3.4496 <s> GUILTY 0.0000
-3.4496 <s> GUJI 0.0000
-3.4496 <s> HADRON 0.0000
-3.4496 <s> HAEDROTHS 0.0000
-3.4496 <s> HALACOR 0.0000
-3.1486 <s> HALLOWED 0.0000
-3.4496 <s> HAMMER-GRAM 0.0000
-3.1486 <s> HAND -0.1249
-3.4496 <s> HAPLESS 0.0000
-3.4496 <s> HAPSIS 0.0000
-3.4496 <s> HARBINGER -0.1761
-3.1486 <s> HARD 0.0000
-3.4496 <s> HARLAND 0.0000
-3.4496 <s> HARMONIA 0.0000
-3.4496 <s> HARMONIC 0.0000
-3.4496 <s> HARVEST 0.0000
-3.4496 <s> HASTATUS 0.0000
-3.4496 <s> HAYDEN 0.0000
-3.4496 <s> HAYYEL 0.0000
-3.4496 <s> HEADHUNTER 0.0000
-3.4496 <s> HEAL 0.0000
-3.4496 <s> HEALING 0.0000
-3.4496 <s> HEART -0.1761
-3.4496 <s> HEBE 0.0000
-3.4496 <s> HECATOMB 0.0000
-3.4496 <s> HEDONISTIC 0.0000
-3.4496 <s> HEIST 0.0000
-3.4496 <s> HELMSMAN 0.0000
-3.4496 <s> HELP 0.0000
-3.4496 <s> HELPER 0.0000
-3.4496 <s> HEXPION 0.0000
-3.4496 <s> HIDDEN 0.0000
-3.4496 <s> HIDEAWAY 0.0000
-3.4496 <s> HIGH 0.0000
-3.4496 <s> HIT 0.0000
-3.4496 <s> HOBNOBBER 0.0000
-3.4496 <s> HOBNOBBER-EVIL 0.0000
-3.4496 <s> HOCK 0.0000
-3.4496 <s> HOLD 0.0000
-3.4496 <s> HOLDFAST 0.0000
-3.4496 <s> HOLOGRAMMOPHONE 0.0000
-3.4496 <s> HONOR 0.0000
-3.4496 <s> HONORABLE 0.0000
-3.4496 <s> HONORS 0.0000
-3.4496 <s> HOOKMASTER 0.0000
-3.4496 <s> HORNSWOGGLE 0.0000
-3.1486 <s> HORRID 0.0000
-2.8476 <s> HORSEMAN 0.0000
-3.4496 <s> HUGGER-MUGGER 0.0000
-3.4496 <s> HUMANS 0.0000
-3.4496 <s> HUMBLE 0.0000
-3.4496 <s> HUNTER -0.1761
-3.4496 <s> HUNTING -0.2218
-3.4496 <s> HYDE 0.0000
-3.4496 <s> HYDROCATALOGUER 0.0000
-3.4496 <s> HYPNOBEAM 0.0000
-3.4496 <s> HYPNOTIC 0.0000
-3.4496 <s> HYSTERIA 0.0000
-3.4496 <s> HYSTRICOG 0.0000
-3.1486 <s> IGON 0.0000
-3.4496 <s> IMP-LOSION 0.0000
-2.8476 <s> IMPERIAL 0.0000
-3.4496 <s> IMPERIUM 0.0000
-3.4496 <s> IMPRINTED 0.0000
-3.4496 <s> IMPSPECTOR 0.0000
-3.4496 <s> INCUBATION 0.0000
-3.4496 <s> INFIGHTING 0.0000
-3.4496 <s> INFOMANCER 0.0000
-3.4496 <s> INFOMORPH 0.0000
-3.1486 <s> INFORMATION 0.0000
-3.4496 <s> INFURNACE 0.0000
-3.4496 <s> INGRAMS 0.0000
-3.4496 <s> INKA 0.0000
-3.4496 <s> INKY 0.0000
-3.4496 <s> INSPIRATION 0.0000
-3.4496 <s> INSTRUMENT 0.0000
-3.4496 <s> INTERDIMENSIONAL 0.0000
-3.1486 <s> INTO 0.0000
-3.4496 <s> INVASION 0.0000
-3.4496 <s> IRESTAFF 0.0000
-3.4496 <s> IRON 0.0000
-3.4496 <s> IRRADIATED 0.0000
-3.4496 <s> ISOTROPIC 0.0000
-3.4496 <s> ISS 0.0000
-3.4496 <s> ITS 0.0000
-3.4496 <s> IXXYXLI 0.0000
-3.4496 <s> J 0.0000
-3.4496 <s> JACKIE 0.0000
-3.4496 <s> JAMMER -0.1761
-3.4496 <s> JARGOGLE 0.0000
-3.4496 <s> JEHU 0.0000
-3.4496 <s> JOHN 0.0000
-3.4496 <s> JOHNNY 0.0000
-3.4496 <s> JON 0.0000
-3.4496 <s> KALOCH 0.0000
-3.4496 <s> KANGAPHANT 0.0000
-3.4496 <s> KARTANOO 0.0000
-3.4496 <s> KAUPE 0.0000
-3.4496 <s> KAUPE-EVIL 0.0000
-3.4496 <s> KELIFI 0.0000
-3.4496 <s> KERWOLLOP 0.0000
-2.7507 <s> KEY -0.1597
-3.4496 <s> KEYFORGERY 0.0000
-3.4496 <s> KEYFROG 0.0000
-3.4496 <s> KHRKHARS 0.0000
-3.4496 <s> KILIGOGS 0.0000
-3.4496 <s> KILLZORD 0.0000
-3.4496 <s> KINDRITH 0.0000
-3.4496 <s> KING 0.0000
-3.4496 <s> KIRBYS 0.0000
-3.4496 <s> KIRI 0.0000
-3.4496 <s> KNOWLEDGE -0.1761
-3.4496 <s> KNOXX 0.0000
-3.4496 <s> KNUCKLES 0.0000
-3.4496 <s> KOMPSOS 0.0000
-3.4496 <s> KRRRZZZAAAP 0.0000
-3.4496 <s> KRUMP 0.0000
-3.4496 <s> KYMOOR 0.0000
-3.4496 <s> LABWORK 0.0000
-3.1486 <s> LADY 0.0000
-3.4496 <s> LAMINDRA 0.0000
-3.4496 <s> LAPISAURUS 0.0000
-3.4496 <s> LAPISAURUS-EVIL 0.0000
-3.1486 <s> LARIE 0.0000
-3.4496 <s> LASH 0.0000
-3.4496 <s> LATERAL 0.0000
-3.4496 <s> LAVA -0.1761
-3.4496 <s> LAY 0.0000
-3.4496 <s> LCDR 0.0000
-3.4496 <s> LEGATUS 0.0000
-3.4496 <s> LEGIONS 0.0000
-3.4496 <s> LESSER 0.0000
-3.4496 <s> LETHAL 0.0000
-3.4496 <s> LETHOLOGICA 0.0000
-3.4496 <s> LIAM 0.0000
-2.7507 <s> LIBRARY 0.0000
-2.9725 <s> LIEUTENANT 0.0000
-3.4496 <s> LIFE -0.2430
-3.4496 <s> LIFEWARD 0.0000
-3.4496 <s> LIFEWEB 0.0000
-3.1486 <s> LIGHT -0.1249
-3.4496 <s> LIGHTS 0.0000
-3.1486 <s> LIGHTSMITH 0.0000
-3.4496 <s> LILITHAL 0.0000
-3.4496 <s> LION 0.0000
-3.1486 <s> LITTLE 0.0000
-3.4496 <s> LIVIA 0.0000
-3.4496 <s> LLACK 0.0000
-3.1486 <s> LOGOS 0.0000
-3.4496 <s> LOLLOP 0.0000
-3.4496 <s> LOMIR 0.0000
-3.4496 <s> LONGFUSED 0.0000
-3.1486 <s> LOOK 0.0000
-3.1486 <s> LOOT 0.0000
-3.4496 <s> LOOTER 0.0000
-3.1486 <s> LORD 0.0000
-3.4496 <s> LOST 0.0000
-3.4496 <s> LOW -0.1761
-3.4496 <s> LUCKY 0.0000
-3.4496 <s> LUMILU 0.0000
-3.4496 <s> LUPO 0.0000
-3.4496 <s> LYCO-ALIEN 0.0000
-3.4496 <s> LYCO-BOT 0.0000
-3.4496 <s> LYCO-FIEND 0.0000
-3.4496 <s> LYCO-KNIGHT 0.0000
-3.4496 <s> LYCO-SAURUS 0.0000
-3.4496 <s> LYCO-THIEF 0.0000
-3.4496 <s> MAB 0.0000
-3.4496 <s> MACIS 0.0000
-3.4496 <s> MACK 0.0000
-3.4496 <s> MAD -0.1761
-3.4496 <s> MAGDA 0.0000
-3.1486 <s> MAGISTRA 0.0000
-3.4496 <s> MAKE -0.1761
-3.4496 <s> MALEFICORN 0.0000
-3.4496 <s> MALISON 0.0000
-3.4496 <s> MALSTROM 0.0000
-3.4496 <s> MANCHEGO 0.0000
-3.4496 <s> MANTLE 0.0000
-3.4496 <s> MARK 0.0000
-3.4496 <s> MARMO 0.0000
-2.9725 <s> MARS 0.0000
-3.4496 <s> MARSHAL 0.0000
-3.1486 <s> MARTIAN 0.0000
-3.4496 <s> MARTIANS 0.0000
-3.4496 <s> MARTYRS 0.0000
-3.4496 <s> MARUCK 0.0000
-3.4496 <s> MASS 0.0000
-2.7507 <s> MASTER -0.0669
-3.4496 <s> MASTERMINDY 0.0000
-3.4496 <s> MASTERPLAN 0.0000
-3.4496 <s> MATING 0.0000
-3.4496 <s> MATTER -0.1761
-3.4496 <s> MECHABUOY 0.0000
-3.4496 <s> MEDIC 0.0000
-3.4496 <s> MEDICUS 0.0000
-2.5465 <s> MEGA 0.0000
-3.4496 <s> MEMOLITH 0.0000
-3.4496 <s> MEMORY 0.0000
-3.4496 <s> MERCY 0.0000
-3.1486 <s> MIASMA 0.0000
-3.4496 <s> MIGHT 0.0000
-2.9725 <s> MIGHTY 0.0000
-3.4496 <s> MIMIC 0.0000
-3.4496 <s> MIMICRY 0.0000
-2.9725 <s> MIND -0.0969
-3.4496 <s> MINDFIRE 0.0000
-3.4496 <s> MINDWARPER 0.0000
-3.4496 <s> MINDWORM 0.0000
-3.4496 <s> MINI 0.0000
-3.4496 <s> MISERY 0.0000
-3.4496 <s> MOBIUS 0.0000
-3.4496 <s> MOGGHUNTER 0.0000
-3.4496 <s> MOGGHUNTERS 0.0000
-3.4496 <s> MOLE 0.0000
-3.4496 <s> MOLEPHIN 0.0000
-3.4496 <s> MOLINAS 0.0000
-3.4496 <s> MOLLYMAWK 0.0000
-3.1486 <s> MONTY 0.0000
-2.7507 <s> MONUMENT 0.0000
-3.4496 <s> MOOKLING 0.0000
-3.4496 <s> MOOKLING-EVIL 0.0000
-3.4496 <s> MOONCURSER 0.0000
-3.4496 <s> MOOR 0.0000
-3.1486 <s> MOTHER 0.0000
-3.4496 <s> MOTHERGUN 0.0000
-3.4496 <s> MOTHERSHIP 0.0000
-3.4496 <s> MUG 0.0000
-3.4496 <s> MUGWUMP 0.0000
-3.4496 <s> MUNCHLING 0.0000
-3.4496 <s> MURKENS 0.0000
-3.4496 <s> MURMOOK 0.0000
-3.1486 <s> MUSHROOM 0.0000
-3.4496 <s> MUSTHIC 0.0000
-3.4496 <s> MUTAGENESIS 0.0000
-3.4496 <s> MUTAGENIC 0.0000
-3.4496 <s> MUTANT 0.0000
-2.9725 <s> MUTATION 0.0000
-3.4496 <s> MYLIOBE 0.0000
-3.4496 <s> NARP 0.0000
-3.4496 <s> NARPS 0.0000
-3.4496 <s> NATURES 0.0000
-3.4496 <s> NAVIGATOR 0.0000
-3.4496 <s> NEFFRU 0.0000
-3.4496 <s> NEPENTHE 0.0000
-3.4496 <s> NEPETA 0.0000
-3.4496 <s> NEROTAURUS 0.0000
-3.4496 <s> NERVE 0.0000
-3.4496 <s> NEURO 0.0000
-3.4496 <s> NEUTRON 0.0000
-3.4496 <s> NEW 0.0000
-3.4496 <s> NEXUS 0.0000
-2.8476 <s> NIFFLE 0.0000
-3.4496 <s> NIGHTFORGE 0.0000
-3.4496 <s> NIZAK 0.0000
-3.4496 <s> NO -0.2430
-3.4496 <s> NOCTURNAL 0.0000
-3.4496 <s> NODDY 0.0000
-3.4496 <s> NOGI 0.0000
-3.4496 <s> NONAME 0.0000
-3.4496 <s> NOT -0.1761
-3.1486 <s> NOVU 0.0000
-3.4496 <s> NUMQUID 0.0000
-3.4496 <s> NURSE 0.0000
-3.4496 <s> NYZYK 0.0000
-3.4496 <s> OATH 0.0000
-3.4496 <s> OBSERV-U-MAX 0.0000
-3.4496 <s> OBSIDIAN 0.0000
-3.4496 <s> ODD 0.0000
-3.4496 <s> ODOAC 0.0000
-3.4496 <s> OFFICERS 0.0000
-3.4496 <s> OGOPOGO 0.0000
-3.1486 <s> OL 0.0000
-2.7507 <s> OLD 0.0000
-3.4496 <s> OMNIPUS 0.0000
-2.9725 <s> ONE -0.1761
-3.1486 <s> ONE-EYED 0.0000
-3.4496 <s> ONYX 0.0000
-3.4496 <s> OPAL 0.0000
-3.4496 <s> OPERATIONS 0.0000
-3.1486 <s> OPERATIVE 0.0000
-3.4496 <s> OPPORTUNIST 0.0000
-3.4496 <s> OPPOSITION 0.0000
-3.4496 <s> OPTIO 0.0000
-3.4496 <s> ORATOR 0.0000
-3.1486 <s> ORB 0.0000
-3.4496 <s> ORBITAL 0.0000
-3.4496 <s> ORPHIEL 0.0000
-3.4496 <s> ORPHION 0.0000
-3.4496 <s> ORTANNU 0.0000
-3.4496 <s> ORTANNUS 0.0000
-3.4496 <s> OSTRACIZE 0.0000
-3.4496 <s> OUBLIETTE 0.0000
-3.4496 <s> OVERLORD 0.0000
-3.4496 <s> OVERRUN 0.0000
-3.4496 <s> OZMO 0.0000
-3.4496 <s> PAIN -0.2218
-3.4496 <s> PAINMAIL 0.0000
-3.4496 <s> PANDEMONIUM 0.0000
-3.1486 <s> PANPACA 0.0000
-3.4496 <s> PARAGUARDIAN 0.0000
-3.4496 <s> PARTICLE 0.0000
-3.4496 <s> PATRONAGE 0.0000
-3.4496 <s> PAWN 0.0000
-3.4496 <s> PEACE 0.0000
-3.4496 <s> PERILOUS 0.0000
-3.4496 <s> PERPLEXING 0.0000
-3.4496 <s> PERSISTENCE 0.0000
-3.4496 <s> PESTERGROVE 0.0000
-3.4496 <s> PESTERING 0.0000
-3.4496 <s> PHALANX 0.0000
-3.4496 <s> PHASE 0.0000
-3.4496 <s> PHILOPHOSAURUS 0.0000
-3.4496 <s> PHLOXEM -0.1761
-3.4496 <s> PHOENIX 0.0000
-3.4496 <s> PHOSPHORUS 0.0000
-3.4496 <s> PHOTIC 0.0000
-3.4496 <s> PHYLYX 0.0000
-3.1486 <s> PHYSICUS 0.0000
-3.1486 <s> PI 0.0000
-3.4496 <s> PICAROON 0.0000
-3.4496 <s> PILE 0.0000
-3.4496 <s> PINCERATOR 0.0000
-3.4496 <s> PINGLE 0.0000
-3.4496 <s> PIP -0.1761
-3.4496 <s> PIRANHA 0.0000
-3.4496 <s> PISMIRE 0.0000
-3.4496 <s> PIT -0.2218
-3.4496 <s> PITLORD 0.0000
-3.4496 <s> PLAGUE -0.1761
-3.4496 <s> PLASMA 0.0000
-3.4496 <s> PLAY 0.0000
-3.4496 <s> POCKET 0.0000
-3.4496 <s> POISON 0.0000
-3.4496 <s> POKE 0.0000
-3.4496 <s> POLTERGEIST 0.0000
-3.4496 <s> PORTALMONGER 0.0000
-3.4496 <s> POS 0.0000
-3.4496 <s> POSITRON 0.0000
-3.4496 <s> POTION 0.0000
-3.4496 <s> POUND 0.0000
-3.4496 <s> POUR-TAL 0.0000
-3.4496 <s> POWER -0.2218
-3.4496 <s> PRAEFECTUS 0.0000
-3.4496 <s> PRESCRIPTIVE 0.0000
-3.4496 <s> PRIDE 0.0000
-3.4496 <s> PRIMAL 0.0000
-3.4496 <s> PRIMUS -0.2218
-3.4496 <s> PRINCE 0.0000
-3.4496 <s> PROCLAMATION 0.0000
-2.9725 <s> PROF 0.0000
-3.1486 <s> PROFESSOR 0.0000
-3.4496 <s> PROJECT 0.0000
-3.4496 <s> PROTECT -0.1761
-3.4496 <s> PROTECTRIX 0.0000
-3.4496 <s> PSIONIC 0.0000
-3.1486 <s> PSYCHIC 0.0000
-3.4496 <s> PUNCH 0.0000
-3.4496 <s> PUNCTUATED 0.0000
-3.4496 <s> PURIFIER 0.0000
-3.4496 <s> PURIFY 0.0000
-3.4496 <s> Q-MECHS 0.0000
-3.4496 <s> QINCANS 0.0000
-3.4496 <s> QUADRACORDER 0.0000
-3.4496 <s> QUANT 0.0000
-3.4496 <s> QUANTUM 0.0000
-3.4496 <s> QUESTOR 0.0000
-3.4496 <s> QUICKSAND 0.0000
-3.4496 <s> QUINTRINO 0.0000
-3.4496 <s> QUIXO 0.0000
-3.4496 <s> QUIXXLE 0.0000
-3.4496 <s> QYXXLYX 0.0000
-3.4496 <s> RAD 0.0000
-3.4496 <s> RADIANT 0.0000
-3.4496 <s> RAGNAROK 0.0000
-3.4496 <s> RAGWARG 0.0000
-3.4496 <s> RAIDING 0.0000
-3.4496 <s> RAKUZELS 0.0000
-3.4496 <s> RANDOM 0.0000
-3.4496 <s> RANSACK 0.0000
-3.4496 <s> RANSOM 0.0000
-3.4496 <s> RAPID 0.0000
-3.4496 <s> REACH 0.0000
-3.1486 <s> REAP 0.0000
-3.4496 <s> REASSEMBLING 0.0000
-3.1486 <s> RECKLESS 0.0000
-3.4496 <s> RECLAIMED 0.0000
-3.1486 <s> RED -0.1249
-3.4496 <s> RED-HOT 0.0000
-3.4496 <s> REDACTED 0.0000
-3.4496 <s> REDHAND 0.0000
-3.4496 <s> REDLOCK 0.0000
-3.4496 <s> REGRETTABLE 0.0000
-3.4496 <s> REGROWTH 0.0000
-2.9725 <s> RELENTLESS 0.0000
-3.4496 <s> REMOTE 0.0000
-3.4496 <s> REPLICATOR 0.0000
-3.4496 <s> RESEARCH -0.2218
-3.4496 <s> RESTRINGUNTUS 0.0000
-3.4496 <s> RESURGENCE 0.0000
-3.4496 <s> REVERSE 0.0000
-3.4496 <s> RHETOR 0.0000
-3.4496 <s> RIGGED 0.0000
-3.4496 <s> RING 0.0000
-2.8476 <s> RITUAL -0.1249
-3.4496 <s> ROCK-HURLING 0.0000
-3.4496 <s> ROCKET 0.0000
-3.1486 <s> ROCKETEER 0.0000
-3.4496 <s> ROGUE 0.0000
-3.4496 <s> RONNIE 0.0000
-3.4496 <s> ROOFTOP 0.0000
-3.4496 <s> ROTGRUB 0.0000
-3.4496 <s> ROTHAIS 0.0000
-3.4496 <s> ROUND 0.0000
-3.4496 <s> ROUTINE 0.0000
-3.4496 <s> ROXADOR 0.0000
-3.4496 <s> RUINS 0.0000
-3.4496 <s> RUSTGNAWER 0.0000
-3.4496 <s> RUSTMISER 0.0000
-3.4496 <s> SABOTAGE 0.0000
-3.4496 <s> SACK 0.0000
-3.4496 <s> SACRIFICIAL 0.0000
-3.4496 <s> SACRO-ALIEN 0.0000
-3.4496 <s> SACRO-BEAST 0.0000
-3.4496 <s> SACRO-BOT 0.0000
-3.4496 <s> SACRO-FIEND 0.0000
-3.4496 <s> SACRO-SAURUS 0.0000
-3.4496 <s> SACRO-THIEF 0.0000
-2.9725 <s> SAFE 0.0000
-3.4496 <s> SAGITTARIIS 0.0000
-3.4496 <s> SAMPLE 0.0000
-3.4496 <s> SANCTUM 0.0000
-3.4496 <s> SANITATION 0.0000
-3.4496 <s> SAURARIUM 0.0000
-3.1486 <s> SAURIAN 0.0000
-3.4496 <s> SAURUS -0.1761
-3.4496 <s> SAURY 0.0000
-3.4496 <s> SAVAGE 0.0000
-3.4496 <s> SAVE 0.0000
-3.1486 <s> SCI 0.0000
-3.4496 <s> SCIENCE 0.0000
-3.4496 <s> SCIENTIFICAL 0.0000
-3.4496 <s> SCIENTISTS 0.0000
-3.4496 <s> SCOOPED 0.0000
-3.1486 <s> SCOUT 0.0000
-3.4496 <s> SCOWLY 0.0000
-3.4496 <s> SCRAMBLER 0.0000
-3.4496 <s> SCREAMING 0.0000
-3.4496 <s> SCREECHBOMB 0.0000
-3.4496 <s> SCRIVENER 0.0000
-3.4496 <s> SCYLLA 0.0000
-3.4496 <s> SCYPHOS 0.0000
-3.1486 <s> SEA 0.0000
-3.4496 <s> SEABRINGER 0.0000
-3.4496 <s> SECURI-DROID 0.0000
-3.1486 <s> SEEKER 0.0000
-3.4496 <s> SEISMO-ENTANGLER 0.0000
-3.4496 <s> SELECTIVE 0.0000
-3.4496 <s> SELF-BOLSTERING 0.0000
-3.4496 <s> SELWYN 0.0000
-2.9725 <s> SENATOR 0.0000
-3.1486 <s> SENESCHAL 0.0000
-3.4496 <s> SENSOR 0.0000
-3.4496 <s> SEQUIS 0.0000
-3.4496 <s> SERAPHIC 0.0000
-3.4496 <s> SERGEANT 0.0000
-3.4496 <s> SGS 0.0000
-3.1486 <s> SHADOW -0.1249
-3.4496 <s> SHADOWS 0.0000
-3.4496 <s> SHADOWSAURUS 0.0000
-3.4496 <s> SHAFFLES 0.0000
-2.6045 <s> SHARD 0.0000
-3.4496 <s> SHATTER 0.0000
-3.4496 <s> SHATTERED 0.0000
-3.4496 <s> SHIELD -0.1761
-3.4496 <s> SHIELD-U-LATER 0.0000
-3.4496 <s> SHIELD-U-LATER-EVIL 0.0000
-3.4496 <s> SHIFTING 0.0000
-3.4496 <s> SHOOLER 0.0000
-3.4496 <s> SHORTY 0.0000
-3.4496 <s> SHORTYS 0.0000
-3.1486 <s> SHOULDER 0.0000
-3.4496 <s> SIC 0.0000
-3.4496 <s> SIGIL -0.2430
-3.4496 <s> SIGNAL 0.0000
-3.4496 <s> SILENT 0.0000
-3.4496 <s> SILVER 0.0000
-3.4496 <s> SILVERTOOTH 0.0000
-3.4496 <s> SINDER 0.0000
-3.4496 <s> SINESTRA 0.0000
-3.4496 <s> SINK 0.0000
-2.9725 <s> SIR 0.0000
-3.4496 <s> SIREN 0.0000
-3.4496 <s> SKELETON 0.0000
-3.4496 <s> SKIPPY 0.0000
-3.4496 <s> SKIXUNO 0.0000
-3.4496 <s> SKULLION 0.0000
-3.4496 <s> SKYBOOSTER 0.0000
-3.4496 <s> SKöLL 0.0000
-3.4496 <s> SLEEP 0.0000
-3.4496 <s> SLIMY 0.0000
-3.4496 <s> SLOPPY 0.0000
-3.4496 <s> SLOTH 0.0000
-3.4496 <s> SLRS 0.0000
-3.4496 <s> SMAAASH 0.0000
-3.4496 <s> SMILING 0.0000
-3.4496 <s> SMITE 0.0000
-3.4496 <s> SMITH 0.0000
-3.4496 <s> SNAG 0.0000
-3.4496 <s> SNAGLET 0.0000
-3.4496 <s> SNAGS 0.0000
-3.4496 <s> SNARETTE 0.0000
-3.4496 <s> SNEKLIFTER 0.0000
-3.4496 <s> SNIFFER 0.0000
-3.4496 <s> SNUDGE 0.0000
-3.4496 <s> SNUFFLEGATOR 0.0000
-3.4496 <s> SOBOGGS 0.0000
-3.4496 <s> SOFT 0.0000
-3.4496 <s> SOLDIERS 0.0000
-3.1486 <s> SONG 0.0000
-3.1486 <s> SOUL 0.0000
-3.4496 <s> SOULKEEPER 0.0000
-3.4496 <s> SOUND 0.0000
-3.4496 <s> SOW -0.1761
-3.4496 <s> SPANGLER 0.0000
-3.4496 <s> SPARKFIST 0.0000
-3.4496 <s> SPARTASAUR 0.0000
-3.1486 <s> SPECIAL 0.0000
-3.4496 <s> SPECTRAL 0.0000
-3.4496 <s> SPEED 0.0000
-3.4496 <s> SPIKE -0.1761
-3.4496 <s> SPLINTER 0.0000
-3.4496 <s> SPOILS 0.0000
-3.4496 <s> SPOREGORGER 0.0000
-3.4496 <s> SPOREGORGER-EVIL 0.0000
-3.4496 <s> SPYYYDER 0.0000
-3.4496 <s> SQUAWKER 0.0000
-3.4496 <s> SQUIRE 0.0000
-3.4496 <s> STAMPEDE 0.0000
-3.4496 <s> STANDARDIZED 0.0000
-3.4496 <s> STAR -0.1761
-3.1486 <s> STATIC 0.0000
-3.4496 <s> STAUNCH 0.0000
-3.4496 <s> STEALER 0.0000
-3.4496 <s> STEALTH 0.0000
-3.4496 <s> STEALTHSTER 0.0000
-3.4496 <s> STILT-KIN 0.0000
-3.4496 <s> STIR 0.0000
-3.4496 <s> STIRRING 0.0000
-3.4496 <s> STOMP 0.0000
-3.1486 <s> STORM -0.1761
-3.1486 <s> STRANGE 0.0000
-3.4496 <s> STREKE 0.0000
-3.4496 <s> STUNNER 0.0000
-3.4496 <s> SUBDUE 0.0000
-3.4496 <s> SUBJECT 0.0000
-3.4496 <s> SUBMERSIBLE 0.0000
-3.4496 <s> SUBMERSIVE 0.0000
-2.9725 <s> SUBTLE 0.0000
-3.4496 <s> SUCCUBUS 0.0000
-3.4496 <s> SUCKER 0.0000
-3.4496 <s> SURVEY 0.0000
-3.4496 <s> SWALLOW 0.0000
-3.4496 <s> SWAP 0.0000
-3.4496 <s> SWINDLE 0.0000
-3.4496 <s> SYMON 0.0000
-3.4496 <s> T3R-35A 0.0000
-3.4496 <s> TACHYON 0.0000
-3.4496 <s> TACTICAL 0.0000
-3.1486 <s> TAKE 0.0000
-3.1486 <s> TALMAGE 0.0000
-3.4496 <s> TANIWHA 0.0000
-3.4496 <s> TANIWHA-EVIL 0.0000
-3.4496 <s> TANTADLIN 0.0000
-3.4496 <s> TAUTAU 0.0000
-3.4496 <s> TAXING 0.0000
-3.4496 <s> TE-WHEKE 0.0000
-3.4496 <s> TECHIVORE 0.0000
-3.4496 <s> TECHNO-ALIEN 0.0000
-3.4496 <s> TECHNO-BEAST 0.0000
-3.4496 <s> TECHNO-FIEND 0.0000
-3.4496 <s> TECHNO-KNIGHT 0.0000
-3.4496 <s> TECHNO-SAURUS 0.0000
-3.4496 <s> TECHNO-THIEF 0.0000
-3.4496 <s> TECHNOBABBLE 0.0000
-3.4496 <s> TELEPORTER 0.0000
-3.4496 <s> TELIGA 0.0000
-3.4496 <s> TEMPTING 0.0000
-3.4496 <s> TENDRILS 0.0000
-3.4496 <s> TENTACLID 0.0000
-3.4496 <s> TENTACUS 0.0000
-3.4496 <s> TERMS 0.0000
-3.4496 <s> TERRORDACTYL 0.0000
-3.4496 <s> TERTIATE 0.0000
-3.4496 <s> TEZMAL 0.0000
-3.4496 <s> THALASSOPHOBIA 0.0000
-1.9311 <s> THE -0.2291
-3.4496 <s> THEORY -0.2218
-3.4496 <s> THERO 0.0000
-3.4496 <s> THEY'RE 0.0000
-3.4496 <s> THIEVES 0.0000
-3.4496 <s> THIN 0.0000
-3.4496 <s> THINK 0.0000
-3.4496 <s> THORIUM 0.0000
-3.4496 <s> THREE 0.0000
-3.4496 <s> THROWING 0.0000
-3.4496 <s> THUNDERTOW 0.0000
-3.4496 <s> TIDAL 0.0000
-3.4496 <s> TIDE -0.1761
-3.4496 <s> TIMEQUAKE 0.0000
-3.4496 <s> TIMETRAVELLER 0.0000
-3.4496 <s> TIRELESS 0.0000
-2.8476 <s> TITAN 0.0000
-3.4496 <s> TOAD 0.0000
-3.4496 <s> TOCSIN 0.0000
-3.4496 <s> TOGETHER 0.0000
-3.4496 <s> TOLAS 0.0000
-3.1486 <s> TOMWA 0.0000
-3.4496 <s> TOO 0.0000
-3.4496 <s> TOTAL 0.0000
-3.4496 <s> TRANSPORTER 0.0000
-3.4496 <s> TRANSPOSITION 0.0000
-3.4496 <s> TREASURE 0.0000
-3.4496 <s> TREMOR 0.0000
-3.4496 <s> TRIAL 0.0000
-3.4496 <s> TRIBUNE 0.0000
-3.4496 <s> TRIBUTE 0.0000
-3.4496 <s> TRICERIAN 0.0000
-3.4496 <s> TRICKLE-DOWN 0.0000
-3.4496 <s> TRIMBLE 0.0000
-3.4496 <s> TRIUMPH 0.0000
-3.4496 <s> TROJAN 0.0000
-3.4496 <s> TROLL 0.0000
-3.4496 <s> TROOP 0.0000
-3.4496 <s> TRUEBARU 0.0000
-3.4496 <s> TRUST 0.0000
-3.4496 <s> TUNK 0.0000
-3.4496 <s> TURNKEY 0.0000
-3.4496 <s> TWIN -0.2967
-3.4496 <s> TYXL 0.0000
-3.4496 <s> ULTRA 0.0000
-3.4496 <s> ULYQ 0.0000
-3.4496 <s> UMBRA 0.0000
-3.4496 <s> UMBRA-ALIEN 0.0000
-3.4496 <s> UMBRA-BEAST 0.0000
-3.4496 <s> UMBRA-BOT 0.0000
-3.4496 <s> UMBRA-FIEND 0.0000
-3.4496 <s> UMBRA-KNIGHT 0.0000
-3.4496 <s> UMBRA-SAURUS 0.0000
-3.4496 <s> UNCHARTED 0.0000
-3.4496 <s> UNDAGNATHUS 0.0000
-3.4496 <s> UNDAGNATHUS-EVIL 0.0000
-3.4496 <s> UNDER 0.0000
-3.4496 <s> UNGUARDED 0.0000
-3.4496 <s> UNITED 0.0000
-3.4496 <s> UNITY 0.0000
-2.9725 <s> UNIVERSAL 0.0000
-3.4496 <s> UNLOCKED 0.0000
-3.4496 <s> UNNATURAL 0.0000
-3.4496 <s> UNSUSPECTING 0.0000
-3.1486 <s> UNTAMED 0.0000
-3.4496 <s> URCHIN 0.0000
-3.1486 <s> URIEN 0.0000
-3.4496 <s> UXLYX 0.0000
-3.4496 <s> VALDR 0.0000
-3.4496 <s> VALOOCANTH 0.0000
-3.4496 <s> VANDALIZE 0.0000
-3.4496 <s> VAULTS 0.0000
-3.4496 <s> VEEMOS 0.0000
-3.4496 <s> VELUM 0.0000
-3.4496 <s> VENATOR 0.0000
-3.4496 <s> VESPILON 0.0000
-3.4496 <s> VEYLAN 0.0000
-3.4496 <s> VEZYMA 0.0000
-3.4496 <s> VIGOR 0.0000
-3.4496 <s> VINEAPPLE 0.0000
-3.4496 <s> VIRTUOUS 0.0000
-3.4496 <s> VOICE 0.0000
-3.4496 <s> WAIL 0.0000
-3.4496 <s> WAKING 0.0000
-3.4496 <s> WALK 0.0000
-3.4496 <s> WALLS -0.1761
-3.4496 <s> WAR -0.1761
-3.4496 <s> WARDRUMMER 0.0000
-3.4496 <s> WARRIORS 0.0000
-3.4496 <s> WARSONG 0.0000
-3.4496 <s> WASHED 0.0000
-3.4496 <s> WASTE 0.0000
-2.8476 <s> WAY -0.0792
-3.4496 <s> WE 0.0000
-3.4496 <s> WEASAND 0.0000
-3.4496 <s> WHIRLPOOL 0.0000
-3.4496 <s> WHISPER 0.0000
-3.4496 <s> WHISPERING 0.0000
-3.4496 <s> WHISTLING 0.0000
-3.4496 <s> WIDESPREAD 0.0000
-3.4496 <s> WIKOLIA 0.0000
-3.4496 <s> WIKOLIA-EVIL 0.0000
-2.9725 <s> WILD -0.1461
-3.4496 <s> WIPE 0.0000
-2.8476 <s> WITCH -0.0792
-3.4496 <s> WORD 0.0000
-3.4496 <s> WORLD 0.0000
-3.4496 <s> WORMHOLE -0.1761
-3.1486 <s> WRATH 0.0000
-3.4496 <s> WRETCHED 0.0000
-3.4496 <s> XANTHYX 0.0000
-3.4496 <s> XENO-BEAST 0.0000
-3.4496 <s> XENO-BOT 0.0000
-3.4496 <s> XENO-FIEND 0.0000
-3.4496 <s> XENO-KNIGHT 0.0000
-3.4496 <s> XENO-SAURUS 0.0000
-3.4496 <s> XENO-THIEF 0.0000
-3.4496 <s> XENOS 0.0000
-3.4496 <s> XENOTRAINING 0.0000
-3.4496 <s> YANTZEE 0.0000
-3.4496 <s> YO 0.0000
-3.1486 <s> YOUNGEST 0.0000
-3.4496 <s> YURK 0.0000
-3.4496 <s> YXILI 0.0000
-3.4496 <s> YXILO 0.0000
-3.4496 <s> YXILX 0.0000
-3.4496 <s> YXLYX 0.0000
-3.4496 <s> YZPHYZ 0.0000
-3.4496 <s> Z-FORCE 0.0000
-3.4496 <s> Z-PARTICLE 0.0000
-3.4496 <s> Z-RAY 0.0000
-3.4496 <s> Z-WAVE 0.0000
-3.4496 <s> ZAP 0.0000
-3.4496 <s> ZENZIZENZIZENZIC 0.0000
-3.4496 <s> ZORG 0.0000
-3.4496 <s> ZYSYSYX 0.0000
-3.4496 <s> ZYX -0.2218
-3.4496 <s> ZYZZIX 0.0000
-0.9031 A FAIR -0.1761
-0.9031 A LIFE -0.0969
-0.9031 A VIEW 0.0000
-0.9031 A VINDA 0.0000
-0.3010 ABANDON SHIP 0.0000
-0.3010 ABDUCTION </s> -0.3010
-0.3010 ABOND THE -0.2992
-0.3010 ABOUT THAT -0.1761
-0.3010 ABYSSAL ZEALOT 0.0000
-0.3010 ACADEMY TRAINING 0.0000
-0.6021 ACCESS </s> -0.3010
-0.9031 ACCESS ARCHIVES 0.0000
-0.9031 ACCESS DENIED 0.0000
-0.3010 ACCORD </s> -0.3010
-0.3010 ACTION </s> -0.3010
-0.3010 ADAPTOID </s> -0.3010
-0.3010 ADVANTAGE </s> -0.3010
-0.3010 ADVENTURER </s> -0.3010
-0.3010 AGAINST MANY 0.0000
-0.9031 AGENT 14 0.0000
-0.9031 AGENT FINGERS 0.0000
-0.9031 AGENT HUMAN 0.0000
-0.9031 AGENT SEPDIA 0.0000
-0.3010 AGUNG </s> -0.3010
-0.3010 AJA THE -0.2992
-0.3010 ALAKA </s> -0.3010
-0.3010 ALAKAS BREW 0.0000
-0.3010 ALERT </s> -0.3010
-0.3010 ALI </s> -0.3010
-0.7782 ALL </s> -0.3010
-0.7782 ALL TIDE -0.1761
-0.7782 ALL WIN 0.0000
-0.7782 ALLIANCE </s> -0.3010
-0.7782 ALLIANCE COUNCIL 0.0000
-0.7782 ALLIANCE PLANT 0.0000
-0.3010 ALLIES </s> -0.3010
-0.3010 ALLUSIONS OF -0.2988
-0.3010 ALMSMASTER </s> -0.3010
-0.3010 ALMSMASTER-EVIL TWIN -0.0086
-0.3010 ALTAR </s> -0.3010
-0.3010 ALTRUISTS ROSTRUM 0.0000
-0.3010 ALTUM </s> -0.3010
-0.3010 ALYS </s> -0.3010
-0.3680 AMBASSADOR </s> -0.3010
-1.1461 AMBASSADOR LIU 0.0000
-0.6990 AMBER </s> -0.3010
-1.0000 AMBER CONDUCTION 0.0000
-1.0000 AMBER IMP 0.0000
-1.0000 AMBER VAULT 0.0000
-0.3010 AMBER-VAC </s> -0.3010
-0.6021 AMBERFIN SHARK 0.0000
-0.6021 AMBERFIN SHARK-EVIL 0.0000
-0.3010 AMBERHEART </s> -0.3010
-0.3010 AMBERLUTION </s> -0.3010
-0.3010 AMBERMANCY </s> -0.3010
-0.3010 AMBERSPINE MONGREL 0.0000
-0.3010 AMBERTRACKER </s> -0.3010
-0.3010 AMBROSIUS </s> -0.3010
-0.3010 AMBROSIUS-EVIL TWIN -0.0086
-0.3010 AMMONIA CLOUDS 0.0000
-0.3010 AMPHORA CAPTURA 0.0000
-0.3010 AN ALLIANCE -0.2218
-0.3010 ANAHITA THE -0.2992
-0.3010 ANALYSIS </s> -0.3010
-0.3010 ANALYST </s> -0.3010
-0.3010 ANAPHIEL </s> -0.3010
-0.7782 ANCIENT BEAR -0.0792
-0.7782 ANCIENT POWER -0.1249
-0.7782 ANCIENT YURK 0.0000
-0.6021 AND RUN 0.0000
-0.6021 AND SWITCH 0.0000
-0.3010 ANGA </s> -0.3010
-0.3010 ANGER </s> -0.3010
-0.3010 ANGRY MOB 0.0000
-0.3010 ANGWISH </s> -0.3010
-0.3010 ANIMATOR </s> -0.3010
-0.3010 ANKYLO FORMATION 0.0000
-0.3010 ANNIHILATION RITUAL -0.2218
-0.3010 ANNOYS </s> -0.3010
-0.3010 ANOMALY EXPLOITER 0.0000
-0.3010 ANTENNA </s> -0.3010
-0.3010 ANTONY </s> -0.3010
-0.3010 ANVIL </s> -0.3010
-0.3010 APE </s> -0.3010
-0.3010 ARCHAEOLOGIST </s> -0.3010
-0.3010 ARCHIMEDES </s> -0.3010
-0.3010 ARCHIVES </s> -0.3010
-0.3010 ARCHIVIST </s> -0.3010
-0.3010 ARCHONIS </s> -0.3010
-0.7782 ARCHONS </s> -0.3010
-0.7782 ARCHONS CALLBACK 0.0000
-0.7782 ARCHONS REVENGE 0.0000
-0.3010 ARDENT HERO 0.0000
-0.3010 ARISE </s> -0.3010
-0.3010 ARMADRONE </s> -0.3010
-0.3010 ARMADRONE-EVIL TWIN -0.0086
-0.3010 ARMAGEDDON CLOAK 0.0000
-0.3010 ARMOR </s> -0.3010
-0.3010 ARMORSMITH </s> -0.3010
-0.3010 ARMORY OFFICER -0.2852
-0.3010 ARMSMASTER MOLINA 0.0000
-0.3010 ARRAY </s> -0.3010
-0.3010 ASP </s> -0.3010
-0.3010 ASSAULT </s> -0.3010
-0.3010 ASSERT DOMINANCE 0.0000
-0.3010 ATTENDANT </s> -0.3010
-0.3010 AUBADE THE -0.2973
-0.3010 AUGUR </s> -0.3010
-0.3010 AUGUR-EVIL TWIN -0.0086
-0.3010 AURA </s> -0.3010
-0.6021 AUSTERALIS </s> -0.3010
-0.6021 AUSTERALIS SEABORG 0.0000
-0.3010 AUTO-ENCODER </s> -0.3010
-0.3010 AUTO-LEGIONARY </s> -0.3010
-0.3010 AUTO-VAC 5150 0.0000
-0.3010 AUTOCANNON </s> -0.3010
-0.3010 AUTOMATA </s> -0.3010
-0.3010 AUTOMATON </s> -0.3010
-0.3010 AUXILIARY </s> -0.3010
-0.3010 AVALANCHE </s> -0.3010
-0.3010 AVENGING AURA 0.0000
-0.6021 AWAY </s> -0.3010
-0.6021 AWAY TEAM 0.0000
-0.3010 AXIOM OF -0.2988
-0.3010 BABBLE </s> -0.3010
-0.3010 BABBLING BIBLIOPHILE 0.0000
-0.7782 BACKUP </s> -0.3010
-0.7782 BACKUP COPY 0.0000
-0.7782 BACKUP PLAN 0.0000
-0.6021 BAD ALLIES 0.0000
-0.6021 BAD PENNY 0.0000
-0.3010 BADGEMAGUS </s> -0.3010
-0.3010 BAIT AND -0.1761
-0.3010 BALANCE </s> -0.3010
-0.3010 BALDRIC THE -0.2992
-0.3010 BALL </s> -0.3010
-0.3010 BALLCANO </s> -0.3010
-0.3010 BANE </s> -0.3010
-0.3010 BANGBANG </s> -0.3010
-0.3010 BANISH </s> -0.3010
-0.3010 BANK </s> -0.3010
-0.3010 BANK-EVIL TWIN -0.0086
-0.3010 BANNER OF -0.2965
-0.3010 BARB </s> -0.3010
-0.3010 BAREHANDED </s> -0.3010
-0.3010 BARN RAZING 0.0000
-0.6021 BARON </s> -0.3010
-0.6021 BARON MENGEVIN 0.0000
-0.3010 BARRISTER JOYA 0.0000
-0.3010 BATDRONE </s> -0.3010
-0.4260 BATTLE </s> -0.3010
-0.9031 BATTLE FLEET 0.0000
-0.3010 BATTLEFIELD </s> -0.3010
-0.3010 BAUBLE </s> -0.3010
-0.3010 BAUTREM </s> -0.3010
-0.3010 BEACH DAY 0.0000
-0.3010 BEAMBUCKLER </s> -0.3010
-0.3979 BEAR </s> -0.3010
-1.0000 BEAR FLUTE 0.0000
-0.3010 BEAR-EVIL TWIN -0.0086
-0.3010 BEARD </s> -0.3010
-0.3010 BEARD-EVIL TWIN -0.0086
-0.3010 BEASTS BANE 0.0000
-0.3010 BEGONE </s> -0.3010
-0.3010 BELLOWING PATRIZATE 0.0000
-0.3010 BERINON </s> -0.3010
-0.3010 BERSERKER SLAM 0.0000
-0.6021 BESTIARII URSO 0.0000
-0.6021 BESTIARII URSO-EVIL 0.0000
-0.3010 BEVOR </s> -0.3010
-0.3010 BEVOR-EVIL TWIN -0.0086
-0.3010 BEWARE THE -0.2992
-0.3010 BIBLIOPHILE </s> -0.3010
-0.3010 BIG ONE -0.1761
-0.3010 BIGTWIG </s> -0.3010
-0.3010 BILGEWARDEN </s> -0.3010
-0.3010 BILGUM AVALANCHE 0.0000
-0.3010 BIN </s> -0.3010
-0.6021 BINARY MORAY 0.0000
-0.6021 BINARY MORAY-EVIL 0.0000
-0.3010 BINATE RUPTURE 0.0000
-0.6021 BINDING </s> -0.3010
-0.6021 BINDING IRONS 0.0000
-0.3010 BINGLE BANGBANG 0.0000
-0.3010 BIOMATRIX BACKUP -0.2218
-0.3010 BIOME DISCOVERY 0.0000
-0.3010 BIRDS </s> -0.3010
-0.5229 BLAST </s> -0.3010
-1.0000 BLAST FROM -0.1761
-1.0000 BLAST SHIELDING 0.0000
-0.3010 BLASTER </s> -0.3010
-0.3010 BLATANT THIEVERY 0.0000
-0.3010 BLESSING </s> -0.3010
-0.3010 BLINDING LIGHT -0.2218
-0.7782 BLOOD </s> -0.3010
-0.7782 BLOOD MONEY 0.0000
-0.7782 BLOOD OF -0.2988
-0.3010 BLOODSHADOW </s> -0.3010
-0.3010 BLOODSHARD IMP 0.0000
-0.3010 BLOOM </s> -0.3010
-0.3010 BLORB </s> -0.3010
-0.3010 BLOSSOM DRAKE 0.0000
-0.3010 BLOW </s> -0.3010
-0.3010 BLYPYP </s> -0.3010
-0.3010 BO NITHING 0.0000
-0.3010 BODIES </s> -0.3010
-0.3010 BOIL </s> -0.3010
-0.3010 BOLD </s> -0.3010
-0.6021 BOLT </s> -0.3010
-0.6021 BOLT EMISSION 0.0000
-0.3010 BOLTER </s> -0.3010
-0.3010 BOLTON </s> -0.3010
-0.3010 BOMB </s> -0.3010
-0.3010 BOMBARDMENT </s> -0.3010
-0.3010 BOMBYX </s> -0.3010
-0.3010 BONEROT VENOM 0.0000
-0.3010 BONESAW </s> -0.3010
-0.3010 BOOBY TRAP 0.0000
-0.3010 BOOK OF -0.2965
-0.3010 BOOKTON </s> -0.3010
-0.3010 BOOMY </s> -0.3010
-0.3010 BOOTS </s> -0.3010
-0.3010 BORDAN THE -0.2992
-0.6021 BORR NIT 0.0000
-0.6021 BORR NITS 0.0000
-0.3010 BORROW </s> -0.3010
-0.3010 BOSS ZAREK 0.0000
-0.6021 BOT </s> -0.3010
-0.6021 BOT BOOKTON 0.0000
-0.3010 BOUNCING DEATHQUARK 0.0000
-0.3010 BOUNTY </s> -0.3010
-0.3010 BOX </s> -0.3010
-0.3010 BRABBLE </s> -0.3010
-0.3010 BRACCHANALIA </s> -0.3010
-0.3010 BRACCHUS </s> -0.3010
-0.3010 BRACHIADITUS </s> -0.3010
-0.7782 BRAIN DRAIN 0.0000
-0.7782 BRAIN EATER -0.1761
-0.7782 BRAIN STEM 0.0000
-0.3010 BRAMBLE LYNX 0.0000
-0.3010 BRAMMO </s> -0.3010
-0.3010 BREAK-KEY </s> -0.3010
-0.3010 BREAKER HILL 0.0000
-0.3010 BREND THE -0.2992
-0.3010 BREW </s> -0.3010
-0.3010 BRIAR GRUBBLING 0.0000
-0.3010 BRING LOW -0.1761
-0.6021 BROBNAR AMBASSADOR -0.0580
-0.6021 BROBNAR PLANT 0.0000
-0.3010 BROKEN DREAMS 0.0000
-0.3010 BRONZE KEY -0.2218
-0.3010 BROTHERHOOD </s> -0.3010
-0.3010 BROTHERS IN -0.2218
-0.3010 BRUNO </s> -0.3010
-0.3010 BRUTODON AUXILIARY 0.0000
-0.3010 BUBBLES </s> -0.3010
-0.3010 BUG </s> -0.3010
-0.3010 BUGGY </s> -0.3010
-0.3010 BULL-WARK </s> -0.3010
-0.3010 BULLETEYE </s> -0.3010
-0.3010 BULLETS </s> -0.3010
-0.3010 BULWARK </s> -0.3010
-0.3010 BUMBLEBIRD </s> -0.3010
-0.3010 BUMPSY </s> -0.3010
-0.3010 BUREAUCRAT </s> -0.3010
-0.3010 BURN THE -0.2992
-0.3010 BURNING GLARE 0.0000
-0.3010 BURY RICHES 0.0000
-0.3010 BUZZLE </s> -0.3010
-0.6021 BY NATURE 0.0000
-0.6021 BY WATER 0.0000
-0.3010 CADET </s> -0.3010
-0.6021 CALL </s> -0.3010
-0.9031 CALL OF -0.2378
-0.9031 CALL TO -0.2808
-0.3010 CALLBACK </s> -0.3010
-0.3010 CALLIPYGIAN IDEAL 0.0000
-0.3010 CALV-1N </s> -0.3010
-0.3010 CAMOUFLAGE </s> -0.3010
-0.3010 CAMP </s> -0.3010
-0.3010 CAN ALL -0.2218
-0.3010 CANDLE UNIT 0.0000
-0.3010 CANNON </s> -0.3010
-0.3010 CAPER </s> -0.3010
-1.0000 CAPTAIN KRESAGE 0.0000
-1.0000 CAPTAIN KRESAGE-EVIL 0.0000
-0.6990 CAPTAIN NO -0.1761
-1.0000 CAPTAIN VAL 0.0000
-0.3010 CAPTURA </s> -0.3010
-0.3010 CARD </s> -0.3010
-0.3010 CARGO </s> -0.3010
-0.3010 CARLO PHANTOM 0.0000
-0.3010 CARPE VINUM 0.0000
-0.3010 CARPET PHLOXEM -0.1761
-0.3010 CAULDRON BOIL 0.0000
-0.3010 CAUSAL LOOP 0.0000
-0.3010 CAVE </s> -0.3010
-0.3010 CAVERN </s> -0.3010
-0.3010 CEASEFORGE </s> -0.3010
-0.3010 CEMENT SHOES 0.0000
-0.6021 CENSOR PHILO 0.0000
-0.6021 CENSOR PHILO-EVIL 0.0000
-0.3010 CENSUS </s> -0.3010
-0.4771 CENTURION </s> -0.3010
-0.7782 CENTURION STENOPIUS 0.0000
-0.3010 CEPHALOIST </s> -0.3010
-0.3010 CH-337A </s> -0.3010
-0.3010 CH-337A-EVIL TWIN -0.0086
-0.6021 CHAIN </s> -0.3010
-0.6021 CHAIN GANG 0.0000
-0.3010 CHAINED </s> -0.3010
-0.3010 CHALLE THE -0.2992
-0.3010 CHALLENGE </s> -0.3010
-0.3010 CHAMBER </s> -0.3010
-0.6021 CHAMPION ANAPHIEL 0.0000
-0.6021 CHAMPION TABRIS 0.0000
-0.3010 CHAMPIONS CHALLENGE 0.0000
-0.3010 CHAN </s> -0.3010
-0.3010 CHANS BLASTER 0.0000
-0.4771 CHANT </s> -0.3010
-0.7782 CHANT OF -0.2988
-0.3010 CHAOS PORTAL 0.0000
-0.3010 CHAPMAN </s> -0.3010
-0.3010 CHAPMAN-EVIL TWIN -0.0086
-0.3010 CHARETTE </s> -0.3010
-0.3010 CHARGE </s> -0.3010
-0.3010 CHARYBDIS </s> -0.3010
-0.3010 CHELONIA </s> -0.3010
-0.3010 CHELONIA-EVIL TWIN -0.0086
-0.3010 CHENILLE </s> -0.3010
-0.3010 CHEST </s> -0.3010
-0.7782 CHIEF ENGINEER -0.2218
-0.7782 CHIEF GARCIA 0.0000
-0.7782 CHIEF TINK 0.0000
-0.3010 CHIEFTAIN </s> -0.3010
-0.3010 CHIEFTAINS BREW 0.0000
-0.3010 CHIP </s> -0.3010
-0.3010 CHONKERS </s> -0.3010
-0.4771 CHOSEN </s> -0.3010
-0.7782 CHOSEN ONE -0.1761
-0.3010 CHOTA HAZRI 0.0000
-0.3010 CHRONICLES </s> -0.3010
-0.3010 CHRONOPHAGE </s> -0.3010
-0.3010 CHRONUS </s> -0.3010
-0.3010 CHUFF APE 0.0000
-0.3010 CINCINNATUS REX 0.0000
-0.3010 CIRCUMSPECT </s> -0.3010
-0.3010 CIRCUMSPECT-EVIL TWIN -0.0086
-0.3010 CITIZEN SHRIX 0.0000
-0.3010 CITY GATES 0.0000
-0.3010 CITY-STATE INTEREST 0.0000
-0.3010 CLAIM </s> -0.3010
-0.3010 CLARIEL </s> -0.3010
-0.3010 CLARIEL-EVIL TWIN -0.0086
-0.3010 CLASH </s> -0.3010
-0.3010 CLAWDE </s> -0.3010
-0.3010 CLEANSING WAVE 0.0000
-0.6021 CLEAR </s> -0.3010
-0.6021 CLEAR MIND -0.2430
-0.3010 CLOAK </s> -0.3010
-0.3010 CLOAKING DONGLE 0.0000
-0.3010 CLOUDS </s> -0.3010
-0.3010 CODE MONKEY 0.0000
-0.3010 COIL </s> -0.3010
-0.3010 COINS </s> -0.3010
-0.3010 COLD </s> -0.3010
-0.3010 COLLAR OF -0.2988
-0.6021 COLLECTION </s> -0.3010
-0.6021 COLLECTION ARRAY 0.0000
-0.6021 COLLECTOR </s> -0.3010
-0.6021 COLLECTOR WORM 0.0000
-0.3010 COLLISION </s> -0.3010
-0.6021 COLONIST CHAPMAN 0.0000
-0.6021 COLONIST CHAPMAN-EVIL 0.0000
-0.3010 COLOSSEUM </s> -0.3010
-0.3010 COM OFFICER -0.2518
-0.3010 COMBAT PHEROMONES 0.0000
-0.3010 COME </s> -0.3010
-0.3010 COMING </s> -0.3010
-0.3010 COMMAND </s> -0.3010
-0.3010 COMMANDEER </s> -0.3010
-0.7782 COMMANDER CHAN 0.0000
-0.7782 COMMANDER DHRXGAR 0.0000
-0.7782 COMMANDER REMIEL 0.0000
-0.3010 COMMON COLD 0.0000
-0.3010 COMMPOD </s> -0.3010
-0.3010 COMMUNE </s> -0.3010
-0.3010 COMPILER </s> -0.3010
-0.3010 CONDUCTION UNIT 0.0000
-0.3010 CONJECTURE </s> -0.3010
-0.3010 CONSUL PRIMUS -0.1249
-0.3010 CONTAINMENT FIELD 0.0000
-0.3010 CONTROL THE -0.2955
-0.3010 COOPERATIVE HUNTING -0.1249
-0.3010 COPY </s> -0.3010
-0.3010 CORE </s> -0.3010
-0.3010 CORNICEN OCTAVIA 0.0000
-0.3010 CORPULENT COLLECTOR -0.1761
-0.3010 CORRODE </s> -0.3010
-0.3010 CORRUPTION </s> -0.3010
-0.3010 COUNCIL </s> -0.3010
-0.3010 COWARDS END 0.0000
-0.3010 COWFYNE </s> -0.3010
-0.3010 COWFYNES BREW 0.0000
-0.3010 CR OFFICER -0.2688
-0.3010 CRAFT </s> -0.3010
-0.3010 CRAG </s> -0.3010
-0.3010 CRASH MULDOON 0.0000
-0.3010 CRASSOSAURUS </s> -0.3010
-0.3010 CRAWLER </s> -0.3010
-0.3010 CRAZY KILLING 0.0000
-0.3010 CREED OF -0.2965
-0.3010 CREEPER </s> -0.3010
-0.3010 CREEPING OBLIVION 0.0000
-0.3010 CREWMAN JöRG 0.0000
-0.3010 CROCAG </s> -0.3010
-0.3010 CROSS PORPOISES 0.0000
-0.3010 CRUSHING CHARGE 0.0000
-0.6021 CRYSTAL HIVE 0.0000
-0.6021 CRYSTAL SURGE 0.0000
-0.3010 CULF THE -0.2973
-0.3010 CULL THE -0.2955
-0.3010 CUNNING </s> -0.3010
-0.3010 CUP OF -0.2988
-0.3010 CURATOR </s> -0.3010
-0.3010 CURIA SAURUS -0.1761
-0.3010 CURIOSITY </s> -0.3010
-0.3010 CURSE OF -0.2988
-0.3010 CUSTOM VIRUS 0.0000
-0.3010 CUSTOMS OFFICE 0.0000
-0.3010 CUTPURSE </s> -0.3010
-0.3010 CUTTHROAT RESEARCH -0.1249
-0.3010 CXO TABER 0.0000
-0.3010 CYBER-CLONE </s> -0.3010
-0.3010 CYBERGIANT RIG 0.0000
-0.3010 CYCLE </s> -0.3010
-0.3010 D1-V3 POD 0.0000
-0.3010 DAGGER </s> -0.3010
-0.3010 DAMNED </s> -0.3010
-0.3010 DAMO-ALIEN </s> -0.3010
-0.3010 DAMO-BEAST </s> -0.3010
-0.3010 DAMO-BOT </s> -0.3010
-0.3010 DAMO-KNIGHT </s> -0.3010
-0.3010 DAMO-SAURUS </s> -0.3010
-0.3010 DAMO-THIEF </s> -0.3010
-0.3010 DANCE OF -0.2965
-1.2041 DARK AMBER -0.2553
-1.2041 DARK CENTURION -0.1249
-1.2041 DARK DISCOVERY 0.0000
-1.2041 DARK FAERIE 0.0000
-1.2041 DARK HARBINGER -0.1761
-1.2041 DARK MINION 0.0000
-1.2041 DARK QUEEN -0.2218
-1.2041 DARK WAVE 0.0000
-0.3010 DARKNESS </s> -0.3010
-0.3010 DARTS </s> -0.3010
-0.3010 DATA FORGE -0.0969
-0.3010 DAUGHTER </s> -0.3010
-0.3010 DAWN </s> -0.3010
-0.3010 DAWN-EVIL TWIN -0.0086
-0.3010 DAY </s> -0.3010
-0.6021 DEAD </s> -0.3010
-0.6021 DEAD MANS 0.0000
-0.3010 DEATH </s> -0.3010
-0.3010 DEATHQUARK </s> -0.3010
-0.3010 DECADENCE </s> -0.3010
-0.3010 DECIMUS </s> -0.3010
-0.7782 DEEP </s> -0.3010
-0.7782 DEEP PRIEST -0.1761
-0.7782 DEEP PROBE 0.0000
-0.3010 DEEPWATER GRUEN 0.0000
-0.3010 DEEPWOOD DRUID 0.0000
-0.3010 DEFENSE INITIATIVE 0.0000
-0.3010 DEIPNO SPYMASTER 0.0000
-0.3010 DELIVERY </s> -0.3010
-0.3010 DEMON </s> -0.3010
-0.3010 DEMONS BANE 0.0000
-0.3010 DEN </s> -0.3010
-0.3010 DENDRIX </s> -0.3010
-0.3010 DENIED </s> -0.3010
-0.3010 DERRIC UNIFIER 0.0000
-0.3010 DESIRE </s> -0.3010
-0.3010 DESTROY THEM 0.0000
-0.3010 DESTRUCTIVE ANALYSIS 0.0000
-0.3010 DETENTION COIL 0.0000
-0.3010 DEUSILLUS </s> -0.3010
-0.3010 DEVICE </s> -0.3010
-0.3010 DEW FAERIE 0.0000
-0.3010 DEXTRE </s> -0.3010
-0.3010 DEXUS </s> -0.3010
-0.3010 DHARNA </s> -0.3010
-0.3010 DHRXGAR </s> -0.3010
-0.3010 DIAMETRIC CHARGE 0.0000
-0.3010 DICE </s> -0.3010
-0.3010 DIDNT </s> -0.3010
-0.3010 DIMENSION DOOR 0.0000
-0.3010 DINO YOU -0.1761
-0.3010 DINO-ALIEN </s> -0.3010
-0.3010 DINO-BEAST </s> -0.3010
-0.3010 DINO-BOT </s> -0.3010
-0.3010 DINO-FIEND </s> -0.3010
-0.3010 DINO-KNIGHT </s> -0.3010
-0.3010 DINO-THIEF </s> -0.3010
-0.3010 DINOSAUR HUNTER -0.1761
-0.3010 DINOSAURS BANE 0.0000
-0.3010 DIPLO-MACY </s> -0.3010
-0.3010 DIPLOMAT AGUNG 0.0000
-0.3010 DIRECTOR OF -0.2988
-0.4472 DIS </s> -0.3010
-1.1461 DIS AMBASSADOR -0.0580
-1.1461 DIS PLANT 0.0000
-0.3010 DISCOMBOBULATOR </s> -0.3010
-0.3010 DISCORD </s> -0.3010
-0.3010 DISCOVERY </s> -0.3010
-0.3010 DISGUISE </s> -0.3010
-0.3010 DISINTEGRATOR </s> -0.3010
-0.3010 DISRUPTION FIELD 0.0000
-0.3010 DISTRACTION </s> -0.3010
-0.3010 DIVE DEEP -0.2218
-0.3010 DOC BOOKTON 0.0000
-0.3010 DOCTOR DRISCOLL 0.0000
-0.3010 DODGER </s> -0.3010
-0.3010 DOLL </s> -0.3010
-0.3010 DOMINANCE </s> -0.3010
-0.6021 DOMINATOR </s> -0.3010
-0.6021 DOMINATOR BAUBLE 0.0000
-0.3010 DONGLE </s> -0.3010
-0.4260 DOOM </s> -0.3010
-0.9031 DOOM SIGIL -0.0969
-0.3010 DOOR </s> -0.3010
-0.3010 DOORSTEP TO -0.2808
-0.3010 DOUBLE DOOM -0.0969
-0.3010 DOWN </s> -0.3010
-0.7782 DR ESCOTERA 0.0000
-0.7782 DR MILLI 0.0000
-0.7782 DR VEROKTER 0.0000
-0.3010 DRACO PRAECO 0.0000
-0.3010 DRAGON </s> -0.3010
-0.3010 DRAIN </s> -0.3010
-0.3010 DRAINING TOUCH 0.0000
-0.3010 DRAKE </s> -0.3010
-0.3010 DRAWN DOWN 0.0000
-0.3010 DREADBONE DECIMUS 0.0000
-0.3010 DREAMS </s> -0.3010
-0.3010 DRECKER </s> -0.3010
-0.3010 DREDGING DRUID 0.0000
-0.3010 DRIFT </s> -0.3010
-0.3010 DRISCOLL </s> -0.3010
-0.3010 DRUID </s> -0.3010
-0.3010 DRUMBLE </s> -0.3010
-0.3010 DRUMMERNAUT </s> -0.3010
-0.3010 DRY THE -0.2992
-0.3010 DUMA THE -0.2992
-0.3010 DUSK CHRONICLES 0.0000
-0.3010 DUSKRUNNER </s> -0.3010
-0.3010 DUSKWITCH </s> -0.3010
-0.6021 DUST IMP 0.0000
-0.6021 DUST PIXIE 0.0000
-0.3010 DUX </s> -0.3010
-0.3010 DYNAMO </s> -0.3010
-0.3010 DYSANIA </s> -0.3010
-0.3010 EARLY BIRDS 0.0000
-0.3010 EARTHBIND </s> -0.3010
-0.3010 EARTHSHAKER </s> -0.3010
-0.3010 EASY MARKS 0.0000
-0.6021 EATER </s> -0.3010
-0.6021 EATER OF -0.2378
-0.3010 ECHO PEARL 0.0000
-0.7782 ECLECTIC AMBROSIUS 0.0000
-0.7782 ECLECTIC AMBROSIUS-EVIL 0.0000
-0.7782 ECLECTIC INQUIRY 0.0000
-0.3010 ECLIPSE </s> -0.3010
-0.3010 ECONOMIST </s> -0.3010
-0.3010 EDAI EDIE 0.0000
-0.3010 EDIE 4X4 0.0000
-0.3010 EE ON 0.0000
-0.3010 EFFERVESCENT PRINCIPLE 0.0000
-0.3010 EFFIGY OF -0.2988
-0.3010 EGAD </s> -0.3010
-0.3010 EGAD-EVIL TWIN -0.0086
-0.3010 EGG </s> -0.3010
-0.3010 EL-SAMRA </s> -0.3010
-0.3010 ELDER </s> -0.3010
-0.3010 ELDEST BEAR -0.0792
-0.3010 EMBER IMP 0.0000
-0.3010 EMERITUS KERING 0.0000
-0.3010 EMISSION </s> -0.3010
-0.3010 EMITTER </s> -0.3010
-0.3010 EMP BLAST -0.1461
-0.3010 ENCOUNTER SUIT 0.0000
-0.3010 END </s> -0.3010
-0.3010 ENFORCER </s> -0.3010
-0.3010 ENFORCER-EVIL TWIN -0.0086
-0.4771 ENGINEER </s> -0.3010
-0.7782 ENGINEER WALLS -0.1761
-0.3010 ENLIST NUMERI 0.0000
-0.3010 ENSIGN EL-SAMRA 0.0000
-0.6021 ENTROPIC MANIPULATOR 0.0000
-0.6021 ENTROPIC SWIRL 0.0000
-0.3010 ENVY </s> -0.3010
-0.3010 EPIC QUEST 0.0000
-0.3010 EQUALIZE </s> -0.3010
-0.3010 EQUILIBRIUM </s> -0.3010
-0.3010 ESCOTERA </s> -0.3010
-0.3010 ESPION </s> -0.3010
-0.3010 ESPION-EVIL TWIN -0.0086
-0.3010 ESSENCE SCALE 0.0000
-0.3010 ETANS JAR 0.0000
-0.3010 ETAROMME </s> -0.3010
-0.3010 ETHER SPIDER 0.0000
-0.3010 EUNOIA </s> -0.3010
-0.3010 EUREKA </s> -0.3010
-0.3010 EVASION SIGIL -0.0969
-0.3010 EVEN IVAN 0.0000
-0.3010 EVERLASTING </s> -0.3010
-0.3010 EVERYWHERE </s> -0.3010
-0.3010 EVIL EYE -0.0969
-0.3010 EVOLUTION </s> -0.3010
-0.3010 EWER </s> -0.3010
-0.6021 EXCHANGE </s> -0.3010
-0.6021 EXCHANGE OFFICER -0.2852
-0.3010 EXHUME </s> -0.3010
-0.3010 EXILE </s> -0.3010
-0.3010 EXPERIMENTAL THERAPY 0.0000
-0.3010 EXPERIMENTATION </s> -0.3010
-0.3010 EXPLO-ROVER </s> -0.3010
-0.3010 EXPLOIT </s> -0.3010
-0.3010 EXPLOITER </s> -0.3010
-0.3010 EXPLORATORY CRAFT 0.0000
-0.6021 EXTERMINATE </s> -0.3010
-0.6021 EXTERMINATE EXTERMINATE -0.1761
-0.3010 EXTINCTION </s> -0.3010
-0.4260 EYE </s> -0.3010
-0.9031 EYE OF -0.2988
-0.3010 EYEGOR </s> -0.3010
-0.3010 FAERIE </s> -0.3010
-0.6021 FAIR </s> -0.3010
-0.6021 FAIR GAME 0.0000
-0.3010 FAMINE </s> -0.3010
-0.3010 FANATIC </s> -0.3010
-0.3010 FANDANGLE </s> -0.3010
-0.3010 FANGHOUSE </s> -0.3010
-0.3010 FANGS OF -0.2988
-0.3010 FANGTOOTH CAVERN 0.0000
-0.3010 FATES </s> -0.3010
-0.3010 FATHER </s> -0.3010
-0.6021 FAUST </s> -0.3010
-0.6021 FAUST THE -0.2992
-0.3010 FAVIAN </s> -0.3010
-0.3010 FAVOR OF -0.2988
-0.3010 FAYE </s> -0.3010
-0.3010 FAYE-EVIL TWIN -0.0086
-0.3010 FAYGIN </s> -0.3010
-0.3010 FEAR </s> -0.3010
-0.3010 FEATHERED SHAMAN 0.0000
-0.3010 FEEDING PIT -0.1249
-0.3010 FELIX </s> -0.3010
-0.3010 FELIX-EVIL TWIN -0.0086
-0.3010 FENCE </s> -0.3010
-0.3010 FERTILITY CHANT -0.1249
-0.3010 FESTERING TOUCH 0.0000
-0.3010 FETCHDRONES </s> -0.3010
-0.3010 FEW </s> -0.3010
-0.3010 FIDDLE </s> -0.3010
-0.3010 FIDGIT </s> -0.3010
-0.3010 FIELD </s> -0.3010
-0.3010 FIERCE </s> -0.3010
-0.3010 FIFALDE </s> -0.3010
-0.3010 FIGHT </s> -0.3010
-0.3010 FILA THE -0.2992
-0.3010 FINAL ANALYSIS 0.0000
-0.3010 FINCH CLOAK 0.0000
-0.3010 FINGER </s> -0.3010
-0.3010 FINGERS </s> -0.3010
-0.3010 FINGERTRAP </s> -0.3010
-0.3010 FINISHED WITH -0.2218
-0.3010 FINISHING BLOW 0.0000
-0.3010 FIRE </s> -0.3010
-0.3010 FIRESPITTER </s> -0.3010
-1.0000 FIRST </s> -0.3010
-1.0000 FIRST BLOOD -0.2218
-1.0000 FIRST OFFICER -0.2852
-1.0000 FIRST OR -0.2825
-1.0000 FIRST SCROLL 0.0000
-0.3010 FISHES </s> -0.3010
-0.3010 FISSION BLOOM 0.0000
-0.3010 FITTEST </s> -0.3010
-0.3010 FIX FINGER 0.0000
-0.3010 FLAME-WREATHED </s> -0.3010
-0.3010 FLAMEFIST </s> -0.3010
-0.6021 FLAMEGILL ENFORCER 0.0000
-0.6021 FLAMEGILL ENFORCER-EVIL 0.0000
-0.3010 FLAMETHROWER </s> -0.3010
-0.3010 FLAMEWAKE SHAMAN 0.0000
-0.3010 FLASH FREEZE 0.0000
-0.3010 FLAXIA </s> -0.3010
-0.3010 FLEET </s> -0.3010
