Language model created by QuickLM on Tue Nov 15 21:29:04 EST 2022
Copyright (c) 1996-2010 Carnegie Mellon University and Alexander I. Rudnicky

The model is in standard ARPA format, designed by Doug Paul while he was at MITRE.

The code that was used to produce this language model is available in Open Source.
Please visit http://www.speech.cs.cmu.edu/tools/ for more information

The (fixed) discount mass is 0.5. The backoffs are computed using the ratio method.
This model based on a corpus of 1669 sentences and 2220 words

\data\
ngram 1=2220
ngram 2=4149
ngram 3=2976

\1-grams:
-4.1062 1 -0.2402
-4.1062 14 -0.2402
-4.1062 2 -0.2402
-4.1062 24 -0.2402
-4.1062 3 -0.2402
-4.1062 346E -0.2402
-4.1062 4X4 -0.2402
-4.1062 5150 -0.2402
-4.1062 5C077 -0.2402
-4.1062 5C077-EVIL -0.2993
-4.1062 9001 -0.2402
-0.8837 </s> -0.3010
-0.8837 <s> -0.2275
-3.5041 A -0.3007
-4.1062 ABANDON -0.3010
-3.8052 ABDUCTION -0.2402
-4.1062 ABOND -0.2970
-4.1062 ABOUT -0.3010
-4.1062 ABSOLVE -0.2402
-4.1062 ABYSSAL -0.3009
-4.1062 ABYSSAL-SIGHT -0.2402
-4.1062 ACADEMY -0.3010
-3.5041 ACCESS -0.2401
-4.1062 ACCORD -0.2402
-3.8052 ACTION -0.2402
-4.1062 ADAPTOID -0.2402
-4.1062 ADULT-SWIM -0.2402
-4.1062 ADVANTAGE -0.2402
-4.1062 ADVENTURER -0.2402
-4.1062 AEDILE-TULLIA -0.2402
-4.1062 AEMBERLING -0.2402
-4.1062 AEMBITRAGE -0.2402
-4.1062 AEMBROSIA-OUTPOST -0.2402
-4.1062 AGAINST -0.3009
-3.5041 AGENT -0.3009
-4.1062 AGUNG -0.2402
-4.1062 AIRLOCK -0.2402
-4.1062 AJA -0.2970
-3.8052 ALAKA -0.2402
-4.1062 ALAKAS -0.3008
-4.1062 ALERT -0.2402
-4.1062 ALI -0.2402
-3.6291 ALL -0.2401
-3.6291 ALLIANCE -0.2399
-4.1062 ALLIES -0.2402
-4.1062 ALLUSIONS -0.2978
-4.1062 ALMSMASTER -0.2402
-4.1062 ALMSMASTER-EVIL -0.2993
-4.1062 ALTAR -0.2402
-4.1062 ALTRUISTS -0.3010
-4.1062 ALTUM -0.2402
-4.1062 ALYS -0.2402
-3.2611 AMBASSADOR -0.2402
-3.4072 AMBER -0.2398
-4.1062 AMBER-VAC -0.2402
-3.8052 AMBERFIN -0.3009
-4.1062 AMBERHEART -0.2402
-4.1062 AMBERLUTION -0.2402
-4.1062 AMBERMANCY -0.2402
-4.1062 AMBERSPINE -0.3010
-4.1062 AMBERTRACKER -0.2402
-4.1062 AMBROSIUS -0.2402
-4.1062 AMBROSIUS-EVIL -0.2993
-4.1062 AMMONIA -0.3010
-4.1062 AMPHORA -0.3010
-4.1062 AN -0.3009
-4.1062 ANAHITA -0.2970
-3.8052 ANALYSIS -0.2402
-4.1062 ANALYST -0.2402
-4.1062 ANAPHIEL -0.2402
-3.6291 ANCIENT -0.3007
-4.1062 ANCIENT-BATTLEGROUND -0.2402
-3.8052 AND -0.3010
-4.1062 ANGA -0.2402
-4.1062 ANGER -0.2402
-4.1062 ANGRY -0.3010
-4.1062 ANGWISH -0.2402
-4.1062 ANIMATOR -0.2402
-4.1062 ANKYLO -0.3010
-4.1062 ANNIHILATION -0.3008
-4.1062 ANNOYS -0.2402
-4.1062 ANOMALY -0.3010
-4.1062 ANTENNA -0.2402
-4.1062 ANTIQUITIES-DEALER -0.2402
-4.1062 ANTONY -0.2402
-4.1062 ANVIL -0.2402
-3.8052 APE -0.2402
-4.1062 AQUILIA-LONE-HERO -0.2402
-4.1062 ARCHAEOLOGIST -0.2402
-4.1062 ARCHIMEDES -0.2402
-4.1062 ARCHIVES -0.2402
-3.8052 ARCHIVIST -0.2402
-4.1062 ARCHONIS -0.2402
-3.6291 ARCHONS -0.2401
-4.1062 ARDENT -0.3010
-4.1062 ARISE -0.2402
-4.1062 ARISTOTLMIMUS -0.2402
-4.1062 ARM-THE-PLEBEIANS -0.2402
-4.1062 ARMADRONE -0.2402
-4.1062 ARMADRONE-EVIL -0.2993
-4.1062 ARMAGEDDON -0.3010
-3.6291 ARMOR -0.2402
-4.1062 ARMORSMITH -0.2402
-4.1062 ARMORY -0.3006
-4.1062 ARMSMASTER -0.3010
-4.1062 ARRAY -0.2402
-4.1062 ASP -0.2402
-4.1062 ASSAULT -0.2402
-4.1062 ASSERT -0.3010
-4.1062 ATTENDANT -0.2402
-4.1062 AUBADE -0.2970
-4.1062 AUCTION-OFF -0.2402
-4.1062 AUGUR -0.2402
-4.1062 AUGUR-EVIL -0.2993
-3.8052 AURA -0.2402
-3.8052 AUSTERALIS -0.2402
-4.1062 AUTO-ENCODER -0.2402
-4.1062 AUTO-LEGIONARY -0.2402
-4.1062 AUTO-VAC -0.3010
-4.1062 AUTOCANNON -0.2402
-4.1062 AUTOMATA -0.2402
-4.1062 AUTOMATON -0.2402
-4.1062 AUXILIARY -0.2402
-4.1062 AVALANCHE -0.2402
-4.1062 AVENGING -0.3010
-4.1062 AVID-COLLECTING -0.2402
-3.8052 AWAY -0.2402
-4.1062 AXIOM -0.2978
-4.1062 AZURE-BASIN-OUTPOST -0.2402
-4.1062 B0-T -0.2402
-4.1062 BABBLE -0.2402
-4.1062 BABBLING -0.3010
-3.6291 BACKUP -0.2401
-3.8052 BAD -0.3009
-4.1062 BADGE-OF-UNITY -0.2402
-4.1062 BADGEMAGUS -0.2402
-4.1062 BAIT -0.3010
-4.1062 BALANCE -0.2402
-4.1062 BALDRIC -0.2970
-4.1062 BALL -0.2402
-4.1062 BALLCANO -0.2402
-4.1062 BALLISTEGO -0.2402
-3.2611 BANE -0.2402
-4.1062 BANGBANG -0.2402
-4.1062 BANISH -0.2402
-4.1062 BANK -0.2402
-4.1062 BANK-EVIL -0.2993
-4.1062 BANNER -0.2978
-4.1062 BARB -0.2402
-4.1062 BAREHANDED -0.2402
-4.1062 BARN -0.3010
-3.8052 BARON -0.2402
-4.1062 BARRISTER -0.3010
-4.1062 BATARIEL-OF-THE-GREY -0.2402
-4.1062 BATDRONE -0.2402
-3.5041 BATTLE -0.2402
-4.1062 BATTLEFIELD -0.2402
-4.1062 BATTLEVANGELIST -0.2402
-4.1062 BAUBLE -0.2402
-4.1062 BAUTREM -0.2402
-4.1062 BEACH -0.3010
-4.1062 BEAMBUCKLER -0.2402
-3.4072 BEAR -0.2402
-4.1062 BEAR-EVIL -0.2993
-4.1062 BEARD -0.2402
-4.1062 BEARD-EVIL -0.2993
-4.1062 BEASTS -0.3008
-4.1062 BEFUDDLE -0.2402
-4.1062 BEGONE -0.2402
-4.1062 BELLATORAN-WARRIOR -0.2402
-4.1062 BELLIGERENT-GUARD -0.2402
-4.1062 BELLOWING -0.3010
-4.1062 BERINON -0.2402
-3.8052 BERSERKER -0.2402
-3.8052 BESTIARII -0.3010
-4.1062 BEVOR -0.2402
-4.1062 BEVOR-EVIL -0.2993
-4.1062 BEWARE -0.2970
-4.1062 BIBLIOPHILE -0.2402
-4.1062 BIG -0.3008
-4.1062 BIG-MAGNET -0.2402
-4.1062 BIGTWIG -0.2402
-4.1062 BILGEWARDEN -0.2402
-4.1062 BILGUM -0.3010
-4.1062 BIN -0.2402
-3.8052 BINARY -0.3010
-4.1062 BINATE -0.3010
-3.8052 BINDING -0.2402
-4.1062 BINGLE -0.3010
-4.1062 BIOMATRIX -0.3009
-4.1062 BIOME -0.3009
-4.1062 BIRDS -0.2402
-3.4072 BLAST -0.2401
-3.0270 BLASTER -0.2402
-4.1062 BLATANT -0.3010
-4.1062 BLESSING -0.2402
-4.1062 BLINDING -0.3009
-3.6291 BLOOD -0.2364
-4.1062 BLOODSHADOW -0.2402
-4.1062 BLOODSHARD -0.3008
-4.1062 BLOOM -0.2402
-4.1062 BLORB -0.2402
-4.1062 BLORB-HIVE -0.2402
-4.1062 BLOSSOM -0.3010
-3.8052 BLOW -0.2402
-4.1062 BLYPYP -0.2402
-4.1062 BO -0.3010
-4.1062 BODIES -0.2402
-4.1062 BOIL -0.2402
-4.1062 BOLD -0.2402
-3.8052 BOLT -0.2402
-4.1062 BOLTER -0.2402
-4.1062 BOLTON -0.2402
-4.1062 BOMB -0.2402
-4.1062 BOMBARDMENT -0.2402
-4.1062 BOMBYX -0.2402
-4.1062 BONEROT -0.3010
-4.1062 BONESAW -0.2402
-4.1062 BOOBY -0.3010
-3.8052 BOOK -0.2978
-3.8052 BOOKTON -0.2402
-4.1062 BOOMY -0.2402
-4.1062 BOOTS -0.2402
-4.1062 BORDAN -0.2970
-4.1062 BORKA-RIKK -0.2402
-3.8052 BORR -0.3010
-4.1062 BORROW -0.2402
-4.1062 BOSS -0.3010
-3.8052 BOT -0.2401
-4.1062 BOUNCING -0.3010
-4.1062 BOUNTY -0.2402
-4.1062 BOX -0.2402
-4.1062 BRABBLE -0.2402
-4.1062 BRACCHANALIA -0.2402
-4.1062 BRACCHUS -0.2402
-4.1062 BRACHIADITUS -0.2402
-4.1062 BRACKISH-SHORELINE -0.2402
-3.6291 BRAIN -0.3009
-4.1062 BRAINDART -0.2402
-4.1062 BRAMBLE -0.3010
-4.1062 BRAMMO -0.2402
-4.1062 BRAWL-IN -0.2402
-4.1062 BREAK-KEY -0.2402
-4.1062 BREAKER -0.3010
-4.1062 BREND -0.2970
-3.2031 BREW -0.2402
-4.1062 BRIAR -0.3010
-4.1062 BRIKK-NASTEE -0.2402
-4.1062 BRING -0.3010
-3.8052 BROBNAR -0.3006
-4.1062 BROKEN -0.3010
-4.1062 BROKEN-AXE-OUTPOST -0.2402
-4.1062 BRONZE -0.3007
-4.1062 BROTHERHOOD -0.2402
-4.1062 BROTHERS -0.3009
-4.1062 BRUNO -0.2402
-4.1062 BRUTODON -0.3010
-4.1062 BRYOZOARCH -0.2402
-4.1062 BUBBLES -0.2402
-4.1062 BUG -0.2402
-4.1062 BUGGY -0.2402
-4.1062 BULL-WARK -0.2402
-4.1062 BULLETEYE -0.2402
-4.1062 BULLETS -0.2402
-4.1062 BULWARK -0.2402
-4.1062 BUMBLEBIRD -0.2402
-4.1062 BUMPSY -0.2402
-4.1062 BUREAUCRAT -0.2402
-4.1062 BURN -0.2970
-4.1062 BURNING -0.3010
-4.1062 BURY -0.3010
-4.1062 BUZZLE -0.2402
-3.8052 BY -0.3009
-3.8052 CADET -0.2402
-3.5041 CALL -0.2360
-4.1062 CALLBACK -0.2402
-4.1062 CALLIPYGIAN -0.3010
-4.1062 CALV-1N -0.2402
-4.1062 CAMARADERIE -0.2402
-4.1062 CAMOUFLAGE -0.2402
-4.1062 CAMP -0.2402
-4.1062 CAN -0.3009
-4.1062 CANDLE -0.3010
-3.8052 CANNON -0.2402
-4.1062 CAPER -0.2402
-3.4072 CAPTAIN -0.3008
-4.1062 CAPTURA -0.2402
-4.1062 CARD -0.2402
-4.1062 CARGO -0.2402
-4.1062 CARLO -0.3010
-4.1062 CARPE -0.3010
-4.1062 CARPET -0.3010
-4.1062 CATCH-AND-RELEASE -0.2402
-4.1062 CAULDRON -0.3010
-4.1062 CAUSAL -0.3010
-4.1062 CAVE -0.2402
-4.1062 CAVERN -0.2402
-4.1062 CEASEFORGE -0.2402
-4.1062 CELESTIAL-GORM -0.2402
-4.1062 CEMENT -0.3010
-3.8052 CENSOR -0.3010
-4.1062 CENSUS -0.2402
-3.6291 CENTURION -0.2402
-4.1062 CEPHALOIST -0.2402
-4.1062 CH-337A -0.2402
-4.1062 CH-337A-EVIL -0.2993
-3.8052 CHAIN -0.2401
-4.1062 CHAINED -0.2402
-4.1062 CHALLE -0.2970
-4.1062 CHALLENGE -0.2402
-4.1062 CHAMBER -0.2402
-3.8052 CHAMPION -0.3010
-4.1062 CHAMPIONS -0.3010
-4.1062 CHAN -0.2402
-4.1062 CHANCELLOR-DEXTERUS -0.2402
-4.1062 CHANS -0.3006
-3.6291 CHANT -0.2364
-4.1062 CHAOS -0.3010
-4.1062 CHAOSODON -0.2402
-4.1062 CHAPMAN -0.2402
-4.1062 CHAPMAN-EVIL -0.2993
-4.1062 CHARETTE -0.2402
-3.4072 CHARGE -0.2402
-4.1062 CHARYBDIS -0.2402
-4.1062 CHELONIA -0.2402
-4.1062 CHELONIA-EVIL -0.2993
-4.1062 CHENILLE -0.2402
-4.1062 CHEST -0.2402
-3.6291 CHIEF -0.3009
-3.8052 CHIEFTAIN -0.2402
-4.1062 CHIEFTAINS -0.3008
-4.1062 CHIP -0.2402
-4.1062 CHONKERS -0.2402
-3.6291 CHOSEN -0.2400
-4.1062 CHOTA -0.3010
-4.1062 CHRONICLES -0.2402
-4.1062 CHRONOPHAGE -0.2402
-4.1062 CHRONUS -0.2402
-4.1062 CHUFF -0.3010
-4.1062 CINCINNATUS -0.3009
-4.1062 CIRCUMSPECT -0.2402
-4.1062 CIRCUMSPECT-EVIL -0.2993
-4.1062 CITIZEN -0.3009
-4.1062 CITY -0.3010
-4.1062 CITY-STATE -0.3010
-4.1062 CLAIM -0.2402
-4.1062 CLARIEL -0.2402
-4.1062 CLARIEL-EVIL -0.2993
-4.1062 CLASH -0.2402
-4.1062 CLAWDE -0.2402
-4.1062 CLEANSING -0.3009
-3.8052 CLEAR -0.2400
-4.1062 CLERIC -0.2402
-3.8052 CLOAK -0.2402
-4.1062 CLOAKING -0.3010
-4.1062 CLONE-HOME -0.2402
-4.1062 CLOSED-DOOR-NEGOTIATION -0.2402
-4.1062 CLOUDS -0.2402
-4.1062 CODE -0.3010
-4.1062 COIL -0.2402
-4.1062 COINS -0.2402
-4.1062 COLD -0.2402
-4.1062 COLLAR -0.2978
-3.8052 COLLECTION -0.2402
-3.8052 COLLECTOR -0.2402
-4.1062 COLLECTOR-BOREN -0.2402
-4.1062 COLLISION -0.2402
-4.1062 COLONEL-MARIANA -0.2402
-3.8052 COLONIST -0.3010
-4.1062 COLOSSEUM -0.2402
-3.6291 COM -0.3006
-4.1062 COMBAT -0.3010
-4.1062 COME -0.2402
-4.1062 COMING -0.2402
-3.8052 COMMAND -0.2402
-4.1062 COMMANDEER -0.2402
-3.6291 COMMANDER -0.3009
-4.1062 COMMON -0.3010
-4.1062 COMMPOD -0.2402
-4.1062 COMMUNE -0.2402
-4.1062 COMPILER -0.2402
-4.1062 CONDUCTION -0.3010
-4.1062 CONDUCTOR-JARROYA -0.2402
-4.1062 CONJECTURE -0.2402
-4.1062 CONSCRIPTION -0.2402
-4.1062 CONSUL -0.3009
-4.1062 CONTAINMENT -0.3009
-4.1062 CONTROL -0.2970
-4.1062 COOPERATIVE -0.3009
-4.1062 COPY -0.2402
-4.1062 CORE -0.2402
-4.1062 CORNER-THE-MARKET -0.2402
-4.1062 CORNICEN -0.3010
-4.1062 CORPULENT -0.3010
-4.1062 CORRODE -0.2402
-4.1062 CORRUPTION -0.2402
-3.8052 COUNCIL -0.2402
-4.1062 COVETOUS-HEMA -0.2402
-4.1062 COWARDS -0.3010
-3.8052 COWFYNE -0.2402
-4.1062 COWFYNES -0.3008
-4.1062 CPO-ZYTAR -0.2402
-3.8052 CR -0.3006
-4.1062 CRAFT -0.2402
-4.1062 CRAG -0.2402
-4.1062 CRASH -0.3010
-4.1062 CRASSOSAURUS -0.2402
-4.1062 CRAWLER -0.2402
-4.1062 CRAZY -0.3010
-3.8052 CREED -0.2978
-4.1062 CREEPER -0.2402
-4.1062 CREEPING -0.3010
-4.1062 CREWMAN -0.3010
-4.1062 CRIM-TORCHTOOTH -0.2402
-4.1062 CROCAG -0.2402
-4.1062 CROGG-THE-CLUMSY -0.2402
-4.1062 CROSS -0.3010
-4.1062 CRUSHING -0.3009
-4.1062 CRUSHING-DEEP -0.2402
-3.8052 CRYSTAL -0.3009
-4.1062 CULF -0.2970
-4.1062 CULL -0.2970
-4.1062 CULTIST -0.2402
-4.1062 CULTURAL-EXCHANGE -0.2402
-4.1062 CUNNING -0.2402
-4.1062 CUP -0.2978
-4.1062 CURATOR -0.2402
-4.1062 CURIA -0.3010
-4.1062 CURIOSITY -0.2402
-4.1062 CURSE -0.2978
-4.1062 CURSED-RELIC -0.2402
-4.1062 CUSTOM -0.3010
-4.1062 CUSTOMS -0.3010
-4.1062 CUTPURSE -0.2402
-4.1062 CUTTHROAT -0.3009
-4.1062 CXO -0.3010
-4.1062 CYBER-CLONE -0.2402
-4.1062 CYBERGIANT -0.3010
-4.1062 CYCLE -0.2402
-4.1062 D1-V3 -0.3010
-4.1062 DAGGER -0.2402
-3.8052 DAMNED -0.2402
-4.1062 DAMO-ALIEN -0.2402
-4.1062 DAMO-BEAST -0.2402
-4.1062 DAMO-BOT -0.2402
-4.1062 DAMO-KNIGHT -0.2402
-4.1062 DAMO-SAURUS -0.2402
-4.1062 DAMO-THIEF -0.2402
-4.1062 DANCE -0.2978
-3.2031 DARK -0.3002
-4.1062 DARKNESS -0.2402
-4.1062 DARTS -0.2402
-4.1062 DATA -0.3009
-4.1062 DAUGHTER -0.2402
-3.8052 DAWN -0.2402
-4.1062 DAWN-EVIL -0.2993
-4.1062 DAY -0.2402
-3.8052 DEAD -0.2402
-4.1062 DEATH -0.2402
-4.1062 DEATHQUARK -0.2402
-4.1062 DECADENCE -0.2402
-4.1062 DECIMUS -0.2402
-3.6291 DEEP -0.2400
-4.1062 DEEPWATER -0.3010
-4.1062 DEEPWOOD -0.3010
-4.1062 DEFENDER -0.2402
-4.1062 DEFENSE -0.3010
-4.1062 DEIPNO -0.3010
-4.1062 DELIVERY -0.2402
-3.8052 DEMON -0.2402
-4.1062 DEMONS -0.3008
-4.1062 DEN -0.2402
-4.1062 DENDRIX -0.2402
-4.1062 DENIED -0.2402
-4.1062 DERRIC -0.3010
-4.1062 DESIRE -0.2402
-4.1062 DESTROY -0.3010
-4.1062 DESTRUCTIVE -0.3010
-4.1062 DETENTION -0.3010
-4.1062 DEUSILLUS -0.2402
-4.1062 DEVICE -0.2402
-4.1062 DEW -0.3010
-4.1062 DEXTRE -0.2402
-4.1062 DEXUS -0.2402
-4.1062 DHARNA -0.2402
-4.1062 DHRXGAR -0.2402
-4.1062 DIAMETRIC -0.3009
-4.1062 DICE -0.2402
-4.1062 DIDNT -0.2402
-4.1062 DIMENSION -0.3010
-4.1062 DINO -0.3010
-4.1062 DINO-ALIEN -0.2402
-4.1062 DINO-BEAST -0.2402
-4.1062 DINO-BOT -0.2402
-4.1062 DINO-FIEND -0.2402
-4.1062 DINO-KNIGHT -0.2402
-4.1062 DINO-THIEF -0.2402
-4.1062 DINOSAUR -0.3010
-4.1062 DINOSAURS -0.3008
-4.1062 DIPLO-MACY -0.2402
-3.8052 DIPLOMAT -0.2402
-4.1062 DIRECTOR -0.2978
-3.2611 DIS -0.2397
-4.1062 DISCIPLE -0.2402
-4.1062 DISCOMBOBULATOR -0.2402
-4.1062 DISCORD -0.2402
-3.6291 DISCOVERY -0.2402
-4.1062 DISGUISE -0.2402
-4.1062 DISINTEGRATOR -0.2402
-4.1062 DISRUPTION -0.3009
-4.1062 DISTRACTION -0.2402
-4.1062 DIVE -0.3009
-4.1062 DOC -0.3010
-4.1062 DOCTOR -0.3010
-4.1062 DODGER -0.2402
-4.1062 DOLL -0.2402
-4.1062 DOMINANCE -0.2402
-3.8052 DOMINATOR -0.2402
-4.1062 DONGLE -0.2402
-3.5041 DOOM -0.2400
-4.1062 DOOR -0.2402
-4.1062 DOORSTEP -0.3007
-4.1062 DOUBLE -0.3009
-4.1062 DOWN -0.2402
-3.6291 DR -0.3009
-4.1062 DRACO -0.3010
-4.1062 DRAGNET -0.2402
-4.1062 DRAGON -0.2402
-4.1062 DRAIN -0.2402
-4.1062 DRAINING -0.3009
-4.1062 DRAKE -0.2402
-4.1062 DRAWN -0.3010
-4.1062 DREADBONE -0.3010
-4.1062 DREAMS -0.2402
-4.1062 DRECKER -0.2402
-4.1062 DREDGING -0.3010
-4.1062 DRIFT -0.2402
-4.1062 DRISCOLL -0.2402
-3.8052 DRUID -0.2402
-4.1062 DRUMBLE -0.2402
-4.1062 DRUMMERNAUT -0.2402
-4.1062 DRY -0.2970
-4.1062 DTHOSHRA-RECRUITER -0.2402
-4.1062 DUMA -0.2970
-4.1062 DUSK -0.3010
-4.1062 DUSKRUNNER -0.2402
-4.1062 DUSKWITCH -0.2402
-3.8052 DUST -0.3007
-4.1062 DUX -0.2402
-4.1062 DYNAMO -0.2402
-4.1062 DYSANIA -0.2402
-4.1062 EARLY -0.3010
-4.1062 EARTHBIND -0.2402
-4.1062 EARTHSHAKER -0.2402
-4.1062 EASY -0.3010
-3.8052 EATER -0.2364
-4.1062 ECHO -0.3010
-4.1062 ECHO-REFLECTOR -0.2402
-3.6291 ECLECTIC -0.3009
-4.1062 ECLIPSE -0.2402
-4.1062 ECONOMIST -0.2402
-4.1062 EDAI -0.3010
-4.1062 EDICT-OF-NEROTAURUS -0.2402
-4.1062 EDIE -0.3010
-4.1062 EE -0.3010
-4.1062 EFFERVESCENT -0.3010
-4.1062 EFFIGY -0.2978
-4.1062 EGAD -0.2402
-4.1062 EGAD-EVIL -0.2993
-4.1062 EGG -0.2402
-4.1062 EL-SAMRA -0.2402
-4.1062 ELDER -0.2402
-4.1062 ELDEST -0.3009
-4.1062 ELECTION -0.2402
-4.1062 EMBER -0.3008
-4.1062 EMERITUS -0.3010
-4.1062 EMISSION -0.2402
-4.1062 EMITTER -0.2402
-4.1062 EMP -0.3009
-4.1062 ENCOUNTER -0.3010
-3.8052 END -0.2402
-4.1062 ENDLESS-HORDES -0.2402
-4.1062 ENFORCER -0.2402
-4.1062 ENFORCER-EVIL -0.2993
-3.6291 ENGINEER -0.2401
-4.1062 ENLIST -0.3010
-4.1062 ENSIGN -0.3010
-3.8052 ENTROPIC -0.3010
-4.1062 ENVOY-OF-EKWIRRE -0.2402
-4.1062 ENVY -0.2402
-4.1062 EPIC -0.3010
-4.1062 EPIC-POEM -0.2402
-4.1062 EQUALIZE -0.2402
-4.1062 EQUILIBRIUM -0.2402
-4.1062 ESCOTERA -0.2402
-4.1062 ESPION -0.2402
-4.1062 ESPION-EVIL -0.2993
-4.1062 ESSENCE -0.3010
-4.1062 ETANS -0.3010
-4.1062 ETAROMME -0.2402
-4.1062 ETHER -0.3010
-4.1062 EUNOIA -0.2402
-4.1062 EUREKA -0.2402
-4.1062 EVASION -0.3009
-4.1062 EVEN -0.3010
-4.1062 EVERLASTING -0.2402
-4.1062 EVERYWHERE -0.2402
-4.1062 EVIL -0.3009
-4.1062 EVOLUTION -0.2402
-4.1062 EWER -0.2402
-3.8052 EXCHANGE -0.2397
-4.1062 EXCHANGE-PROGRAM -0.2402
-4.1062 EXHUME -0.2402
-4.1062 EXILE -0.2402
-4.1062 EXO-SHELL-SYSTEM -0.2402
-4.1062 EXPERIMENTAL -0.3010
-4.1062 EXPERIMENTATION -0.2402
-4.1062 EXPLO-ROVER -0.2402
-4.1062 EXPLOIT -0.2402
-4.1062 EXPLOITER -0.2402
-4.1062 EXPLORATORY -0.3010
-4.1062 EXPLORER -0.2402
-3.8052 EXTERMINATE -0.2401
-4.1062 EXTINCTION -0.2402
-4.1062 EXTREMATODE-INFECTION -0.2402
-3.5041 EYE -0.2364
-4.1062 EYEGOR -0.2402
-3.8052 FAERIE -0.2402
-3.8052 FAIR -0.2402
-4.1062 FAMINE -0.2402
-4.1062 FANATIC -0.2402
-4.1062 FANDANGLE -0.2402
-4.1062 FANGHOUSE -0.2402
-4.1062 FANGS -0.2978
-4.1062 FANGTOOTH -0.3010
-4.1062 FATES -0.2402
-4.1062 FATHER -0.2402
-4.1062 FATHOM-REAVER -0.2402
-3.8052 FAUST -0.2356
-4.1062 FAVIAN -0.2402
-4.1062 FAVOR -0.2978
-4.1062 FAYE -0.2402
-4.1062 FAYE-EVIL -0.2993
-4.1062 FAYGIN -0.2402
-4.1062 FEAR -0.2402
-4.1062 FEATHERED -0.3010
-4.1062 FEATS-OF-STRENGTH -0.2402
-4.1062 FEEDING -0.3009
-4.1062 FELIX -0.2402
-4.1062 FELIX-EVIL -0.2993
-4.1062 FENCE -0.2402
-4.1062 FERTILITY -0.3009
-4.1062 FESTERING -0.3009
-4.1062 FETCHDRONES -0.2402
-4.1062 FEW -0.2402
-4.1062 FIDDLE -0.2402
-4.1062 FIDGIT -0.2402
-3.6291 FIELD -0.2402
-4.1062 FIERCE -0.2402
-4.1062 FIFALDE -0.2402
-4.1062 FIGHT -0.2402
-4.1062 FILA -0.2970
-4.1062 FINAL -0.3010
-4.1062 FINCH -0.3010
-4.1062 FINGER -0.2402
-4.1062 FINGERS -0.2402
-4.1062 FINGERTRAP -0.2402
-4.1062 FINISHED -0.3009
-4.1062 FINISHING -0.3010
-3.8052 FIRE -0.2402
-4.1062 FIRESPITTER -0.2402
-3.4072 FIRST -0.2390
-4.1062 FISH -0.2402
-4.1062 FISHES -0.2402
-4.1062 FISSION -0.3010
-4.1062 FITTEST -0.2402
-4.1062 FIX -0.3010
-4.1062 FLAME-WREATHED -0.2402
-4.1062 FLAMEFIST -0.2402
-3.8052 FLAMEGILL -0.3010
-4.1062 FLAMETHROWER -0.2402
-4.1062 FLAMEWAKE -0.3010
-4.1062 FLASH -0.3010
-4.1062 FLAXIA -0.2402
-4.1062 FLEA-MARKET -0.2402
-4.1062 FLEET -0.2402
-4.1062 FLEX -0.2402
-4.1062 FLOOMF -0.2402
-4.1062 FLOOR -0.3010
-4.1062 FLOUNDERIGHT -0.2402
-4.1062 FLOWERS -0.2402
-4.1062 FLUTE -0.2402
-4.1062 FLUX -0.2402
-4.1062 FLYIN -0.3010
-4.1062 FOF-TRANSPONDER -0.2402
-4.1062 FOGBANK -0.2402
-4.1062 FOGGIFY -0.2402
-4.1062 FOLLOW -0.2970
-4.1062 FONT -0.2978
-4.1062 FOOZLE -0.2402
-4.1062 FOR -0.3009
-4.1062 FORCE -0.3009
-4.1062 FORCED-RETIREMENT -0.2402
-4.1062 FOREST -0.2402
-3.5041 FORGE -0.2402
-4.1062 FORGEMASTER -0.3010
-4.1062 FORGET -0.2402
-4.1062 FORGING -0.3010
-4.1062 FORGIVE -0.3006
-4.1062 FORGOTTEN -0.2402
-4.1062 FORMATION -0.2402
-4.1062 FORUM -0.2978
-4.1062 FOUND -0.2402
-4.1062 FRANCIS -0.2970
-4.1062 FRANCUS -0.2402
-4.1062 FRANE -0.2402
-4.1062 FRANES -0.3006
-4.1062 FRAY -0.2402
-4.1062 FREE -0.3010
-3.8052 FREEBOOTER -0.3010
-4.1062 FREELANCER -0.2402
-4.1062 FREEZE -0.2402
-4.1062 FRESH-MARKS -0.2402
-4.1062 FRIENDLY-GUIDE -0.2402
-4.1062 FRIENDSHIP -0.2402
-4.1062 FRIGORIFIC -0.3010
-4.1062 FRINGES -0.2402
-3.8052 FROM -0.2970
-4.1062 FRONTIERS -0.2402
-4.1062 FROST-GIANT -0.2402
-4.1062 FUGURU -0.2402
-4.1062 FULL -0.3010
-4.1062 FURTIVE -0.3010
-4.1062 FURY -0.2402
-4.1062 FUTURE -0.3010
-4.1062 FUTURE-BOOSTER -0.2402
-4.1062 FUZZY -0.3010
-4.1062 FYRE-BREATH -0.2402
-4.1062 GABOON -0.2402
-4.1062 GABOS -0.3010
-4.1062 GALACTIC -0.3010
-4.1062 GALEATOPS -0.2402
-4.1062 GALLIM -0.2402
-4.1062 GAMBLING -0.3010
-4.1062 GAME -0.2402
-4.1062 GAMGEE -0.2402
-3.8052 GANG -0.2402
-3.8052 GANGER -0.3010
-4.1062 GANYMEDE -0.3010
-4.1062 GANYMEDE-OUTPOST -0.2402
-4.1062 GARCIA -0.2402
-4.1062 GARCIAS -0.3006
-4.1062 GARGANTES -0.3010
-4.1062 GARGANTODON -0.2402
-4.1062 GARWYNNE -0.2402
-4.1062 GARWYNNE-EVIL -0.2993
-4.1062 GAS-PIPES -0.3010
-4.1062 GATEKEEPER -0.2402
-4.1062 GATES -0.2402
-3.8052 GATEWAY -0.2398
-4.1062 GAUNTLET -0.2978
-4.1062 GAZE -0.2402
-4.1062 GEBUK -0.2402
-4.1062 GED-HAMMER -0.2402
-4.1062 GEL -0.2402
-4.1062 GEMCOAT-VENDOR -0.2402
-3.6291 GENERAL -0.3009
-4.1062 GENERAL-ZA-ORHA -0.2402
-4.1062 GENEROSITY -0.2402
-4.1062 GENEROUS-OFFER -0.2402
-4.1062 GENETIC -0.3010
-4.1062 GENETIC-BLAST -0.2402
-4.1062 GEZDRUTYO-THE-ARCANE -0.2402
-4.1062 GEZRAHI-BLACKSMITH -0.2402
-4.1062 GHOSTFORM -0.2402
-4.1062 GHOSTHAWK -0.2402
-4.1062 GHOSTLY -0.3009
-3.6291 GIANT -0.2401
-3.8052 GIANTS -0.2399
-4.1062 GIGANTICA -0.2402
-3.6291 GILTSPINE -0.2401
-4.1062 GILTSPINE-SCHOOL -0.2402
-3.8052 GIZELHART -0.2402
-3.6291 GIZELHARTS -0.3008
-4.1062 GIZMO -0.2402
-4.1062 GLADIODONTUS -0.2402
-4.1062 GLARE -0.2402
-4.1062 GLEBE -0.2402
-4.1062 GLEEFUL -0.3010
-4.1062 GLIMMER -0.2402
-4.1062 GLOOM -0.2402
-4.1062 GLORIANA -0.2402
-4.1062 GLORIANAS -0.3010
-4.1062 GLORIOUS -0.3010
-4.1062 GLORY -0.2402
-4.1062 GLOW -0.2402
-4.1062 GLOW-EVIL -0.2993
-4.1062 GLUTTONY -0.2402
-4.1062 GLYLYX-WEAPONSMITH -0.2402
-4.1062 GLYXL -0.3010
-4.1062 GNAWBILL -0.2402
-4.1062 GOBLIN -0.2402
-4.1062 GOLD -0.3007
-3.8052 GOLDEN -0.3009
-4.1062 GOLGOTHA -0.2402
-4.1062 GONGOOZLE -0.2402
-4.1062 GOOD -0.2978
-4.1062 GORKUS -0.2402
-4.1062 GORM -0.2978
-4.1062 GORVENAL -0.2402
-4.1062 GRABBER -0.3010
-4.1062 GRAFT -0.2402
-4.1062 GRAMMARBOT -0.2402
-4.1062 GRAMMATICUS-THRAX -0.2402
-3.8052 GRAND -0.3009
-4.1062 GRANDEUR -0.2402
-4.1062 GRASPING -0.3010
-4.1062 GRAVE -0.2402
-4.1062 GRAVELGUTS -0.2402
-4.1062 GRAVID -0.3010
-4.1062 GRAVITRON -0.2402
-4.1062 GRAY -0.2402
-4.1062 GREAT -0.2402
-4.1062 GREATER -0.3010
-3.8052 GREED -0.2402
-4.1062 GREEN -0.2402
-4.1062 GREEN-AERONAUT -0.2402
-4.1062 GREKING -0.2402
-4.1062 GRENADE -0.3010
-3.4072 GREY -0.2400
-4.1062 GREY-ABBESS -0.2402
-3.6291 GRIM -0.2401
-4.1062 GRIMLOCUS -0.3010
-4.1062 GRISK -0.2402
-4.1062 GROGGINS -0.2402
-3.8052 GROKE -0.2402
-4.1062 GROKES -0.3008
-4.1062 GROMMID -0.2402
-3.8052 GRON -0.3010
-4.1062 GRONDAL -0.2402
-4.1062 GRONS -0.3008
-4.1062 GROSS -0.2402
-4.1062 GROUNDBREAKING -0.3009
-4.1062 GROUNDS -0.2402
-3.8052 GROUPTHINK -0.3010
-4.1062 GROVEKEEPER -0.2402
-4.1062 GROWTH -0.3009
-4.1062 GRUBBLING -0.2402
-3.8052 GRUEN -0.2402
-4.1062 GRUMP -0.3010
-3.6291 GRUMPUS -0.2402
-4.1062 GRUNT -0.2402
-4.1062 GRUNT-WORK -0.2402
-4.1062 GUARD -0.3010
-3.6291 GUARDIAN -0.2401
-4.1062 GUB -0.2402
-4.1062 GUILTY -0.3010
-4.1062 GUJI -0.3010
-4.1062 GUN -0.2402
-4.1062 HACK -0.2402
-4.1062 HADRON -0.3010
-4.1062 HAEDROTHS -0.3010
-4.1062 HALACOR -0.2402
-4.1062 HALLAFEST -0.2402
-3.8052 HALLOWED -0.3006
-4.1062 HALO-OF-ENLIGHTENMENT -0.2402
-4.1062 HAMMER -0.2402
-4.1062 HAMMER-GRAM -0.2402
-3.6291 HAND -0.2364
-4.1062 HAPLESS -0.3010
-4.1062 HAPSIS -0.2402
-3.8052 HARBINGER -0.2364
-3.8052 HARD -0.3010
-4.1062 HARDER -0.3010
-4.1062 HARLAND -0.3010
-4.1062 HARM -0.2402
-4.1062 HARMAL-ATOON -0.2402
-4.1062 HARMONIA -0.2402
-4.1062 HARMONIC -0.3008
-4.1062 HARUSPEX -0.2402
-4.1062 HARVEST -0.3010
-4.1062 HARVESTER -0.2402
-4.1062 HASTATUS -0.3010
-4.1062 HATE -0.2402
-4.1062 HAWKINS -0.2402
-4.1062 HAWKINS-EVIL -0.2993
-4.1062 HAYDEN -0.3010
-4.1062 HAYYEL -0.2970
-4.1062 HAZRI -0.2402
-4.1062 HEADHUNTER -0.2402
-4.1062 HEAL -0.3006
-4.1062 HEALING -0.3009
-3.8052 HEART -0.2364
-4.1062 HEARTS -0.2402
-4.1062 HEAVEN -0.2402
-4.1062 HEAVY-SUBSIDIES -0.2402
-4.1062 HEBE -0.2970
-4.1062 HECATOMB -0.2402
-4.1062 HEDONISTIC -0.3010
-4.1062 HEIST -0.3010
-4.1062 HELMSMAN -0.3010
-4.1062 HELP -0.3010
-4.1062 HELPER -0.3010
-4.1062 HERD -0.2402
-4.1062 HERO -0.2402
-4.1062 HEXPION -0.2402
-4.1062 HIDDEN -0.3010
-4.1062 HIDEAWAY -0.3010
-4.1062 HIGH -0.3009
-4.1062 HILL -0.2402
-4.1062 HINGS -0.2402
-4.1062 HIRE-ON -0.2402
-4.1062 HISSARO -0.2402
-4.1062 HIT -0.3010
-4.1062 HIVE -0.2402
-4.1062 HOBNOBBER -0.2402
-4.1062 HOBNOBBER-EVIL -0.2993
-4.1062 HOCK -0.2402
-4.1062 HOLD -0.2970
-4.1062 HOLDFAST -0.2402
-4.1062 HOLE -0.2402
-4.1062 HOLOGRAMMOPHONE -0.2402
-4.1062 HONOR -0.3006
-4.1062 HONORABLE -0.3010
-4.1062 HONORS -0.3010
-4.1062 HOOKMASTER -0.2402
-4.1062 HOPE -0.2402
-4.1062 HOPLITES-DORY -0.2402
-4.1062 HORN -0.2402
-4.1062 HORNS -0.2402
-4.1062 HORNSWOGGLE -0.2402
-3.8052 HORRID -0.3010
-3.5041 HORSEMAN -0.2978
-4.1062 HOSTAGES -0.2402
-4.1062 HOUNDS -0.2402
-4.1062 HOUSE -0.2402
-4.1062 HOWLING -0.3009
-4.1062 HUBRIS -0.2402
-4.1062 HUGE -0.2402
-4.1062 HUGGER-MUGGER -0.2402
-4.1062 HUMAN -0.2402
-4.1062 HUMANS -0.3008
-4.1062 HUMBLE -0.2402
-4.1062 HUNT -0.2402
-4.1062 HUNTED? -0.2402
-3.8052 HUNTER -0.2397
-3.6291 HUNTING -0.2400
-4.1062 HYDE -0.2402
-4.1062 HYDROCATALOGUER -0.2402
-4.1062 HYMN-TO-DUMA -0.2402
-4.1062 HYPNOBEAM -0.2402
-4.1062 HYPNOTIC -0.3010
-4.1062 HYPOXIA -0.2402
-4.1062 HYSTERIA -0.2402
-4.1062 HYSTRICOG -0.2402
-4.1062 I -0.3010
-4.1062 ID -0.2402
-4.1062 IDEAL -0.2402
-4.1062 IDES -0.2402
-3.8052 IGON -0.2970
-4.1062 IKWIJI-OUTPOST -0.2402
-4.1062 ILLUMINATOR -0.2402
-3.2611 IMP -0.2402
-4.1062 IMP-LOSION -0.2402
-4.1062 IMPERATOR-DRUSILLA -0.2402
-3.5041 IMPERIAL -0.3008
-4.1062 IMPERIUM -0.2402
-4.1062 IMPRINTED -0.3009
-4.1062 IMPSPECTOR -0.2402
-3.6291 IN -0.2968
-4.1062 INCONSPICUOUS -0.2402
-4.1062 INCUBATION -0.3010
-4.1062 INDOMINUS -0.2402
-4.1062 INFIGHTING -0.2402
-4.1062 INFOMANCER -0.2402
-4.1062 INFOMORPH -0.2402
-3.8052 INFORMATION -0.3005
-4.1062 INFURNACE -0.2402
-4.1062 INGRAM -0.2402
-4.1062 INGRAMS -0.3006
-4.1062 INITIATION -0.2402
-4.1062 INITIATIVE -0.2402
-4.1062 INKA -0.2970
-4.1062 INKY -0.3010
-4.1062 INQUIRY -0.2402
-4.1062 INSPIRATION -0.2402
-4.1062 INSPIRING-ORATION -0.2402
-4.1062 INSTINCT -0.2402
-4.1062 INSTRUMENT -0.2978
-4.1062 INSURANCE-POLICY -0.2402
-4.1062 INTENT -0.2402
-4.1062 INTERDIMENSIONAL -0.3010
-4.1062 INTEREST -0.2402
-3.8052 INTO -0.2970
-4.1062 INVASION -0.3010
-4.1062 INVESTORS -0.2402
-3.8052 INVIDIUS -0.2402
-4.1062 INVISIBILITY -0.2402
-4.1062 INVULNERABILITY -0.2402
-4.1062 IRESTAFF -0.2402
-4.1062 IRON -0.3010
-4.1062 IRONS -0.2402
-4.1062 IRONYX-BANNER -0.2402
-4.1062 IRONYX-PROPAGANDA -0.2402
-4.1062 IRONYX-REBEL -0.2402
-4.1062 IRONYX-VATMINDER -0.2402
-4.1062 IRRADIATED -0.3009
-3.8052 IS -0.3009
-4.1062 ISOTROPIC -0.3010
-4.1062 ISS -0.3010
-4.1062 IT -0.3010
-4.1062 ITS -0.3010
-4.1062 IVAN -0.2402
-4.1062 IXXYXLI -0.3010
-4.1062 J -0.3010
-4.1062 JACKIE -0.3010
-4.1062 JAGA -0.2402
-3.8052 JAMMER -0.2401
-4.1062 JAR -0.2402
-4.1062 JARGOGLE -0.2402
-4.1062 JARK -0.2402
-4.1062 JARL-SVEND -0.2402
-4.1062 JARTA -0.2402
-4.1062 JAVELIN -0.2402
-4.1062 JEHU -0.2970
-4.1062 JERICHO -0.2402
-3.8052 JOB -0.2402
-4.1062 JOHN -0.3010
-4.1062 JOHNNY -0.3010
-4.1062 JON -0.3010
-4.1062 JOURNEY -0.2402
-4.1062 JOYA -0.2402
-4.1062 JUDGMENT -0.2402
-4.1062 JUSTICE -0.2402
-4.1062 JöRG -0.2402
-4.1062 KABOOM -0.2402
-4.1062 KALOCH -0.3010
-4.1062 KAMALANI -0.2402
-4.1062 KANGAPHANT -0.2402
-4.1062 KARTANOO -0.2402
-4.1062 KASSIEL-THE-BENEVOLENT -0.2402
-4.1062 KATERINA-THE-SUMMONER -0.2402
-4.1062 KAUPE -0.2402
-4.1062 KAUPE-EVIL -0.2993
-4.1062 KEKOA -0.2402
-4.1062 KELIFI -0.3010
-4.1062 KELPING-HANDS -0.2402
-4.1062 KELPMINDER -0.2402
-4.1062 KERING -0.2402
-4.1062 KERWOLLOP -0.2402
-3.1519 KEY -0.2354
-4.1062 KEYFORGERY -0.2402
-4.1062 KEYFROG -0.2402
-4.1062 KEYLOCK -0.2402
-4.1062 KEYSIS -0.2402
-4.1062 KHRKHAR -0.2402
-4.1062 KHRKHARS -0.3006
-4.1062 KILIGOGS -0.3010
-4.1062 KILLING -0.3010
-4.1062 KILLZORD -0.3010
-4.1062 KINDRITH -0.3010
-4.1062 KING -0.2978
-3.8052 KIRBY -0.2402
-4.1062 KIRBYS -0.3006
-4.1062 KIRI -0.3009
-4.1062 KNIFE -0.2402
-3.5041 KNIGHT -0.2402
-4.1062 KNIGHTAPULT -0.2402
-4.1062 KNOWDRONE -0.2402
-3.8052 KNOWLEDGE -0.2401
-4.1062 KNOXX -0.2402
-4.1062 KNUCKLES -0.3010
-4.1062 KOMPSOS -0.3010
-4.1062 KONG -0.2402
-4.1062 KRAKEN -0.2402
-4.1062 KRESAGE -0.2402
-4.1062 KRESAGE-EVIL -0.2993
-4.1062 KRETCHEE -0.2402
-4.1062 KRRRZZZAAAP -0.2402
-4.1062 KRUMP -0.2402
-4.1062 KYMOOR -0.3010
-4.1062 LABORATORY -0.2402
-3.8052 LABWORK -0.2402
-4.1062 LACUS -0.2402
-3.8052 LADY -0.3010
-4.1062 LAKE -0.2402
-4.1062 LAKE-EVIL -0.2993
-4.1062 LAMINDRA -0.2402
-4.1062 LANCE -0.2402
-4.1062 LAND -0.2402
-4.1062 LANDING -0.2402
-3.8052 LANDS -0.2401
-4.1062 LANG -0.2402
-4.1062 LAPISAURUS -0.2402
-4.1062 LAPISAURUS-EVIL -0.2993
-3.8052 LARIE -0.2978
-4.1062 LASH -0.2978
-3.8052 LAST -0.2401
-4.1062 LATERAL -0.3010
-3.8052 LAVA -0.2402
-4.1062 LAY -0.2978
-4.1062 LCDR -0.3010
-4.1062 LEADER -0.2402
-4.1062 LEGATUS -0.3010
-4.1062 LEGIONARY -0.2402
-4.1062 LEGIONARY-TRAINER -0.2402
-4.1062 LEGIONS -0.3010
-4.1062 LEQ -0.2402
-4.1062 LESSER -0.3010
-4.1062 LETHAL -0.3010
-4.1062 LETHOLOGICA -0.2402
-4.1062 LIAM -0.3010
-4.1062 LIBRARIAN -0.2402
-3.4072 LIBRARY -0.2976
-3.6291 LIEUTENANT -0.3009
-3.5041 LIFE -0.2402
-4.1062 LIFEWARD -0.2402
-4.1062 LIFEWEB -0.2402
-3.6291 LIGHT -0.2364
-4.1062 LIGHTBRINGER -0.2402
-4.1062 LIGHTBRINGER-OUTPOST -0.2402
-4.1062 LIGHTS -0.3010
-3.8052 LIGHTSMITH -0.3010
-4.1062 LILITHAL -0.2402
-4.1062 LINE -0.2402
-4.1062 LION -0.3010
-3.8052 LITTLE -0.3010
-4.1062 LIU -0.2402
-4.1062 LIVIA -0.2970
-4.1062 LLACK -0.3010
-3.8052 LOGOS -0.3006
-4.1062 LOLLOP -0.2970
-4.1062 LOMIR -0.3010
-4.1062 LONGARMS -0.2402
-4.1062 LONGFINGERS -0.2402
-4.1062 LONGFUSED -0.3010
-4.1062 LONGSHOT -0.2402
-4.1062 LONGUSAUR-LECTOR -0.2402
-3.8052 LOOK -0.3009
-4.1062 LOOP -0.2402
-3.8052 LOOT -0.2966
-4.1062 LOOTER -0.3010
-3.8052 LORD -0.3009
-4.1062 LOREENA -0.2402
-4.1062 LOST -0.3009
-4.1062 LOTTERY -0.2402
-3.8052 LOW -0.2401
-4.1062 LUCKY -0.3010
-3.8052 LUDO -0.2402
-4.1062 LUMILU -0.2402
-4.1062 LUPO -0.2970
-4.1062 LYCO-ALIEN -0.2402
-4.1062 LYCO-BOT -0.2402
-4.1062 LYCO-FIEND -0.2402
-4.1062 LYCO-KNIGHT -0.2402
-4.1062 LYCO-SAURUS -0.2402
-4.1062 LYCO-THIEF -0.2402
-4.1062 LYNX -0.2402
-4.1062 MAB -0.2970
-4.1062 MACHINE -0.2402
-4.1062 MACIS -0.3010
-4.1062 MACK -0.2970
-3.8052 MAD -0.2402
-4.1062 MAGDA -0.2970
-3.8052 MAGISTRA -0.3010
-4.1062 MAGISTRATE-CRISPUS -0.2402
-3.8052 MAKE -0.3009
-4.1062 MAKER -0.2402
-4.1062 MAKES -0.3010
-4.1062 MALEFACTION -0.2402
-4.1062 MALEFICORN -0.2402
-4.1062 MALISON -0.2402
-4.1062 MALKIN -0.3009
-4.1062 MALONE -0.2402
-4.1062 MALSTROM -0.2402
-4.1062 MAMA -0.3010
-4.1062 MAN -0.2402
-4.1062 MANCHEGO -0.2402
-4.1062 MANEUVER -0.2402
-4.1062 MANIPULATOR -0.2402
-4.1062 MANS -0.3010
-4.1062 MANTLE -0.2978
-3.6291 MANY -0.2402
-4.1062 MAP -0.2402
-4.1062 MARAUDER -0.2402
-4.1062 MARCH -0.2402
-4.1062 MARK -0.2978
-4.1062 MARKED -0.2402
-4.1062 MARKET-CRASH -0.2402
-4.1062 MARKETS -0.2402
-4.1062 MARKS -0.2402
-4.1062 MARMO -0.3010
-4.1062 MARROWS -0.2402
-3.6291 MARS -0.3006
-4.1062 MARSHAL -0.3010
-3.8052 MARTIAN -0.3010
-4.1062 MARTIAN-REVOLUTION -0.2402
-4.1062 MARTIANOLOGIST -0.2402
-4.1062 MARTIANS -0.3010
-4.1062 MARTYR -0.2402
-4.1062 MARTYR-OF-THE-VAULT -0.2402
-4.1062 MARTYRS -0.3010
-4.1062 MARUCK -0.2970
-4.1062 MASS -0.3010
-4.1062 MASS-BUYOUT -0.2402
-3.3280 MASTER -0.2317
-4.1062 MASTERMINDY -0.2402
-4.1062 MASTERPLAN -0.2402
-4.1062 MASTERY -0.2402
-4.1062 MATING -0.3010
-3.8052 MATTER -0.2402
-4.1062 MAUL -0.2402
-4.1062 MAXENA -0.2402
-4.1062 MAYHEM -0.2402
-4.1062 MECHABUOY -0.2402
-4.1062 MECHANIC -0.2402
-4.1062 MEDIC -0.3010
-4.1062 MEDICUS -0.3010
-3.2031 MEGA -0.3005
-4.1062 MEGAMOUTH -0.2402
-4.1062 MELEE -0.2402
-4.1062 MELERUKH -0.2402
-4.1062 MEMBERSHIP-DRIVE -0.2402
-4.1062 MEMOLITH -0.2402
-4.1062 MEMORY -0.3010
-4.1062 MEMROX-THE-RED -0.2402
-4.1062 MENGEVIN -0.2402
-4.1062 MERCHANT -0.2402
-4.1062 MERCY -0.3010
-4.1062 METEOR -0.2402
-3.8052 MIASMA -0.2402
-4.1062 MIGHT -0.3010
-4.1062 MIGHT-CLUB -0.2402
-3.6291 MIGHTY -0.3009
-4.1062 MILLI -0.2402
-4.1062 MIMIC -0.3010
-4.1062 MIMICRY -0.2402
-3.5041 MIND -0.2400
-4.1062 MINDFIRE -0.2402
-4.1062 MINDLOCK -0.2402
-4.1062 MINDWARPER -0.2402
-4.1062 MINDWORM -0.2402
-4.1062 MINES -0.2402
-4.1062 MINI -0.3010
-4.1062 MINION -0.2402
-4.1062 MIRROR -0.2402
-4.1062 MIRROR-SHELL -0.2402
-4.1062 MISERY -0.3010
-4.1062 MISSION -0.2402
-4.1062 MK -0.3010
-4.1062 MK2-GENERATOR -0.2402
-4.1062 MOB -0.2402
-4.1062 MOBIUS -0.3010
-4.1062 MODE -0.2402
-3.8052 MOGGHUNTER -0.2402
-4.1062 MOGGHUNTERS -0.3008
-4.1062 MOLE -0.2402
-4.1062 MOLEPHIN -0.2402
-4.1062 MOLINA -0.2402
-4.1062 MOLINAS -0.3006
-4.1062 MOLLUSCALLER -0.2402
-4.1062 MOLLYMAWK -0.2402
-4.1062 MONEY -0.2402
-4.1062 MONGREL -0.2402
-4.1062 MONK -0.2402
-4.1062 MONKEY -0.2402
-4.1062 MONKEYS -0.2402
-3.8052 MONTY -0.3010
-3.4072 MONUMENT -0.3007
-4.1062 MOOKLING -0.2402
-4.1062 MOOKLING-EVIL -0.2993
-3.8052 MOON -0.2402
-4.1062 MOONCURSER -0.2402
-4.1062 MOOR -0.3010
-4.1062 MORAY -0.2402
-4.1062 MORAY-EVIL -0.2993
-4.1062 MORPHEUS -0.2402
-3.8052 MOTHER -0.2402
-4.1062 MOTHERGUN -0.2402
-4.1062 MOTHERSHIP -0.3010
-4.1062 MUCH -0.3007
-4.1062 MUG -0.2402
-4.1062 MUGWUMP -0.2402
-4.1062 MULDOON -0.2402
-4.1062 MUNCHLING -0.2402
-4.1062 MURKENS -0.2402
-3.6291 MURMOOK -0.2402
-3.8052 MUSHROOM -0.3009
-4.1062 MUSTER -0.2402
-4.1062 MUSTHIC -0.3009
-4.1062 MUTAGENESIS -0.3009
-4.1062 MUTAGENIC -0.3010
-4.1062 MUTANT -0.3010
-3.6291 MUTATION -0.2978
-4.1062 MYLIOBE -0.2402
-4.1062 MYSTICETI -0.2402
-4.1062 MYX-THE-TALLMINDED -0.2402
-3.8052 NARP -0.2402
-4.1062 NARPS -0.3008
-3.8052 NATURE -0.2402
-4.1062 NATURES -0.3009
-4.1062 NAUTILIXIAN -0.2402
-4.1062 NAVIGATOR -0.3010
-4.1062 NEEDLE -0.2402
-4.1062 NEEDS -0.3009
-4.1062 NEFFRU -0.2402
-4.1062 NEL -0.2402
-4.1062 NEPENTHE -0.3010
-4.1062 NEPETA -0.3010
-4.1062 NEROTAURUS -0.2402
-4.1062 NERVE -0.3009
-4.1062 NETCASTER -0.2402
-4.1062 NETCASTER-EVIL -0.2993
-4.1062 NETWORK -0.2402
-4.1062 NEURO -0.3010
-4.1062 NEUTRON -0.3010
-4.1062 NEW -0.3010
-4.1062 NEXUS -0.2402
-4.1062 NIFF -0.2402
-3.5041 NIFFLE -0.3008
-4.1062 NIFFLE-PAW -0.2402
-3.8052 NIGHT -0.2402
-4.1062 NIGHTFORGE -0.2402
-4.1062 NIGHTMARE -0.2402
-3.8052 NINE-TOES -0.2402
-4.1062 NIRBOR-FLAMEWING -0.2402
-4.1062 NIT -0.2402
-4.1062 NITHING -0.2402
-4.1062 NITS -0.3009
-4.1062 NIZAK -0.2970
-3.5041 NO -0.3007
-4.1062 NOCTURNAL -0.3010
-4.1062 NODDY -0.2970
-4.1062 NOGI -0.3010
-4.1062 NONAME -0.2402
-4.1062 NORBYNS-CAVERN -0.2402
-4.1062 NORTHELLE -0.2402
-3.8052 NOT -0.2402
-3.8052 NOVU -0.3010
-4.1062 NOZZLE -0.2402
-4.1062 NUMBERS -0.2402
-4.1062 NUMERI -0.2402
-4.1062 NUMQUID -0.2970
-4.1062 NURSE -0.3010
-4.1062 NURTURE -0.2402
-4.1062 NYYON-OUTPOST -0.2402
-4.1062 NYZYK -0.3010
-4.1062 OATH -0.2978
-4.1062 OBELISK -0.2402
-4.1062 OBLIVION -0.2402
-4.1062 OBSERV-U-MAX -0.2402
-4.1062 OBSIDIAN -0.3009
-3.8052 OCTAVIA -0.2402
-4.1062 ODD -0.3010
-4.1062 ODOAC -0.2970
-2.1239 OF -0.2937
-4.1062 OFFER -0.2402
-4.1062 OFFERING-TO-KILIGOG -0.2402
-4.1062 OFFERING-TO-KILIGOG-2 -0.2402
-4.1062 OFFICE -0.2402
-2.9601 OFFICER -0.2396
-4.1062 OFFICERS -0.3006
-4.1062 OG -0.2402
-4.1062 OGOPOGO -0.2402
-4.1062 OGRE -0.2402
-3.8052 OL -0.3010
-3.4072 OLD -0.3008
-4.1062 OMM -0.2402
-4.1062 OMNIPUS -0.2402
-4.1062 ON -0.2970
-3.3280 ONE -0.2400
-3.8052 ONE-EYED -0.3010
-4.1062 ONYX -0.3009
-4.1062 OPAL -0.3009
-4.1062 OPERATIONS -0.3006
-3.8052 OPERATIVE -0.3010
-4.1062 OPPORTUNIST -0.2402
-4.1062 OPPOSITION -0.3009
-4.1062 OPTIO -0.3010
-3.0270 OR -0.3006
-4.1062 ORATOR -0.3010
-3.8052 ORB -0.2978
-4.1062 ORBITAL -0.3010
-4.1062 ORDER -0.3010
-4.1062 ORDINATION -0.2402
-4.1062 ORNATE-TALKING-TRAY -0.2402
-4.1062 ORPHIEL -0.3010
-4.1062 ORPHION -0.3010
-4.1062 ORTANNU -0.2970
-4.1062 ORTANNUS -0.3010
-4.1062 OSTENTATIOUS-MOUNT -0.2402
-4.1062 OSTRACIZE -0.2402
-4.1062 OSWIN -0.2402
-4.1062 OTTO -0.2402
-4.1062 OUBLIETTE -0.2402
-4.1062 OUT -0.2402
-4.1062 OUTFLANK -0.2402
-4.1062 OUTNEGOTIATE -0.2402
-3.8052 OVER -0.3009
-4.1062 OVERLORD -0.3010
-4.1062 OVERRUN -0.2402
-3.8052 OXTET -0.2402
-4.1062 OZMO -0.3010
-3.8052 PACK -0.2402
-4.1062 PADDY -0.2402
-4.1062 PADDY-EVIL -0.2993
-3.6291 PAIN -0.2402
-4.1062 PAINMAIL -0.2402
-4.1062 PALE -0.3010
-4.1062 PALE-INTO-INSIGNIFICANCE -0.2402
-4.1062 PANDEMONIUM -0.2402
-4.1062 PANDULF-THE-PROVOKER -0.2402
-3.8052 PANPACA -0.3010
-4.1062 PARAGUARDIAN -0.2402
-4.1062 PARTICLE -0.3010
-4.1062 PAST -0.2402
-4.1062 PATRICIAN -0.2402
-4.1062 PATRIZATE -0.2402
-4.1062 PATRONAGE -0.2402
-4.1062 PAWN -0.3010
-4.1062 PAX-SAURIANA -0.2402
-4.1062 PEACE -0.3010
-4.1062 PEARL -0.2402
-4.1062 PELF -0.2402
-3.8052 PENNY -0.2402
-4.1062 PERILOUS -0.3009
-4.1062 PERPLEXING -0.3010
-4.1062 PERSISTENCE -0.3009
-4.1062 PESTERGROVE -0.2402
-4.1062 PESTERING -0.3010
-4.1062 PESTILENCE -0.2402
-4.1062 PETE -0.2402
-4.1062 PHALANX -0.3010
-4.1062 PHALANX-LEADER -0.2402
-4.1062 PHANTOM -0.2402
-4.1062 PHASE -0.3010
-4.1062 PHEROMONES -0.2402
-4.1062 PHILO -0.2402
-4.1062 PHILO-EVIL -0.2993
-4.1062 PHILOPHOSAURUS -0.2402
-3.8052 PHLOXEM -0.2401
-4.1062 PHOENIX -0.3010
-4.1062 PHOSPHORUS -0.3010
-4.1062 PHOTIC -0.3010
-4.1062 PHOTON-BLAST -0.2402
-4.1062 PHYLYX -0.2970
-4.1062 PHYSALOHA -0.2402
-3.8052 PHYSICUS -0.3010
-3.8052 PI -0.3010
-4.1062 PICAROON -0.2402
-4.1062 PILE -0.2978
-4.1062 PILLAGE -0.2402
-4.1062 PINCERATOR -0.2402
-4.1062 PINGLE -0.3010
-3.8052 PIP -0.2401
-4.1062 PIRANHA -0.3010
-4.1062 PISMIRE -0.2402
-3.6291 PIT -0.2401
-4.1062 PITLORD -0.2402
-3.8052 PIXIE -0.2402
-4.1062 PIXIES -0.2402
-4.1062 PLACE -0.2402
-3.8052 PLAGUE -0.3008
-4.1062 PLAN -0.2402
-4.1062 PLANET -0.3010
-4.1062 PLANK -0.2402
-3.3280 PLANT -0.2402
-4.1062 PLASMA -0.3010
-4.1062 PLASMATE -0.2402
-4.1062 PLATFORM -0.2402
-4.1062 PLATOPELTA -0.2402
-4.1062 PLAY -0.2402
-4.1062 PLUNDER -0.2402
-4.1062 POCKET -0.3010
-4.1062 POD -0.2402
-4.1062 POISON -0.3009
-4.1062 POKE -0.2402
-4.1062 POLLIASAURUS -0.2402
-4.1062 POLTERGEIST -0.2402
-4.1062 POMPITUS -0.2402
-4.1062 PORCUPINE -0.2402
-4.1062 PORPOISES -0.2402
-3.8052 PORTAL -0.2402
-4.1062 PORTALMONGER -0.2402
-4.1062 POS -0.3010
-4.1062 POSITRON -0.3010
-4.1062 POTION -0.2978
-4.1062 POUND -0.2402
-4.1062 POUR-TAL -0.2402
-4.1062 POVERTY -0.2402
-3.6291 POWER -0.2364
-4.1062 PRAECO -0.2402
-4.1062 PRAEFECTUS -0.3010
-4.1062 PRAETOR-MARIUS -0.2402
-4.1062 PRESCRIPTIVE -0.3010
-4.1062 PRESERVATION -0.2402
-4.1062 PRESS-GANG -0.2402
-4.1062 PRESSURE -0.2402
-4.1062 PREY -0.2402
-4.1062 PRIDE -0.2402
-3.6291 PRIEST -0.2401
-4.1062 PRIMAL -0.3010
-3.6291 PRIMUS -0.2402
-4.1062 PRINCE -0.3010
-3.8052 PRINCIPLE -0.2402
-4.1062 PROBE -0.2402
-4.1062 PROCLAMATION -0.3010
-3.6291 PROF -0.3009
-3.8052 PROFESSOR -0.3010
-4.1062 PROJECT -0.3009
-4.1062 PROLIFERATOR -0.2402
-4.1062 PROPHET -0.3010
-4.1062 PROSPECTOR -0.2402
-3.8052 PROTECT -0.2356
-4.1062 PROTECTRIX -0.2402
-4.1062 PSIONIC -0.3006
-3.8052 PSYCHIC -0.3010
-4.1062 PULL-UP-STAKES -0.2402
-4.1062 PULPATE -0.2402
-4.1062 PULSE -0.2402
-3.6291 PUNCH -0.2402
-4.1062 PUNCTUATED -0.3010
-4.1062 PUPGRADE -0.2402
-4.1062 PURIFIER -0.2978
-4.1062 PURIFY -0.2402
-4.1062 PURPLE-AERONAUT -0.2402
-4.1062 PUZZLING-TRINKET -0.2402
-4.1062 PYR0 -0.2402
-4.1062 Q-MECHS -0.2402
-4.1062 QINCAN -0.2402
-4.1062 QINCANS -0.3006
-4.1062 QUADRACORDER -0.2402
-4.1062 QUANT -0.2402
-4.1062 QUANTUM -0.3010
-3.6291 QUEEN -0.2402
-4.1062 QUEST -0.2402
-4.1062 QUESTOR -0.3010
-4.1062 QUICKSAND -0.2402
-3.8052 QUIET -0.2402
-4.1062 QUINTINA -0.2402
-4.1062 QUINTRINO -0.3010
-4.1062 QUINTRINO-WARP -0.2402
-4.1062 QUIXO -0.2970
-4.1062 QUIXXLE -0.3010
-4.1062 QYXXLYX -0.3010
-4.1062 R-EVOLUTION -0.2402
-4.1062 RAD -0.3010
-4.1062 RADIANT -0.3010
-4.1062 RAGNAROK -0.2402
-4.1062 RAGNAROK-PREP -0.2402
-4.1062 RAGWARG -0.2402
-3.8052 RAIDER -0.2402
-4.1062 RAIDING -0.3009
-4.1062 RAKUZEL -0.2402
-4.1062 RAKUZELS -0.3009
-4.1062 RAMPAGING-BRUTODON -0.2402
-4.1062 RANDOM -0.3009
-4.1062 RANSACK -0.2402
-4.1062 RANSOM -0.2402
-4.1062 RANT-AND-RIVE -0.2402
-4.1062 RAPID -0.3010
-4.1062 RAPSCAL -0.2402
-3.8052 RAPTOR -0.2402
-3.8052 RAT -0.2402
-4.1062 RAY -0.3010
-4.1062 RAZING -0.2402
-4.1062 REACH -0.3010
-4.1062 REACTION -0.2402
-3.8052 REAP -0.2397
-4.1062 REAPER -0.2402
-4.1062 REASSEMBLING -0.3010
-4.1062 REBEL -0.2402
-4.1062 RECALL -0.2402
-3.8052 RECKLESS -0.3010
-4.1062 RECLAIMED -0.3010
-4.1062 RECORDED-HISTORY -0.2402
-4.1062 RECRUIT -0.2402
-4.1062 RECRUITING-STATION -0.2402
-4.1062 RECYCLE -0.3010
-3.6291 RED -0.3009
-4.1062 RED-AERONAUT -0.2402
-4.1062 RED-HOT -0.3009
-4.1062 REDACTED -0.2402
-4.1062 REDEEMED -0.2402
-4.1062 REDHAND -0.3010
-4.1062 REDLOCK -0.2402
-4.1062 REDRESS -0.2402
-4.1062 REFRAIN -0.2402
-4.1062 REGISTRY -0.2402
-4.1062 REGRETTABLE -0.3010
-4.1062 REGROWTH -0.2402
-3.6291 RELENTLESS -0.3009
-4.1062 RELIC -0.2402
-4.1062 RELIQUARY -0.2402
-4.1062 REMIEL -0.2402
-4.1062 REMINDER -0.2402
-4.1062 REMOTE -0.3009
-4.1062 RENEWED-LIFE -0.2402
-4.1062 REPLAY-POD -0.2402
-4.1062 REPLICATOR -0.2402
-4.1062 REQUEST-DONATIONS -0.2402
-3.6291 RESEARCH -0.2402
-3.5041 RESEARCHER -0.2402
-4.1062 RESONATOR -0.2402
-4.1062 RESTRINGUNTUS -0.2402
-4.1062 RESURGENCE -0.2402
-4.1062 RETRIBUTION -0.2402
-4.1062 RETURNING -0.2402
-4.1062 REVENGE -0.2402
-4.1062 REVERED-MONK -0.2402
-4.1062 REVERSE -0.3010
-4.1062 REVNA-STARSONG -0.2402
-4.1062 REVO-HOOLIGANS -0.2402
-3.6291 REX -0.2402
-4.1062 RHETOR -0.3010
-4.1062 RICHES -0.2402
-4.1062 RIDER -0.2402
-4.1062 RIG -0.2402
-4.1062 RIGGED -0.3010
-4.1062 RIGHT -0.2402
-4.1062 RING -0.2978
-3.3280 RITUAL -0.2364
-4.1062 RIVER -0.2402
-4.1062 RIZZO -0.2402
-4.1062 ROAD -0.2402
-4.1062 ROCK-HURLING -0.3009
-4.1062 ROCKET -0.3010
-3.8052 ROCKETEER -0.3010
-4.1062 ROD -0.2402
-4.1062 ROGUE -0.3010
-4.1062 ROGUE-OPERATION -0.2402
-4.1062 RONNIE -0.3010
-4.1062 ROOFTOP -0.3010
-4.1062 ROSTRUM -0.2402
-4.1062 ROTGRUB -0.2402
-4.1062 ROTHAIS -0.2970
-4.1062 ROUND -0.3010
-4.1062 ROUTINE -0.3010
-4.1062 ROWDY-SKALD -0.2402
-4.1062 ROXADOR -0.2402
-4.1062 RUIN -0.2402
-4.1062 RUINS -0.2978
-4.1062 RUN -0.2402
-4.1062 RUPTURE -0.2402
-4.1062 RUSTGNAWER -0.2402
-4.1062 RUSTMISER -0.2402
-4.1062 RUTH -0.2402
-4.1062 SABOTAGE -0.3010
-4.1062 SACK -0.2978
-4.1062 SACRIFICE -0.2402
-4.1062 SACRIFICIAL -0.3010
-4.1062 SACRO-ALIEN -0.2402
-4.1062 SACRO-BEAST -0.2402
-4.1062 SACRO-BOT -0.2402
-4.1062 SACRO-FIEND -0.2402
-4.1062 SACRO-SAURUS -0.2402
-4.1062 SACRO-THIEF -0.2402
-3.6291 SAFE -0.3006
-4.1062 SAFEGUARD -0.2402
-4.1062 SAFETY -0.3009
-4.1062 SAGITTARIIS -0.3010
-4.1062 SALT -0.2402
-4.1062 SAMPLE -0.3010
-4.1062 SANCTUM -0.3009
-4.1062 SANDALS -0.2402
-4.1062 SANDHOPPER -0.2402
-4.1062 SANITATION -0.3009
-4.1062 SARGASSA -0.2402
-4.1062 SARGASSA-EVIL -0.2993
-4.1062 SARIEL-THE-STEADFAST -0.2402
-4.1062 SAURARIUM -0.2402
-3.8052 SAURIAN -0.3008
-4.1062 SAUROPOD -0.2402
-3.8052 SAURUS -0.2401
-4.1062 SAURY -0.3010
-4.1062 SAVAGE -0.3010
-4.1062 SAVE -0.2970
-4.1062 SAY -0.2402
-4.1062 SCALE -0.2402
-4.1062 SCARRED -0.2402
-4.1062 SCHOLAR -0.2402
-3.8052 SCI -0.3006
-4.1062 SCIENCE -0.2402
-4.1062 SCIENTIFICAL -0.3010
-4.1062 SCIENTISTS -0.3008
-4.1062 SCOOP-UP -0.2402
-4.1062 SCOOPED -0.2402
-3.8052 SCOUT -0.2402
-4.1062 SCOUT-CHIEF-KORIJIR -0.2402
-4.1062 SCOWLY -0.3010
-4.1062 SCRAMBLER -0.3009
-4.1062 SCRAPPER -0.2402
-4.1062 SCRAPSCROUNGER -0.2402
-4.1062 SCREAMING -0.3010
-4.1062 SCREECHBOMB -0.2402
-4.1062 SCRIVENER -0.3010
-3.8052 SCROLL -0.2402
-4.1062 SCUTUM -0.2402
-4.1062 SCYLLA -0.2402
-4.1062 SCYPHOS -0.2402
-3.8052 SEA -0.3009
-4.1062 SEABORG -0.2402
-4.1062 SEABRINGER -0.3010
-4.1062 SEAS -0.3009
-4.1062 SEASON -0.2402
-4.1062 SECURI-DROID -0.2402
-4.1062 SEED -0.2402
-3.8052 SEEKER -0.2977
-4.1062 SEISMO-ENTANGLER -0.2402
-4.1062 SELECTION -0.2402
-4.1062 SELECTIVE -0.3010
-3.8052 SELF -0.2402
-4.1062 SELF-BOLSTERING -0.3010
-4.1062 SELWYN -0.2970
-4.1062 SEMPER -0.3010
-3.5041 SENATOR -0.2400
-3.8052 SENESCHAL -0.3010
-4.1062 SENSOR -0.3009
-4.1062 SEPDIA -0.2402
-4.1062 SEQUIS -0.2402
-4.1062 SERAPHIC -0.3009
-4.1062 SERGEANT -0.3010
-4.1062 SERUM -0.2402
-4.1062 SGS -0.3010
-3.6291 SHADOW -0.2976
-4.1062 SHADOWS -0.3008
-4.1062 SHADOWSAURUS -0.2402
-4.1062 SHADOWSMITH -0.2402
-4.1062 SHAFFLES -0.2402
-4.1062 SHAKEDOWN-SULLIVAN -0.2402
-3.8052 SHAMAN -0.2402
-3.2611 SHARD -0.2978
-3.8052 SHARK -0.2402
-4.1062 SHARK-EVIL -0.2993
-4.1062 SHATTER -0.3009
-4.1062 SHATTERED -0.3010
-4.1062 SHERMAN -0.2402
-3.8052 SHIELD -0.2364
-4.1062 SHIELD-U-LATER -0.2402
-4.1062 SHIELD-U-LATER-EVIL -0.2993
-4.1062 SHIELDING -0.2402
-3.8052 SHIFT -0.2402
-4.1062 SHIFTING -0.3010
-4.1062 SHIGZISO-BUGGY -0.2402
-4.1062 SHIP -0.2402
-4.1062 SHISNYASI-BUGGY -0.2402
-4.1062 SHIZYOKU-BUGGY -0.2402
-4.1062 SHIZYOKU-SWOPPER -0.2402
-4.1062 SHOCK-HERDER -0.2402
-4.1062 SHOCKWORM -0.2402
-4.1062 SHOES -0.2402
-4.1062 SHOOLER -0.2402
-4.1062 SHOPPING-SPREE -0.2402
-3.8052 SHORTY -0.2402
-4.1062 SHORTYS -0.3008
-3.8052 SHOULDER -0.3009
-4.1062 SHREWD-INVESTOR -0.2402
-3.6291 SHRIX -0.2402
-4.1062 SIBYL-WAIMARE -0.2402
-4.1062 SIC -0.3010
-3.5041 SIGIL -0.2364
-4.1062 SIGNAL -0.3010
-4.1062 SILENCE -0.2402
-4.1062 SILENT -0.3010
-4.1062 SILVER -0.3007
-4.1062 SILVERTOOTH -0.2402
-4.1062 SIMPSON -0.2402
-4.1062 SIMPSON-EVIL -0.2993
-4.1062 SINDER -0.2402
-4.1062 SINESTRA -0.2402
-4.1062 SINK -0.3006
-3.6291 SIR -0.3009
-4.1062 SIREN -0.3010
-4.1062 SKELETON -0.3007
-4.1062 SKIPPY -0.3010
-4.1062 SKIRMISHER -0.2402
-4.1062 SKIXUNO -0.2402
-4.1062 SKULLBACK-CRAB -0.2402
-4.1062 SKULLION -0.2402
-4.1062 SKULLS -0.2402
-4.1062 SKYBOOSTER -0.3010
-4.1062 SKöLL -0.2402
-4.1062 SLAM -0.2402
-4.1062 SLEEP -0.3009
-4.1062 SLIMY -0.3010
-4.1062 SLOPPY -0.3010
-3.8052 SLOTH -0.2402
-4.1062 SLRS -0.3010
-4.1062 SMAAASH -0.2402
-4.1062 SMARTFIST -0.2402
-4.1062 SMARTYPANTS -0.2402
-4.1062 SMILING -0.3010
-4.1062 SMITE -0.2402
-4.1062 SMITH -0.2402
-4.1062 SMOKO -0.2402
-4.1062 SMYTH -0.2402
-4.1062 SNAG -0.2402
-4.1062 SNAGLET -0.2402
-4.1062 SNAGS -0.3010
-4.1062 SNARETTE -0.2402
-4.1062 SNATCHER -0.2402
-4.1062 SNEKLIFTER -0.2402
-4.1062 SNIB -0.2402
-4.1062 SNIFFER -0.2402
-4.1062 SNUDGE -0.2402
-4.1062 SNUFFLEGATOR -0.2402
-4.1062 SO -0.2402
-4.1062 SOBOGGS -0.3010
-4.1062 SOCRATEROSAURUS -0.2402
-4.1062 SOFT -0.3010
-4.1062 SOLDIERS -0.3007
-4.1062 SOLEFT -0.2402
-3.8052 SONG -0.2978
-4.1062 SOPHISTRY -0.2402
-4.1062 SORRY -0.2402
-4.1062 SOTO -0.2402
-3.8052 SOUL -0.3010
-4.1062 SOULKEEPER -0.2402
-3.8052 SOULS -0.2402
-4.1062 SOUND -0.2970
-3.8052 SOW -0.2402
-4.1062 SPACE-INVADERS -0.2402
-4.1062 SPANGLER -0.3010
-4.1062 SPARKFIST -0.2402
-4.1062 SPARTASAUR -0.2402
-4.1062 SPEARS -0.2402
-3.8052 SPECIAL -0.3009
-4.1062 SPECIALIST-GUTHRAK -0.2402
-4.1062 SPECTER -0.2402
-4.1062 SPECTRAL -0.3010
-4.1062 SPEED -0.3009
-3.8052 SPIDER -0.2402
-3.8052 SPIKE -0.2401
-4.1062 SPIRAL -0.2402
-4.1062 SPIRIT -0.2402
-4.1062 SPIRITS -0.3009
-4.1062 SPLINTER -0.2402
-4.1062 SPOILS -0.2978
-4.1062 SPOREGORGER -0.2402
-4.1062 SPOREGORGER-EVIL -0.2993
-4.1062 SPRING -0.2402
-4.1062 SPYMASTER -0.2402
-4.1062 SPYYYDER -0.2402
-4.1062 SQUADRON -0.2402
-4.1062 SQUAWKER -0.2402
-3.8052 SQUIRE -0.2402
-4.1062 SQUIRE-RECRUITMENT -0.2402
-4.1062 STAFF-UP -0.2402
-4.1062 STAMPEDE -0.2402
-4.1062 STANDARD -0.2402
-4.1062 STANDARDIZED -0.3010
-3.8052 STAR -0.2401
-3.8052 STARS -0.2402
-4.1062 STASH -0.2402
-3.8052 STATIC -0.3008
-4.1062 STAUNCH -0.3009
-4.1062 STEALER -0.2978
-4.1062 STEALTH -0.3010
-4.1062 STEALTHSTER -0.2402
-4.1062 STEELHEART -0.2402
-4.1062 STEELHEART-EVIL -0.2993
-4.1062 STEM -0.3010
-4.1062 STENOPIUS -0.2402
-4.1062 STEWARD-SU-UZYANE -0.2402
-4.1062 STILT-KIN -0.2402
-4.1062 STIMRAGER -0.2402
-4.1062 STING -0.2402
-4.1062 STIR -0.3010
-4.1062 STIR-CRAZY -0.2402
-4.1062 STIRRING -0.3010
-4.1062 STOCKPILE -0.2402
-4.1062 STOMP -0.2402
-3.8052 STONE -0.2402
-4.1062 STOOD -0.3010
-3.5041 STORM -0.2400
-3.8052 STRANGE -0.3010
-4.1062 STRANGE-SHELL -0.2402
-4.1062 STRATOSMACK -0.2402
-4.1062 STREKE -0.2402
-4.1062 STRENGTH -0.2402
-4.1062 STRIKE -0.2402
-4.1062 STRONGER-TOGETHER -0.2402
-4.1062 STUNNER -0.2402
-4.1062 SUBDUE -0.2402
-4.1062 SUBJECT -0.3010
-4.1062 SUBMERSIBLE -0.2402
-4.1062 SUBMERSIVE -0.3010
-4.1062 SUBORDINATION -0.2402
-3.6291 SUBTLE -0.3009
-4.1062 SUCCUBUS -0.2402
-4.1062 SUCKER -0.3009
-4.1062 SUIT -0.2402
-4.1062 SUNK-COST -0.2402
-4.1062 SUPPORT -0.2402
-3.6291 SURGE -0.2402
-4.1062 SURVEY -0.2402
-4.1062 SUSPENDED-ANIMATION -0.2402
-4.1062 SUSURRUS -0.2402
-4.1062 SUTTERKIN -0.2402
-4.1062 SV3-LANDER -0.2402
-4.1062 SWALLOW -0.3010
-4.1062 SWAP -0.3010
-4.1062 SWARM -0.2402
-4.1062 SWEEP -0.2402
-4.1062 SWEVEN -0.2402
-4.1062 SWEVEN-EVIL -0.2993
-4.1062 SWIM -0.2402
-4.1062 SWINDLE -0.2402
-4.1062 SWIRL -0.2402
-4.1062 SWITCH -0.2402
-4.1062 SYMON -0.2402
-4.1062 SYMPOSIUM -0.2402
-4.1062 SYNAN -0.2402
-4.1062 SYNAN-EVIL -0.2993
-4.1062 SYPHON -0.2402
-4.1062 T3R-35A -0.2402
-4.1062 TABER -0.2402
-4.1062 TABLE -0.2402
-4.1062 TABRIS -0.2402
-4.1062 TACHYON -0.3010
-4.1062 TACTICAL -0.3006
-3.8052 TAKE -0.3009
-4.1062 TALENT-SCOUT -0.2402
-3.8052 TALMAGE -0.3010
-4.1062 TAMER -0.2402
-4.1062 TANGAIKA -0.2402
-4.1062 TANIWHA -0.2402
-4.1062 TANIWHA-EVIL -0.2993
-3.8052 TANK -0.2402
-4.1062 TANTADLIN -0.2402
-4.1062 TAR -0.2402
-4.1062 TAUTAU -0.3010
-4.1062 TAXING -0.3010
-4.1062 TE-WHEKE -0.3010
-4.1062 TEAM -0.2402
-4.1062 TEAMWORK -0.2402
-4.1062 TECHIVORE -0.3010
-4.1062 TECHNICIAN -0.2402
-4.1062 TECHNO-ALIEN -0.2402
-4.1062 TECHNO-BEAST -0.2402
-4.1062 TECHNO-FIEND -0.2402
-4.1062 TECHNO-KNIGHT -0.2402
-4.1062 TECHNO-SAURUS -0.2402
-4.1062 TECHNO-THIEF -0.2402
-4.1062 TECHNOBABBLE -0.2402
-4.1062 TECTONIC-SHIFT -0.2402
-4.1062 TELEPORTER -0.3009
-4.1062 TELIGA -0.2402
-4.1062 TEMPORAL-PURGE -0.2402
-4.1062 TEMPTING -0.3010
-4.1062 TENDRILS -0.2978
-4.1062 TENTACLID -0.2402
-4.1062 TENTACUS -0.2402
-4.1062 TERATO -0.2402
-4.1062 TERMS -0.2978
-4.1062 TERRIBLE -0.2402
-4.1062 TERROR -0.2402
-4.1062 TERRORDACTYL -0.2402
-4.1062 TERTIATE -0.2402
-4.1062 TESTING -0.2402
-4.1062 TEZMAL -0.2402
-4.1062 THALASSOPHOBIA -0.2402
-3.8052 THAT -0.2402
-2.0343 THE -0.2954
-4.1062 THE-AEMBER-ROAD -0.2402
-4.1062 THE-GRAND-GORD -0.2402
-4.1062 THE-OLD-TINKER -0.2402
-4.1062 THE-PROMISED-BLADE -0.2402
-4.1062 THE-VISIBLE-HAND -0.2402
-4.1062 THEM -0.3009
-4.1062 THEORIST -0.2402
-3.6291 THEORY -0.2397
-4.1062 THERAPY -0.2402
-4.1062 THERE -0.2402
-4.1062 THERO -0.3009
-4.1062 THEY -0.3010
-4.1062 THEY'RE -0.3010
-4.1062 THIEF -0.2402
-4.1062 THIEVERY -0.2402
-4.1062 THIEVES -0.3008
-4.1062 THIN -0.2970
-4.1062 THINGAMABOB -0.2402
-4.1062 THINK -0.3010
-4.1062 THINKDRONE -0.2402
-4.1062 THORIUM -0.3010
-4.1062 THREE -0.3010
-4.1062 THRONE -0.2402
-4.1062 THROWING -0.3010
-4.1062 THUNDERTOW -0.2402
-4.1062 TIDAL -0.3009
-3.8052 TIDE -0.3009
-4.1062 TIGER -0.2402
-3.8052 TIME -0.2402
-4.1062 TIMEHOG -0.2402
-4.1062 TIMEQUAKE -0.2402
-4.1062 TIMETRAVELLER -0.2402
-4.1062 TIMOTI-THE-DAMMED -0.2402
-4.1062 TINK -0.2402
-4.1062 TIRELESS -0.3010
-3.5041 TITAN -0.3008
-4.1062 TITANIC -0.2402
-4.1062 TITANS -0.2402
-3.0648 TO -0.3002
-4.1062 TOAD -0.2402
-4.1062 TOCSIN -0.2402
-4.1062 TOGETHER -0.2402
-4.1062 TOGNATH -0.2402
-4.1062 TOKEN-OF-APPRECIATION -0.2402
-4.1062 TOLAS -0.2402
-3.8052 TOMWA -0.2978
-4.1062 TOO -0.3010
-4.1062 TORVUS -0.2402
-4.1062 TOTAL -0.3010
-3.6291 TOUCH -0.2402
-4.1062 TOURIST-TRAP -0.2402
-4.1062 TOXICUDA-VENOM -0.2402
-4.1062 TRACKER -0.2402
-4.1062 TRADE-SECRETS -0.2402
-3.8052 TRADER -0.2402
-4.1062 TRADING-FRENZY -0.2402
-4.1062 TRAINING -0.2402
-4.1062 TRAINING-COSTS -0.2402
-4.1062 TRAITOR -0.2402
-4.1062 TRANSITORY-PHILOSOPHER -0.2402
-4.1062 TRANSLATOR -0.2402
-4.1062 TRANSPORTER -0.3010
-4.1062 TRANSPOSITION -0.3010
-3.8052 TRAP -0.2402
-4.1062 TREASURE -0.3010
-3.8052 TREE -0.2402
-4.1062 TREMOR -0.2402
-4.1062 TRENCH -0.2402
-4.1062 TRIAL -0.3010
-4.1062 TRIBUNE -0.3010
-4.1062 TRIBUTE -0.2402
-4.1062 TRICERIAN -0.3010
-4.1062 TRICKLE-DOWN -0.3009
-4.1062 TRIGON -0.2402
-4.1062 TRIMBLE -0.2402
-4.1062 TRIUMPH -0.2402
-4.1062 TROJAN -0.3010
-4.1062 TROLL -0.2402
-4.1062 TROOP -0.3009
-4.1062 TROOPER -0.2402
-4.1062 TROUBLE -0.2402
-4.1062 TRUEBARU -0.2402
-4.1062 TRUST -0.3009
-3.8052 TRUTH -0.2402
-4.1062 TRYSKA -0.2402
-4.1062 TRYSKA-EVIL -0.2993
-4.1062 TUNK -0.2402
-4.1062 TUNNELER -0.2402
-4.1062 TURNKEY -0.2402
-4.1062 TWICE -0.2402
-2.4072 TWIN -0.2401
-4.1062 TWO -0.3009
-4.1062 TYA-ARHI-ESQUIRE -0.2402
-4.1062 TYRANNOSAURUS -0.2402
-4.1062 TYXL -0.3010
-4.1062 ULFBERHT -0.3010
-4.1062 ULTRA -0.3010
-4.1062 ULYQ -0.3010
-4.1062 UMBRA -0.2402
-4.1062 UMBRA-ALIEN -0.2402
-4.1062 UMBRA-BEAST -0.2402
-4.1062 UMBRA-BOT -0.2402
-4.1062 UMBRA-FIEND -0.2402
-4.1062 UMBRA-KNIGHT -0.2402
-4.1062 UMBRA-SAURUS -0.2402
-4.1062 UNCHARTED -0.3010
-4.1062 UNCOMMON-CURRENCY -0.2402
-4.1062 UNDAGNATHUS -0.2402
-4.1062 UNDAGNATHUS-EVIL -0.2993
-4.1062 UNDER -0.3010
-4.1062 UNGUARDED -0.3010
-4.1062 UNGUIS -0.2402
-4.1062 UNIFIER -0.2402
-3.8052 UNIT -0.2402
-4.1062 UNITED -0.3010
-4.1062 UNITY -0.3006
-3.6291 UNIVERSAL -0.3009
-4.1062 UNIVERSE -0.2402
-4.1062 UNLOCKED -0.3010
-4.1062 UNNATURAL -0.3010
-4.1062 UNSUSPECTING -0.3010
-3.8052 UNTAMED -0.3006
-3.8052 UP -0.2402
-4.1062 UPLINK -0.2402
-3.8052 URCHIN -0.2402
-4.1062 URCHIN-EVIL -0.2993
-3.8052 URIEN -0.2970
-4.1062 URSO -0.2402
-4.1062 URSO-EVIL -0.2993
-4.1062 UXLYX -0.2970
-4.1062 VAL -0.3010
-4.1062 VALDR -0.2402
-4.1062 VALMART -0.2402
-4.1062 VALOOCANTH -0.2402
-4.1062 VANDALIZE -0.2402
-4.1062 VANITY -0.2402
-4.1062 VAPORS -0.2402
-4.1062 VAULT -0.2402
-4.1062 VAULTKEEPER -0.2402
-4.1062 VAULTS -0.3010
-4.1062 VEEMOS -0.3010
-4.1062 VELUM -0.2402
-4.1062 VENATOR -0.3010
-4.1062 VENOM -0.2402
-4.1062 VEROKTER -0.2402
-4.1062 VESPILON -0.3010
-4.1062 VEYLAN -0.3010
-4.1062 VEZYMA -0.3010
-4.1062 VIEW -0.2402
-4.1062 VIGOR -0.2402
-3.8052 VINDA -0.2402
-4.1062 VINEAPPLE -0.3010
-4.1062 VINES -0.2402
-4.1062 VINUM -0.2402
-4.1062 VIRTUOUS -0.3010
-4.1062 VIRUS -0.2402
-4.1062 VITA -0.2402
-4.1062 VITA-EVIL -0.2993
-4.1062 VOICE -0.2978
-4.1062 VOID -0.2402
-4.1062 VOW-OF-BLOOD -0.2402
-4.1062 VULKA -0.2402
-4.1062 WAIL -0.2978
-4.1062 WAKING -0.3010
-4.1062 WALK -0.2970
-4.1062 WALL -0.2402
-3.8052 WALLS -0.2397
-3.8052 WAR -0.2401
-4.1062 WARCHEST -0.2402
-4.1062 WARDRUMMER -0.2402
-4.1062 WARP -0.2402
-4.1062 WARRIOR -0.2402
-4.1062 WARRIORS -0.3010
-4.1062 WARSONG -0.2402
-4.1062 WASHED -0.3010
-4.1062 WASTE -0.3010
-4.1062 WATCH-YOUR-STEP -0.2402
-3.8052 WATER -0.2402
-3.5041 WAVE -0.2402
-3.4072 WAY -0.2364
-4.1062 WE -0.3010
-3.6291 WEAK -0.2402
-4.1062 WEAK-LINK -0.2402
-4.1062 WEASAND -0.2402
-4.1062 WHAT -0.3010
-4.1062 WHIRLPOOL -0.2402
-4.1062 WHISPER -0.2402
-4.1062 WHISPERING -0.3010
-4.1062 WHISPERS -0.2402
-4.1062 WHISTLING -0.3010
-4.1062 WHITE-AERONAUT -0.2402
-4.1062 WHO -0.3010
-4.1062 WHOLE -0.2402
-4.1062 WIDESPREAD -0.3010
-4.1062 WIDGET -0.2402
-4.1062 WIKOLIA -0.2402
-4.1062 WIKOLIA-EVIL -0.2993
-3.4072 WILD -0.2400
-4.1062 WILDS -0.2402
-4.1062 WILLA -0.2402
-4.1062 WILLA-EVIL -0.2993
-4.1062 WIN -0.2402
-4.1062 WIPE -0.3010
-3.4072 WITCH -0.2364
-3.6291 WITH -0.2968
-3.8052 WOLF -0.2402
-4.1062 WONDER -0.2402
-4.1062 WOODS -0.2402
-4.1062 WORD -0.2978
-4.1062 WORKS -0.2402
-4.1062 WORLD -0.3010
-4.1062 WORM -0.2402
-3.8052 WORMHOLE -0.2402
-3.6291 WRATH -0.2397
-4.1062 WRETCHED -0.3010
-4.1062 WRISTCLOCKS -0.2402
-4.1062 XALVADOR -0.2402
-4.1062 XANTHYX -0.3010
-4.1062 XENO-BEAST -0.2402
-4.1062 XENO-BOT -0.2402
-4.1062 XENO-FIEND -0.2402
-4.1062 XENO-KNIGHT -0.2402
-4.1062 XENO-SAURUS -0.2402
-4.1062 XENO-THIEF -0.2402
-4.1062 XENOS -0.3010
-4.1062 XENOTRAINING -0.2402
-4.1062 YANTHI-GHOSTFIN -0.2402
-4.1062 YANTZEE -0.3010
-4.1062 YO -0.3010
-3.8052 YOU -0.2402
-3.8052 YOUNGEST -0.3008
-4.1062 YSHI -0.2402
-3.6291 YURK -0.2402
-4.1062 YXILI -0.3010
-4.1062 YXILO -0.3010
-4.1062 YXILX -0.3010
-4.1062 YXL-THE-IRON-CAPTAIN -0.2402
-4.1062 YXLIX-MESMERIST -0.2402
-4.1062 YXLYX -0.3010
-4.1062 YZPHYZ -0.3010
-4.1062 Z-FORCE -0.3009
-4.1062 Z-PARTICLE -0.3010
-4.1062 Z-RAY -0.3006
-4.1062 Z-WAVE -0.3010
-4.1062 ZAKIEL -0.2402
-4.1062 ZAP -0.2402
-4.1062 ZAREK -0.2402
-3.6291 ZEALOT -0.2402
-4.1062 ZENZIZENZIZENZIC -0.2402
-4.1062 ZEPHON-THE-OPULENT -0.2402
-4.1062 ZIZOK -0.2402
-4.1062 ZOOKEEPER -0.2402
-4.1062 ZORG -0.2402
-4.1062 ZYSYSYX -0.3010
-3.6291 ZYX -0.2400
-4.1062 ZYZZIX -0.2970

\2-grams:
-0.3010 1 </s> -0.3010
-0.3010 14 </s> -0.3010
-0.3010 2 </s> -0.3010
-0.3010 24 </s> -0.3010
-0.3010 3 </s> -0.3010
-0.3010 346E </s> -0.3010
-0.3010 4X4 </s> -0.3010
-0.3010 5150 </s> -0.3010
-0.3010 5C077 </s> -0.3010
-0.3010 5C077-EVIL TWIN -0.0086
-0.3010 9001 </s> -0.3010
-3.5235 <s> 5C077 0.0000
-3.5235 <s> 5C077-EVIL 0.0000
-3.2225 <s> A -0.1761
-3.5235 <s> ABANDON 0.0000
-3.5235 <s> ABOND 0.0000
-3.5235 <s> ABSOLVE 0.0000
-3.5235 <s> ABYSSAL 0.0000
-3.5235 <s> ABYSSAL-SIGHT 0.0000
-3.5235 <s> ACADEMY 0.0000
-3.5235 <s> ACCESS -0.2430
-3.5235 <s> ADAPTOID 0.0000
-3.5235 <s> ADULT-SWIM 0.0000
-3.5235 <s> AEDILE-TULLIA 0.0000
-3.5235 <s> AEMBERLING 0.0000
-3.5235 <s> AEMBITRAGE 0.0000
-3.5235 <s> AEMBROSIA-OUTPOST 0.0000
-3.2225 <s> AGENT -0.1761
-3.5235 <s> AIRLOCK 0.0000
-3.5235 <s> AJA 0.0000
-3.5235 <s> ALAKA 0.0000
-3.5235 <s> ALAKAS 0.0000
-3.5235 <s> ALL -0.2218
-3.5235 <s> ALLUSIONS 0.0000
-3.5235 <s> ALMSMASTER 0.0000
-3.5235 <s> ALMSMASTER-EVIL 0.0000
-3.5235 <s> ALTRUISTS 0.0000
-3.5235 <s> AMBASSADOR -0.2688
-3.2225 <s> AMBER -0.2041
-3.5235 <s> AMBER-VAC 0.0000
-3.2225 <s> AMBERFIN 0.0000
-3.5235 <s> AMBERHEART 0.0000
-3.5235 <s> AMBERLUTION 0.0000
-3.5235 <s> AMBERMANCY 0.0000
-3.5235 <s> AMBERSPINE 0.0000
-3.5235 <s> AMBERTRACKER 0.0000
-3.5235 <s> AMMONIA 0.0000
-3.5235 <s> AMPHORA 0.0000
-3.5235 <s> ANAHITA 0.0000
-3.0464 <s> ANCIENT 0.0000
-3.5235 <s> ANCIENT-BATTLEGROUND 0.0000
-3.5235 <s> ANGER 0.0000
-3.5235 <s> ANGRY 0.0000
-3.5235 <s> ANGWISH 0.0000
-3.5235 <s> ANIMATOR 0.0000
-3.5235 <s> ANKYLO 0.0000
-3.5235 <s> ANNIHILATION 0.0000
-3.5235 <s> ANOMALY 0.0000
-3.5235 <s> ANTIQUITIES-DEALER 0.0000
-3.5235 <s> ANTONY 0.0000
-3.5235 <s> AQUILIA-LONE-HERO 0.0000
-3.5235 <s> ARCHIMEDES 0.0000
-3.2225 <s> ARCHONS -0.1249
-3.5235 <s> ARDENT 0.0000
-3.5235 <s> ARISE 0.0000
-3.5235 <s> ARISTOTLMIMUS 0.0000
-3.5235 <s> ARM-THE-PLEBEIANS 0.0000
-3.5235 <s> ARMADRONE 0.0000
-3.5235 <s> ARMADRONE-EVIL 0.0000
-3.5235 <s> ARMAGEDDON 0.0000
-3.5235 <s> ARMORY 0.0000
-3.5235 <s> ARMSMASTER 0.0000
-3.5235 <s> ASSERT 0.0000
-3.5235 <s> AUBADE 0.0000
-3.5235 <s> AUCTION-OFF 0.0000
-3.5235 <s> AUSTERALIS -0.1761
-3.5235 <s> AUTO-ENCODER 0.0000
-3.5235 <s> AUTO-LEGIONARY 0.0000
-3.5235 <s> AUTO-VAC 0.0000
-3.5235 <s> AUTOCANNON 0.0000
-3.5235 <s> AVENGING 0.0000
-3.5235 <s> AVID-COLLECTING 0.0000
-3.5235 <s> AWAY -0.1761
-3.5235 <s> AXIOM 0.0000
-3.5235 <s> AZURE-BASIN-OUTPOST 0.0000
-3.5235 <s> B0-T 0.0000
-3.5235 <s> BABBLING 0.0000
-3.2225 <s> BACKUP -0.1249
-3.5235 <s> BAD -0.1761
-3.5235 <s> BADGE-OF-UNITY 0.0000
-3.5235 <s> BADGEMAGUS 0.0000
-3.5235 <s> BAIT 0.0000
-3.5235 <s> BALDRIC 0.0000
-3.5235 <s> BALLCANO 0.0000
-3.5235 <s> BALLISTEGO 0.0000
-3.5235 <s> BANISH 0.0000
-3.5235 <s> BANNER 0.0000
-3.5235 <s> BAREHANDED 0.0000
-3.5235 <s> BARN 0.0000
-3.5235 <s> BARON -0.1761
-3.5235 <s> BARRISTER 0.0000
-3.5235 <s> BATARIEL-OF-THE-GREY 0.0000
-3.5235 <s> BATDRONE 0.0000
-3.5235 <s> BATTLE -0.2430
-3.5235 <s> BATTLEVANGELIST 0.0000
-3.5235 <s> BEACH 0.0000
-3.5235 <s> BEAR -0.2553
-3.5235 <s> BEASTS 0.0000
-3.5235 <s> BEFUDDLE 0.0000
-3.5235 <s> BEGONE 0.0000
-3.5235 <s> BELLATORAN-WARRIOR 0.0000
-3.5235 <s> BELLIGERENT-GUARD 0.0000
-3.5235 <s> BELLOWING 0.0000
-3.5235 <s> BERINON 0.0000
-3.2225 <s> BERSERKER 0.0000
-3.2225 <s> BESTIARII 0.0000
-3.5235 <s> BEWARE 0.0000
-3.5235 <s> BIG-MAGNET 0.0000
-3.5235 <s> BIGTWIG 0.0000
-3.5235 <s> BILGEWARDEN 0.0000
-3.5235 <s> BILGUM 0.0000
-3.2225 <s> BINARY 0.0000
-3.5235 <s> BINATE 0.0000
-3.5235 <s> BINDING -0.1761
-3.5235 <s> BINGLE 0.0000
-3.5235 <s> BIOMATRIX 0.0000
-3.5235 <s> BIOME 0.0000
-3.2225 <s> BLAST -0.2041
-3.5235 <s> BLATANT 0.0000
-3.5235 <s> BLINDING 0.0000
-3.2225 <s> BLOOD -0.1249
-3.5235 <s> BLOODSHARD 0.0000
-3.5235 <s> BLORB 0.0000
-3.5235 <s> BLORB-HIVE 0.0000
-3.5235 <s> BLOSSOM 0.0000
-3.5235 <s> BLYPYP 0.0000
-3.5235 <s> BO 0.0000
-3.5235 <s> BOMBYX 0.0000
-3.5235 <s> BONEROT 0.0000
-3.5235 <s> BONESAW 0.0000
-3.5235 <s> BOOBY 0.0000
-3.2225 <s> BOOK 0.0000
-3.5235 <s> BORDAN 0.0000
-3.5235 <s> BORKA-RIKK 0.0000
-3.2225 <s> BORR 0.0000
-3.5235 <s> BORROW 0.0000
-3.5235 <s> BOSS 0.0000
-3.5235 <s> BOT -0.1761
-3.5235 <s> BOUNCING 0.0000
-3.5235 <s> BRABBLE 0.0000
-3.5235 <s> BRACCHANALIA 0.0000
-3.5235 <s> BRACHIADITUS 0.0000
-3.5235 <s> BRACKISH-SHORELINE 0.0000
-3.0464 <s> BRAIN 0.0000
-3.5235 <s> BRAINDART 0.0000
-3.5235 <s> BRAMBLE 0.0000
-3.5235 <s> BRAMMO 0.0000
-3.5235 <s> BRAWL-IN 0.0000
-3.5235 <s> BREAK-KEY 0.0000
-3.5235 <s> BREAKER 0.0000
-3.5235 <s> BREND 0.0000
-3.5235 <s> BRIAR 0.0000
-3.5235 <s> BRIKK-NASTEE 0.0000
-3.5235 <s> BRING 0.0000
-3.2225 <s> BROBNAR 0.0000
-3.5235 <s> BROKEN-AXE-OUTPOST 0.0000
-3.5235 <s> BRONZE 0.0000
-3.5235 <s> BROTHERS 0.0000
-3.5235 <s> BRUTODON 0.0000
-3.5235 <s> BRYOZOARCH 0.0000
-3.5235 <s> BUBBLES 0.0000
-3.5235 <s> BULL-WARK 0.0000
-3.5235 <s> BULLETEYE 0.0000
-3.5235 <s> BULWARK 0.0000
-3.5235 <s> BUMBLEBIRD 0.0000
-3.5235 <s> BUMPSY 0.0000
-3.5235 <s> BURN 0.0000
-3.5235 <s> BURNING 0.0000
-3.5235 <s> BURY 0.0000
-3.5235 <s> BUZZLE 0.0000
-3.5235 <s> CADET 0.0000
-3.2225 <s> CALL -0.1761
-3.5235 <s> CALV-1N 0.0000
-3.5235 <s> CAMARADERIE 0.0000
-3.5235 <s> CAMOUFLAGE 0.0000
-3.5235 <s> CANDLE 0.0000
-3.5235 <s> CANNON 0.0000
-2.8245 <s> CAPTAIN 0.0000
-3.5235 <s> CARLO 0.0000
-3.5235 <s> CARPE 0.0000
-3.5235 <s> CARPET 0.0000
-3.5235 <s> CATCH-AND-RELEASE 0.0000
-3.5235 <s> CAULDRON 0.0000
-3.5235 <s> CAUSAL 0.0000
-3.5235 <s> CEASEFORGE 0.0000
-3.5235 <s> CELESTIAL-GORM 0.0000
-3.5235 <s> CEMENT 0.0000
-3.2225 <s> CENSOR 0.0000
-3.5235 <s> CENTURION -0.2218
-3.5235 <s> CEPHALOIST 0.0000
-3.5235 <s> CH-337A 0.0000
-3.5235 <s> CH-337A-EVIL 0.0000
-3.5235 <s> CHAIN -0.1761
-3.5235 <s> CHALLE 0.0000
-3.2225 <s> CHAMPION 0.0000
-3.5235 <s> CHAMPIONS 0.0000
-3.5235 <s> CHANCELLOR-DEXTERUS 0.0000
-3.5235 <s> CHANS 0.0000
-3.5235 <s> CHANT -0.2218
-3.5235 <s> CHAOS 0.0000
-3.5235 <s> CHAOSODON 0.0000
-3.5235 <s> CHARETTE 0.0000
-3.5235 <s> CHARGE 0.0000
-3.5235 <s> CHARYBDIS 0.0000
-3.5235 <s> CHELONIA 0.0000
-3.5235 <s> CHELONIA-EVIL 0.0000
-3.5235 <s> CHENILLE 0.0000
-3.5235 <s> CHIEF -0.2218
-3.5235 <s> CHIEFTAINS 0.0000
-3.5235 <s> CHONKERS 0.0000
-3.5235 <s> CHOTA 0.0000
-3.5235 <s> CHRONOPHAGE 0.0000
-3.5235 <s> CHRONUS 0.0000
-3.5235 <s> CHUFF 0.0000
-3.5235 <s> CINCINNATUS 0.0000
-3.5235 <s> CITIZEN 0.0000
-3.5235 <s> CITY 0.0000
-3.5235 <s> CITY-STATE 0.0000
-3.5235 <s> CLEANSING 0.0000
-3.5235 <s> CLEAR -0.1761
-3.5235 <s> CLERIC 0.0000
-3.5235 <s> CLOAKING 0.0000
-3.5235 <s> CLONE-HOME 0.0000
-3.5235 <s> CLOSED-DOOR-NEGOTIATION 0.0000
-3.5235 <s> CODE 0.0000
-3.5235 <s> COLLAR 0.0000
-3.5235 <s> COLLECTOR -0.1761
-3.5235 <s> COLLECTOR-BOREN 0.0000
-3.5235 <s> COLONEL-MARIANA 0.0000
-3.2225 <s> COLONIST 0.0000
-3.0464 <s> COM 0.0000
-3.5235 <s> COMBAT 0.0000
-3.5235 <s> COMMANDEER 0.0000
-3.0464 <s> COMMANDER 0.0000
-3.5235 <s> COMMPOD 0.0000
-3.5235 <s> COMMUNE 0.0000
-3.5235 <s> CONDUCTOR-JARROYA 0.0000
-3.5235 <s> CONSCRIPTION 0.0000
-3.5235 <s> CONSUL 0.0000
-3.5235 <s> CONTAINMENT 0.0000
-3.5235 <s> CONTROL 0.0000
-3.5235 <s> COOPERATIVE 0.0000
-3.5235 <s> CORNER-THE-MARKET 0.0000
-3.5235 <s> CORNICEN 0.0000
-3.5235 <s> CORRODE 0.0000
-3.5235 <s> COVETOUS-HEMA 0.0000
-3.5235 <s> COWARDS 0.0000
-3.5235 <s> COWFYNE 0.0000
-3.5235 <s> COWFYNES 0.0000
-3.5235 <s> CPO-ZYTAR 0.0000
-3.2225 <s> CR 0.0000
-3.5235 <s> CRASH 0.0000
-3.5235 <s> CRASSOSAURUS 0.0000
-3.5235 <s> CRAZY 0.0000
-3.2225 <s> CREED 0.0000
-3.5235 <s> CREEPING 0.0000
-3.5235 <s> CREWMAN 0.0000
-3.5235 <s> CRIM-TORCHTOOTH 0.0000
-3.5235 <s> CROGG-THE-CLUMSY 0.0000
-3.5235 <s> CROSS 0.0000
-3.5235 <s> CRUSHING 0.0000
-3.5235 <s> CRUSHING-DEEP 0.0000
-3.2225 <s> CRYSTAL 0.0000
-3.5235 <s> CULF 0.0000
-3.5235 <s> CULL 0.0000
-3.5235 <s> CULTIST 0.0000
-3.5235 <s> CULTURAL-EXCHANGE 0.0000
-3.5235 <s> CUP 0.0000
-3.5235 <s> CURIA 0.0000
-3.5235 <s> CURIOSITY 0.0000
-3.5235 <s> CURSE 0.0000
-3.5235 <s> CURSED-RELIC 0.0000
-3.5235 <s> CUSTOM 0.0000
-3.5235 <s> CUSTOMS 0.0000
-3.5235 <s> CUTTHROAT 0.0000
-3.5235 <s> CXO 0.0000
-3.5235 <s> CYBER-CLONE 0.0000
-3.5235 <s> CYBERGIANT 0.0000
-3.5235 <s> D1-V3 0.0000
-3.5235 <s> DAMO-ALIEN 0.0000
-3.5235 <s> DAMO-BEAST 0.0000
-3.5235 <s> DAMO-BOT 0.0000
-3.5235 <s> DAMO-KNIGHT 0.0000
-3.5235 <s> DAMO-SAURUS 0.0000
-3.5235 <s> DAMO-THIEF 0.0000
-3.5235 <s> DANCE 0.0000
-2.6204 <s> DARK 0.0000
-3.5235 <s> DATA 0.0000
-3.5235 <s> DAUGHTER 0.0000
-3.5235 <s> DEAD -0.1761
-3.5235 <s> DECADENCE 0.0000
-3.2225 <s> DEEP -0.1249
-3.5235 <s> DEEPWATER 0.0000
-3.5235 <s> DEEPWOOD 0.0000
-3.5235 <s> DEFENDER 0.0000
-3.5235 <s> DEFENSE 0.0000
-3.5235 <s> DEIPNO 0.0000
-3.5235 <s> DEMONS 0.0000
-3.5235 <s> DENDRIX 0.0000
-3.5235 <s> DESIRE 0.0000
-3.5235 <s> DESTROY 0.0000
-3.5235 <s> DESTRUCTIVE 0.0000
-3.5235 <s> DETENTION 0.0000
-3.5235 <s> DEUSILLUS 0.0000
-3.5235 <s> DEW 0.0000
-3.5235 <s> DEXTRE 0.0000
-3.5235 <s> DEXUS 0.0000
-3.5235 <s> DHARNA 0.0000
-3.5235 <s> DIAMETRIC 0.0000
-3.5235 <s> DIMENSION 0.0000
-3.5235 <s> DINO 0.0000
-3.5235 <s> DINO-ALIEN 0.0000
-3.5235 <s> DINO-BEAST 0.0000
-3.5235 <s> DINO-BOT 0.0000
-3.5235 <s> DINO-FIEND 0.0000
-3.5235 <s> DINO-KNIGHT 0.0000
-3.5235 <s> DINO-THIEF 0.0000
-3.5235 <s> DINOSAURS 0.0000
-3.5235 <s> DIPLO-MACY 0.0000
-3.2225 <s> DIPLOMAT 0.0000
-3.5235 <s> DIRECTOR 0.0000
-3.2225 <s> DIS -0.2341
-3.5235 <s> DISCIPLE 0.0000
-3.5235 <s> DISCOMBOBULATOR 0.0000
-3.5235 <s> DISRUPTION 0.0000
-3.5235 <s> DIVE 0.0000
-3.5235 <s> DOC 0.0000
-3.5235 <s> DOCTOR 0.0000
-3.5235 <s> DODGER 0.0000
-3.5235 <s> DOMINATOR -0.1761
-3.5235 <s> DOOM -0.2430
-3.5235 <s> DOORSTEP 0.0000
-3.5235 <s> DOUBLE 0.0000
-3.0464 <s> DR 0.0000
-3.5235 <s> DRACO 0.0000
-3.5235 <s> DRAGNET 0.0000
-3.5235 <s> DRAINING 0.0000
-3.5235 <s> DRAWN 0.0000
-3.5235 <s> DREADBONE 0.0000
-3.5235 <s> DRECKER 0.0000
-3.5235 <s> DREDGING 0.0000
-3.5235 <s> DRUMBLE 0.0000
-3.5235 <s> DRUMMERNAUT 0.0000
-3.5235 <s> DRY 0.0000
-3.5235 <s> DTHOSHRA-RECRUITER 0.0000
-3.5235 <s> DUMA 0.0000
-3.5235 <s> DUSK 0.0000
-3.5235 <s> DUSKRUNNER 0.0000
-3.5235 <s> DUSKWITCH 0.0000
-3.2225 <s> DUST 0.0000
-3.5235 <s> DYSANIA 0.0000
-3.5235 <s> EARLY 0.0000
-3.5235 <s> EARTHBIND 0.0000
-3.5235 <s> EARTHSHAKER 0.0000
-3.5235 <s> EASY 0.0000
-3.5235 <s> EATER -0.1761
-3.5235 <s> ECHO 0.0000
-3.5235 <s> ECHO-REFLECTOR 0.0000
-3.0464 <s> ECLECTIC 0.0000
-3.5235 <s> EDAI 0.0000
-3.5235 <s> EDICT-OF-NEROTAURUS 0.0000
-3.5235 <s> EE 0.0000
-3.5235 <s> EFFERVESCENT 0.0000
-3.5235 <s> EFFIGY 0.0000
-3.5235 <s> ELDEST 0.0000
-3.5235 <s> ELECTION 0.0000
-3.5235 <s> EMBER 0.0000
-3.5235 <s> EMP 0.0000
-3.5235 <s> ENCOUNTER 0.0000
-3.5235 <s> ENDLESS-HORDES 0.0000
-3.5235 <s> ENLIST 0.0000
-3.5235 <s> ENSIGN 0.0000
-3.2225 <s> ENTROPIC 0.0000
-3.5235 <s> ENVOY-OF-EKWIRRE 0.0000
-3.5235 <s> ENVY 0.0000
-3.5235 <s> EPIC 0.0000
-3.5235 <s> EPIC-POEM 0.0000
-3.5235 <s> EQUALIZE 0.0000
-3.5235 <s> ESSENCE 0.0000
-3.5235 <s> ETANS 0.0000
-3.5235 <s> ETAROMME 0.0000
-3.5235 <s> ETHER 0.0000
-3.5235 <s> EUNOIA 0.0000
-3.5235 <s> EUREKA 0.0000
-3.5235 <s> EVASION 0.0000
-3.5235 <s> EVEN 0.0000
-3.5235 <s> EXCHANGE -0.1761
-3.5235 <s> EXCHANGE-PROGRAM 0.0000
-3.5235 <s> EXHUME 0.0000
-3.5235 <s> EXILE 0.0000
-3.5235 <s> EXO-SHELL-SYSTEM 0.0000
-3.5235 <s> EXPERIMENTAL 0.0000
-3.5235 <s> EXPLO-ROVER 0.0000
-3.5235 <s> EXPLORATORY 0.0000
-3.5235 <s> EXPLORER 0.0000
-3.5235 <s> EXTERMINATE -0.1761
-3.5235 <s> EXTINCTION 0.0000
-3.5235 <s> EXTREMATODE-INFECTION 0.0000
-3.5235 <s> EYE -0.2430
-3.5235 <s> EYEGOR 0.0000
-3.5235 <s> FANDANGLE 0.0000
-3.5235 <s> FANGHOUSE 0.0000
-3.5235 <s> FANGS 0.0000
-3.5235 <s> FANGTOOTH 0.0000
-3.5235 <s> FATHOM-REAVER 0.0000
-3.5235 <s> FAUST -0.1761
-3.5235 <s> FAVOR 0.0000
-3.5235 <s> FAYGIN 0.0000
-3.5235 <s> FEAR 0.0000
-3.5235 <s> FEATS-OF-STRENGTH 0.0000
-3.5235 <s> FEEDING 0.0000
-3.5235 <s> FERTILITY 0.0000
-3.5235 <s> FESTERING 0.0000
-3.5235 <s> FETCHDRONES 0.0000
-3.5235 <s> FIDGIT 0.0000
-3.5235 <s> FIFALDE 0.0000
-3.5235 <s> FIGHT 0.0000
-3.5235 <s> FILA 0.0000
-3.5235 <s> FINAL 0.0000
-3.5235 <s> FINCH 0.0000
-3.5235 <s> FINISHING 0.0000
-3.5235 <s> FIRESPITTER 0.0000
-3.0464 <s> FIRST -0.1461
-3.5235 <s> FISH 0.0000
-3.5235 <s> FISSION 0.0000
-3.5235 <s> FLAME-WREATHED 0.0000
-3.2225 <s> FLAMEGILL 0.0000
-3.5235 <s> FLAMETHROWER 0.0000
-3.5235 <s> FLAMEWAKE 0.0000
-3.5235 <s> FLASH 0.0000
-3.5235 <s> FLAXIA 0.0000
-3.5235 <s> FLEA-MARKET 0.0000
-3.5235 <s> FLOOMF 0.0000
-3.5235 <s> FLOUNDERIGHT 0.0000
-3.5235 <s> FOF-TRANSPONDER 0.0000
-3.5235 <s> FOGBANK 0.0000
-3.5235 <s> FOGGIFY 0.0000
-3.5235 <s> FOLLOW 0.0000
-3.5235 <s> FONT 0.0000
-3.5235 <s> FOOZLE 0.0000
-3.5235 <s> FORCE 0.0000
-3.5235 <s> FORCED-RETIREMENT 0.0000
-3.5235 <s> FORGE -0.2430
-3.5235 <s> FORGEMASTER 0.0000
-3.5235 <s> FORGING 0.0000
-3.5235 <s> FORGIVE 0.0000
-3.5235 <s> FORUM 0.0000
-3.5235 <s> FRANCIS 0.0000
-3.5235 <s> FRANCUS 0.0000
-3.5235 <s> FRANES 0.0000
-3.5235 <s> FREE 0.0000
-3.2225 <s> FREEBOOTER 0.0000
-3.5235 <s> FREELANCER 0.0000
-3.5235 <s> FRESH-MARKS 0.0000
-3.5235 <s> FRIENDLY-GUIDE 0.0000
-3.5235 <s> FRIENDSHIP 0.0000
-3.5235 <s> FRIGORIFIC 0.0000
-3.5235 <s> FROST-GIANT 0.0000
-3.5235 <s> FUGURU 0.0000
-3.5235 <s> FULL 0.0000
-3.5235 <s> FURTIVE 0.0000
-3.5235 <s> FUTURE-BOOSTER 0.0000
-3.5235 <s> FUZZY 0.0000
-3.5235 <s> FYRE-BREATH 0.0000
-3.5235 <s> GABOS 0.0000
-3.5235 <s> GALACTIC 0.0000
-3.5235 <s> GALEATOPS 0.0000
-3.5235 <s> GAMBLING 0.0000
-3.5235 <s> GAMGEE 0.0000
-3.5235 <s> GANGER 0.0000
-3.5235 <s> GANYMEDE 0.0000
-3.5235 <s> GANYMEDE-OUTPOST 0.0000
-3.5235 <s> GARCIAS 0.0000
-3.5235 <s> GARGANTES 0.0000
-3.5235 <s> GARGANTODON 0.0000
-3.5235 <s> GAS-PIPES 0.0000
-3.5235 <s> GATEKEEPER 0.0000
-3.5235 <s> GATEWAY -0.1761
-3.5235 <s> GAUNTLET 0.0000
-3.5235 <s> GEBUK 0.0000
-3.5235 <s> GED-HAMMER 0.0000
-3.5235 <s> GEMCOAT-VENDOR 0.0000
-3.0464 <s> GENERAL 0.0000
-3.5235 <s> GENERAL-ZA-ORHA 0.0000
-3.5235 <s> GENEROUS-OFFER 0.0000
-3.5235 <s> GENETIC 0.0000
-3.5235 <s> GENETIC-BLAST 0.0000
-3.5235 <s> GEZDRUTYO-THE-ARCANE 0.0000
-3.5235 <s> GEZRAHI-BLACKSMITH 0.0000
-3.5235 <s> GHOSTFORM 0.0000
-3.5235 <s> GHOSTHAWK 0.0000
-3.5235 <s> GHOSTLY 0.0000
-3.2225 <s> GIANT -0.1249
-3.5235 <s> GIANTS -0.1761
-3.2225 <s> GILTSPINE -0.1249
-3.5235 <s> GILTSPINE-SCHOOL 0.0000
-3.0464 <s> GIZELHARTS 0.0000
-3.5235 <s> GLADIODONTUS 0.0000
-3.5235 <s> GLEEFUL 0.0000
-3.5235 <s> GLIMMER 0.0000
-3.5235 <s> GLORIANAS 0.0000
-3.5235 <s> GLORIOUS 0.0000
-3.5235 <s> GLUTTONY 0.0000
-3.5235 <s> GLYLYX-WEAPONSMITH 0.0000
-3.5235 <s> GLYXL 0.0000
-3.5235 <s> GOLD 0.0000
-3.5235 <s> GOLDEN -0.1761
-3.5235 <s> GONGOOZLE 0.0000
-3.5235 <s> GOOD 0.0000
-3.5235 <s> GORM 0.0000
-3.5235 <s> GRABBER 0.0000
-3.5235 <s> GRAMMATICUS-THRAX 0.0000
-3.2225 <s> GRAND 0.0000
-3.5235 <s> GRASPING 0.0000
-3.5235 <s> GRAVELGUTS 0.0000
-3.5235 <s> GRAVID 0.0000
-3.5235 <s> GREATER 0.0000
-3.5235 <s> GREED 0.0000
-3.5235 <s> GREEN-AERONAUT 0.0000
-3.5235 <s> GRENADE 0.0000
-3.0464 <s> GREY -0.1461
-3.5235 <s> GREY-ABBESS 0.0000
-3.5235 <s> GRIM -0.2218
-3.5235 <s> GRIMLOCUS 0.0000
-3.5235 <s> GROGGINS 0.0000
-3.5235 <s> GROKE 0.0000
-3.5235 <s> GROKES 0.0000
-3.5235 <s> GROMMID 0.0000
-3.5235 <s> GRON 0.0000
-3.5235 <s> GRONDAL 0.0000
-3.5235 <s> GRONS 0.0000
-3.5235 <s> GROUNDBREAKING 0.0000
-3.5235 <s> GROUPTHINK 0.0000
-3.5235 <s> GROVEKEEPER 0.0000
-3.5235 <s> GROWTH 0.0000
-3.5235 <s> GRUMP 0.0000
-3.2225 <s> GRUMPUS 0.0000
-3.5235 <s> GRUNT 0.0000
-3.5235 <s> GRUNT-WORK 0.0000
-3.5235 <s> GUARD 0.0000
-3.5235 <s> GUARDIAN -0.2218
-3.5235 <s> GUB 0.0000
-3.5235 <s> GUILTY 0.0000
-3.5235 <s> GUJI 0.0000
-3.5235 <s> HADRON 0.0000
-3.5235 <s> HAEDROTHS 0.0000
-3.5235 <s> HALACOR 0.0000
-3.5235 <s> HALLAFEST 0.0000
-3.2225 <s> HALLOWED 0.0000
-3.5235 <s> HALO-OF-ENLIGHTENMENT 0.0000
-3.5235 <s> HAMMER-GRAM 0.0000
-3.2225 <s> HAND -0.1249
-3.5235 <s> HAPLESS 0.0000
-3.5235 <s> HAPSIS 0.0000
-3.5235 <s> HARBINGER -0.1761
-3.2225 <s> HARD 0.0000
-3.5235 <s> HARLAND 0.0000
-3.5235 <s> HARMAL-ATOON 0.0000
-3.5235 <s> HARMONIA 0.0000
-3.5235 <s> HARMONIC 0.0000
-3.5235 <s> HARVEST 0.0000
-3.5235 <s> HASTATUS 0.0000
-3.5235 <s> HAYDEN 0.0000
-3.5235 <s> HAYYEL 0.0000
-3.5235 <s> HEADHUNTER 0.0000
-3.5235 <s> HEAL 0.0000
-3.5235 <s> HEALING 0.0000
-3.5235 <s> HEART -0.1761
-3.5235 <s> HEAVY-SUBSIDIES 0.0000
-3.5235 <s> HEBE 0.0000
-3.5235 <s> HECATOMB 0.0000
-3.5235 <s> HEDONISTIC 0.0000
-3.5235 <s> HEIST 0.0000
-3.5235 <s> HELMSMAN 0.0000
-3.5235 <s> HELP 0.0000
-3.5235 <s> HELPER 0.0000
-3.5235 <s> HEXPION 0.0000
-3.5235 <s> HIDDEN 0.0000
-3.5235 <s> HIDEAWAY 0.0000
-3.5235 <s> HIGH 0.0000
-3.5235 <s> HIRE-ON 0.0000
-3.5235 <s> HIT 0.0000
-3.5235 <s> HOBNOBBER 0.0000
-3.5235 <s> HOBNOBBER-EVIL 0.0000
-3.5235 <s> HOCK 0.0000
-3.5235 <s> HOLD 0.0000
-3.5235 <s> HOLDFAST 0.0000
-3.5235 <s> HOLOGRAMMOPHONE 0.0000
-3.5235 <s> HONOR 0.0000
-3.5235 <s> HONORABLE 0.0000
-3.5235 <s> HONORS 0.0000
-3.5235 <s> HOOKMASTER 0.0000
-3.5235 <s> HOPLITES-DORY 0.0000
-3.5235 <s> HORNSWOGGLE 0.0000
-3.2225 <s> HORRID 0.0000
-2.9214 <s> HORSEMAN 0.0000
-3.5235 <s> HUGGER-MUGGER 0.0000
-3.5235 <s> HUMANS 0.0000
-3.5235 <s> HUMBLE 0.0000
-3.5235 <s> HUNTER -0.1761
-3.5235 <s> HUNTING -0.2218
-3.5235 <s> HYDE 0.0000
-3.5235 <s> HYDROCATALOGUER 0.0000
-3.5235 <s> HYMN-TO-DUMA 0.0000
-3.5235 <s> HYPNOBEAM 0.0000
-3.5235 <s> HYPNOTIC 0.0000
-3.5235 <s> HYPOXIA 0.0000
-3.5235 <s> HYSTERIA 0.0000
-3.5235 <s> HYSTRICOG 0.0000
-3.2225 <s> IGON 0.0000
-3.5235 <s> IKWIJI-OUTPOST 0.0000
-3.5235 <s> IMP-LOSION 0.0000
-3.5235 <s> IMPERATOR-DRUSILLA 0.0000
-2.9214 <s> IMPERIAL 0.0000
-3.5235 <s> IMPERIUM 0.0000
-3.5235 <s> IMPRINTED 0.0000
-3.5235 <s> IMPSPECTOR 0.0000
-3.5235 <s> INCUBATION 0.0000
-3.5235 <s> INFIGHTING 0.0000
-3.5235 <s> INFOMANCER 0.0000
-3.5235 <s> INFOMORPH 0.0000
-3.2225 <s> INFORMATION 0.0000
-3.5235 <s> INFURNACE 0.0000
-3.5235 <s> INGRAMS 0.0000
-3.5235 <s> INITIATION 0.0000
-3.5235 <s> INKA 0.0000
-3.5235 <s> INKY 0.0000
-3.5235 <s> INSPIRATION 0.0000
-3.5235 <s> INSPIRING-ORATION 0.0000
-3.5235 <s> INSTRUMENT 0.0000
-3.5235 <s> INSURANCE-POLICY 0.0000
-3.5235 <s> INTERDIMENSIONAL 0.0000
-3.2225 <s> INTO 0.0000
-3.5235 <s> INVASION 0.0000
-3.5235 <s> IRESTAFF 0.0000
-3.5235 <s> IRON 0.0000
-3.5235 <s> IRONYX-BANNER 0.0000
-3.5235 <s> IRONYX-PROPAGANDA 0.0000
-3.5235 <s> IRONYX-REBEL 0.0000
-3.5235 <s> IRONYX-VATMINDER 0.0000
-3.5235 <s> IRRADIATED 0.0000
-3.5235 <s> ISOTROPIC 0.0000
-3.5235 <s> ISS 0.0000
-3.5235 <s> ITS 0.0000
-3.5235 <s> IXXYXLI 0.0000
-3.5235 <s> J 0.0000
-3.5235 <s> JACKIE 0.0000
-3.5235 <s> JAMMER -0.1761
-3.5235 <s> JARGOGLE 0.0000
-3.5235 <s> JARL-SVEND 0.0000
-3.5235 <s> JEHU 0.0000
-3.5235 <s> JOHN 0.0000
-3.5235 <s> JOHNNY 0.0000
-3.5235 <s> JON 0.0000
-3.5235 <s> KABOOM 0.0000
-3.5235 <s> KALOCH 0.0000
-3.5235 <s> KAMALANI 0.0000
-3.5235 <s> KANGAPHANT 0.0000
-3.5235 <s> KARTANOO 0.0000
-3.5235 <s> KASSIEL-THE-BENEVOLENT 0.0000
-3.5235 <s> KATERINA-THE-SUMMONER 0.0000
-3.5235 <s> KAUPE 0.0000
-3.5235 <s> KAUPE-EVIL 0.0000
-3.5235 <s> KELIFI 0.0000
-3.5235 <s> KELPING-HANDS 0.0000
-3.5235 <s> KELPMINDER 0.0000
-3.5235 <s> KERWOLLOP 0.0000
-2.8245 <s> KEY -0.1597
-3.5235 <s> KEYFORGERY 0.0000
-3.5235 <s> KEYFROG 0.0000
-3.5235 <s> KHRKHARS 0.0000
-3.5235 <s> KILIGOGS 0.0000
-3.5235 <s> KILLZORD 0.0000
-3.5235 <s> KINDRITH 0.0000
-3.5235 <s> KING 0.0000
-3.5235 <s> KIRBYS 0.0000
-3.5235 <s> KIRI 0.0000
-3.5235 <s> KNIGHTAPULT 0.0000
-3.5235 <s> KNOWLEDGE -0.1761
-3.5235 <s> KNOXX 0.0000
-3.5235 <s> KNUCKLES 0.0000
-3.5235 <s> KOMPSOS 0.0000
-3.5235 <s> KRETCHEE 0.0000
-3.5235 <s> KRRRZZZAAAP 0.0000
-3.5235 <s> KRUMP 0.0000
-3.5235 <s> KYMOOR 0.0000
-3.5235 <s> LABWORK 0.0000
-3.2225 <s> LADY 0.0000
-3.5235 <s> LAMINDRA 0.0000
-3.5235 <s> LAPISAURUS 0.0000
-3.5235 <s> LAPISAURUS-EVIL 0.0000
-3.2225 <s> LARIE 0.0000
-3.5235 <s> LASH 0.0000
-3.5235 <s> LATERAL 0.0000
-3.5235 <s> LAVA -0.1761
-3.5235 <s> LAY 0.0000
-3.5235 <s> LCDR 0.0000
-3.5235 <s> LEGATUS 0.0000
-3.5235 <s> LEGIONARY-TRAINER 0.0000
-3.5235 <s> LEGIONS 0.0000
-3.5235 <s> LESSER 0.0000
-3.5235 <s> LETHAL 0.0000
-3.5235 <s> LETHOLOGICA 0.0000
-3.5235 <s> LIAM 0.0000
-2.8245 <s> LIBRARY 0.0000
-3.0464 <s> LIEUTENANT 0.0000
-3.5235 <s> LIFE -0.2430
-3.5235 <s> LIFEWARD 0.0000
-3.5235 <s> LIFEWEB 0.0000
-3.2225 <s> LIGHT -0.1249
-3.5235 <s> LIGHTBRINGER-OUTPOST 0.0000
-3.5235 <s> LIGHTS 0.0000
-3.2225 <s> LIGHTSMITH 0.0000
-3.5235 <s> LILITHAL 0.0000
-3.5235 <s> LION 0.0000
-3.2225 <s> LITTLE 0.0000
-3.5235 <s> LIVIA 0.0000
-3.5235 <s> LLACK 0.0000
-3.2225 <s> LOGOS 0.0000
-3.5235 <s> LOLLOP 0.0000
-3.5235 <s> LOMIR 0.0000
-3.5235 <s> LONGFUSED 0.0000
-3.5235 <s> LONGUSAUR-LECTOR 0.0000
-3.2225 <s> LOOK 0.0000
-3.2225 <s> LOOT 0.0000
-3.5235 <s> LOOTER 0.0000
-3.2225 <s> LORD 0.0000
-3.5235 <s> LOST 0.0000
-3.5235 <s> LOW -0.1761
-3.5235 <s> LUCKY 0.0000
-3.5235 <s> LUMILU 0.0000
-3.5235 <s> LUPO 0.0000
-3.5235 <s> LYCO-ALIEN 0.0000
-3.5235 <s> LYCO-BOT 0.0000
-3.5235 <s> LYCO-FIEND 0.0000
-3.5235 <s> LYCO-KNIGHT 0.0000
-3.5235 <s> LYCO-SAURUS 0.0000
-3.5235 <s> LYCO-THIEF 0.0000
-3.5235 <s> MAB 0.0000
-3.5235 <s> MACIS 0.0000
-3.5235 <s> MACK 0.0000
-3.5235 <s> MAD -0.1761
-3.5235 <s> MAGDA 0.0000
-3.2225 <s> MAGISTRA 0.0000
-3.5235 <s> MAGISTRATE-CRISPUS 0.0000
-3.5235 <s> MAKE -0.1761
-3.5235 <s> MALEFICORN 0.0000
-3.5235 <s> MALISON 0.0000
-3.5235 <s> MALSTROM 0.0000
-3.5235 <s> MANCHEGO 0.0000
-3.5235 <s> MANTLE 0.0000
-3.5235 <s> MARK 0.0000
-3.5235 <s> MARKET-CRASH 0.0000
-3.5235 <s> MARMO 0.0000
-3.0464 <s> MARS 0.0000
-3.5235 <s> MARSHAL 0.0000
-3.2225 <s> MARTIAN 0.0000
-3.5235 <s> MARTIAN-REVOLUTION 0.0000
-3.5235 <s> MARTIANS 0.0000
-3.5235 <s> MARTYR-OF-THE-VAULT 0.0000
-3.5235 <s> MARTYRS 0.0000
-3.5235 <s> MARUCK 0.0000
-3.5235 <s> MASS 0.0000
-3.5235 <s> MASS-BUYOUT 0.0000
-2.8245 <s> MASTER -0.0669
-3.5235 <s> MASTERMINDY 0.0000
-3.5235 <s> MASTERPLAN 0.0000
-3.5235 <s> MATING 0.0000
-3.5235 <s> MATTER -0.1761
-3.5235 <s> MECHABUOY 0.0000
-3.5235 <s> MEDIC 0.0000
-3.5235 <s> MEDICUS 0.0000
-2.6204 <s> MEGA 0.0000
-3.5235 <s> MEMBERSHIP-DRIVE 0.0000
-3.5235 <s> MEMOLITH 0.0000
-3.5235 <s> MEMORY 0.0000
-3.5235 <s> MEMROX-THE-RED 0.0000
-3.5235 <s> MERCY 0.0000
-3.2225 <s> MIASMA 0.0000
-3.5235 <s> MIGHT 0.0000
-3.5235 <s> MIGHT-CLUB 0.0000
-3.0464 <s> MIGHTY 0.0000
-3.5235 <s> MIMIC 0.0000
-3.5235 <s> MIMICRY 0.0000
-3.0464 <s> MIND -0.0969
-3.5235 <s> MINDFIRE 0.0000
-3.5235 <s> MINDWARPER 0.0000
-3.5235 <s> MINDWORM 0.0000
-3.5235 <s> MINI 0.0000
-3.5235 <s> MIRROR-SHELL 0.0000
-3.5235 <s> MISERY 0.0000
-3.5235 <s> MK2-GENERATOR 0.0000
-3.5235 <s> MOBIUS 0.0000
-3.5235 <s> MOGGHUNTER 0.0000
-3.5235 <s> MOGGHUNTERS 0.0000
-3.5235 <s> MOLE 0.0000
-3.5235 <s> MOLEPHIN 0.0000
-3.5235 <s> MOLINAS 0.0000
-3.5235 <s> MOLLUSCALLER 0.0000
-3.5235 <s> MOLLYMAWK 0.0000
-3.2225 <s> MONTY 0.0000
-2.8245 <s> MONUMENT 0.0000
-3.5235 <s> MOOKLING 0.0000
-3.5235 <s> MOOKLING-EVIL 0.0000
-3.5235 <s> MOONCURSER 0.0000
-3.5235 <s> MOOR 0.0000
-3.2225 <s> MOTHER 0.0000
-3.5235 <s> MOTHERGUN 0.0000
-3.5235 <s> MOTHERSHIP 0.0000
-3.5235 <s> MUG 0.0000
-3.5235 <s> MUGWUMP 0.0000
-3.5235 <s> MUNCHLING 0.0000
-3.5235 <s> MURKENS 0.0000
-3.5235 <s> MURMOOK 0.0000
-3.2225 <s> MUSHROOM 0.0000
-3.5235 <s> MUSTER 0.0000
-3.5235 <s> MUSTHIC 0.0000
-3.5235 <s> MUTAGENESIS 0.0000
-3.5235 <s> MUTAGENIC 0.0000
-3.5235 <s> MUTANT 0.0000
-3.0464 <s> MUTATION 0.0000
-3.5235 <s> MYLIOBE 0.0000
-3.5235 <s> MYX-THE-TALLMINDED 0.0000
-3.5235 <s> NARP 0.0000
-3.5235 <s> NARPS 0.0000
-3.5235 <s> NATURES 0.0000
-3.5235 <s> NAUTILIXIAN 0.0000
-3.5235 <s> NAVIGATOR 0.0000
-3.5235 <s> NEFFRU 0.0000
-3.5235 <s> NEPENTHE 0.0000
-3.5235 <s> NEPETA 0.0000
-3.5235 <s> NEROTAURUS 0.0000
-3.5235 <s> NERVE 0.0000
-3.5235 <s> NEURO 0.0000
-3.5235 <s> NEUTRON 0.0000
-3.5235 <s> NEW 0.0000
-3.5235 <s> NEXUS 0.0000
-2.9214 <s> NIFFLE 0.0000
-3.5235 <s> NIFFLE-PAW 0.0000
-3.5235 <s> NIGHTFORGE 0.0000
-3.5235 <s> NIRBOR-FLAMEWING 0.0000
-3.5235 <s> NIZAK 0.0000
-3.5235 <s> NO -0.2430
-3.5235 <s> NOCTURNAL 0.0000
-3.5235 <s> NODDY 0.0000
-3.5235 <s> NOGI 0.0000
-3.5235 <s> NONAME 0.0000
-3.5235 <s> NORBYNS-CAVERN 0.0000
-3.5235 <s> NOT -0.1761
-3.2225 <s> NOVU 0.0000
-3.5235 <s> NUMQUID 0.0000
-3.5235 <s> NURSE 0.0000
-3.5235 <s> NYYON-OUTPOST 0.0000
-3.5235 <s> NYZYK 0.0000
-3.5235 <s> OATH 0.0000
-3.5235 <s> OBSERV-U-MAX 0.0000
-3.5235 <s> OBSIDIAN 0.0000
-3.5235 <s> ODD 0.0000
-3.5235 <s> ODOAC 0.0000
-3.5235 <s> OFFERING-TO-KILIGOG 0.0000
-3.5235 <s> OFFERING-TO-KILIGOG-2 0.0000
-3.5235 <s> OFFICERS 0.0000
-3.5235 <s> OGOPOGO 0.0000
-3.2225 <s> OL 0.0000
-2.8245 <s> OLD 0.0000
-3.5235 <s> OMNIPUS 0.0000
-3.0464 <s> ONE -0.1761
-3.2225 <s> ONE-EYED 0.0000
-3.5235 <s> ONYX 0.0000
-3.5235 <s> OPAL 0.0000
-3.5235 <s> OPERATIONS 0.0000
-3.2225 <s> OPERATIVE 0.0000
-3.5235 <s> OPPORTUNIST 0.0000
-3.5235 <s> OPPOSITION 0.0000
-3.5235 <s> OPTIO 0.0000
-3.5235 <s> ORATOR 0.0000
-3.2225 <s> ORB 0.0000
-3.5235 <s> ORBITAL 0.0000
-3.5235 <s> ORNATE-TALKING-TRAY 0.0000
-3.5235 <s> ORPHIEL 0.0000
-3.5235 <s> ORPHION 0.0000
-3.5235 <s> ORTANNU 0.0000
-3.5235 <s> ORTANNUS 0.0000
-3.5235 <s> OSTENTATIOUS-MOUNT 0.0000
-3.5235 <s> OSTRACIZE 0.0000
-3.5235 <s> OUBLIETTE 0.0000
-3.5235 <s> OUTFLANK 0.0000
-3.5235 <s> OUTNEGOTIATE 0.0000
-3.5235 <s> OVERLORD 0.0000
-3.5235 <s> OVERRUN 0.0000
-3.5235 <s> OZMO 0.0000
-3.5235 <s> PAIN -0.2218
-3.5235 <s> PAINMAIL 0.0000
-3.5235 <s> PALE-INTO-INSIGNIFICANCE 0.0000
-3.5235 <s> PANDEMONIUM 0.0000
-3.5235 <s> PANDULF-THE-PROVOKER 0.0000
-3.2225 <s> PANPACA 0.0000
-3.5235 <s> PARAGUARDIAN 0.0000
-3.5235 <s> PARTICLE 0.0000
-3.5235 <s> PATRONAGE 0.0000
-3.5235 <s> PAWN 0.0000
-3.5235 <s> PAX-SAURIANA 0.0000
-3.5235 <s> PEACE 0.0000
-3.5235 <s> PELF 0.0000
-3.5235 <s> PERILOUS 0.0000
-3.5235 <s> PERPLEXING 0.0000
-3.5235 <s> PERSISTENCE 0.0000
-3.5235 <s> PESTERGROVE 0.0000
-3.5235 <s> PESTERING 0.0000
-3.5235 <s> PHALANX 0.0000
-3.5235 <s> PHALANX-LEADER 0.0000
-3.5235 <s> PHASE 0.0000
-3.5235 <s> PHILOPHOSAURUS 0.0000
-3.5235 <s> PHLOXEM -0.1761
-3.5235 <s> PHOENIX 0.0000
-3.5235 <s> PHOSPHORUS 0.0000
-3.5235 <s> PHOTIC 0.0000
-3.5235 <s> PHOTON-BLAST 0.0000
-3.5235 <s> PHYLYX 0.0000
-3.5235 <s> PHYSALOHA 0.0000
-3.2225 <s> PHYSICUS 0.0000
-3.2225 <s> PI 0.0000
-3.5235 <s> PICAROON 0.0000
-3.5235 <s> PILE 0.0000
-3.5235 <s> PINCERATOR 0.0000
-3.5235 <s> PINGLE 0.0000
-3.5235 <s> PIP -0.1761
-3.5235 <s> PIRANHA 0.0000
-3.5235 <s> PISMIRE 0.0000
-3.5235 <s> PIT -0.2218
-3.5235 <s> PITLORD 0.0000
-3.5235 <s> PLAGUE -0.1761
-3.5235 <s> PLASMA 0.0000
-3.5235 <s> PLATOPELTA 0.0000
-3.5235 <s> PLAY 0.0000
-3.5235 <s> PLUNDER 0.0000
-3.5235 <s> POCKET 0.0000
-3.5235 <s> POISON 0.0000
-3.5235 <s> POKE 0.0000
-3.5235 <s> POLTERGEIST 0.0000
-3.5235 <s> PORTALMONGER 0.0000
-3.5235 <s> POS 0.0000
-3.5235 <s> POSITRON 0.0000
-3.5235 <s> POTION 0.0000
-3.5235 <s> POUND 0.0000
-3.5235 <s> POUR-TAL 0.0000
-3.5235 <s> POWER -0.2218
-3.5235 <s> PRAEFECTUS 0.0000
-3.5235 <s> PRAETOR-MARIUS 0.0000
-3.5235 <s> PRESCRIPTIVE 0.0000
-3.5235 <s> PRESS-GANG 0.0000
-3.5235 <s> PRIDE 0.0000
-3.5235 <s> PRIEST -0.2218
-3.5235 <s> PRIMAL 0.0000
-3.5235 <s> PRIMUS -0.2218
-3.5235 <s> PRINCE 0.0000
-3.5235 <s> PROCLAMATION 0.0000
-3.0464 <s> PROF 0.0000
-3.2225 <s> PROFESSOR 0.0000
-3.5235 <s> PROJECT 0.0000
-3.5235 <s> PROSPECTOR 0.0000
-3.5235 <s> PROTECT -0.1761
-3.5235 <s> PROTECTRIX 0.0000
-3.5235 <s> PSIONIC 0.0000
-3.2225 <s> PSYCHIC 0.0000
-3.5235 <s> PULL-UP-STAKES 0.0000
-3.5235 <s> PUNCH 0.0000
-3.5235 <s> PUNCTUATED 0.0000
-3.5235 <s> PUPGRADE 0.0000
-3.5235 <s> PURIFIER 0.0000
-3.5235 <s> PURIFY 0.0000
-3.5235 <s> PURPLE-AERONAUT 0.0000
-3.5235 <s> PUZZLING-TRINKET 0.0000
-3.5235 <s> PYR0 0.0000
-3.5235 <s> Q-MECHS 0.0000
-3.5235 <s> QINCANS 0.0000
-3.5235 <s> QUADRACORDER 0.0000
-3.5235 <s> QUANT 0.0000
-3.5235 <s> QUANTUM 0.0000
-3.5235 <s> QUESTOR 0.0000
-3.5235 <s> QUICKSAND 0.0000
-3.5235 <s> QUINTRINO 0.0000
-3.5235 <s> QUINTRINO-WARP 0.0000
-3.5235 <s> QUIXO 0.0000
-3.5235 <s> QUIXXLE 0.0000
-3.5235 <s> QYXXLYX 0.0000
-3.5235 <s> R-EVOLUTION 0.0000
-3.5235 <s> RAD 0.0000
-3.5235 <s> RADIANT 0.0000
-3.5235 <s> RAGNAROK 0.0000
-3.5235 <s> RAGNAROK-PREP 0.0000
-3.5235 <s> RAGWARG 0.0000
-3.5235 <s> RAIDER 0.0000
-3.5235 <s> RAIDING 0.0000
-3.5235 <s> RAKUZELS 0.0000
-3.5235 <s> RAMPAGING-BRUTODON 0.0000
-3.5235 <s> RANDOM 0.0000
-3.5235 <s> RANSACK 0.0000
-3.5235 <s> RANSOM 0.0000
-3.5235 <s> RANT-AND-RIVE 0.0000
-3.5235 <s> RAPID 0.0000
-3.5235 <s> REACH 0.0000
-3.2225 <s> REAP 0.0000
-3.5235 <s> REASSEMBLING 0.0000
-3.5235 <s> REBEL 0.0000
-3.2225 <s> RECKLESS 0.0000
-3.5235 <s> RECLAIMED 0.0000
-3.5235 <s> RECORDED-HISTORY 0.0000
-3.5235 <s> RECRUIT 0.0000
-3.5235 <s> RECRUITING-STATION 0.0000
-3.2225 <s> RED -0.1249
-3.5235 <s> RED-AERONAUT 0.0000
-3.5235 <s> RED-HOT 0.0000
-3.5235 <s> REDACTED 0.0000
-3.5235 <s> REDHAND 0.0000
-3.5235 <s> REDLOCK 0.0000
-3.5235 <s> REGRETTABLE 0.0000
-3.5235 <s> REGROWTH 0.0000
-3.0464 <s> RELENTLESS 0.0000
-3.5235 <s> REMOTE 0.0000
-3.5235 <s> RENEWED-LIFE 0.0000
-3.5235 <s> REPLAY-POD 0.0000
-3.5235 <s> REPLICATOR 0.0000
-3.5235 <s> REQUEST-DONATIONS 0.0000
-3.5235 <s> RESEARCH -0.2218
-3.5235 <s> RESEARCHER 0.0000
-3.5235 <s> RESTRINGUNTUS 0.0000
-3.5235 <s> RESURGENCE 0.0000
-3.5235 <s> RETRIBUTION 0.0000
-3.5235 <s> REVERED-MONK 0.0000
-3.5235 <s> REVERSE 0.0000
-3.5235 <s> REVNA-STARSONG 0.0000
-3.5235 <s> REVO-HOOLIGANS 0.0000
-3.5235 <s> RHETOR 0.0000
-3.5235 <s> RIGGED 0.0000
-3.5235 <s> RING 0.0000
-2.9214 <s> RITUAL -0.1249
-3.5235 <s> ROCK-HURLING 0.0000
-3.5235 <s> ROCKET 0.0000
-3.2225 <s> ROCKETEER 0.0000
-3.5235 <s> ROGUE 0.0000
-3.5235 <s> ROGUE-OPERATION 0.0000
-3.5235 <s> RONNIE 0.0000
-3.5235 <s> ROOFTOP 0.0000
-3.5235 <s> ROTGRUB 0.0000
-3.5235 <s> ROTHAIS 0.0000
-3.5235 <s> ROUND 0.0000
-3.5235 <s> ROUTINE 0.0000
-3.5235 <s> ROWDY-SKALD 0.0000
-3.5235 <s> ROXADOR 0.0000
-3.5235 <s> RUINS 0.0000
-3.5235 <s> RUSTGNAWER 0.0000
-3.5235 <s> RUSTMISER 0.0000
-3.5235 <s> SABOTAGE 0.0000
-3.5235 <s> SACK 0.0000
-3.5235 <s> SACRIFICIAL 0.0000
-3.5235 <s> SACRO-ALIEN 0.0000
-3.5235 <s> SACRO-BEAST 0.0000
-3.5235 <s> SACRO-BOT 0.0000
-3.5235 <s> SACRO-FIEND 0.0000
-3.5235 <s> SACRO-SAURUS 0.0000
-3.5235 <s> SACRO-THIEF 0.0000
-3.0464 <s> SAFE 0.0000
-3.5235 <s> SAGITTARIIS 0.0000
-3.5235 <s> SAMPLE 0.0000
-3.5235 <s> SANCTUM 0.0000
-3.5235 <s> SANDHOPPER 0.0000
-3.5235 <s> SANITATION 0.0000
-3.5235 <s> SARIEL-THE-STEADFAST 0.0000
-3.5235 <s> SAURARIUM 0.0000
-3.2225 <s> SAURIAN 0.0000
-3.5235 <s> SAURUS -0.1761
-3.5235 <s> SAURY 0.0000
-3.5235 <s> SAVAGE 0.0000
-3.5235 <s> SAVE 0.0000
-3.5235 <s> SCHOLAR 0.0000
-3.2225 <s> SCI 0.0000
-3.5235 <s> SCIENCE 0.0000
-3.5235 <s> SCIENTIFICAL 0.0000
-3.5235 <s> SCIENTISTS 0.0000
-3.5235 <s> SCOOP-UP 0.0000
-3.5235 <s> SCOOPED 0.0000
-3.2225 <s> SCOUT 0.0000
-3.5235 <s> SCOUT-CHIEF-KORIJIR 0.0000
-3.5235 <s> SCOWLY 0.0000
-3.5235 <s> SCRAMBLER 0.0000
-3.5235 <s> SCRAPSCROUNGER 0.0000
-3.5235 <s> SCREAMING 0.0000
-3.5235 <s> SCREECHBOMB 0.0000
-3.5235 <s> SCRIVENER 0.0000
-3.5235 <s> SCYLLA 0.0000
-3.5235 <s> SCYPHOS 0.0000
-3.2225 <s> SEA 0.0000
-3.5235 <s> SEABRINGER 0.0000
-3.5235 <s> SECURI-DROID 0.0000
-3.2225 <s> SEEKER 0.0000
-3.5235 <s> SEISMO-ENTANGLER 0.0000
-3.5235 <s> SELECTIVE 0.0000
-3.5235 <s> SELF-BOLSTERING 0.0000
-3.5235 <s> SELWYN 0.0000
-2.9214 <s> SENATOR 0.0000
-3.2225 <s> SENESCHAL 0.0000
-3.5235 <s> SENSOR 0.0000
-3.5235 <s> SEQUIS 0.0000
-3.5235 <s> SERAPHIC 0.0000
-3.5235 <s> SERGEANT 0.0000
-3.5235 <s> SGS 0.0000
-3.2225 <s> SHADOW -0.1249
-3.5235 <s> SHADOWS 0.0000
-3.5235 <s> SHADOWSAURUS 0.0000
-3.5235 <s> SHAFFLES 0.0000
-3.5235 <s> SHAKEDOWN-SULLIVAN 0.0000
-2.6784 <s> SHARD 0.0000
-3.5235 <s> SHATTER 0.0000
-3.5235 <s> SHATTERED 0.0000
-3.5235 <s> SHIELD -0.1761
-3.5235 <s> SHIELD-U-LATER 0.0000
-3.5235 <s> SHIELD-U-LATER-EVIL 0.0000
-3.5235 <s> SHIFTING 0.0000
-3.5235 <s> SHIGZISO-BUGGY 0.0000
-3.5235 <s> SHISNYASI-BUGGY 0.0000
-3.5235 <s> SHIZYOKU-BUGGY 0.0000
-3.5235 <s> SHIZYOKU-SWOPPER 0.0000
-3.5235 <s> SHOCK-HERDER 0.0000
-3.5235 <s> SHOOLER 0.0000
-3.5235 <s> SHOPPING-SPREE 0.0000
-3.5235 <s> SHORTY 0.0000
-3.5235 <s> SHORTYS 0.0000
-3.2225 <s> SHOULDER 0.0000
-3.5235 <s> SHREWD-INVESTOR 0.0000
-3.5235 <s> SIBYL-WAIMARE 0.0000
-3.5235 <s> SIC 0.0000
-3.5235 <s> SIGIL -0.2430
-3.5235 <s> SIGNAL 0.0000
-3.5235 <s> SILENT 0.0000
-3.5235 <s> SILVER 0.0000
-3.5235 <s> SILVERTOOTH 0.0000
-3.5235 <s> SINDER 0.0000
-3.5235 <s> SINESTRA 0.0000
-3.5235 <s> SINK 0.0000
-3.0464 <s> SIR 0.0000
-3.5235 <s> SIREN 0.0000
-3.5235 <s> SKELETON 0.0000
-3.5235 <s> SKIPPY 0.0000
-3.5235 <s> SKIRMISHER 0.0000
-3.5235 <s> SKIXUNO 0.0000
-3.5235 <s> SKULLBACK-CRAB 0.0000
-3.5235 <s> SKULLION 0.0000
-3.5235 <s> SKYBOOSTER 0.0000
-3.5235 <s> SKöLL 0.0000
-3.5235 <s> SLEEP 0.0000
-3.5235 <s> SLIMY 0.0000
-3.5235 <s> SLOPPY 0.0000
-3.5235 <s> SLOTH 0.0000
-3.5235 <s> SLRS 0.0000
-3.5235 <s> SMAAASH 0.0000
-3.5235 <s> SMILING 0.0000
-3.5235 <s> SMITE 0.0000
-3.5235 <s> SMITH 0.0000
-3.5235 <s> SNAG 0.0000
-3.5235 <s> SNAGLET 0.0000
-3.5235 <s> SNAGS 0.0000
-3.5235 <s> SNARETTE 0.0000
-3.5235 <s> SNEKLIFTER 0.0000
-3.5235 <s> SNIFFER 0.0000
-3.5235 <s> SNUDGE 0.0000
-3.5235 <s> SNUFFLEGATOR 0.0000
-3.5235 <s> SOBOGGS 0.0000
-3.5235 <s> SOCRATEROSAURUS 0.0000
-3.5235 <s> SOFT 0.0000
-3.5235 <s> SOLDIERS 0.0000
-3.5235 <s> SOLEFT 0.0000
-3.2225 <s> SONG 0.0000
-3.2225 <s> SOUL 0.0000
-3.5235 <s> SOULKEEPER 0.0000
-3.5235 <s> SOUND 0.0000
-3.5235 <s> SOW -0.1761
-3.5235 <s> SPACE-INVADERS 0.0000
-3.5235 <s> SPANGLER 0.0000
-3.5235 <s> SPARKFIST 0.0000
-3.5235 <s> SPARTASAUR 0.0000
-3.2225 <s> SPECIAL 0.0000
-3.5235 <s> SPECIALIST-GUTHRAK 0.0000
-3.5235 <s> SPECTRAL 0.0000
-3.5235 <s> SPEED 0.0000
-3.5235 <s> SPIKE -0.1761
-3.5235 <s> SPLINTER 0.0000
-3.5235 <s> SPOILS 0.0000
-3.5235 <s> SPOREGORGER 0.0000
-3.5235 <s> SPOREGORGER-EVIL 0.0000
-3.5235 <s> SPYYYDER 0.0000
-3.5235 <s> SQUAWKER 0.0000
-3.2225 <s> SQUIRE 0.0000
-3.5235 <s> SQUIRE-RECRUITMENT 0.0000
-3.5235 <s> STAFF-UP 0.0000
-3.5235 <s> STAMPEDE 0.0000
-3.5235 <s> STANDARDIZED 0.0000
-3.5235 <s> STAR -0.1761
-3.2225 <s> STATIC 0.0000
-3.5235 <s> STAUNCH 0.0000
-3.5235 <s> STEALER 0.0000
-3.5235 <s> STEALTH 0.0000
-3.5235 <s> STEALTHSTER 0.0000
-3.5235 <s> STEWARD-SU-UZYANE 0.0000
-3.5235 <s> STILT-KIN 0.0000
-3.5235 <s> STIR 0.0000
-3.5235 <s> STIR-CRAZY 0.0000
-3.5235 <s> STIRRING 0.0000
-3.5235 <s> STOMP 0.0000
-3.2225 <s> STORM -0.1761
-3.2225 <s> STRANGE 0.0000
-3.5235 <s> STRANGE-SHELL 0.0000
-3.5235 <s> STRATOSMACK 0.0000
-3.5235 <s> STREKE 0.0000
-3.5235 <s> STRONGER-TOGETHER 0.0000
-3.5235 <s> STUNNER 0.0000
-3.5235 <s> SUBDUE 0.0000
-3.5235 <s> SUBJECT 0.0000
-3.5235 <s> SUBMERSIBLE 0.0000
-3.5235 <s> SUBMERSIVE 0.0000
-3.0464 <s> SUBTLE 0.0000
-3.5235 <s> SUCCUBUS 0.0000
-3.5235 <s> SUCKER 0.0000
-3.5235 <s> SUNK-COST 0.0000
-3.5235 <s> SURVEY 0.0000
-3.5235 <s> SUSPENDED-ANIMATION 0.0000
-3.5235 <s> SV3-LANDER 0.0000
-3.5235 <s> SWALLOW 0.0000
-3.5235 <s> SWAP 0.0000
-3.5235 <s> SWINDLE 0.0000
-3.5235 <s> SYMON 0.0000
-3.5235 <s> SYMPOSIUM 0.0000
-3.5235 <s> T3R-35A 0.0000
-3.5235 <s> TACHYON 0.0000
-3.5235 <s> TACTICAL 0.0000
-3.2225 <s> TAKE 0.0000
-3.5235 <s> TALENT-SCOUT 0.0000
-3.2225 <s> TALMAGE 0.0000
-3.5235 <s> TANGAIKA 0.0000
-3.5235 <s> TANIWHA 0.0000
-3.5235 <s> TANIWHA-EVIL 0.0000
-3.5235 <s> TANTADLIN 0.0000
-3.5235 <s> TAUTAU 0.0000
-3.5235 <s> TAXING 0.0000
-3.5235 <s> TE-WHEKE 0.0000
-3.5235 <s> TEAMWORK 0.0000
-3.5235 <s> TECHIVORE 0.0000
-3.5235 <s> TECHNO-ALIEN 0.0000
-3.5235 <s> TECHNO-BEAST 0.0000
-3.5235 <s> TECHNO-FIEND 0.0000
-3.5235 <s> TECHNO-KNIGHT 0.0000
-3.5235 <s> TECHNO-SAURUS 0.0000
-3.5235 <s> TECHNO-THIEF 0.0000
-3.5235 <s> TECHNOBABBLE 0.0000
-3.5235 <s> TECTONIC-SHIFT 0.0000
-3.5235 <s> TELEPORTER 0.0000
-3.5235 <s> TELIGA 0.0000
-3.5235 <s> TEMPORAL-PURGE 0.0000
-3.5235 <s> TEMPTING 0.0000
-3.5235 <s> TENDRILS 0.0000
-3.5235 <s> TENTACLID 0.0000
-3.5235 <s> TENTACUS 0.0000
-3.5235 <s> TERMS 0.0000
-3.5235 <s> TERRORDACTYL 0.0000
-3.5235 <s> TERTIATE 0.0000
-3.5235 <s> TEZMAL 0.0000
-3.5235 <s> THALASSOPHOBIA 0.0000
-2.0050 <s> THE -0.2291
-3.5235 <s> THE-AEMBER-ROAD 0.0000
-3.5235 <s> THE-GRAND-GORD 0.0000
-3.5235 <s> THE-OLD-TINKER 0.0000
-3.5235 <s> THE-PROMISED-BLADE 0.0000
-3.5235 <s> THE-VISIBLE-HAND 0.0000
-3.5235 <s> THEORY -0.2218
-3.5235 <s> THERO 0.0000
-3.5235 <s> THEY'RE 0.0000
-3.5235 <s> THIEVES 0.0000
-3.5235 <s> THIN 0.0000
-3.5235 <s> THINK 0.0000
-3.5235 <s> THORIUM 0.0000
-3.5235 <s> THREE 0.0000
-3.5235 <s> THROWING 0.0000
-3.5235 <s> THUNDERTOW 0.0000
-3.5235 <s> TIDAL 0.0000
-3.5235 <s> TIDE -0.1761
-3.5235 <s> TIMEQUAKE 0.0000
-3.5235 <s> TIMETRAVELLER 0.0000
-3.5235 <s> TIMOTI-THE-DAMMED 0.0000
-3.5235 <s> TIRELESS 0.0000
-2.9214 <s> TITAN 0.0000
-3.5235 <s> TOAD 0.0000
-3.5235 <s> TOCSIN 0.0000
-3.5235 <s> TOGETHER 0.0000
-3.5235 <s> TOKEN-OF-APPRECIATION 0.0000
-3.5235 <s> TOLAS 0.0000
-3.2225 <s> TOMWA 0.0000
-3.5235 <s> TOO 0.0000
-3.5235 <s> TOTAL 0.0000
-3.5235 <s> TOURIST-TRAP 0.0000
-3.5235 <s> TOXICUDA-VENOM 0.0000
-3.5235 <s> TRADE-SECRETS 0.0000
-3.5235 <s> TRADER 0.0000
-3.5235 <s> TRADING-FRENZY 0.0000
-3.5235 <s> TRAINING-COSTS 0.0000
-3.5235 <s> TRANSITORY-PHILOSOPHER 0.0000
-3.5235 <s> TRANSPORTER 0.0000
-3.5235 <s> TRANSPOSITION 0.0000
-3.5235 <s> TREASURE 0.0000
-3.5235 <s> TREMOR 0.0000
-3.5235 <s> TRIAL 0.0000
-3.5235 <s> TRIBUNE 0.0000
-3.5235 <s> TRIBUTE 0.0000
-3.5235 <s> TRICERIAN 0.0000
-3.5235 <s> TRICKLE-DOWN 0.0000
-3.5235 <s> TRIMBLE 0.0000
-3.5235 <s> TRIUMPH 0.0000
-3.5235 <s> TROJAN 0.0000
-3.5235 <s> TROLL 0.0000
-3.5235 <s> TROOP 0.0000
-3.5235 <s> TROOPER 0.0000
-3.5235 <s> TRUEBARU 0.0000
-3.5235 <s> TRUST 0.0000
-3.5235 <s> TUNK 0.0000
-3.5235 <s> TURNKEY 0.0000
-3.5235 <s> TWIN -0.2967
-3.5235 <s> TYA-ARHI-ESQUIRE 0.0000
-3.5235 <s> TYXL 0.0000
-3.5235 <s> ULTRA 0.0000
-3.5235 <s> ULYQ 0.0000
-3.5235 <s> UMBRA 0.0000
-3.5235 <s> UMBRA-ALIEN 0.0000
-3.5235 <s> UMBRA-BEAST 0.0000
-3.5235 <s> UMBRA-BOT 0.0000
-3.5235 <s> UMBRA-FIEND 0.0000
-3.5235 <s> UMBRA-KNIGHT 0.0000
-3.5235 <s> UMBRA-SAURUS 0.0000
-3.5235 <s> UNCHARTED 0.0000
-3.5235 <s> UNCOMMON-CURRENCY 0.0000
-3.5235 <s> UNDAGNATHUS 0.0000
-3.5235 <s> UNDAGNATHUS-EVIL 0.0000
-3.5235 <s> UNDER 0.0000
-3.5235 <s> UNGUARDED 0.0000
-3.5235 <s> UNITED 0.0000
-3.5235 <s> UNITY 0.0000
-3.0464 <s> UNIVERSAL 0.0000
-3.5235 <s> UNLOCKED 0.0000
-3.5235 <s> UNNATURAL 0.0000
-3.5235 <s> UNSUSPECTING 0.0000
-3.2225 <s> UNTAMED 0.0000
-3.5235 <s> UPLINK 0.0000
-3.5235 <s> URCHIN 0.0000
-3.2225 <s> URIEN 0.0000
-3.5235 <s> UXLYX 0.0000
-3.5235 <s> VALDR 0.0000
-3.5235 <s> VALOOCANTH 0.0000
-3.5235 <s> VANDALIZE 0.0000
-3.5235 <s> VAULTS 0.0000
-3.5235 <s> VEEMOS 0.0000
-3.5235 <s> VELUM 0.0000
-3.5235 <s> VENATOR 0.0000
-3.5235 <s> VESPILON 0.0000
-3.5235 <s> VEYLAN 0.0000
-3.5235 <s> VEZYMA 0.0000
-3.5235 <s> VIGOR 0.0000
-3.5235 <s> VINEAPPLE 0.0000
-3.5235 <s> VIRTUOUS 0.0000
-3.5235 <s> VOICE 0.0000
-3.5235 <s> VOW-OF-BLOOD 0.0000
-3.5235 <s> VULKA 0.0000
-3.5235 <s> WAIL 0.0000
-3.5235 <s> WAKING 0.0000
-3.5235 <s> WALK 0.0000
-3.5235 <s> WALLS -0.1761
-3.5235 <s> WAR -0.1761
-3.5235 <s> WARDRUMMER 0.0000
-3.5235 <s> WARRIOR 0.0000
-3.5235 <s> WARRIORS 0.0000
-3.5235 <s> WARSONG 0.0000
-3.5235 <s> WASHED 0.0000
-3.5235 <s> WASTE 0.0000
-3.5235 <s> WATCH-YOUR-STEP 0.0000
-2.9214 <s> WAY -0.0792
-3.5235 <s> WE 0.0000
-3.5235 <s> WEAK-LINK 0.0000
-3.5235 <s> WEASAND 0.0000
-3.5235 <s> WHIRLPOOL 0.0000
-3.5235 <s> WHISPER 0.0000
-3.5235 <s> WHISPERING 0.0000
-3.5235 <s> WHISTLING 0.0000
-3.5235 <s> WHITE-AERONAUT 0.0000
-3.5235 <s> WIDESPREAD 0.0000
-3.5235 <s> WIKOLIA 0.0000
-3.5235 <s> WIKOLIA-EVIL 0.0000
-3.0464 <s> WILD -0.1461
-3.5235 <s> WIPE 0.0000
-2.9214 <s> WITCH -0.0792
-3.5235 <s> WORD 0.0000
-3.5235 <s> WORLD 0.0000
-3.5235 <s> WORMHOLE -0.1761
-3.2225 <s> WRATH 0.0000
-3.5235 <s> WRETCHED 0.0000
-3.5235 <s> XANTHYX 0.0000
-3.5235 <s> XENO-BEAST 0.0000
-3.5235 <s> XENO-BOT 0.0000
-3.5235 <s> XENO-FIEND 0.0000
-3.5235 <s> XENO-KNIGHT 0.0000
-3.5235 <s> XENO-SAURUS 0.0000
-3.5235 <s> XENO-THIEF 0.0000
-3.5235 <s> XENOS 0.0000
-3.5235 <s> XENOTRAINING 0.0000
-3.5235 <s> YANTHI-GHOSTFIN 0.0000
-3.5235 <s> YANTZEE 0.0000
-3.5235 <s> YO 0.0000
-3.2225 <s> YOUNGEST 0.0000
-3.5235 <s> YURK 0.0000
-3.5235 <s> YXILI 0.0000
-3.5235 <s> YXILO 0.0000
-3.5235 <s> YXILX 0.0000
-3.5235 <s> YXL-THE-IRON-CAPTAIN 0.0000
-3.5235 <s> YXLIX-MESMERIST 0.0000
-3.5235 <s> YXLYX 0.0000
-3.5235 <s> YZPHYZ 0.0000
-3.5235 <s> Z-FORCE 0.0000
-3.5235 <s> Z-PARTICLE 0.0000
-3.5235 <s> Z-RAY 0.0000
-3.5235 <s> Z-WAVE 0.0000
-3.5235 <s> ZAP 0.0000
-3.5235 <s> ZENZIZENZIZENZIC 0.0000
-3.5235 <s> ZEPHON-THE-OPULENT 0.0000
-3.5235 <s> ZIZOK 0.0000
-3.5235 <s> ZORG 0.0000
-3.5235 <s> ZYSYSYX 0.0000
-3.5235 <s> ZYX -0.2218
-3.5235 <s> ZYZZIX 0.0000
-0.9031 A FAIR -0.1761
-0.9031 A LIFE -0.0969
-0.9031 A VIEW 0.0000
-0.9031 A VINDA 0.0000
-0.3010 ABANDON SHIP 0.0000
-0.3010 ABDUCTION </s> -0.3010
-0.3010 ABOND THE -0.2992
-0.3010 ABOUT THAT -0.1761
-0.3010 ABSOLVE </s> -0.3010
-0.3010 ABYSSAL ZEALOT 0.0000
-0.3010 ABYSSAL-SIGHT </s> -0.3010
-0.3010 ACADEMY TRAINING 0.0000
-0.6021 ACCESS </s> -0.3010
-0.9031 ACCESS ARCHIVES 0.0000
-0.9031 ACCESS DENIED 0.0000
-0.3010 ACCORD </s> -0.3010
-0.3010 ACTION </s> -0.3010
-0.3010 ADAPTOID </s> -0.3010
-0.3010 ADULT-SWIM </s> -0.3010
-0.3010 ADVANTAGE </s> -0.3010
-0.3010 ADVENTURER </s> -0.3010
-0.3010 AEDILE-TULLIA </s> -0.3010
-0.3010 AEMBERLING </s> -0.3010
-0.3010 AEMBITRAGE </s> -0.3010
-0.3010 AEMBROSIA-OUTPOST </s> -0.3010
-0.3010 AGAINST MANY 0.0000
-0.9031 AGENT 14 0.0000
-0.9031 AGENT FINGERS 0.0000
-0.9031 AGENT HUMAN 0.0000
-0.9031 AGENT SEPDIA 0.0000
-0.3010 AGUNG </s> -0.3010
-0.3010 AIRLOCK </s> -0.3010
-0.3010 AJA THE -0.2992
-0.3010 ALAKA </s> -0.3010
-0.3010 ALAKAS BREW 0.0000
-0.3010 ALERT </s> -0.3010
-0.3010 ALI </s> -0.3010
-0.7782 ALL </s> -0.3010
-0.7782 ALL TIDE -0.1761
-0.7782 ALL WIN 0.0000
-0.7782 ALLIANCE </s> -0.3010
-0.7782 ALLIANCE COUNCIL 0.0000
-0.7782 ALLIANCE PLANT 0.0000
-0.3010 ALLIES </s> -0.3010
-0.3010 ALLUSIONS OF -0.2988
-0.3010 ALMSMASTER </s> -0.3010
-0.3010 ALMSMASTER-EVIL TWIN -0.0086
-0.3010 ALTAR </s> -0.3010
-0.3010 ALTRUISTS ROSTRUM 0.0000
-0.3010 ALTUM </s> -0.3010
-0.3010 ALYS </s> -0.3010
-0.3680 AMBASSADOR </s> -0.3010
-1.1461 AMBASSADOR LIU 0.0000
-0.6990 AMBER </s> -0.3010
-1.0000 AMBER CONDUCTION 0.0000
-1.0000 AMBER IMP 0.0000
-1.0000 AMBER VAULT 0.0000
-0.3010 AMBER-VAC </s> -0.3010
-0.6021 AMBERFIN SHARK 0.0000
-0.6021 AMBERFIN SHARK-EVIL 0.0000
-0.3010 AMBERHEART </s> -0.3010
-0.3010 AMBERLUTION </s> -0.3010
-0.3010 AMBERMANCY </s> -0.3010
-0.3010 AMBERSPINE MONGREL 0.0000
-0.3010 AMBERTRACKER </s> -0.3010
-0.3010 AMBROSIUS </s> -0.3010
-0.3010 AMBROSIUS-EVIL TWIN -0.0086
-0.3010 AMMONIA CLOUDS 0.0000
-0.3010 AMPHORA CAPTURA 0.0000
-0.3010 AN ALLIANCE -0.2218
-0.3010 ANAHITA THE -0.2992
-0.3010 ANALYSIS </s> -0.3010
-0.3010 ANALYST </s> -0.3010
-0.3010 ANAPHIEL </s> -0.3010
-0.7782 ANCIENT BEAR -0.0792
-0.7782 ANCIENT POWER -0.1249
-0.7782 ANCIENT YURK 0.0000
-0.3010 ANCIENT-BATTLEGROUND </s> -0.3010
-0.6021 AND RUN 0.0000
-0.6021 AND SWITCH 0.0000
-0.3010 ANGA </s> -0.3010
-0.3010 ANGER </s> -0.3010
-0.3010 ANGRY MOB 0.0000
-0.3010 ANGWISH </s> -0.3010
-0.3010 ANIMATOR </s> -0.3010
-0.3010 ANKYLO FORMATION 0.0000
-0.3010 ANNIHILATION RITUAL -0.2218
-0.3010 ANNOYS </s> -0.3010
-0.3010 ANOMALY EXPLOITER 0.0000
-0.3010 ANTENNA </s> -0.3010
-0.3010 ANTIQUITIES-DEALER </s> -0.3010
-0.3010 ANTONY </s> -0.3010
-0.3010 ANVIL </s> -0.3010
-0.3010 APE </s> -0.3010
-0.3010 AQUILIA-LONE-HERO </s> -0.3010
-0.3010 ARCHAEOLOGIST </s> -0.3010
-0.3010 ARCHIMEDES </s> -0.3010
-0.3010 ARCHIVES </s> -0.3010
-0.3010 ARCHIVIST </s> -0.3010
-0.3010 ARCHONIS </s> -0.3010
-0.7782 ARCHONS </s> -0.3010
-0.7782 ARCHONS CALLBACK 0.0000
-0.7782 ARCHONS REVENGE 0.0000
-0.3010 ARDENT HERO 0.0000
-0.3010 ARISE </s> -0.3010
-0.3010 ARISTOTLMIMUS </s> -0.3010
-0.3010 ARM-THE-PLEBEIANS </s> -0.3010
-0.3010 ARMADRONE </s> -0.3010
-0.3010 ARMADRONE-EVIL TWIN -0.0086
-0.3010 ARMAGEDDON CLOAK 0.0000
-0.3010 ARMOR </s> -0.3010
-0.3010 ARMORSMITH </s> -0.3010
-0.3010 ARMORY OFFICER -0.2852
-0.3010 ARMSMASTER MOLINA 0.0000
-0.3010 ARRAY </s> -0.3010
-0.3010 ASP </s> -0.3010
-0.3010 ASSAULT </s> -0.3010
-0.3010 ASSERT DOMINANCE 0.0000
-0.3010 ATTENDANT </s> -0.3010
-0.3010 AUBADE THE -0.2973
-0.3010 AUCTION-OFF </s> -0.3010
-0.3010 AUGUR </s> -0.3010
-0.3010 AUGUR-EVIL TWIN -0.0086
-0.3010 AURA </s> -0.3010
-0.6021 AUSTERALIS </s> -0.3010
-0.6021 AUSTERALIS SEABORG 0.0000
-0.3010 AUTO-ENCODER </s> -0.3010
-0.3010 AUTO-LEGIONARY </s> -0.3010
-0.3010 AUTO-VAC 5150 0.0000
-0.3010 AUTOCANNON </s> -0.3010
-0.3010 AUTOMATA </s> -0.3010
-0.3010 AUTOMATON </s> -0.3010
-0.3010 AUXILIARY </s> -0.3010
-0.3010 AVALANCHE </s> -0.3010
-0.3010 AVENGING AURA 0.0000
-0.3010 AVID-COLLECTING </s> -0.3010
-0.6021 AWAY </s> -0.3010
-0.6021 AWAY TEAM 0.0000
-0.3010 AXIOM OF -0.2988
-0.3010 AZURE-BASIN-OUTPOST </s> -0.3010
