Language model created by QuickLM on Sat Oct 29 10:48:03 EDT 2022
Copyright (c) 1996-2010 Carnegie Mellon University and Alexander I. Rudnicky

The model is in standard ARPA format, designed by Doug Paul while he was at MITRE.

The code that was used to produce this language model is available in Open Source.
Please visit http://www.speech.cs.cmu.edu/tools/ for more information

The (fixed) discount mass is 0.5. The backoffs are computed using the ratio method.
This model based on a corpus of 1428 sentences and 1981 words

\data\
ngram 1=1981
ngram 2=3670
ngram 3=2735

\1-grams:
-4.0540 1 -0.2425
-4.0540 14 -0.2425
-4.0540 2 -0.2425
-4.0540 24 -0.2425
-4.0540 3 -0.2425
-4.0540 346E -0.2425
-4.0540 4X4 -0.2425
-4.0540 5150 -0.2425
-4.0540 5C077 -0.2425
-4.0540 5C077-EVIL -0.2991
-4.0540 9001 -0.2425
-0.8993 </s> -0.3010
-0.8993 <s> -0.2283
-3.4519 A -0.3007
-4.0540 ABANDON -0.3010
-3.7530 ABDUCTION -0.2425
-4.0540 ABOND -0.2965
-4.0540 ABOUT -0.3010
-4.0540 ABYSSAL -0.3009
-4.0540 ACADEMY -0.3010
-3.4519 ACCESS -0.2424
-4.0540 ACCORD -0.2425
-3.7530 ACTION -0.2425
-4.0540 ADAPTOID -0.2425
-4.0540 ADVANTAGE -0.2425
-4.0540 ADVENTURER -0.2425
-4.0540 AEMBERLING -0.2425
-4.0540 AGAINST -0.3009
-3.4519 AGENT -0.3009
-4.0540 AGUNG -0.2425
-4.0540 AJA -0.2965
-3.7530 ALAKA -0.2425
-4.0540 ALAKAS -0.3007
-4.0540 ALERT -0.2425
-4.0540 ALI -0.2425
-3.5769 ALL -0.2424
-3.5769 ALLIANCE -0.2421
-4.0540 ALLIES -0.2425
-4.0540 ALLUSIONS -0.2973
-4.0540 ALMSMASTER -0.2425
-4.0540 ALMSMASTER-EVIL -0.2991
-4.0540 ALTAR -0.2425
-4.0540 ALTRUISTS -0.3010
-4.0540 ALTUM -0.2425
-4.0540 ALYS -0.2425
-3.2089 AMBASSADOR -0.2424
-3.3550 AMBER -0.2421
-4.0540 AMBER-VAC -0.2425
-3.7530 AMBERFIN -0.3009
-4.0540 AMBERHEART -0.2425
-4.0540 AMBERLUTION -0.2425
-4.0540 AMBERMANCY -0.2425
-4.0540 AMBERSPINE -0.3010
-4.0540 AMBERTRACKER -0.2425
-4.0540 AMBROSIUS -0.2425
-4.0540 AMBROSIUS-EVIL -0.2991
-4.0540 AMMONIA -0.3010
-4.0540 AMPHORA -0.3010
-4.0540 AN -0.3009
-4.0540 ANAHITA -0.2965
-3.7530 ANALYSIS -0.2425
-4.0540 ANALYST -0.2425
-4.0540 ANAPHIEL -0.2425
-3.5769 ANCIENT -0.3006
-3.7530 AND -0.3010
-4.0540 ANGA -0.2425
-4.0540 ANGER -0.2425
-4.0540 ANGRY -0.3010
-4.0540 ANGWISH -0.2425
-4.0540 ANIMATOR -0.2425
-4.0540 ANKYLO -0.3010
-4.0540 ANNIHILATION -0.3008
-4.0540 ANNOYS -0.2425
-4.0540 ANOMALY -0.3010
-4.0540 ANTENNA -0.2425
-4.0540 ANTONY -0.2425
-4.0540 ANVIL -0.2425
-3.7530 APE -0.2425
-4.0540 ARCHAEOLOGIST -0.2425
-4.0540 ARCHIMEDES -0.2425
-4.0540 ARCHIVES -0.2425
-3.7530 ARCHIVIST -0.2425
-4.0540 ARCHONIS -0.2425
-3.5769 ARCHONS -0.2424
-4.0540 ARDENT -0.3010
-4.0540 ARISE -0.2425
-4.0540 ARMADRONE -0.2425
-4.0540 ARMADRONE-EVIL -0.2991
-4.0540 ARMAGEDDON -0.3010
-3.5769 ARMOR -0.2425
-4.0540 ARMORSMITH -0.2425
-4.0540 ARMORY -0.3005
-4.0540 ARMSMASTER -0.3010
-4.0540 ARRAY -0.2425
-4.0540 ASP -0.2425
-4.0540 ASSAULT -0.2425
-4.0540 ASSERT -0.3010
-4.0540 ATTENDANT -0.2425
-4.0540 AUBADE -0.2965
-4.0540 AUGUR -0.2425
-4.0540 AUGUR-EVIL -0.2991
-3.7530 AURA -0.2425
-3.7530 AUSTERALIS -0.2424
-4.0540 AUTO-ENCODER -0.2425
-4.0540 AUTO-LEGIONARY -0.2425
-4.0540 AUTO-VAC -0.3010
-4.0540 AUTOCANNON -0.2425
-4.0540 AUTOMATA -0.2425
-4.0540 AUTOMATON -0.2425
-4.0540 AUXILIARY -0.2425
-4.0540 AVALANCHE -0.2425
-4.0540 AVENGING -0.3010
-3.7530 AWAY -0.2424
-4.0540 AXIOM -0.2973
-4.0540 BABBLE -0.2425
-4.0540 BABBLING -0.3010
-3.5769 BACKUP -0.2424
-3.7530 BAD -0.3009
-4.0540 BADGEMAGUS -0.2425
-4.0540 BAIT -0.3010
-4.0540 BALANCE -0.2425
-4.0540 BALDRIC -0.2965
-4.0540 BALL -0.2425
-4.0540 BALLCANO -0.2425
-3.2089 BANE -0.2425
-4.0540 BANGBANG -0.2425
-4.0540 BANISH -0.2425
-4.0540 BANK -0.2425
-4.0540 BANK-EVIL -0.2991
-4.0540 BANNER -0.2973
-4.0540 BARB -0.2425
-4.0540 BAREHANDED -0.2425
-4.0540 BARN -0.3010
-3.7530 BARON -0.2424
-4.0540 BARRISTER -0.3010
-4.0540 BATDRONE -0.2425
-3.4519 BATTLE -0.2424
-4.0540 BATTLEFIELD -0.2425
-4.0540 BAUBLE -0.2425
-4.0540 BAUTREM -0.2425
-4.0540 BEACH -0.3010
-4.0540 BEAMBUCKLER -0.2425
-3.3550 BEAR -0.2424
-4.0540 BEAR-EVIL -0.2991
-4.0540 BEARD -0.2425
-4.0540 BEARD-EVIL -0.2991
-4.0540 BEASTS -0.3008
-4.0540 BEGONE -0.2425
-4.0540 BELLATORAN-WARRIOR -0.2425
-4.0540 BELLOWING -0.3010
-4.0540 BERINON -0.2425
-3.7530 BERSERKER -0.2424
-3.7530 BESTIARII -0.3010
-4.0540 BEVOR -0.2425
-4.0540 BEVOR-EVIL -0.2991
-4.0540 BEWARE -0.2965
-4.0540 BIBLIOPHILE -0.2425
-4.0540 BIG -0.3008
-4.0540 BIGTWIG -0.2425
-4.0540 BILGEWARDEN -0.2425
-4.0540 BILGUM -0.3010
-4.0540 BIN -0.2425
-3.7530 BINARY -0.3010
-4.0540 BINATE -0.3010
-3.7530 BINDING -0.2424
-4.0540 BINGLE -0.3010
-4.0540 BIOMATRIX -0.3009
-4.0540 BIOME -0.3009
-4.0540 BIRDS -0.2425
-3.3550 BLAST -0.2424
-2.9748 BLASTER -0.2425
-4.0540 BLATANT -0.3010
-4.0540 BLESSING -0.2425
-4.0540 BLINDING -0.3009
-3.5769 BLOOD -0.2382
-4.0540 BLOODSHADOW -0.2425
-4.0540 BLOODSHARD -0.3008
-4.0540 BLOOM -0.2425
-4.0540 BLORB -0.2425
-4.0540 BLOSSOM -0.3010
-3.7530 BLOW -0.2425
-4.0540 BLYPYP -0.2425
-4.0540 BO -0.3010
-4.0540 BODIES -0.2425
-4.0540 BOIL -0.2425
-4.0540 BOLD -0.2425
-3.7530 BOLT -0.2424
-4.0540 BOLTER -0.2425
-4.0540 BOLTON -0.2425
-4.0540 BOMB -0.2425
-4.0540 BOMBARDMENT -0.2425
-4.0540 BOMBYX -0.2425
-4.0540 BONEROT -0.3010
-4.0540 BONESAW -0.2425
-4.0540 BOOBY -0.3010
-3.7530 BOOK -0.2973
-3.7530 BOOKTON -0.2425
-4.0540 BOOMY -0.2425
-4.0540 BOOTS -0.2425
-4.0540 BORDAN -0.2965
-3.7530 BORR -0.3010
-4.0540 BORROW -0.2425
-4.0540 BOSS -0.3010
-3.7530 BOT -0.2424
-4.0540 BOUNCING -0.3010
-4.0540 BOUNTY -0.2425
-4.0540 BOX -0.2425
-4.0540 BRABBLE -0.2425
-4.0540 BRACCHANALIA -0.2425
-4.0540 BRACCHUS -0.2425
-4.0540 BRACHIADITUS -0.2425
-3.5769 BRAIN -0.3009
-4.0540 BRAMBLE -0.3010
-4.0540 BRAMMO -0.2425
-4.0540 BREAK-KEY -0.2425
-4.0540 BREAKER -0.3010
-4.0540 BREND -0.2965
-3.1509 BREW -0.2425
-4.0540 BRIAR -0.3010
-4.0540 BRING -0.3010
-3.7530 BROBNAR -0.3005
-4.0540 BROKEN -0.3010
-4.0540 BRONZE -0.3007
-4.0540 BROTHERHOOD -0.2425
-4.0540 BROTHERS -0.3009
-4.0540 BRUNO -0.2425
-4.0540 BRUTODON -0.3010
-4.0540 BUBBLES -0.2425
-4.0540 BUG -0.2425
-4.0540 BUGGY -0.2425
-4.0540 BULL-WARK -0.2425
-4.0540 BULLETEYE -0.2425
-4.0540 BULLETS -0.2425
-4.0540 BULWARK -0.2425
-4.0540 BUMBLEBIRD -0.2425
-4.0540 BUMPSY -0.2425
-4.0540 BUREAUCRAT -0.2425
-4.0540 BURN -0.2965
-4.0540 BURNING -0.3010
-4.0540 BURY -0.3010
-4.0540 BUZZLE -0.2425
-3.7530 BY -0.3009
-3.7530 CADET -0.2425
-3.4519 CALL -0.2378
-4.0540 CALLBACK -0.2425
-4.0540 CALLIPYGIAN -0.3010
-4.0540 CALV-1N -0.2425
-4.0540 CAMOUFLAGE -0.2425
-4.0540 CAMP -0.2425
-4.0540 CAN -0.3009
-4.0540 CANDLE -0.3010
-3.7530 CANNON -0.2425
-4.0540 CAPER -0.2425
-3.3550 CAPTAIN -0.3008
-4.0540 CAPTURA -0.2425
-4.0540 CARD -0.2425
-4.0540 CARGO -0.2425
-4.0540 CARLO -0.3010
-4.0540 CARPE -0.3010
-4.0540 CARPET -0.3010
-4.0540 CAULDRON -0.3010
-4.0540 CAUSAL -0.3010
-4.0540 CAVE -0.2425
-4.0540 CAVERN -0.2425
-4.0540 CEASEFORGE -0.2425
-4.0540 CEMENT -0.3010
-3.7530 CENSOR -0.3010
-4.0540 CENSUS -0.2425
-3.5769 CENTURION -0.2424
-4.0540 CEPHALOIST -0.2425
-4.0540 CH-337A -0.2425
-4.0540 CH-337A-EVIL -0.2991
-3.7530 CHAIN -0.2424
-4.0540 CHAINED -0.2425
-4.0540 CHALLE -0.2965
-4.0540 CHALLENGE -0.2425
-4.0540 CHAMBER -0.2425
-3.7530 CHAMPION -0.3010
-4.0540 CHAMPIONS -0.3010
-4.0540 CHAN -0.2425
-4.0540 CHANS -0.3006
-3.5769 CHANT -0.2383
-4.0540 CHAOS -0.3010
-4.0540 CHAPMAN -0.2425
-4.0540 CHAPMAN-EVIL -0.2991
-4.0540 CHARETTE -0.2425
-3.3550 CHARGE -0.2425
-4.0540 CHARYBDIS -0.2425
-4.0540 CHELONIA -0.2425
-4.0540 CHELONIA-EVIL -0.2991
-4.0540 CHENILLE -0.2425
-4.0540 CHEST -0.2425
-3.5769 CHIEF -0.3008
-3.7530 CHIEFTAIN -0.2425
-4.0540 CHIEFTAINS -0.3007
-4.0540 CHIP -0.2425
-4.0540 CHONKERS -0.2425
-3.5769 CHOSEN -0.2422
-4.0540 CHOTA -0.3010
-4.0540 CHRONICLES -0.2425
-4.0540 CHRONOPHAGE -0.2425
-4.0540 CHRONUS -0.2425
-4.0540 CHUFF -0.3010
-4.0540 CINCINNATUS -0.3009
-4.0540 CIRCUMSPECT -0.2425
-4.0540 CIRCUMSPECT-EVIL -0.2991
-4.0540 CITIZEN -0.3009
-4.0540 CITY -0.3010
-4.0540 CITY-STATE -0.3010
-4.0540 CLAIM -0.2425
-4.0540 CLARIEL -0.2425
-4.0540 CLARIEL-EVIL -0.2991
-4.0540 CLASH -0.2425
-4.0540 CLAWDE -0.2425
-4.0540 CLEANSING -0.3009
-3.7530 CLEAR -0.2423
-4.0540 CLERIC -0.2425
-3.7530 CLOAK -0.2425
-4.0540 CLOAKING -0.3010
-4.0540 CLOUDS -0.2425
-4.0540 CODE -0.3010
-4.0540 COIL -0.2425
-4.0540 COINS -0.2425
-4.0540 COLD -0.2425
-4.0540 COLLAR -0.2973
-3.7530 COLLECTION -0.2424
-3.7530 COLLECTOR -0.2424
-4.0540 COLLISION -0.2425
-3.7530 COLONIST -0.3010
-4.0540 COLOSSEUM -0.2425
-3.5769 COM -0.3005
-4.0540 COMBAT -0.3010
-4.0540 COME -0.2425
-4.0540 COMING -0.2425
-3.7530 COMMAND -0.2425
-4.0540 COMMANDEER -0.2425
-3.5769 COMMANDER -0.3009
-4.0540 COMMON -0.3010
-4.0540 COMMPOD -0.2425
-4.0540 COMMUNE -0.2425
-4.0540 COMPILER -0.2425
-4.0540 CONDUCTION -0.3010
-4.0540 CONJECTURE -0.2425
-4.0540 CONSUL -0.3009
-4.0540 CONTAINMENT -0.3009
-4.0540 CONTROL -0.2965
-4.0540 COOPERATIVE -0.3009
-4.0540 COPY -0.2425
-4.0540 CORE -0.2425
-4.0540 CORNICEN -0.3010
-4.0540 CORPULENT -0.3010
-4.0540 CORRODE -0.2425
-4.0540 CORRUPTION -0.2425
-3.7530 COUNCIL -0.2425
-4.0540 COWARDS -0.3010
-3.7530 COWFYNE -0.2425
-4.0540 COWFYNES -0.3007
-3.7530 CR -0.3005
-4.0540 CRAFT -0.2425
-4.0540 CRAG -0.2425
-4.0540 CRASH -0.3010
-4.0540 CRASSOSAURUS -0.2425
-4.0540 CRAWLER -0.2425
-4.0540 CRAZY -0.3010
-3.7530 CREED -0.2973
-4.0540 CREEPER -0.2425
-4.0540 CREEPING -0.3010
-4.0540 CREWMAN -0.3010
-4.0540 CROCAG -0.2425
-4.0540 CROSS -0.3010
-4.0540 CRUSHING -0.3008
-3.7530 CRYSTAL -0.3009
-4.0540 CULF -0.2965
-4.0540 CULL -0.2965
-4.0540 CULTIST -0.2425
-4.0540 CUNNING -0.2425
-4.0540 CUP -0.2973
-4.0540 CURATOR -0.2425
-4.0540 CURIA -0.3010
-4.0540 CURIOSITY -0.2425
-4.0540 CURSE -0.2973
-4.0540 CUSTOM -0.3010
-4.0540 CUSTOMS -0.3010
-4.0540 CUTPURSE -0.2425
-4.0540 CUTTHROAT -0.3009
-4.0540 CXO -0.3010
-4.0540 CYBER-CLONE -0.2425
-4.0540 CYBERGIANT -0.3010
-4.0540 CYCLE -0.2425
-4.0540 D1-V3 -0.3010
-4.0540 DAGGER -0.2425
-3.7530 DAMNED -0.2425
-4.0540 DAMO-ALIEN -0.2425
-4.0540 DAMO-BEAST -0.2425
-4.0540 DAMO-BOT -0.2425
-4.0540 DAMO-KNIGHT -0.2425
-4.0540 DAMO-SAURUS -0.2425
-4.0540 DAMO-THIEF -0.2425
-4.0540 DANCE -0.2973
-3.1509 DARK -0.3001
-4.0540 DARKNESS -0.2425
-4.0540 DARTS -0.2425
-4.0540 DATA -0.3009
-4.0540 DAUGHTER -0.2425
-3.7530 DAWN -0.2425
-4.0540 DAWN-EVIL -0.2991
-4.0540 DAY -0.2425
-3.7530 DEAD -0.2424
-4.0540 DEATH -0.2425
-4.0540 DEATHQUARK -0.2425
-4.0540 DECADENCE -0.2425
-4.0540 DECIMUS -0.2425
-3.5769 DEEP -0.2423
-4.0540 DEEPWATER -0.3010
-4.0540 DEEPWOOD -0.3010
-4.0540 DEFENDER -0.2425
-4.0540 DEFENSE -0.3010
-4.0540 DEIPNO -0.3010
-4.0540 DELIVERY -0.2425
-3.7530 DEMON -0.2425
-4.0540 DEMONS -0.3008
-4.0540 DEN -0.2425
-4.0540 DENDRIX -0.2425
-4.0540 DENIED -0.2425
-4.0540 DERRIC -0.3010
-4.0540 DESIRE -0.2425
-4.0540 DESTROY -0.3010
-4.0540 DESTRUCTIVE -0.3010
-4.0540 DETENTION -0.3010
-4.0540 DEUSILLUS -0.2425
-4.0540 DEVICE -0.2425
-4.0540 DEW -0.3010
-4.0540 DEXTRE -0.2425
-4.0540 DEXUS -0.2425
-4.0540 DHARNA -0.2425
-4.0540 DHRXGAR -0.2425
-4.0540 DIAMETRIC -0.3008
-4.0540 DICE -0.2425
-4.0540 DIDNT -0.2425
-4.0540 DIMENSION -0.3010
-4.0540 DINO -0.3010
-4.0540 DINO-ALIEN -0.2425
-4.0540 DINO-BEAST -0.2425
-4.0540 DINO-BOT -0.2425
-4.0540 DINO-FIEND -0.2425
-4.0540 DINO-KNIGHT -0.2425
-4.0540 DINO-THIEF -0.2425
-4.0540 DINOSAUR -0.3010
-4.0540 DINOSAURS -0.3008
-4.0540 DIPLO-MACY -0.2425
-3.7530 DIPLOMAT -0.2424
-4.0540 DIRECTOR -0.2973
-3.2089 DIS -0.2419
-4.0540 DISCIPLE -0.2425
-4.0540 DISCOMBOBULATOR -0.2425
-4.0540 DISCORD -0.2425
-3.5769 DISCOVERY -0.2425
-4.0540 DISGUISE -0.2425
-4.0540 DISINTEGRATOR -0.2425
-4.0540 DISRUPTION -0.3009
-4.0540 DISTRACTION -0.2425
-4.0540 DIVE -0.3009
-4.0540 DOC -0.3010
-4.0540 DOCTOR -0.3010
-4.0540 DODGER -0.2425
-4.0540 DOLL -0.2425
-4.0540 DOMINANCE -0.2425
-3.7530 DOMINATOR -0.2424
-4.0540 DONGLE -0.2425
-3.4519 DOOM -0.2423
-4.0540 DOOR -0.2425
-4.0540 DOORSTEP -0.3006
-4.0540 DOUBLE -0.3009
-4.0540 DOWN -0.2425
-3.5769 DR -0.3009
-4.0540 DRACO -0.3010
-4.0540 DRAGON -0.2425
-4.0540 DRAIN -0.2425
-4.0540 DRAINING -0.3009
-4.0540 DRAKE -0.2425
-4.0540 DRAWN -0.3010
-4.0540 DREADBONE -0.3010
-4.0540 DREAMS -0.2425
-4.0540 DRECKER -0.2425
-4.0540 DREDGING -0.3010
-4.0540 DRIFT -0.2425
-4.0540 DRISCOLL -0.2425
-3.7530 DRUID -0.2425
-4.0540 DRUMBLE -0.2425
-4.0540 DRUMMERNAUT -0.2425
-4.0540 DRY -0.2965
-4.0540 DUMA -0.2965
-4.0540 DUSK -0.3010
-4.0540 DUSKRUNNER -0.2425
-4.0540 DUSKWITCH -0.2425
-3.7530 DUST -0.3007
-4.0540 DUX -0.2425
-4.0540 DYNAMO -0.2425
-4.0540 DYSANIA -0.2425
-4.0540 EARLY -0.3010
-4.0540 EARTHBIND -0.2425
-4.0540 EARTHSHAKER -0.2425
-4.0540 EASY -0.3010
-3.7530 EATER -0.2383
-4.0540 ECHO -0.3010
-3.5769 ECLECTIC -0.3009
-4.0540 ECLIPSE -0.2425
-4.0540 ECONOMIST -0.2425
-4.0540 EDAI -0.3010
-4.0540 EDIE -0.3010
-4.0540 EE -0.3010
-4.0540 EFFERVESCENT -0.3010
-4.0540 EFFIGY -0.2973
-4.0540 EGAD -0.2425
-4.0540 EGAD-EVIL -0.2991
-4.0540 EGG -0.2425
-4.0540 EL-SAMRA -0.2425
-4.0540 ELDER -0.2425
-4.0540 ELDEST -0.3008
-4.0540 EMBER -0.3008
-4.0540 EMERITUS -0.3010
-4.0540 EMISSION -0.2425
-4.0540 EMITTER -0.2425
-4.0540 EMP -0.3008
-4.0540 ENCOUNTER -0.3010
-3.7530 END -0.2425
-4.0540 ENFORCER -0.2425
-4.0540 ENFORCER-EVIL -0.2991
-3.5769 ENGINEER -0.2424
-4.0540 ENLIST -0.3010
-4.0540 ENSIGN -0.3010
-3.7530 ENTROPIC -0.3010
-4.0540 ENVY -0.2425
-4.0540 EPIC -0.3010
-4.0540 EQUALIZE -0.2425
-4.0540 EQUILIBRIUM -0.2425
-4.0540 ESCOTERA -0.2425
-4.0540 ESPION -0.2425
-4.0540 ESPION-EVIL -0.2991
-4.0540 ESSENCE -0.3010
-4.0540 ETANS -0.3010
-4.0540 ETAROMME -0.2425
-4.0540 ETHER -0.3010
-4.0540 EUNOIA -0.2425
-4.0540 EUREKA -0.2425
-4.0540 EVASION -0.3009
-4.0540 EVEN -0.3010
-4.0540 EVERLASTING -0.2425
-4.0540 EVERYWHERE -0.2425
-4.0540 EVIL -0.3009
-4.0540 EVOLUTION -0.2425
-4.0540 EWER -0.2425
-3.7530 EXCHANGE -0.2419
-4.0540 EXHUME -0.2425
-4.0540 EXILE -0.2425
-4.0540 EXPERIMENTAL -0.3010
-4.0540 EXPERIMENTATION -0.2425
-4.0540 EXPLO-ROVER -0.2425
-4.0540 EXPLOIT -0.2425
-4.0540 EXPLOITER -0.2425
-4.0540 EXPLORATORY -0.3010
-4.0540 EXPLORER -0.2425
-3.7530 EXTERMINATE -0.2424
-4.0540 EXTINCTION -0.2425
-3.4519 EYE -0.2383
-4.0540 EYEGOR -0.2425
-3.7530 FAERIE -0.2425
-3.7530 FAIR -0.2424
-4.0540 FAMINE -0.2425
-4.0540 FANATIC -0.2425
-4.0540 FANDANGLE -0.2425
-4.0540 FANGHOUSE -0.2425
-4.0540 FANGS -0.2973
-4.0540 FANGTOOTH -0.3010
-4.0540 FATES -0.2425
-4.0540 FATHER -0.2425
-3.7530 FAUST -0.2373
-4.0540 FAVIAN -0.2425
-4.0540 FAVOR -0.2973
-4.0540 FAYE -0.2425
-4.0540 FAYE-EVIL -0.2991
-4.0540 FAYGIN -0.2425
-4.0540 FEAR -0.2425
-4.0540 FEATHERED -0.3010
-4.0540 FEEDING -0.3009
-4.0540 FELIX -0.2425
-4.0540 FELIX-EVIL -0.2991
-4.0540 FENCE -0.2425
-4.0540 FERTILITY -0.3009
-4.0540 FESTERING -0.3009
-4.0540 FETCHDRONES -0.2425
-4.0540 FEW -0.2425
-4.0540 FIDDLE -0.2425
-4.0540 FIDGIT -0.2425
-3.5769 FIELD -0.2425
-4.0540 FIERCE -0.2425
-4.0540 FIFALDE -0.2425
-4.0540 FIGHT -0.2425
-4.0540 FILA -0.2965
-4.0540 FINAL -0.3010
-4.0540 FINCH -0.3010
-4.0540 FINGER -0.2425
-4.0540 FINGERS -0.2425
-4.0540 FINGERTRAP -0.2425
-4.0540 FINISHED -0.3009
-4.0540 FINISHING -0.3010
-3.7530 FIRE -0.2425
-4.0540 FIRESPITTER -0.2425
-3.3550 FIRST -0.2411
-4.0540 FISHES -0.2425
-4.0540 FISSION -0.3010
-4.0540 FITTEST -0.2425
-4.0540 FIX -0.3010
-4.0540 FLAME-WREATHED -0.2425
-4.0540 FLAMEFIST -0.2425
-3.7530 FLAMEGILL -0.3010
-4.0540 FLAMETHROWER -0.2425
-4.0540 FLAMEWAKE -0.3010
-4.0540 FLASH -0.3010
-4.0540 FLAXIA -0.2425
-4.0540 FLEET -0.2425
-4.0540 FLEX -0.2425
-4.0540 FLOOMF -0.2425
-4.0540 FLOOR -0.3010
-4.0540 FLOWERS -0.2425
-4.0540 FLUTE -0.2425
-4.0540 FLUX -0.2425
-4.0540 FLYIN -0.3010
-4.0540 FOGBANK -0.2425
-4.0540 FOGGIFY -0.2425
-4.0540 FOLLOW -0.2965
-4.0540 FONT -0.2973
-4.0540 FOOZLE -0.2425
-4.0540 FOR -0.3009
-4.0540 FORCE -0.3009
-4.0540 FOREST -0.2425
-3.4519 FORGE -0.2424
-4.0540 FORGEMASTER -0.3010
-4.0540 FORGET -0.2425
-4.0540 FORGING -0.3010
-4.0540 FORGIVE -0.3006
-4.0540 FORGOTTEN -0.2425
-4.0540 FORMATION -0.2425
-4.0540 FORUM -0.2973
-4.0540 FOUND -0.2425
-4.0540 FRANCIS -0.2965
-4.0540 FRANCUS -0.2425
-4.0540 FRANE -0.2425
-4.0540 FRANES -0.3006
-4.0540 FRAY -0.2425
-4.0540 FREE -0.3010
-3.7530 FREEBOOTER -0.3010
-4.0540 FREEZE -0.2425
-4.0540 FRIGORIFIC -0.3010
-4.0540 FRINGES -0.2425
-3.7530 FROM -0.2964
-4.0540 FRONTIERS -0.2425
-4.0540 FUGURU -0.2425
-4.0540 FULL -0.3010
-4.0540 FURTIVE -0.3010
-4.0540 FURY -0.2425
-4.0540 FUTURE -0.3010
-4.0540 FUZZY -0.3010
-4.0540 FYRE-BREATH -0.2425
-4.0540 GABOON -0.2425
-4.0540 GABOS -0.3010
-4.0540 GALACTIC -0.3010
-4.0540 GALEATOPS -0.2425
-4.0540 GALLIM -0.2425
-4.0540 GAMBLING -0.3010
-4.0540 GAME -0.2425
-4.0540 GAMGEE -0.2425
-3.7530 GANG -0.2425
-3.7530 GANGER -0.3010
-4.0540 GANYMEDE -0.3010
-4.0540 GARCIA -0.2425
-4.0540 GARCIAS -0.3006
-4.0540 GARGANTES -0.3010
-4.0540 GARGANTODON -0.2425
-4.0540 GARWYNNE -0.2425
-4.0540 GARWYNNE-EVIL -0.2991
-4.0540 GAS-PIPES -0.3010
-4.0540 GATEKEEPER -0.2425
-4.0540 GATES -0.2425
-3.7530 GATEWAY -0.2420
-4.0540 GAUNTLET -0.2973
-4.0540 GAZE -0.2425
-4.0540 GEBUK -0.2425
-4.0540 GEL -0.2425
-3.5769 GENERAL -0.3009
-4.0540 GENEROSITY -0.2425
-4.0540 GENETIC -0.3010
-4.0540 GHOSTFORM -0.2425
-4.0540 GHOSTHAWK -0.2425
-4.0540 GHOSTLY -0.3009
-3.5769 GIANT -0.2424
-3.7530 GIANTS -0.2422
-4.0540 GIGANTICA -0.2425
-3.5769 GILTSPINE -0.2424
-3.7530 GIZELHART -0.2425
-3.5769 GIZELHARTS -0.3008
-4.0540 GIZMO -0.2425
-4.0540 GLADIODONTUS -0.2425
-4.0540 GLARE -0.2425
-4.0540 GLEBE -0.2425
-4.0540 GLEEFUL -0.3010
-4.0540 GLIMMER -0.2425
-4.0540 GLOOM -0.2425
-4.0540 GLORIANA -0.2425
-4.0540 GLORIANAS -0.3010
-4.0540 GLORIOUS -0.3010
-4.0540 GLORY -0.2425
-4.0540 GLOW -0.2425
-4.0540 GLOW-EVIL -0.2991
-4.0540 GLUTTONY -0.2425
-4.0540 GLYXL -0.3010
-4.0540 GNAWBILL -0.2425
-4.0540 GOBLIN -0.2425
-4.0540 GOLD -0.3007
-3.7530 GOLDEN -0.3009
-4.0540 GOLGOTHA -0.2425
-4.0540 GONGOOZLE -0.2425
-4.0540 GOOD -0.2973
-4.0540 GORKUS -0.2425
-4.0540 GORM -0.2973
-4.0540 GORVENAL -0.2425
-4.0540 GRABBER -0.3010
-4.0540 GRAFT -0.2425
-4.0540 GRAMMARBOT -0.2425
-3.7530 GRAND -0.3009
-4.0540 GRANDEUR -0.2425
-4.0540 GRASPING -0.3010
-4.0540 GRAVE -0.2425
-4.0540 GRAVELGUTS -0.2425
-4.0540 GRAVID -0.3010
-4.0540 GRAVITRON -0.2425
-4.0540 GRAY -0.2425
-4.0540 GREAT -0.2425
-4.0540 GREATER -0.3010
-3.7530 GREED -0.2425
-4.0540 GREEN -0.2425
-4.0540 GREKING -0.2425
-4.0540 GRENADE -0.3010
-3.3550 GREY -0.2423
-3.5769 GRIM -0.2424
-4.0540 GRIMLOCUS -0.3010
-4.0540 GRISK -0.2425
-4.0540 GROGGINS -0.2425
-3.7530 GROKE -0.2425
-4.0540 GROKES -0.3007
-4.0540 GROMMID -0.2425
-3.7530 GRON -0.3010
-4.0540 GRONS -0.3007
-4.0540 GROSS -0.2425
-4.0540 GROUNDBREAKING -0.3009
-4.0540 GROUNDS -0.2425
-3.7530 GROUPTHINK -0.3010
-4.0540 GROVEKEEPER -0.2425
-4.0540 GROWTH -0.3009
-4.0540 GRUBBLING -0.2425
-3.7530 GRUEN -0.2425
-4.0540 GRUMP -0.3010
-3.7530 GRUMPUS -0.2424
-4.0540 GRUNT -0.2425
-4.0540 GUARD -0.3010
-3.5769 GUARDIAN -0.2424
-4.0540 GUB -0.2425
-4.0540 GUILTY -0.3010
-4.0540 GUJI -0.3010
-4.0540 GUN -0.2425
-4.0540 HACK -0.2425
-4.0540 HADRON -0.3010
-4.0540 HAEDROTHS -0.3010
-4.0540 HALACOR -0.2425
-3.7530 HALLOWED -0.3005
-4.0540 HAMMER -0.2425
-4.0540 HAMMER-GRAM -0.2425
-3.5769 HAND -0.2382
-4.0540 HAPLESS -0.3010
-4.0540 HAPSIS -0.2425
-3.7530 HARBINGER -0.2383
-3.7530 HARD -0.3010
-4.0540 HARDER -0.3010
-4.0540 HARLAND -0.3010
-4.0540 HARM -0.2425
-4.0540 HARMONIA -0.2425
-4.0540 HARMONIC -0.3008
-4.0540 HARUSPEX -0.2425
-4.0540 HARVEST -0.3010
-4.0540 HARVESTER -0.2425
-4.0540 HASTATUS -0.3010
-4.0540 HATE -0.2425
-4.0540 HAWKINS -0.2425
-4.0540 HAWKINS-EVIL -0.2991
-4.0540 HAYDEN -0.3010
-4.0540 HAYYEL -0.2965
-4.0540 HAZRI -0.2425
-4.0540 HEADHUNTER -0.2425
-4.0540 HEAL -0.3006
-4.0540 HEALING -0.3008
-3.7530 HEART -0.2383
-4.0540 HEARTS -0.2425
-4.0540 HEAVEN -0.2425
-4.0540 HEBE -0.2965
-4.0540 HECATOMB -0.2425
-4.0540 HEDONISTIC -0.3010
-4.0540 HEIST -0.3010
-4.0540 HELMSMAN -0.3010
-4.0540 HELP -0.3010
-4.0540 HELPER -0.3010
-4.0540 HERD -0.2425
-4.0540 HERO -0.2425
-4.0540 HEXPION -0.2425
-4.0540 HIDDEN -0.3010
-4.0540 HIDEAWAY -0.3010
-4.0540 HIGH -0.3009
-4.0540 HILL -0.2425
-4.0540 HINGS -0.2425
-4.0540 HISSARO -0.2425
-4.0540 HIT -0.3010
-4.0540 HIVE -0.2425
-4.0540 HOBNOBBER -0.2425
-4.0540 HOBNOBBER-EVIL -0.2991
-4.0540 HOCK -0.2425
-4.0540 HOLD -0.2965
-4.0540 HOLDFAST -0.2425
-4.0540 HOLE -0.2425
-4.0540 HOLOGRAMMOPHONE -0.2425
-4.0540 HONOR -0.3006
-4.0540 HONORABLE -0.3010
-4.0540 HONORS -0.3010
-4.0540 HOOKMASTER -0.2425
-4.0540 HOPE -0.2425
-4.0540 HORN -0.2425
-4.0540 HORNS -0.2425
-4.0540 HORNSWOGGLE -0.2425
-3.7530 HORRID -0.3010
-3.4519 HORSEMAN -0.2973
-4.0540 HOSTAGES -0.2425
-4.0540 HOUNDS -0.2425
-4.0540 HOUSE -0.2425
-4.0540 HOWLING -0.3009
-4.0540 HUBRIS -0.2425
-4.0540 HUGE -0.2425
-4.0540 HUGGER-MUGGER -0.2425
-4.0540 HUMAN -0.2425
-4.0540 HUMANS -0.3008
-4.0540 HUMBLE -0.2425
-4.0540 HUNT -0.2425
-4.0540 HUNTED? -0.2425
-3.7530 HUNTER -0.2420
-3.5769 HUNTING -0.2423
-4.0540 HYDE -0.2425
-4.0540 HYDROCATALOGUER -0.2425
-4.0540 HYPNOBEAM -0.2425
-4.0540 HYPNOTIC -0.3010
-4.0540 HYSTERIA -0.2425
-4.0540 HYSTRICOG -0.2425
-4.0540 I -0.3010
-4.0540 ID -0.2425
-4.0540 IDEAL -0.2425
-4.0540 IDES -0.2425
-3.7530 IGON -0.2965
-4.0540 ILLUMINATOR -0.2425
-3.2089 IMP -0.2425
-4.0540 IMP-LOSION -0.2425
-3.4519 IMPERIAL -0.3008
-4.0540 IMPERIUM -0.2425
-4.0540 IMPRINTED -0.3009
-4.0540 IMPSPECTOR -0.2425
-3.5769 IN -0.2963
-4.0540 INCONSPICUOUS -0.2425
-4.0540 INCUBATION -0.3010
-4.0540 INDOMINUS -0.2425
-4.0540 INFIGHTING -0.2425
-4.0540 INFOMANCER -0.2425
-4.0540 INFOMORPH -0.2425
-3.7530 INFORMATION -0.3004
-4.0540 INFURNACE -0.2425
-4.0540 INGRAM -0.2425
-4.0540 INGRAMS -0.3006
-4.0540 INITIATIVE -0.2425
-4.0540 INKA -0.2965
-4.0540 INKY -0.3010
-4.0540 INQUIRY -0.2425
-4.0540 INSPIRATION -0.2425
-4.0540 INSTINCT -0.2425
-4.0540 INSTRUMENT -0.2973
-4.0540 INTENT -0.2425
-4.0540 INTERDIMENSIONAL -0.3010
-4.0540 INTEREST -0.2425
-3.7530 INTO -0.2965
-4.0540 INVASION -0.3010
-4.0540 INVESTORS -0.2425
-3.7530 INVIDIUS -0.2425
-4.0540 INVISIBILITY -0.2425
-4.0540 INVULNERABILITY -0.2425
-4.0540 IRESTAFF -0.2425
-4.0540 IRON -0.3010
-4.0540 IRONS -0.2425
-4.0540 IRRADIATED -0.3008
-3.7530 IS -0.3008
-4.0540 ISOTROPIC -0.3010
-4.0540 ISS -0.3010
-4.0540 IT -0.3010
-4.0540 ITS -0.3010
-4.0540 IVAN -0.2425
-4.0540 IXXYXLI -0.3010
-4.0540 J -0.3010
-4.0540 JACKIE -0.3010
-4.0540 JAGA -0.2425
-3.7530 JAMMER -0.2424
-4.0540 JAR -0.2425
-4.0540 JARGOGLE -0.2425
-4.0540 JARK -0.2425
-4.0540 JARTA -0.2425
-4.0540 JAVELIN -0.2425
-4.0540 JEHU -0.2965
-4.0540 JERICHO -0.2425
-3.7530 JOB -0.2425
-4.0540 JOHN -0.3010
-4.0540 JOHNNY -0.3010
-4.0540 JON -0.3010
-4.0540 JOURNEY -0.2425
-4.0540 JOYA -0.2425
-4.0540 JUDGMENT -0.2425
-4.0540 JUSTICE -0.2425
-4.0540 JöRG -0.2425
-4.0540 KALOCH -0.3010
-4.0540 KANGAPHANT -0.2425
-4.0540 KARTANOO -0.2425
-4.0540 KAUPE -0.2425
-4.0540 KAUPE-EVIL -0.2991
-4.0540 KEKOA -0.2425
-4.0540 KELIFI -0.3010
-4.0540 KERING -0.2425
-4.0540 KERWOLLOP -0.2425
-3.0998 KEY -0.2371
-4.0540 KEYFORGERY -0.2425
-4.0540 KEYFROG -0.2425
-4.0540 KEYLOCK -0.2425
-4.0540 KEYSIS -0.2425
-4.0540 KHRKHAR -0.2425
-4.0540 KHRKHARS -0.3006
-4.0540 KILIGOGS -0.3010
-4.0540 KILLING -0.3010
-4.0540 KILLZORD -0.3010
-4.0540 KINDRITH -0.3010
-4.0540 KING -0.2973
-3.7530 KIRBY -0.2425
-4.0540 KIRBYS -0.3006
-4.0540 KIRI -0.3009
-4.0540 KNIFE -0.2425
-3.4519 KNIGHT -0.2425
-4.0540 KNOWDRONE -0.2425
-3.7530 KNOWLEDGE -0.2424
-4.0540 KNOXX -0.2425
-4.0540 KNUCKLES -0.3010
-4.0540 KOMPSOS -0.3010
-4.0540 KONG -0.2425
-4.0540 KRAKEN -0.2425
-4.0540 KRESAGE -0.2425
-4.0540 KRESAGE-EVIL -0.2991
-4.0540 KRRRZZZAAAP -0.2425
-4.0540 KRUMP -0.2425
-4.0540 KYMOOR -0.3010
-4.0540 LABORATORY -0.2425
-3.7530 LABWORK -0.2425
-4.0540 LACUS -0.2425
-3.7530 LADY -0.3010
-4.0540 LAKE -0.2425
-4.0540 LAKE-EVIL -0.2991
-4.0540 LAMINDRA -0.2425
-4.0540 LANCE -0.2425
-4.0540 LAND -0.2425
-4.0540 LANDING -0.2425
-3.7530 LANDS -0.2424
-4.0540 LANG -0.2425
-4.0540 LAPISAURUS -0.2425
-4.0540 LAPISAURUS-EVIL -0.2991
-3.7530 LARIE -0.2973
-4.0540 LASH -0.2973
-3.7530 LAST -0.2424
-4.0540 LATERAL -0.3010
-3.7530 LAVA -0.2424
-4.0540 LAY -0.2973
-4.0540 LCDR -0.3010
-4.0540 LEADER -0.2425
-4.0540 LEGATUS -0.3010
-4.0540 LEGIONARY -0.2425
-4.0540 LEGIONS -0.3010
-4.0540 LEQ -0.2425
-4.0540 LESSER -0.3010
-4.0540 LETHAL -0.3010
-4.0540 LETHOLOGICA -0.2425
-4.0540 LIAM -0.3010
-4.0540 LIBRARIAN -0.2425
-3.3550 LIBRARY -0.2971
-3.5769 LIEUTENANT -0.3009
-3.4519 LIFE -0.2424
-4.0540 LIFEWARD -0.2425
-4.0540 LIFEWEB -0.2425
-3.5769 LIGHT -0.2382
-4.0540 LIGHTBRINGER -0.2425
-4.0540 LIGHTS -0.3010
-3.7530 LIGHTSMITH -0.3010
-4.0540 LILITHAL -0.2425
-4.0540 LINE -0.2425
-4.0540 LION -0.3010
-3.7530 LITTLE -0.3010
-4.0540 LIU -0.2425
-4.0540 LIVIA -0.2965
-4.0540 LLACK -0.3010
-3.7530 LOGOS -0.3005
-4.0540 LOLLOP -0.2965
-4.0540 LOMIR -0.3010
-4.0540 LONGARMS -0.2425
-4.0540 LONGFINGERS -0.2425
-4.0540 LONGFUSED -0.3010
-4.0540 LONGSHOT -0.2425
-3.7530 LOOK -0.3009
-4.0540 LOOP -0.2425
-3.7530 LOOT -0.2960
-4.0540 LOOTER -0.3010
-3.7530 LORD -0.3009
-4.0540 LOREENA -0.2425
-4.0540 LOST -0.3009
-4.0540 LOTTERY -0.2425
-3.7530 LOW -0.2424
-4.0540 LUCKY -0.3010
-3.7530 LUDO -0.2425
-4.0540 LUMILU -0.2425
-4.0540 LUPO -0.2965
-4.0540 LYCO-ALIEN -0.2425
-4.0540 LYCO-BOT -0.2425
-4.0540 LYCO-FIEND -0.2425
-4.0540 LYCO-KNIGHT -0.2425
-4.0540 LYCO-SAURUS -0.2425
-4.0540 LYCO-THIEF -0.2425
-4.0540 LYNX -0.2425
-4.0540 MAB -0.2965
-4.0540 MACHINE -0.2425
-4.0540 MACIS -0.3010
-4.0540 MACK -0.2965
-3.7530 MAD -0.2424
-4.0540 MAGDA -0.2965
-3.7530 MAGISTRA -0.3010
-3.7530 MAKE -0.3009
-4.0540 MAKER -0.2425
-4.0540 MAKES -0.3010
-4.0540 MALEFACTION -0.2425
-4.0540 MALEFICORN -0.2425
-4.0540 MALISON -0.2425
-4.0540 MALKIN -0.3009
-4.0540 MALONE -0.2425
-4.0540 MALSTROM -0.2425
-4.0540 MAMA -0.3010
-4.0540 MAN -0.2425
-4.0540 MANCHEGO -0.2425
-4.0540 MANEUVER -0.2425
-4.0540 MANIPULATOR -0.2425
-4.0540 MANS -0.3010
-4.0540 MANTLE -0.2973
-3.5769 MANY -0.2425
-4.0540 MAP -0.2425
-4.0540 MARAUDER -0.2425
-4.0540 MARCH -0.2425
-4.0540 MARK -0.2973
-4.0540 MARKED -0.2425
-4.0540 MARKETS -0.2425
-4.0540 MARKS -0.2425
-4.0540 MARMO -0.3010
-4.0540 MARROWS -0.2425
-3.5769 MARS -0.3005
-4.0540 MARSHAL -0.3010
-3.7530 MARTIAN -0.3010
-4.0540 MARTIANOLOGIST -0.2425
-4.0540 MARTIANS -0.3010
-4.0540 MARTYR -0.2425
-4.0540 MARTYRS -0.3010
-4.0540 MARUCK -0.2965
-4.0540 MASS -0.3010
-3.2758 MASTER -0.2330
-4.0540 MASTERMINDY -0.2425
-4.0540 MASTERPLAN -0.2425
-4.0540 MASTERY -0.2425
-4.0540 MATING -0.3010
-3.7530 MATTER -0.2424
-4.0540 MAUL -0.2425
-4.0540 MAXENA -0.2425
-4.0540 MAYHEM -0.2425
-4.0540 MECHABUOY -0.2425
-4.0540 MECHANIC -0.2425
-4.0540 MEDIC -0.3010
-4.0540 MEDICUS -0.3010
-3.1509 MEGA -0.3004
-4.0540 MEGAMOUTH -0.2425
-4.0540 MELEE -0.2425
-4.0540 MELERUKH -0.2425
-4.0540 MEMOLITH -0.2425
-4.0540 MEMORY -0.3010
-4.0540 MENGEVIN -0.2425
-4.0540 MERCHANT -0.2425
-4.0540 MERCY -0.3010
-4.0540 METEOR -0.2425
-3.7530 MIASMA -0.2424
-4.0540 MIGHT -0.3010
-3.5769 MIGHTY -0.3009
-4.0540 MILLI -0.2425
-4.0540 MIMIC -0.3010
-4.0540 MIMICRY -0.2425
-3.4519 MIND -0.2423
-4.0540 MINDFIRE -0.2425
-4.0540 MINDLOCK -0.2425
-4.0540 MINDWARPER -0.2425
-4.0540 MINDWORM -0.2425
-4.0540 MINES -0.2425
-4.0540 MINI -0.3010
-4.0540 MINION -0.2425
-4.0540 MIRROR -0.2425
-4.0540 MISERY -0.3010
-4.0540 MISSION -0.2425
-4.0540 MK -0.3010
-4.0540 MOB -0.2425
-4.0540 MOBIUS -0.3010
-4.0540 MODE -0.2425
-3.7530 MOGGHUNTER -0.2425
-4.0540 MOGGHUNTERS -0.3007
-4.0540 MOLE -0.2425
-4.0540 MOLEPHIN -0.2425
-4.0540 MOLINA -0.2425
-4.0540 MOLINAS -0.3006
-4.0540 MOLLYMAWK -0.2425
-4.0540 MONEY -0.2425
-4.0540 MONGREL -0.2425
-4.0540 MONK -0.2425
-4.0540 MONKEY -0.2425
-4.0540 MONKEYS -0.2425
-3.7530 MONTY -0.3010
-3.3550 MONUMENT -0.3006
-4.0540 MOOKLING -0.2425
-4.0540 MOOKLING-EVIL -0.2991
-3.7530 MOON -0.2425
-4.0540 MOONCURSER -0.2425
-4.0540 MOOR -0.3010
-4.0540 MORAY -0.2425
-4.0540 MORAY-EVIL -0.2991
-4.0540 MORPHEUS -0.2425
-3.7530 MOTHER -0.2424
-4.0540 MOTHERGUN -0.2425
-4.0540 MOTHERSHIP -0.3010
-4.0540 MUCH -0.3006
-4.0540 MUG -0.2425
-4.0540 MUGWUMP -0.2425
-4.0540 MULDOON -0.2425
-4.0540 MUNCHLING -0.2425
-4.0540 MURKENS -0.2425
-3.5769 MURMOOK -0.2425
-3.7530 MUSHROOM -0.3009
-4.0540 MUSTHIC -0.3009
-4.0540 MUTAGENESIS -0.3009
-4.0540 MUTAGENIC -0.3010
-4.0540 MUTANT -0.3010
-3.5769 MUTATION -0.2973
-4.0540 MYLIOBE -0.2425
-4.0540 MYSTICETI -0.2425
-3.7530 NARP -0.2425
-4.0540 NARPS -0.3007
-3.7530 NATURE -0.2425
-4.0540 NATURES -0.3009
-4.0540 NAVIGATOR -0.3010
-4.0540 NEEDLE -0.2425
-4.0540 NEEDS -0.3008
-4.0540 NEFFRU -0.2425
-4.0540 NEL -0.2425
-4.0540 NEPENTHE -0.3010
-4.0540 NEPETA -0.3010
-4.0540 NEROTAURUS -0.2425
-4.0540 NERVE -0.3008
-4.0540 NETCASTER -0.2425
-4.0540 NETCASTER-EVIL -0.2991
-4.0540 NETWORK -0.2425
-4.0540 NEURO -0.3010
-4.0540 NEUTRON -0.3010
-4.0540 NEW -0.3010
-4.0540 NEXUS -0.2425
-4.0540 NIFF -0.2425
-3.4519 NIFFLE -0.3008
-3.7530 NIGHT -0.2425
-4.0540 NIGHTFORGE -0.2425
-4.0540 NIGHTMARE -0.2425
-3.7530 NINE-TOES -0.2425
-4.0540 NIT -0.2425
-4.0540 NITHING -0.2425
-4.0540 NITS -0.3009
-4.0540 NIZAK -0.2965
-3.4519 NO -0.3007
-4.0540 NOCTURNAL -0.3010
-4.0540 NODDY -0.2965
-4.0540 NOGI -0.3010
-4.0540 NONAME -0.2425
-4.0540 NORTHELLE -0.2425
-3.7530 NOT -0.2424
-3.7530 NOVU -0.3010
-4.0540 NOZZLE -0.2425
-4.0540 NUMBERS -0.2425
-4.0540 NUMERI -0.2425
-4.0540 NUMQUID -0.2965
-4.0540 NURSE -0.3010
-4.0540 NURTURE -0.2425
-4.0540 NYZYK -0.3010
-4.0540 OATH -0.2973
-4.0540 OBELISK -0.2425
-4.0540 OBLIVION -0.2425
-4.0540 OBSERV-U-MAX -0.2425
-4.0540 OBSIDIAN -0.3009
-3.7530 OCTAVIA -0.2425
-4.0540 ODD -0.3010
-4.0540 ODOAC -0.2965
-2.0717 OF -0.2927
-4.0540 OFFER -0.2425
-4.0540 OFFICE -0.2425
-2.9079 OFFICER -0.2418
-4.0540 OFFICERS -0.3006
-4.0540 OG -0.2425
-4.0540 OGOPOGO -0.2425
-4.0540 OGRE -0.2425
-3.7530 OL -0.3010
-3.3550 OLD -0.3008
-4.0540 OMM -0.2425
-4.0540 OMNIPUS -0.2425
-4.0540 ON -0.2965
-3.2758 ONE -0.2423
-3.7530 ONE-EYED -0.3010
-4.0540 ONYX -0.3009
-4.0540 OPAL -0.3009
-4.0540 OPERATIONS -0.3005
-3.7530 OPERATIVE -0.3010
-4.0540 OPPORTUNIST -0.2425
-4.0540 OPPOSITION -0.3009
-4.0540 OPTIO -0.3010
-2.9748 OR -0.3005
-4.0540 ORATOR -0.3010
-3.7530 ORB -0.2973
-4.0540 ORBITAL -0.3010
-4.0540 ORDER -0.3010
-4.0540 ORDINATION -0.2425
-4.0540 ORPHIEL -0.3010
-4.0540 ORPHION -0.3010
-4.0540 ORTANNU -0.2965
-4.0540 ORTANNUS -0.3010
-4.0540 OSTRACIZE -0.2425
-4.0540 OSWIN -0.2425
-4.0540 OTTO -0.2425
-4.0540 OUBLIETTE -0.2425
-4.0540 OUT -0.2425
-3.7530 OVER -0.3009
-4.0540 OVERLORD -0.3010
-4.0540 OVERRUN -0.2425
-3.7530 OXTET -0.2425
-4.0540 OZMO -0.3010
-3.7530 PACK -0.2425
-4.0540 PADDY -0.2425
-4.0540 PADDY-EVIL -0.2991
-3.5769 PAIN -0.2424
-4.0540 PAINMAIL -0.2425
-4.0540 PALE -0.3010
-4.0540 PANDEMONIUM -0.2425
-3.7530 PANPACA -0.3010
-4.0540 PARAGUARDIAN -0.2425
-4.0540 PARTICLE -0.3010
-4.0540 PAST -0.2425
-4.0540 PATRICIAN -0.2425
-4.0540 PATRIZATE -0.2425
-4.0540 PATRONAGE -0.2425
-4.0540 PAWN -0.3010
-4.0540 PEACE -0.3010
-4.0540 PEARL -0.2425
-3.7530 PENNY -0.2425
-4.0540 PERILOUS -0.3008
-4.0540 PERPLEXING -0.3010
-4.0540 PERSISTENCE -0.3009
-4.0540 PESTERGROVE -0.2425
-4.0540 PESTERING -0.3010
-4.0540 PESTILENCE -0.2425
-4.0540 PETE -0.2425
-4.0540 PHALANX -0.3010
-4.0540 PHANTOM -0.2425
-4.0540 PHASE -0.3010
-4.0540 PHEROMONES -0.2425
-4.0540 PHILO -0.2425
-4.0540 PHILO-EVIL -0.2991
-4.0540 PHILOPHOSAURUS -0.2425
-3.7530 PHLOXEM -0.2424
-4.0540 PHOENIX -0.3010
-4.0540 PHOSPHORUS -0.3010
-4.0540 PHOTIC -0.3010
-4.0540 PHYLYX -0.2965
-3.7530 PHYSICUS -0.3010
-3.7530 PI -0.3010
-4.0540 PICAROON -0.2425
-4.0540 PILE -0.2973
-4.0540 PILLAGE -0.2425
-4.0540 PINCERATOR -0.2425
-4.0540 PINGLE -0.3010
-3.7530 PIP -0.2424
-4.0540 PIRANHA -0.3010
-4.0540 PISMIRE -0.2425
-3.5769 PIT -0.2424
-4.0540 PITLORD -0.2425
-3.7530 PIXIE -0.2425
-4.0540 PIXIES -0.2425
-4.0540 PLACE -0.2425
-3.7530 PLAGUE -0.3007
-4.0540 PLAN -0.2425
-4.0540 PLANET -0.3010
-4.0540 PLANK -0.2425
-3.2758 PLANT -0.2425
-4.0540 PLASMA -0.3010
-4.0540 PLASMATE -0.2425
-4.0540 PLATFORM -0.2425
-4.0540 PLAY -0.2425
-4.0540 POCKET -0.3010
-4.0540 POD -0.2425
-4.0540 POISON -0.3009
-4.0540 POKE -0.2425
-4.0540 POLLIASAURUS -0.2425
-4.0540 POLTERGEIST -0.2425
-4.0540 POMPITUS -0.2425
-4.0540 PORCUPINE -0.2425
-4.0540 PORPOISES -0.2425
-3.7530 PORTAL -0.2425
-4.0540 PORTALMONGER -0.2425
-4.0540 POS -0.3010
-4.0540 POSITRON -0.3010
-4.0540 POTION -0.2973
-4.0540 POUND -0.2425
-4.0540 POUR-TAL -0.2425
-4.0540 POVERTY -0.2425
-3.5769 POWER -0.2383
-4.0540 PRAECO -0.2425
-4.0540 PRAEFECTUS -0.3010
-4.0540 PRESCRIPTIVE -0.3010
-4.0540 PRESERVATION -0.2425
-4.0540 PRESSURE -0.2425
-4.0540 PREY -0.2425
-4.0540 PRIDE -0.2425
-3.5769 PRIEST -0.2424
-4.0540 PRIMAL -0.3010
-3.5769 PRIMUS -0.2424
-4.0540 PRINCE -0.3010
-3.7530 PRINCIPLE -0.2425
-4.0540 PROBE -0.2425
-4.0540 PROCLAMATION -0.3010
-3.5769 PROF -0.3009
-3.7530 PROFESSOR -0.3010
-4.0540 PROJECT -0.3009
-4.0540 PROLIFERATOR -0.2425
-4.0540 PROPHET -0.3010
-4.0540 PROSPECTOR -0.2425
-3.7530 PROTECT -0.2373
-4.0540 PROTECTRIX -0.2425
-4.0540 PSIONIC -0.3005
-3.7530 PSYCHIC -0.3010
-4.0540 PULPATE -0.2425
-4.0540 PULSE -0.2425
-3.5769 PUNCH -0.2425
-4.0540 PUNCTUATED -0.3010
-4.0540 PURIFIER -0.2973
-4.0540 PURIFY -0.2425
-4.0540 Q-MECHS -0.2425
-4.0540 QINCAN -0.2425
-4.0540 QINCANS -0.3006
-4.0540 QUADRACORDER -0.2425
-4.0540 QUANT -0.2425
-4.0540 QUANTUM -0.3010
-3.5769 QUEEN -0.2424
-4.0540 QUEST -0.2425
-4.0540 QUESTOR -0.3010
-4.0540 QUICKSAND -0.2425
-3.7530 QUIET -0.2424
-4.0540 QUINTINA -0.2425
-4.0540 QUINTRINO -0.3010
-4.0540 QUIXO -0.2965
-4.0540 QUIXXLE -0.3010
-4.0540 QYXXLYX -0.3010
-4.0540 RAD -0.3010
-4.0540 RADIANT -0.3010
-4.0540 RAGNAROK -0.2425
-4.0540 RAGWARG -0.2425
-4.0540 RAIDER -0.2425
-4.0540 RAIDING -0.3009
-4.0540 RAKUZEL -0.2425
-4.0540 RAKUZELS -0.3009
-4.0540 RANDOM -0.3009
-4.0540 RANSACK -0.2425
-4.0540 RANSOM -0.2425
-4.0540 RAPID -0.3010
-4.0540 RAPSCAL -0.2425
-3.7530 RAPTOR -0.2425
-3.7530 RAT -0.2425
-4.0540 RAY -0.3010
-4.0540 RAZING -0.2425
-4.0540 REACH -0.3010
-4.0540 REACTION -0.2425
-3.7530 REAP -0.2420
-4.0540 REAPER -0.2425
-4.0540 REASSEMBLING -0.3010
-4.0540 REBEL -0.2425
-4.0540 RECALL -0.2425
-3.7530 RECKLESS -0.3010
-4.0540 RECLAIMED -0.3010
-4.0540 RECYCLE -0.3010
-3.5769 RED -0.3009
-4.0540 RED-HOT -0.3009
-4.0540 REDACTED -0.2425
-4.0540 REDEEMED -0.2425
-4.0540 REDHAND -0.3010
-4.0540 REDLOCK -0.2425
-4.0540 REDRESS -0.2425
-4.0540 REFRAIN -0.2425
-4.0540 REGISTRY -0.2425
-4.0540 REGRETTABLE -0.3010
-4.0540 REGROWTH -0.2425
-3.5769 RELENTLESS -0.3009
-4.0540 RELIC -0.2425
-4.0540 RELIQUARY -0.2425
-4.0540 REMIEL -0.2425
-4.0540 REMINDER -0.2425
-4.0540 REMOTE -0.3009
-4.0540 REPLICATOR -0.2425
-3.5769 RESEARCH -0.2424
-3.4519 RESEARCHER -0.2425
-4.0540 RESONATOR -0.2425
-4.0540 RESTRINGUNTUS -0.2425
-4.0540 RESURGENCE -0.2425
-4.0540 RETURNING -0.2425
-4.0540 REVENGE -0.2425
-4.0540 REVERSE -0.3010
-3.5769 REX -0.2425
-4.0540 RHETOR -0.3010
-4.0540 RICHES -0.2425
-4.0540 RIDER -0.2425
-4.0540 RIG -0.2425
-4.0540 RIGGED -0.3010
-4.0540 RIGHT -0.2425
-4.0540 RING -0.2973
-3.2758 RITUAL -0.2383
-4.0540 RIVER -0.2425
-4.0540 RIZZO -0.2425
-4.0540 ROAD -0.2425
-4.0540 ROCK-HURLING -0.3009
-4.0540 ROCKET -0.3010
-3.7530 ROCKETEER -0.3010
-4.0540 ROD -0.2425
-4.0540 ROGUE -0.3010
-4.0540 RONNIE -0.3010
-4.0540 ROOFTOP -0.3010
-4.0540 ROSTRUM -0.2425
-4.0540 ROTGRUB -0.2425
-4.0540 ROTHAIS -0.2965
-4.0540 ROUND -0.3010
-4.0540 ROUTINE -0.3010
-4.0540 ROXADOR -0.2425
-4.0540 RUIN -0.2425
-4.0540 RUINS -0.2973
-4.0540 RUN -0.2425
-4.0540 RUPTURE -0.2425
-4.0540 RUSTGNAWER -0.2425
-4.0540 RUSTMISER -0.2425
-4.0540 RUTH -0.2425
-4.0540 SABOTAGE -0.3010
-4.0540 SACK -0.2973
-4.0540 SACRIFICE -0.2425
-4.0540 SACRIFICIAL -0.3010
-4.0540 SACRO-ALIEN -0.2425
-4.0540 SACRO-BEAST -0.2425
-4.0540 SACRO-BOT -0.2425
-4.0540 SACRO-FIEND -0.2425
-4.0540 SACRO-SAURUS -0.2425
-4.0540 SACRO-THIEF -0.2425
-3.5769 SAFE -0.3005
-4.0540 SAFEGUARD -0.2425
-4.0540 SAFETY -0.3009
-4.0540 SAGITTARIIS -0.3010
-4.0540 SALT -0.2425
-4.0540 SAMPLE -0.3010
-4.0540 SANCTUM -0.3009
-4.0540 SANDALS -0.2425
-4.0540 SANITATION -0.3009
-4.0540 SARGASSA -0.2425
-4.0540 SARGASSA-EVIL -0.2991
-4.0540 SAURARIUM -0.2425
-3.7530 SAURIAN -0.3008
-4.0540 SAUROPOD -0.2425
-3.7530 SAURUS -0.2424
-4.0540 SAURY -0.3010
-4.0540 SAVAGE -0.3010
-4.0540 SAVE -0.2965
-4.0540 SAY -0.2425
-4.0540 SCALE -0.2425
-4.0540 SCARRED -0.2425
-3.7530 SCI -0.3005
-4.0540 SCIENCE -0.2425
-4.0540 SCIENTIFICAL -0.3010
-4.0540 SCIENTISTS -0.3008
-4.0540 SCOOPED -0.2425
-3.7530 SCOUT -0.2424
-4.0540 SCOWLY -0.3010
-4.0540 SCRAMBLER -0.3009
-4.0540 SCRAPPER -0.2425
-4.0540 SCREAMING -0.3010
-4.0540 SCREECHBOMB -0.2425
-4.0540 SCRIVENER -0.3010
-3.7530 SCROLL -0.2425
-4.0540 SCUTUM -0.2425
-4.0540 SCYLLA -0.2425
-4.0540 SCYPHOS -0.2425
-3.7530 SEA -0.3009
-4.0540 SEABORG -0.2425
-4.0540 SEABRINGER -0.3010
-4.0540 SEAS -0.3009
-4.0540 SEASON -0.2425
-4.0540 SECURI-DROID -0.2425
-4.0540 SEED -0.2425
-3.7530 SEEKER -0.2973
-4.0540 SEISMO-ENTANGLER -0.2425
-4.0540 SELECTION -0.2425
-4.0540 SELECTIVE -0.3010
-3.7530 SELF -0.2425
-4.0540 SELF-BOLSTERING -0.3010
-4.0540 SELWYN -0.2965
-4.0540 SEMPER -0.3010
-3.4519 SENATOR -0.2423
-3.7530 SENESCHAL -0.3010
-4.0540 SENSOR -0.3009
-4.0540 SEPDIA -0.2425
-4.0540 SEQUIS -0.2425
-4.0540 SERAPHIC -0.3009
-4.0540 SERGEANT -0.3010
-4.0540 SERUM -0.2425
-4.0540 SGS -0.3010
-3.5769 SHADOW -0.2972
-4.0540 SHADOWS -0.3008
-4.0540 SHADOWSAURUS -0.2425
-4.0540 SHADOWSMITH -0.2425
-4.0540 SHAFFLES -0.2425
-3.7530 SHAMAN -0.2425
-3.2089 SHARD -0.2973
-3.7530 SHARK -0.2425
-4.0540 SHARK-EVIL -0.2991
-4.0540 SHATTER -0.3009
-4.0540 SHATTERED -0.3010
-4.0540 SHERMAN -0.2425
-3.7530 SHIELD -0.2383
-4.0540 SHIELD-U-LATER -0.2425
-4.0540 SHIELD-U-LATER-EVIL -0.2991
-4.0540 SHIELDING -0.2425
-3.7530 SHIFT -0.2425
-4.0540 SHIFTING -0.3010
-4.0540 SHIP -0.2425
-4.0540 SHOCKWORM -0.2425
-4.0540 SHOES -0.2425
-4.0540 SHOOLER -0.2425
-3.7530 SHORTY -0.2425
-4.0540 SHORTYS -0.3007
-3.7530 SHOULDER -0.3009
-3.5769 SHRIX -0.2425
-4.0540 SIC -0.3010
-3.4519 SIGIL -0.2383
-4.0540 SIGNAL -0.3010
-4.0540 SILENCE -0.2425
-4.0540 SILENT -0.3010
-4.0540 SILVER -0.3007
-4.0540 SILVERTOOTH -0.2425
-4.0540 SIMPSON -0.2425
-4.0540 SIMPSON-EVIL -0.2991
-4.0540 SINDER -0.2425
-4.0540 SINESTRA -0.2425
-4.0540 SINK -0.3006
-3.5769 SIR -0.3009
-4.0540 SIREN -0.3010
-4.0540 SKELETON -0.3007
-4.0540 SKIPPY -0.3010
-4.0540 SKIRMISHER -0.2425
-4.0540 SKIXUNO -0.2425
-4.0540 SKULLION -0.2425
-4.0540 SKULLS -0.2425
-4.0540 SKYBOOSTER -0.3010
-4.0540 SKöLL -0.2425
-4.0540 SLAM -0.2425
-4.0540 SLEEP -0.3009
-4.0540 SLIMY -0.3010
-4.0540 SLOPPY -0.3010
-3.7530 SLOTH -0.2425
-4.0540 SLRS -0.3010
-4.0540 SMAAASH -0.2425
-4.0540 SMARTFIST -0.2425
-4.0540 SMARTYPANTS -0.2425
-4.0540 SMILING -0.3010
-4.0540 SMITE -0.2425
-4.0540 SMITH -0.2425
-4.0540 SMOKO -0.2425
-4.0540 SMYTH -0.2425
-4.0540 SNAG -0.2425
-4.0540 SNAGLET -0.2425
-4.0540 SNAGS -0.3010
-4.0540 SNARETTE -0.2425
-4.0540 SNATCHER -0.2425
-4.0540 SNEKLIFTER -0.2425
-4.0540 SNIB -0.2425
-4.0540 SNIFFER -0.2425
-4.0540 SNUDGE -0.2425
-4.0540 SNUFFLEGATOR -0.2425
-4.0540 SO -0.2425
-4.0540 SOBOGGS -0.3010
-4.0540 SOFT -0.3010
-4.0540 SOLDIERS -0.3006
-3.7530 SONG -0.2973
-4.0540 SOPHISTRY -0.2425
-4.0540 SORRY -0.2425
-4.0540 SOTO -0.2425
-3.7530 SOUL -0.3010
-4.0540 SOULKEEPER -0.2425
-3.7530 SOULS -0.2425
-4.0540 SOUND -0.2965
-3.7530 SOW -0.2424
-4.0540 SPANGLER -0.3010
-4.0540 SPARKFIST -0.2425
-4.0540 SPARTASAUR -0.2425
-4.0540 SPEARS -0.2425
-3.7530 SPECIAL -0.3008
-4.0540 SPECTER -0.2425
-4.0540 SPECTRAL -0.3010
-4.0540 SPEED -0.3009
-3.7530 SPIDER -0.2425
-3.7530 SPIKE -0.2424
-4.0540 SPIRAL -0.2425
-4.0540 SPIRIT -0.2425
-4.0540 SPIRITS -0.3008
-4.0540 SPLINTER -0.2425
-4.0540 SPOILS -0.2973
-4.0540 SPOREGORGER -0.2425
-4.0540 SPOREGORGER-EVIL -0.2991
-4.0540 SPRING -0.2425
-4.0540 SPYMASTER -0.2425
-4.0540 SPYYYDER -0.2425
-4.0540 SQUADRON -0.2425
-4.0540 SQUAWKER -0.2425
-3.7530 SQUIRE -0.2424
-4.0540 STAMPEDE -0.2425
-4.0540 STANDARD -0.2425
-4.0540 STANDARDIZED -0.3010
-3.7530 STAR -0.2424
-3.7530 STARS -0.2425
-4.0540 STASH -0.2425
-3.7530 STATIC -0.3008
-4.0540 STAUNCH -0.3009
-4.0540 STEALER -0.2973
-4.0540 STEALTH -0.3010
-4.0540 STEALTHSTER -0.2425
-4.0540 STEELHEART -0.2425
-4.0540 STEELHEART-EVIL -0.2991
-4.0540 STEM -0.3010
-4.0540 STENOPIUS -0.2425
-4.0540 STILT-KIN -0.2425
-4.0540 STIMRAGER -0.2425
-4.0540 STING -0.2425
-4.0540 STIR -0.3010
-4.0540 STIRRING -0.3010
-4.0540 STOCKPILE -0.2425
-4.0540 STOMP -0.2425
-3.7530 STONE -0.2424
-4.0540 STOOD -0.3010
-3.4519 STORM -0.2423
-3.7530 STRANGE -0.3010
-4.0540 STRANGE-SHELL -0.2425
-4.0540 STREKE -0.2425
-4.0540 STRENGTH -0.2425
-4.0540 STRIKE -0.2425
-4.0540 STUNNER -0.2425
-4.0540 SUBDUE -0.2425
-4.0540 SUBJECT -0.3010
-4.0540 SUBMERSIBLE -0.2425
-4.0540 SUBMERSIVE -0.3010
-4.0540 SUBORDINATION -0.2425
-3.5769 SUBTLE -0.3009
-4.0540 SUCCUBUS -0.2425
-4.0540 SUCKER -0.3009
-4.0540 SUIT -0.2425
-4.0540 SUPPORT -0.2425
-3.5769 SURGE -0.2425
-4.0540 SURVEY -0.2425
-4.0540 SUSURRUS -0.2425
-4.0540 SUTTERKIN -0.2425
-4.0540 SWALLOW -0.3010
-4.0540 SWAP -0.3010
-4.0540 SWARM -0.2425
-4.0540 SWEEP -0.2425
-4.0540 SWEVEN -0.2425
-4.0540 SWEVEN-EVIL -0.2991
-4.0540 SWIM -0.2425
-4.0540 SWINDLE -0.2425
-4.0540 SWIRL -0.2425
-4.0540 SWITCH -0.2425
-4.0540 SYMON -0.2425
-4.0540 SYNAN -0.2425
-4.0540 SYNAN-EVIL -0.2991
-4.0540 SYPHON -0.2425
-4.0540 T3R-35A -0.2425
-4.0540 TABER -0.2425
-4.0540 TABLE -0.2425
-4.0540 TABRIS -0.2425
-4.0540 TACHYON -0.3010
-4.0540 TACTICAL -0.3005
-3.7530 TAKE -0.3009
-3.7530 TALMAGE -0.3010
-4.0540 TAMER -0.2425
-4.0540 TANIWHA -0.2425
-4.0540 TANIWHA-EVIL -0.2991
-3.7530 TANK -0.2425
-4.0540 TANTADLIN -0.2425
-4.0540 TAR -0.2425
-4.0540 TAUTAU -0.3010
-4.0540 TAXING -0.3010
-4.0540 TE-WHEKE -0.3010
-4.0540 TEAM -0.2425
-4.0540 TECHIVORE -0.3010
-4.0540 TECHNICIAN -0.2425
-4.0540 TECHNO-ALIEN -0.2425
-4.0540 TECHNO-BEAST -0.2425
-4.0540 TECHNO-FIEND -0.2425
-4.0540 TECHNO-KNIGHT -0.2425
-4.0540 TECHNO-SAURUS -0.2425
-4.0540 TECHNO-THIEF -0.2425
-4.0540 TECHNOBABBLE -0.2425
-4.0540 TELEPORTER -0.3009
-4.0540 TELIGA -0.2425
-4.0540 TEMPTING -0.3010
-4.0540 TENDRILS -0.2973
-4.0540 TENTACLID -0.2425
-4.0540 TENTACUS -0.2425
-4.0540 TERATO -0.2425
-4.0540 TERMS -0.2973
-4.0540 TERRIBLE -0.2425
-4.0540 TERROR -0.2425
-4.0540 TERRORDACTYL -0.2425
-4.0540 TERTIATE -0.2425
-4.0540 TESTING -0.2425
-4.0540 TEZMAL -0.2425
-4.0540 THALASSOPHOBIA -0.2425
-3.7530 THAT -0.2424
-1.9821 THE -0.2947
-4.0540 THEM -0.3009
-4.0540 THEORIST -0.2425
-3.5769 THEORY -0.2420
-4.0540 THERAPY -0.2425
-4.0540 THERE -0.2425
-4.0540 THERO -0.3009
-4.0540 THEY -0.3010
-4.0540 THEY'RE -0.3010
-4.0540 THIEF -0.2425
-4.0540 THIEVERY -0.2425
-4.0540 THIEVES -0.3008
-4.0540 THIN -0.2965
-4.0540 THINGAMABOB -0.2425
-4.0540 THINK -0.3010
-4.0540 THINKDRONE -0.2425
-4.0540 THORIUM -0.3010
-4.0540 THREE -0.3010
-4.0540 THRONE -0.2425
-4.0540 THROWING -0.3010
-4.0540 THUNDERTOW -0.2425
-4.0540 TIDAL -0.3009
-3.7530 TIDE -0.3009
-4.0540 TIGER -0.2425
-3.7530 TIME -0.2425
-4.0540 TIMEHOG -0.2425
-4.0540 TIMEQUAKE -0.2425
-4.0540 TIMETRAVELLER -0.2425
-4.0540 TINK -0.2425
-4.0540 TIRELESS -0.3010
-3.4519 TITAN -0.3007
-4.0540 TITANIC -0.2425
-4.0540 TITANS -0.2425
-3.0126 TO -0.3001
-4.0540 TOAD -0.2425
-4.0540 TOCSIN -0.2425
-4.0540 TOGETHER -0.2425
-4.0540 TOGNATH -0.2425
-4.0540 TOLAS -0.2425
-3.7530 TOMWA -0.2973
-4.0540 TOO -0.3010
-4.0540 TORVUS -0.2425
-4.0540 TOTAL -0.3010
-3.5769 TOUCH -0.2425
-4.0540 TRACKER -0.2425
-3.7530 TRADER -0.2425
-4.0540 TRAINING -0.2425
-4.0540 TRAITOR -0.2425
-4.0540 TRANSLATOR -0.2425
-4.0540 TRANSPORTER -0.3010
-4.0540 TRANSPOSITION -0.3010
-3.7530 TRAP -0.2425
-4.0540 TREASURE -0.3010
-3.7530 TREE -0.2425
-4.0540 TREMOR -0.2425
-4.0540 TRENCH -0.2425
-4.0540 TRIAL -0.3010
-4.0540 TRIBUNE -0.3010
-4.0540 TRIBUTE -0.2425
-4.0540 TRICERIAN -0.3010
-4.0540 TRICKLE-DOWN -0.3009
-4.0540 TRIGON -0.2425
-4.0540 TRIMBLE -0.2425
-4.0540 TRIUMPH -0.2425
-4.0540 TROJAN -0.3010
-4.0540 TROLL -0.2425
-4.0540 TROOP -0.3009
-4.0540 TROUBLE -0.2425
-4.0540 TRUEBARU -0.2425
-4.0540 TRUST -0.3009
-3.7530 TRUTH -0.2425
-4.0540 TRYSKA -0.2425
-4.0540 TRYSKA-EVIL -0.2991
-4.0540 TUNK -0.2425
-4.0540 TUNNELER -0.2425
-4.0540 TURNKEY -0.2425
-4.0540 TWICE -0.2425
-2.3550 TWIN -0.2424
-4.0540 TWO -0.3009
-4.0540 TYRANNOSAURUS -0.2425
-4.0540 TYXL -0.3010
-4.0540 ULFBERHT -0.3010
-4.0540 ULTRA -0.3010
-4.0540 ULYQ -0.3010
-4.0540 UMBRA -0.2425
-4.0540 UMBRA-ALIEN -0.2425
-4.0540 UMBRA-BEAST -0.2425
-4.0540 UMBRA-BOT -0.2425
-4.0540 UMBRA-FIEND -0.2425
-4.0540 UMBRA-KNIGHT -0.2425
-4.0540 UMBRA-SAURUS -0.2425
-4.0540 UNCHARTED -0.3010
-4.0540 UNDAGNATHUS -0.2425
-4.0540 UNDAGNATHUS-EVIL -0.2991
-4.0540 UNDER -0.3010
-4.0540 UNGUARDED -0.3010
-4.0540 UNGUIS -0.2425
-4.0540 UNIFIER -0.2425
-3.7530 UNIT -0.2425
-4.0540 UNITED -0.3010
-4.0540 UNITY -0.3006
-3.5769 UNIVERSAL -0.3009
-4.0540 UNIVERSE -0.2425
-4.0540 UNLOCKED -0.3010
-4.0540 UNNATURAL -0.3010
-4.0540 UNSUSPECTING -0.3010
-3.7530 UNTAMED -0.3005
-3.7530 UP -0.2424
-3.7530 URCHIN -0.2425
-4.0540 URCHIN-EVIL -0.2991
-3.7530 URIEN -0.2965
-4.0540 URSO -0.2425
-4.0540 URSO-EVIL -0.2991
-4.0540 UXLYX -0.2965
-4.0540 VAL -0.3010
-4.0540 VALDR -0.2425
-4.0540 VALMART -0.2425
-4.0540 VALOOCANTH -0.2425
-4.0540 VANDALIZE -0.2425
-4.0540 VANITY -0.2425
-4.0540 VAPORS -0.2425
-4.0540 VAULT -0.2425
-4.0540 VAULTKEEPER -0.2425
-4.0540 VAULTS -0.3010
-4.0540 VEEMOS -0.3010
-4.0540 VELUM -0.2425
-4.0540 VENATOR -0.3010
-4.0540 VENOM -0.2425
-4.0540 VEROKTER -0.2425
-4.0540 VESPILON -0.3010
-4.0540 VEYLAN -0.3010
-4.0540 VEZYMA -0.3010
-4.0540 VIEW -0.2425
-4.0540 VIGOR -0.2425
-3.7530 VINDA -0.2425
-4.0540 VINEAPPLE -0.3010
-4.0540 VINES -0.2425
-4.0540 VINUM -0.2425
-4.0540 VIRTUOUS -0.3010
-4.0540 VIRUS -0.2425
-4.0540 VITA -0.2425
-4.0540 VITA-EVIL -0.2991
-4.0540 VOICE -0.2973
-4.0540 VOID -0.2425
-4.0540 WAIL -0.2973
-4.0540 WAKING -0.3010
-4.0540 WALK -0.2965
-4.0540 WALL -0.2425
-3.7530 WALLS -0.2420
-3.7530 WAR -0.2424
-4.0540 WARCHEST -0.2425
-4.0540 WARDRUMMER -0.2425
-4.0540 WARP -0.2425
-4.0540 WARRIORS -0.3010
-4.0540 WARSONG -0.2425
-4.0540 WASHED -0.3010
-4.0540 WASTE -0.3010
-3.7530 WATER -0.2425
-3.4519 WAVE -0.2425
-3.3550 WAY -0.2383
-4.0540 WE -0.3010
-3.5769 WEAK -0.2425
-4.0540 WEASAND -0.2425
-4.0540 WHAT -0.3010
-4.0540 WHIRLPOOL -0.2425
-4.0540 WHISPER -0.2425
-4.0540 WHISPERING -0.3010
-4.0540 WHISPERS -0.2425
-4.0540 WHISTLING -0.3010
-4.0540 WHO -0.3010
-4.0540 WHOLE -0.2425
-4.0540 WIDESPREAD -0.3010
-4.0540 WIDGET -0.2425
-4.0540 WIKOLIA -0.2425
-4.0540 WIKOLIA-EVIL -0.2991
-3.3550 WILD -0.2423
-4.0540 WILDS -0.2425
-4.0540 WILLA -0.2425
-4.0540 WILLA-EVIL -0.2991
-4.0540 WIN -0.2425
-4.0540 WIPE -0.3010
-3.3550 WITCH -0.2383
-3.5769 WITH -0.2962
-3.7530 WOLF -0.2425
-4.0540 WONDER -0.2425
-4.0540 WOODS -0.2425
-4.0540 WORD -0.2973
-4.0540 WORKS -0.2425
-4.0540 WORLD -0.3010
-4.0540 WORM -0.2425
-3.7530 WORMHOLE -0.2424
-3.5769 WRATH -0.2420
-4.0540 WRETCHED -0.3010
-4.0540 WRISTCLOCKS -0.2425
-4.0540 XALVADOR -0.2425
-4.0540 XANTHYX -0.3010
-4.0540 XENO-BEAST -0.2425
-4.0540 XENO-BOT -0.2425
-4.0540 XENO-FIEND -0.2425
-4.0540 XENO-KNIGHT -0.2425
-4.0540 XENO-SAURUS -0.2425
-4.0540 XENO-THIEF -0.2425
-4.0540 XENOS -0.3010
-4.0540 XENOTRAINING -0.2425
-4.0540 YANTZEE -0.3010
-4.0540 YO -0.3010
-3.7530 YOU -0.2424
-3.7530 YOUNGEST -0.3008
-4.0540 YSHI -0.2425
-3.5769 YURK -0.2425
-4.0540 YXILI -0.3010
-4.0540 YXILO -0.3010
-4.0540 YXILX -0.3010
-4.0540 YXLYX -0.3010
-4.0540 YZPHYZ -0.3010
-4.0540 Z-FORCE -0.3009
-4.0540 Z-PARTICLE -0.3010
-4.0540 Z-RAY -0.3006
-4.0540 Z-WAVE -0.3010
-4.0540 ZAKIEL -0.2425
-4.0540 ZAP -0.2425
-4.0540 ZAREK -0.2425
-3.5769 ZEALOT -0.2425
-4.0540 ZENZIZENZIZENZIC -0.2425
-4.0540 ZOOKEEPER -0.2425
-4.0540 ZORG -0.2425
-4.0540 ZYSYSYX -0.3010
-3.5769 ZYX -0.2423
-4.0540 ZYZZIX -0.2965

\2-grams:
-0.3010 1 </s> -0.3010
-0.3010 14 </s> -0.3010
-0.3010 2 </s> -0.3010
-0.3010 24 </s> -0.3010
-0.3010 3 </s> -0.3010
-0.3010 346E </s> -0.3010
-0.3010 4X4 </s> -0.3010
-0.3010 5150 </s> -0.3010
-0.3010 5C077 </s> -0.3010
-0.3010 5C077-EVIL TWIN -0.0086
-0.3010 9001 </s> -0.3010
-3.4558 <s> 5C077 0.0000
-3.4558 <s> 5C077-EVIL 0.0000
-3.1547 <s> A -0.1761
-3.4558 <s> ABANDON 0.0000
-3.4558 <s> ABOND 0.0000
-3.4558 <s> ABYSSAL 0.0000
-3.4558 <s> ACADEMY 0.0000
-3.4558 <s> ACCESS -0.2430
-3.4558 <s> ADAPTOID 0.0000
-3.4558 <s> AEMBERLING 0.0000
-3.1547 <s> AGENT -0.1761
-3.4558 <s> AJA 0.0000
-3.4558 <s> ALAKA 0.0000
-3.4558 <s> ALAKAS 0.0000
-3.4558 <s> ALL -0.2218
-3.4558 <s> ALLUSIONS 0.0000
-3.4558 <s> ALMSMASTER 0.0000
-3.4558 <s> ALMSMASTER-EVIL 0.0000
-3.4558 <s> ALTRUISTS 0.0000
-3.4558 <s> AMBASSADOR -0.2688
-3.1547 <s> AMBER -0.2041
-3.4558 <s> AMBER-VAC 0.0000
-3.1547 <s> AMBERFIN 0.0000
-3.4558 <s> AMBERHEART 0.0000
-3.4558 <s> AMBERLUTION 0.0000
-3.4558 <s> AMBERMANCY 0.0000
-3.4558 <s> AMBERSPINE 0.0000
-3.4558 <s> AMBERTRACKER 0.0000
-3.4558 <s> AMMONIA 0.0000
-3.4558 <s> AMPHORA 0.0000
-3.4558 <s> ANAHITA 0.0000
-2.9786 <s> ANCIENT 0.0000
-3.4558 <s> ANGER 0.0000
-3.4558 <s> ANGRY 0.0000
-3.4558 <s> ANGWISH 0.0000
-3.4558 <s> ANIMATOR 0.0000
-3.4558 <s> ANKYLO 0.0000
-3.4558 <s> ANNIHILATION 0.0000
-3.4558 <s> ANOMALY 0.0000
-3.4558 <s> ANTONY 0.0000
-3.4558 <s> ARCHIMEDES 0.0000
-3.1547 <s> ARCHONS -0.1249
-3.4558 <s> ARDENT 0.0000
-3.4558 <s> ARISE 0.0000
-3.4558 <s> ARMADRONE 0.0000
-3.4558 <s> ARMADRONE-EVIL 0.0000
-3.4558 <s> ARMAGEDDON 0.0000
-3.4558 <s> ARMORY 0.0000
-3.4558 <s> ARMSMASTER 0.0000
-3.4558 <s> ASSERT 0.0000
-3.4558 <s> AUBADE 0.0000
-3.4558 <s> AUSTERALIS -0.1761
-3.4558 <s> AUTO-ENCODER 0.0000
-3.4558 <s> AUTO-LEGIONARY 0.0000
-3.4558 <s> AUTO-VAC 0.0000
-3.4558 <s> AUTOCANNON 0.0000
-3.4558 <s> AVENGING 0.0000
-3.4558 <s> AWAY -0.1761
-3.4558 <s> AXIOM 0.0000
-3.4558 <s> BABBLING 0.0000
-3.1547 <s> BACKUP -0.1249
-3.4558 <s> BAD -0.1761
-3.4558 <s> BADGEMAGUS 0.0000
-3.4558 <s> BAIT 0.0000
-3.4558 <s> BALDRIC 0.0000
-3.4558 <s> BALLCANO 0.0000
-3.4558 <s> BANISH 0.0000
-3.4558 <s> BANNER 0.0000
-3.4558 <s> BAREHANDED 0.0000
-3.4558 <s> BARN 0.0000
-3.4558 <s> BARON -0.1761
-3.4558 <s> BARRISTER 0.0000
-3.4558 <s> BATDRONE 0.0000
-3.4558 <s> BATTLE -0.2430
-3.4558 <s> BEACH 0.0000
-3.4558 <s> BEAR -0.2553
-3.4558 <s> BEASTS 0.0000
-3.4558 <s> BEGONE 0.0000
-3.4558 <s> BELLATORAN-WARRIOR 0.0000
-3.4558 <s> BELLOWING 0.0000
-3.4558 <s> BERINON 0.0000
-3.1547 <s> BERSERKER 0.0000
-3.1547 <s> BESTIARII 0.0000
-3.4558 <s> BEWARE 0.0000
-3.4558 <s> BIGTWIG 0.0000
-3.4558 <s> BILGEWARDEN 0.0000
-3.4558 <s> BILGUM 0.0000
-3.1547 <s> BINARY 0.0000
-3.4558 <s> BINATE 0.0000
-3.4558 <s> BINDING -0.1761
-3.4558 <s> BINGLE 0.0000
-3.4558 <s> BIOMATRIX 0.0000
-3.4558 <s> BIOME 0.0000
-3.1547 <s> BLAST -0.2041
-3.4558 <s> BLATANT 0.0000
-3.4558 <s> BLINDING 0.0000
-3.1547 <s> BLOOD -0.1249
-3.4558 <s> BLOODSHARD 0.0000
-3.4558 <s> BLORB 0.0000
-3.4558 <s> BLOSSOM 0.0000
-3.4558 <s> BLYPYP 0.0000
-3.4558 <s> BO 0.0000
-3.4558 <s> BOMBYX 0.0000
-3.4558 <s> BONEROT 0.0000
-3.4558 <s> BONESAW 0.0000
-3.4558 <s> BOOBY 0.0000
-3.1547 <s> BOOK 0.0000
-3.4558 <s> BORDAN 0.0000
-3.1547 <s> BORR 0.0000
-3.4558 <s> BORROW 0.0000
-3.4558 <s> BOSS 0.0000
-3.4558 <s> BOT -0.1761
-3.4558 <s> BOUNCING 0.0000
-3.4558 <s> BRABBLE 0.0000
-3.4558 <s> BRACCHANALIA 0.0000
-3.4558 <s> BRACHIADITUS 0.0000
-2.9786 <s> BRAIN 0.0000
-3.4558 <s> BRAMBLE 0.0000
-3.4558 <s> BRAMMO 0.0000
-3.4558 <s> BREAK-KEY 0.0000
-3.4558 <s> BREAKER 0.0000
-3.4558 <s> BREND 0.0000
-3.4558 <s> BRIAR 0.0000
-3.4558 <s> BRING 0.0000
-3.1547 <s> BROBNAR 0.0000
-3.4558 <s> BRONZE 0.0000
-3.4558 <s> BROTHERS 0.0000
-3.4558 <s> BRUTODON 0.0000
-3.4558 <s> BUBBLES 0.0000
-3.4558 <s> BULL-WARK 0.0000
-3.4558 <s> BULLETEYE 0.0000
-3.4558 <s> BULWARK 0.0000
-3.4558 <s> BUMBLEBIRD 0.0000
-3.4558 <s> BUMPSY 0.0000
-3.4558 <s> BURN 0.0000
-3.4558 <s> BURNING 0.0000
-3.4558 <s> BURY 0.0000
-3.4558 <s> BUZZLE 0.0000
-3.4558 <s> CADET 0.0000
-3.1547 <s> CALL -0.1761
-3.4558 <s> CALV-1N 0.0000
-3.4558 <s> CAMOUFLAGE 0.0000
-3.4558 <s> CANDLE 0.0000
-3.4558 <s> CANNON 0.0000
-2.7568 <s> CAPTAIN 0.0000
-3.4558 <s> CARLO 0.0000
-3.4558 <s> CARPE 0.0000
-3.4558 <s> CARPET 0.0000
-3.4558 <s> CAULDRON 0.0000
-3.4558 <s> CAUSAL 0.0000
-3.4558 <s> CEASEFORGE 0.0000
-3.4558 <s> CEMENT 0.0000
-3.1547 <s> CENSOR 0.0000
-3.4558 <s> CENTURION -0.2218
-3.4558 <s> CEPHALOIST 0.0000
-3.4558 <s> CH-337A 0.0000
-3.4558 <s> CH-337A-EVIL 0.0000
-3.4558 <s> CHAIN -0.1761
-3.4558 <s> CHALLE 0.0000
-3.1547 <s> CHAMPION 0.0000
-3.4558 <s> CHAMPIONS 0.0000
-3.4558 <s> CHANS 0.0000
-3.4558 <s> CHANT -0.2218
-3.4558 <s> CHAOS 0.0000
-3.4558 <s> CHARETTE 0.0000
-3.4558 <s> CHARGE 0.0000
-3.4558 <s> CHARYBDIS 0.0000
-3.4558 <s> CHELONIA 0.0000
-3.4558 <s> CHELONIA-EVIL 0.0000
-3.4558 <s> CHENILLE 0.0000
-3.4558 <s> CHIEF -0.2218
-3.4558 <s> CHIEFTAINS 0.0000
-3.4558 <s> CHONKERS 0.0000
-3.4558 <s> CHOTA 0.0000
-3.4558 <s> CHRONOPHAGE 0.0000
-3.4558 <s> CHRONUS 0.0000
-3.4558 <s> CHUFF 0.0000
-3.4558 <s> CINCINNATUS 0.0000
-3.4558 <s> CITIZEN 0.0000
-3.4558 <s> CITY 0.0000
-3.4558 <s> CITY-STATE 0.0000
-3.4558 <s> CLEANSING 0.0000
-3.4558 <s> CLEAR -0.1761
-3.4558 <s> CLERIC 0.0000
-3.4558 <s> CLOAKING 0.0000
-3.4558 <s> CODE 0.0000
-3.4558 <s> COLLAR 0.0000
-3.4558 <s> COLLECTOR -0.1761
-3.1547 <s> COLONIST 0.0000
-2.9786 <s> COM 0.0000
-3.4558 <s> COMBAT 0.0000
-3.4558 <s> COMMANDEER 0.0000
-2.9786 <s> COMMANDER 0.0000
-3.4558 <s> COMMPOD 0.0000
-3.4558 <s> COMMUNE 0.0000
-3.4558 <s> CONSUL 0.0000
-3.4558 <s> CONTAINMENT 0.0000
-3.4558 <s> CONTROL 0.0000
-3.4558 <s> COOPERATIVE 0.0000
-3.4558 <s> CORNICEN 0.0000
-3.4558 <s> CORRODE 0.0000
-3.4558 <s> COWARDS 0.0000
-3.4558 <s> COWFYNE 0.0000
-3.4558 <s> COWFYNES 0.0000
-3.1547 <s> CR 0.0000
-3.4558 <s> CRASH 0.0000
-3.4558 <s> CRASSOSAURUS 0.0000
-3.4558 <s> CRAZY 0.0000
-3.1547 <s> CREED 0.0000
-3.4558 <s> CREEPING 0.0000
-3.4558 <s> CREWMAN 0.0000
-3.4558 <s> CROSS 0.0000
-3.4558 <s> CRUSHING 0.0000
-3.1547 <s> CRYSTAL 0.0000
-3.4558 <s> CULF 0.0000
-3.4558 <s> CULL 0.0000
-3.4558 <s> CULTIST 0.0000
-3.4558 <s> CUP 0.0000
-3.4558 <s> CURIA 0.0000
-3.4558 <s> CURIOSITY 0.0000
-3.4558 <s> CURSE 0.0000
-3.4558 <s> CUSTOM 0.0000
-3.4558 <s> CUSTOMS 0.0000
-3.4558 <s> CUTTHROAT 0.0000
-3.4558 <s> CXO 0.0000
-3.4558 <s> CYBER-CLONE 0.0000
-3.4558 <s> CYBERGIANT 0.0000
-3.4558 <s> D1-V3 0.0000
-3.4558 <s> DAMO-ALIEN 0.0000
-3.4558 <s> DAMO-BEAST 0.0000
-3.4558 <s> DAMO-BOT 0.0000
-3.4558 <s> DAMO-KNIGHT 0.0000
-3.4558 <s> DAMO-SAURUS 0.0000
-3.4558 <s> DAMO-THIEF 0.0000
-3.4558 <s> DANCE 0.0000
-2.5527 <s> DARK 0.0000
-3.4558 <s> DATA 0.0000
-3.4558 <s> DAUGHTER 0.0000
-3.4558 <s> DEAD -0.1761
-3.4558 <s> DECADENCE 0.0000
-3.1547 <s> DEEP -0.1249
-3.4558 <s> DEEPWATER 0.0000
-3.4558 <s> DEEPWOOD 0.0000
-3.4558 <s> DEFENDER 0.0000
-3.4558 <s> DEFENSE 0.0000
-3.4558 <s> DEIPNO 0.0000
-3.4558 <s> DEMONS 0.0000
-3.4558 <s> DENDRIX 0.0000
-3.4558 <s> DESIRE 0.0000
-3.4558 <s> DESTROY 0.0000
-3.4558 <s> DESTRUCTIVE 0.0000
-3.4558 <s> DETENTION 0.0000
-3.4558 <s> DEUSILLUS 0.0000
-3.4558 <s> DEW 0.0000
-3.4558 <s> DEXTRE 0.0000
-3.4558 <s> DEXUS 0.0000
-3.4558 <s> DHARNA 0.0000
-3.4558 <s> DIAMETRIC 0.0000
-3.4558 <s> DIMENSION 0.0000
-3.4558 <s> DINO 0.0000
-3.4558 <s> DINO-ALIEN 0.0000
-3.4558 <s> DINO-BEAST 0.0000
-3.4558 <s> DINO-BOT 0.0000
-3.4558 <s> DINO-FIEND 0.0000
-3.4558 <s> DINO-KNIGHT 0.0000
-3.4558 <s> DINO-THIEF 0.0000
-3.4558 <s> DINOSAURS 0.0000
-3.4558 <s> DIPLO-MACY 0.0000
-3.1547 <s> DIPLOMAT 0.0000
-3.4558 <s> DIRECTOR 0.0000
-3.1547 <s> DIS -0.2341
-3.4558 <s> DISCIPLE 0.0000
-3.4558 <s> DISCOMBOBULATOR 0.0000
-3.4558 <s> DISRUPTION 0.0000
-3.4558 <s> DIVE 0.0000
-3.4558 <s> DOC 0.0000
-3.4558 <s> DOCTOR 0.0000
-3.4558 <s> DODGER 0.0000
-3.4558 <s> DOMINATOR -0.1761
-3.4558 <s> DOOM -0.2430
-3.4558 <s> DOORSTEP 0.0000
-3.4558 <s> DOUBLE 0.0000
-2.9786 <s> DR 0.0000
-3.4558 <s> DRACO 0.0000
-3.4558 <s> DRAINING 0.0000
-3.4558 <s> DRAWN 0.0000
-3.4558 <s> DREADBONE 0.0000
-3.4558 <s> DRECKER 0.0000
-3.4558 <s> DREDGING 0.0000
-3.4558 <s> DRUMBLE 0.0000
-3.4558 <s> DRUMMERNAUT 0.0000
-3.4558 <s> DRY 0.0000
-3.4558 <s> DUMA 0.0000
-3.4558 <s> DUSK 0.0000
-3.4558 <s> DUSKRUNNER 0.0000
-3.4558 <s> DUSKWITCH 0.0000
-3.1547 <s> DUST 0.0000
-3.4558 <s> DYSANIA 0.0000
-3.4558 <s> EARLY 0.0000
-3.4558 <s> EARTHBIND 0.0000
-3.4558 <s> EARTHSHAKER 0.0000
-3.4558 <s> EASY 0.0000
-3.4558 <s> EATER -0.1761
-3.4558 <s> ECHO 0.0000
-2.9786 <s> ECLECTIC 0.0000
-3.4558 <s> EDAI 0.0000
-3.4558 <s> EE 0.0000
-3.4558 <s> EFFERVESCENT 0.0000
-3.4558 <s> EFFIGY 0.0000
-3.4558 <s> ELDEST 0.0000
-3.4558 <s> EMBER 0.0000
-3.4558 <s> EMP 0.0000
-3.4558 <s> ENCOUNTER 0.0000
-3.4558 <s> ENLIST 0.0000
-3.4558 <s> ENSIGN 0.0000
-3.1547 <s> ENTROPIC 0.0000
-3.4558 <s> ENVY 0.0000
-3.4558 <s> EPIC 0.0000
-3.4558 <s> EQUALIZE 0.0000
-3.4558 <s> ESSENCE 0.0000
-3.4558 <s> ETANS 0.0000
-3.4558 <s> ETAROMME 0.0000
-3.4558 <s> ETHER 0.0000
-3.4558 <s> EUNOIA 0.0000
-3.4558 <s> EUREKA 0.0000
-3.4558 <s> EVASION 0.0000
-3.4558 <s> EVEN 0.0000
-3.4558 <s> EXCHANGE -0.1761
-3.4558 <s> EXHUME 0.0000
-3.4558 <s> EXILE 0.0000
-3.4558 <s> EXPERIMENTAL 0.0000
-3.4558 <s> EXPLO-ROVER 0.0000
-3.4558 <s> EXPLORATORY 0.0000
-3.4558 <s> EXPLORER 0.0000
-3.4558 <s> EXTERMINATE -0.1761
-3.4558 <s> EXTINCTION 0.0000
-3.4558 <s> EYE -0.2430
-3.4558 <s> EYEGOR 0.0000
-3.4558 <s> FANDANGLE 0.0000
-3.4558 <s> FANGHOUSE 0.0000
-3.4558 <s> FANGS 0.0000
-3.4558 <s> FANGTOOTH 0.0000
-3.4558 <s> FAUST -0.1761
-3.4558 <s> FAVOR 0.0000
-3.4558 <s> FAYGIN 0.0000
-3.4558 <s> FEAR 0.0000
-3.4558 <s> FEEDING 0.0000
-3.4558 <s> FERTILITY 0.0000
-3.4558 <s> FESTERING 0.0000
-3.4558 <s> FETCHDRONES 0.0000
-3.4558 <s> FIDGIT 0.0000
-3.4558 <s> FIFALDE 0.0000
-3.4558 <s> FIGHT 0.0000
-3.4558 <s> FILA 0.0000
-3.4558 <s> FINAL 0.0000
-3.4558 <s> FINCH 0.0000
-3.4558 <s> FINISHING 0.0000
-3.4558 <s> FIRESPITTER 0.0000
-2.9786 <s> FIRST -0.1461
-3.4558 <s> FISSION 0.0000
-3.4558 <s> FLAME-WREATHED 0.0000
-3.1547 <s> FLAMEGILL 0.0000
-3.4558 <s> FLAMETHROWER 0.0000
-3.4558 <s> FLAMEWAKE 0.0000
-3.4558 <s> FLASH 0.0000
-3.4558 <s> FLAXIA 0.0000
-3.4558 <s> FLOOMF 0.0000
-3.4558 <s> FOGBANK 0.0000
-3.4558 <s> FOGGIFY 0.0000
-3.4558 <s> FOLLOW 0.0000
-3.4558 <s> FONT 0.0000
-3.4558 <s> FOOZLE 0.0000
-3.4558 <s> FORCE 0.0000
-3.4558 <s> FORGE -0.2430
-3.4558 <s> FORGEMASTER 0.0000
-3.4558 <s> FORGING 0.0000
-3.4558 <s> FORGIVE 0.0000
-3.4558 <s> FORUM 0.0000
-3.4558 <s> FRANCIS 0.0000
-3.4558 <s> FRANCUS 0.0000
-3.4558 <s> FRANES 0.0000
-3.4558 <s> FREE 0.0000
-3.1547 <s> FREEBOOTER 0.0000
-3.4558 <s> FRIGORIFIC 0.0000
-3.4558 <s> FUGURU 0.0000
-3.4558 <s> FULL 0.0000
-3.4558 <s> FURTIVE 0.0000
-3.4558 <s> FUZZY 0.0000
-3.4558 <s> FYRE-BREATH 0.0000
-3.4558 <s> GABOS 0.0000
-3.4558 <s> GALACTIC 0.0000
-3.4558 <s> GALEATOPS 0.0000
-3.4558 <s> GAMBLING 0.0000
-3.4558 <s> GAMGEE 0.0000
-3.4558 <s> GANGER 0.0000
-3.4558 <s> GANYMEDE 0.0000
-3.4558 <s> GARCIAS 0.0000
-3.4558 <s> GARGANTES 0.0000
-3.4558 <s> GARGANTODON 0.0000
-3.4558 <s> GAS-PIPES 0.0000
-3.4558 <s> GATEKEEPER 0.0000
-3.4558 <s> GATEWAY -0.1761
-3.4558 <s> GAUNTLET 0.0000
-3.4558 <s> GEBUK 0.0000
-2.9786 <s> GENERAL 0.0000
-3.4558 <s> GENETIC 0.0000
-3.4558 <s> GHOSTFORM 0.0000
-3.4558 <s> GHOSTHAWK 0.0000
-3.4558 <s> GHOSTLY 0.0000
-3.1547 <s> GIANT -0.1249
-3.4558 <s> GIANTS -0.1761
-3.1547 <s> GILTSPINE -0.1249
-2.9786 <s> GIZELHARTS 0.0000
-3.4558 <s> GLADIODONTUS 0.0000
-3.4558 <s> GLEEFUL 0.0000
-3.4558 <s> GLIMMER 0.0000
-3.4558 <s> GLORIANAS 0.0000
-3.4558 <s> GLORIOUS 0.0000
-3.4558 <s> GLUTTONY 0.0000
-3.4558 <s> GLYXL 0.0000
-3.4558 <s> GOLD 0.0000
-3.4558 <s> GOLDEN -0.1761
-3.4558 <s> GONGOOZLE 0.0000
-3.4558 <s> GOOD 0.0000
-3.4558 <s> GORM 0.0000
-3.4558 <s> GRABBER 0.0000
-3.1547 <s> GRAND 0.0000
-3.4558 <s> GRASPING 0.0000
-3.4558 <s> GRAVELGUTS 0.0000
-3.4558 <s> GRAVID 0.0000
-3.4558 <s> GREATER 0.0000
-3.4558 <s> GREED 0.0000
-3.4558 <s> GRENADE 0.0000
-2.9786 <s> GREY -0.1461
-3.4558 <s> GRIM -0.2218
-3.4558 <s> GRIMLOCUS 0.0000
-3.4558 <s> GROGGINS 0.0000
-3.4558 <s> GROKE 0.0000
-3.4558 <s> GROKES 0.0000
-3.4558 <s> GROMMID 0.0000
-3.4558 <s> GRON 0.0000
-3.4558 <s> GRONS 0.0000
-3.4558 <s> GROUNDBREAKING 0.0000
-3.4558 <s> GROUPTHINK 0.0000
-3.4558 <s> GROVEKEEPER 0.0000
-3.4558 <s> GROWTH 0.0000
-3.4558 <s> GRUMP 0.0000
-3.4558 <s> GRUMPUS -0.1761
-3.4558 <s> GRUNT 0.0000
-3.4558 <s> GUARD 0.0000
-3.4558 <s> GUARDIAN -0.2218
-3.4558 <s> GUB 0.0000
-3.4558 <s> GUILTY 0.0000
-3.4558 <s> GUJI 0.0000
-3.4558 <s> HADRON 0.0000
-3.4558 <s> HAEDROTHS 0.0000
-3.4558 <s> HALACOR 0.0000
-3.1547 <s> HALLOWED 0.0000
-3.4558 <s> HAMMER-GRAM 0.0000
-3.1547 <s> HAND -0.1249
-3.4558 <s> HAPLESS 0.0000
-3.4558 <s> HAPSIS 0.0000
-3.4558 <s> HARBINGER -0.1761
-3.1547 <s> HARD 0.0000
-3.4558 <s> HARLAND 0.0000
-3.4558 <s> HARMONIA 0.0000
-3.4558 <s> HARMONIC 0.0000
-3.4558 <s> HARVEST 0.0000
-3.4558 <s> HASTATUS 0.0000
-3.4558 <s> HAYDEN 0.0000
-3.4558 <s> HAYYEL 0.0000
-3.4558 <s> HEADHUNTER 0.0000
-3.4558 <s> HEAL 0.0000
-3.4558 <s> HEALING 0.0000
-3.4558 <s> HEART -0.1761
-3.4558 <s> HEBE 0.0000
-3.4558 <s> HECATOMB 0.0000
-3.4558 <s> HEDONISTIC 0.0000
-3.4558 <s> HEIST 0.0000
-3.4558 <s> HELMSMAN 0.0000
-3.4558 <s> HELP 0.0000
-3.4558 <s> HELPER 0.0000
-3.4558 <s> HEXPION 0.0000
-3.4558 <s> HIDDEN 0.0000
-3.4558 <s> HIDEAWAY 0.0000
-3.4558 <s> HIGH 0.0000
-3.4558 <s> HIT 0.0000
-3.4558 <s> HOBNOBBER 0.0000
-3.4558 <s> HOBNOBBER-EVIL 0.0000
-3.4558 <s> HOCK 0.0000
-3.4558 <s> HOLD 0.0000
-3.4558 <s> HOLDFAST 0.0000
-3.4558 <s> HOLOGRAMMOPHONE 0.0000
-3.4558 <s> HONOR 0.0000
-3.4558 <s> HONORABLE 0.0000
-3.4558 <s> HONORS 0.0000
-3.4558 <s> HOOKMASTER 0.0000
-3.4558 <s> HORNSWOGGLE 0.0000
-3.1547 <s> HORRID 0.0000
-2.8537 <s> HORSEMAN 0.0000
-3.4558 <s> HUGGER-MUGGER 0.0000
-3.4558 <s> HUMANS 0.0000
-3.4558 <s> HUMBLE 0.0000
-3.4558 <s> HUNTER -0.1761
-3.4558 <s> HUNTING -0.2218
-3.4558 <s> HYDE 0.0000
-3.4558 <s> HYDROCATALOGUER 0.0000
-3.4558 <s> HYPNOBEAM 0.0000
-3.4558 <s> HYPNOTIC 0.0000
-3.4558 <s> HYSTERIA 0.0000
-3.4558 <s> HYSTRICOG 0.0000
-3.1547 <s> IGON 0.0000
-3.4558 <s> IMP-LOSION 0.0000
-2.8537 <s> IMPERIAL 0.0000
-3.4558 <s> IMPERIUM 0.0000
-3.4558 <s> IMPRINTED 0.0000
-3.4558 <s> IMPSPECTOR 0.0000
-3.4558 <s> INCUBATION 0.0000
-3.4558 <s> INFIGHTING 0.0000
-3.4558 <s> INFOMANCER 0.0000
-3.4558 <s> INFOMORPH 0.0000
-3.1547 <s> INFORMATION 0.0000
-3.4558 <s> INFURNACE 0.0000
-3.4558 <s> INGRAMS 0.0000
-3.4558 <s> INKA 0.0000
-3.4558 <s> INKY 0.0000
-3.4558 <s> INSPIRATION 0.0000
-3.4558 <s> INSTRUMENT 0.0000
-3.4558 <s> INTERDIMENSIONAL 0.0000
-3.1547 <s> INTO 0.0000
-3.4558 <s> INVASION 0.0000
-3.4558 <s> IRESTAFF 0.0000
-3.4558 <s> IRON 0.0000
-3.4558 <s> IRRADIATED 0.0000
-3.4558 <s> ISOTROPIC 0.0000
-3.4558 <s> ISS 0.0000
-3.4558 <s> ITS 0.0000
-3.4558 <s> IXXYXLI 0.0000
-3.4558 <s> J 0.0000
-3.4558 <s> JACKIE 0.0000
-3.4558 <s> JAMMER -0.1761
-3.4558 <s> JARGOGLE 0.0000
-3.4558 <s> JEHU 0.0000
-3.4558 <s> JOHN 0.0000
-3.4558 <s> JOHNNY 0.0000
-3.4558 <s> JON 0.0000
-3.4558 <s> KALOCH 0.0000
-3.4558 <s> KANGAPHANT 0.0000
-3.4558 <s> KARTANOO 0.0000
-3.4558 <s> KAUPE 0.0000
-3.4558 <s> KAUPE-EVIL 0.0000
-3.4558 <s> KELIFI 0.0000
-3.4558 <s> KERWOLLOP 0.0000
-2.7568 <s> KEY -0.1597
-3.4558 <s> KEYFORGERY 0.0000
-3.4558 <s> KEYFROG 0.0000
-3.4558 <s> KHRKHARS 0.0000
-3.4558 <s> KILIGOGS 0.0000
-3.4558 <s> KILLZORD 0.0000
-3.4558 <s> KINDRITH 0.0000
-3.4558 <s> KING 0.0000
-3.4558 <s> KIRBYS 0.0000
-3.4558 <s> KIRI 0.0000
-3.4558 <s> KNOWLEDGE -0.1761
-3.4558 <s> KNOXX 0.0000
-3.4558 <s> KNUCKLES 0.0000
-3.4558 <s> KOMPSOS 0.0000
-3.4558 <s> KRRRZZZAAAP 0.0000
-3.4558 <s> KRUMP 0.0000
-3.4558 <s> KYMOOR 0.0000
-3.4558 <s> LABWORK 0.0000
-3.1547 <s> LADY 0.0000
-3.4558 <s> LAMINDRA 0.0000
-3.4558 <s> LAPISAURUS 0.0000
-3.4558 <s> LAPISAURUS-EVIL 0.0000
-3.1547 <s> LARIE 0.0000
-3.4558 <s> LASH 0.0000
-3.4558 <s> LATERAL 0.0000
-3.4558 <s> LAVA -0.1761
-3.4558 <s> LAY 0.0000
-3.4558 <s> LCDR 0.0000
-3.4558 <s> LEGATUS 0.0000
-3.4558 <s> LEGIONS 0.0000
-3.4558 <s> LESSER 0.0000
-3.4558 <s> LETHAL 0.0000
-3.4558 <s> LETHOLOGICA 0.0000
-3.4558 <s> LIAM 0.0000
-2.7568 <s> LIBRARY 0.0000
-2.9786 <s> LIEUTENANT 0.0000
-3.4558 <s> LIFE -0.2430
-3.4558 <s> LIFEWARD 0.0000
-3.4558 <s> LIFEWEB 0.0000
-3.1547 <s> LIGHT -0.1249
-3.4558 <s> LIGHTS 0.0000
-3.1547 <s> LIGHTSMITH 0.0000
-3.4558 <s> LILITHAL 0.0000
-3.4558 <s> LION 0.0000
-3.1547 <s> LITTLE 0.0000
-3.4558 <s> LIVIA 0.0000
-3.4558 <s> LLACK 0.0000
-3.1547 <s> LOGOS 0.0000
-3.4558 <s> LOLLOP 0.0000
-3.4558 <s> LOMIR 0.0000
-3.4558 <s> LONGFUSED 0.0000
-3.1547 <s> LOOK 0.0000
-3.1547 <s> LOOT 0.0000
-3.4558 <s> LOOTER 0.0000
-3.1547 <s> LORD 0.0000
-3.4558 <s> LOST 0.0000
-3.4558 <s> LOW -0.1761
-3.4558 <s> LUCKY 0.0000
-3.4558 <s> LUMILU 0.0000
-3.4558 <s> LUPO 0.0000
-3.4558 <s> LYCO-ALIEN 0.0000
-3.4558 <s> LYCO-BOT 0.0000
-3.4558 <s> LYCO-FIEND 0.0000
-3.4558 <s> LYCO-KNIGHT 0.0000
-3.4558 <s> LYCO-SAURUS 0.0000
-3.4558 <s> LYCO-THIEF 0.0000
-3.4558 <s> MAB 0.0000
-3.4558 <s> MACIS 0.0000
-3.4558 <s> MACK 0.0000
-3.4558 <s> MAD -0.1761
-3.4558 <s> MAGDA 0.0000
-3.1547 <s> MAGISTRA 0.0000
-3.4558 <s> MAKE -0.1761
-3.4558 <s> MALEFICORN 0.0000
-3.4558 <s> MALISON 0.0000
-3.4558 <s> MALSTROM 0.0000
-3.4558 <s> MANCHEGO 0.0000
-3.4558 <s> MANTLE 0.0000
-3.4558 <s> MARK 0.0000
-3.4558 <s> MARMO 0.0000
-2.9786 <s> MARS 0.0000
-3.4558 <s> MARSHAL 0.0000
-3.1547 <s> MARTIAN 0.0000
-3.4558 <s> MARTIANS 0.0000
-3.4558 <s> MARTYRS 0.0000
-3.4558 <s> MARUCK 0.0000
-3.4558 <s> MASS 0.0000
-2.7568 <s> MASTER -0.0669
-3.4558 <s> MASTERMINDY 0.0000
-3.4558 <s> MASTERPLAN 0.0000
-3.4558 <s> MATING 0.0000
-3.4558 <s> MATTER -0.1761
-3.4558 <s> MECHABUOY 0.0000
-3.4558 <s> MEDIC 0.0000
-3.4558 <s> MEDICUS 0.0000
-2.5527 <s> MEGA 0.0000
-3.4558 <s> MEMOLITH 0.0000
-3.4558 <s> MEMORY 0.0000
-3.4558 <s> MERCY 0.0000
-3.1547 <s> MIASMA 0.0000
-3.4558 <s> MIGHT 0.0000
-2.9786 <s> MIGHTY 0.0000
-3.4558 <s> MIMIC 0.0000
-3.4558 <s> MIMICRY 0.0000
-2.9786 <s> MIND -0.0969
-3.4558 <s> MINDFIRE 0.0000
-3.4558 <s> MINDWARPER 0.0000
-3.4558 <s> MINDWORM 0.0000
-3.4558 <s> MINI 0.0000
-3.4558 <s> MISERY 0.0000
-3.4558 <s> MOBIUS 0.0000
-3.4558 <s> MOGGHUNTER 0.0000
-3.4558 <s> MOGGHUNTERS 0.0000
-3.4558 <s> MOLE 0.0000
-3.4558 <s> MOLEPHIN 0.0000
-3.4558 <s> MOLINAS 0.0000
-3.4558 <s> MOLLYMAWK 0.0000
-3.1547 <s> MONTY 0.0000
-2.7568 <s> MONUMENT 0.0000
-3.4558 <s> MOOKLING 0.0000
-3.4558 <s> MOOKLING-EVIL 0.0000
-3.4558 <s> MOONCURSER 0.0000
-3.4558 <s> MOOR 0.0000
-3.1547 <s> MOTHER 0.0000
-3.4558 <s> MOTHERGUN 0.0000
-3.4558 <s> MOTHERSHIP 0.0000
-3.4558 <s> MUG 0.0000
-3.4558 <s> MUGWUMP 0.0000
-3.4558 <s> MUNCHLING 0.0000
-3.4558 <s> MURKENS 0.0000
-3.4558 <s> MURMOOK 0.0000
-3.1547 <s> MUSHROOM 0.0000
-3.4558 <s> MUSTHIC 0.0000
-3.4558 <s> MUTAGENESIS 0.0000
-3.4558 <s> MUTAGENIC 0.0000
-3.4558 <s> MUTANT 0.0000
-2.9786 <s> MUTATION 0.0000
-3.4558 <s> MYLIOBE 0.0000
-3.4558 <s> NARP 0.0000
-3.4558 <s> NARPS 0.0000
-3.4558 <s> NATURES 0.0000
-3.4558 <s> NAVIGATOR 0.0000
-3.4558 <s> NEFFRU 0.0000
-3.4558 <s> NEPENTHE 0.0000
-3.4558 <s> NEPETA 0.0000
-3.4558 <s> NEROTAURUS 0.0000
-3.4558 <s> NERVE 0.0000
-3.4558 <s> NEURO 0.0000
-3.4558 <s> NEUTRON 0.0000
-3.4558 <s> NEW 0.0000
-3.4558 <s> NEXUS 0.0000
-2.8537 <s> NIFFLE 0.0000
-3.4558 <s> NIGHTFORGE 0.0000
-3.4558 <s> NIZAK 0.0000
-3.4558 <s> NO -0.2430
-3.4558 <s> NOCTURNAL 0.0000
-3.4558 <s> NODDY 0.0000
-3.4558 <s> NOGI 0.0000
-3.4558 <s> NONAME 0.0000
-3.4558 <s> NOT -0.1761
-3.1547 <s> NOVU 0.0000
-3.4558 <s> NUMQUID 0.0000
-3.4558 <s> NURSE 0.0000
-3.4558 <s> NYZYK 0.0000
-3.4558 <s> OATH 0.0000
-3.4558 <s> OBSERV-U-MAX 0.0000
-3.4558 <s> OBSIDIAN 0.0000
-3.4558 <s> ODD 0.0000
-3.4558 <s> ODOAC 0.0000
-3.4558 <s> OFFICERS 0.0000
-3.4558 <s> OGOPOGO 0.0000
-3.1547 <s> OL 0.0000
-2.7568 <s> OLD 0.0000
-3.4558 <s> OMNIPUS 0.0000
-2.9786 <s> ONE -0.1761
-3.1547 <s> ONE-EYED 0.0000
-3.4558 <s> ONYX 0.0000
-3.4558 <s> OPAL 0.0000
-3.4558 <s> OPERATIONS 0.0000
-3.1547 <s> OPERATIVE 0.0000
-3.4558 <s> OPPORTUNIST 0.0000
-3.4558 <s> OPPOSITION 0.0000
-3.4558 <s> OPTIO 0.0000
-3.4558 <s> ORATOR 0.0000
-3.1547 <s> ORB 0.0000
-3.4558 <s> ORBITAL 0.0000
-3.4558 <s> ORPHIEL 0.0000
-3.4558 <s> ORPHION 0.0000
-3.4558 <s> ORTANNU 0.0000
-3.4558 <s> ORTANNUS 0.0000
-3.4558 <s> OSTRACIZE 0.0000
-3.4558 <s> OUBLIETTE 0.0000
-3.4558 <s> OVERLORD 0.0000
-3.4558 <s> OVERRUN 0.0000
-3.4558 <s> OZMO 0.0000
-3.4558 <s> PAIN -0.2218
-3.4558 <s> PAINMAIL 0.0000
-3.4558 <s> PANDEMONIUM 0.0000
-3.1547 <s> PANPACA 0.0000
-3.4558 <s> PARAGUARDIAN 0.0000
-3.4558 <s> PARTICLE 0.0000
-3.4558 <s> PATRONAGE 0.0000
-3.4558 <s> PAWN 0.0000
-3.4558 <s> PEACE 0.0000
-3.4558 <s> PERILOUS 0.0000
-3.4558 <s> PERPLEXING 0.0000
-3.4558 <s> PERSISTENCE 0.0000
-3.4558 <s> PESTERGROVE 0.0000
-3.4558 <s> PESTERING 0.0000
-3.4558 <s> PHALANX 0.0000
-3.4558 <s> PHASE 0.0000
-3.4558 <s> PHILOPHOSAURUS 0.0000
-3.4558 <s> PHLOXEM -0.1761
-3.4558 <s> PHOENIX 0.0000
-3.4558 <s> PHOSPHORUS 0.0000
-3.4558 <s> PHOTIC 0.0000
-3.4558 <s> PHYLYX 0.0000
-3.1547 <s> PHYSICUS 0.0000
-3.1547 <s> PI 0.0000
-3.4558 <s> PICAROON 0.0000
-3.4558 <s> PILE 0.0000
-3.4558 <s> PINCERATOR 0.0000
-3.4558 <s> PINGLE 0.0000
-3.4558 <s> PIP -0.1761
-3.4558 <s> PIRANHA 0.0000
-3.4558 <s> PISMIRE 0.0000
-3.4558 <s> PIT -0.2218
-3.4558 <s> PITLORD 0.0000
-3.4558 <s> PLAGUE -0.1761
-3.4558 <s> PLASMA 0.0000
-3.4558 <s> PLAY 0.0000
-3.4558 <s> POCKET 0.0000
-3.4558 <s> POISON 0.0000
-3.4558 <s> POKE 0.0000
-3.4558 <s> POLTERGEIST 0.0000
-3.4558 <s> PORTALMONGER 0.0000
-3.4558 <s> POS 0.0000
-3.4558 <s> POSITRON 0.0000
-3.4558 <s> POTION 0.0000
-3.4558 <s> POUND 0.0000
-3.4558 <s> POUR-TAL 0.0000
-3.4558 <s> POWER -0.2218
-3.4558 <s> PRAEFECTUS 0.0000
-3.4558 <s> PRESCRIPTIVE 0.0000
-3.4558 <s> PRIDE 0.0000
-3.4558 <s> PRIEST -0.2218
-3.4558 <s> PRIMAL 0.0000
-3.4558 <s> PRIMUS -0.2218
-3.4558 <s> PRINCE 0.0000
-3.4558 <s> PROCLAMATION 0.0000
-2.9786 <s> PROF 0.0000
-3.1547 <s> PROFESSOR 0.0000
-3.4558 <s> PROJECT 0.0000
-3.4558 <s> PROSPECTOR 0.0000
-3.4558 <s> PROTECT -0.1761
-3.4558 <s> PROTECTRIX 0.0000
-3.4558 <s> PSIONIC 0.0000
-3.1547 <s> PSYCHIC 0.0000
-3.4558 <s> PUNCH 0.0000
-3.4558 <s> PUNCTUATED 0.0000
-3.4558 <s> PURIFIER 0.0000
-3.4558 <s> PURIFY 0.0000
-3.4558 <s> Q-MECHS 0.0000
-3.4558 <s> QINCANS 0.0000
-3.4558 <s> QUADRACORDER 0.0000
-3.4558 <s> QUANT 0.0000
-3.4558 <s> QUANTUM 0.0000
-3.4558 <s> QUESTOR 0.0000
-3.4558 <s> QUICKSAND 0.0000
-3.4558 <s> QUINTRINO 0.0000
-3.4558 <s> QUIXO 0.0000
-3.4558 <s> QUIXXLE 0.0000
-3.4558 <s> QYXXLYX 0.0000
-3.4558 <s> RAD 0.0000
-3.4558 <s> RADIANT 0.0000
-3.4558 <s> RAGNAROK 0.0000
-3.4558 <s> RAGWARG 0.0000
-3.4558 <s> RAIDING 0.0000
-3.4558 <s> RAKUZELS 0.0000
-3.4558 <s> RANDOM 0.0000
-3.4558 <s> RANSACK 0.0000
-3.4558 <s> RANSOM 0.0000
-3.4558 <s> RAPID 0.0000
-3.4558 <s> REACH 0.0000
-3.1547 <s> REAP 0.0000
-3.4558 <s> REASSEMBLING 0.0000
-3.4558 <s> REBEL 0.0000
-3.1547 <s> RECKLESS 0.0000
-3.4558 <s> RECLAIMED 0.0000
-3.1547 <s> RED -0.1249
-3.4558 <s> RED-HOT 0.0000
-3.4558 <s> REDACTED 0.0000
-3.4558 <s> REDHAND 0.0000
-3.4558 <s> REDLOCK 0.0000
-3.4558 <s> REGRETTABLE 0.0000
-3.4558 <s> REGROWTH 0.0000
-2.9786 <s> RELENTLESS 0.0000
-3.4558 <s> REMOTE 0.0000
-3.4558 <s> REPLICATOR 0.0000
-3.4558 <s> RESEARCH -0.2218
-3.4558 <s> RESEARCHER 0.0000
-3.4558 <s> RESTRINGUNTUS 0.0000
-3.4558 <s> RESURGENCE 0.0000
-3.4558 <s> REVERSE 0.0000
-3.4558 <s> RHETOR 0.0000
-3.4558 <s> RIGGED 0.0000
-3.4558 <s> RING 0.0000
-2.8537 <s> RITUAL -0.1249
-3.4558 <s> ROCK-HURLING 0.0000
-3.4558 <s> ROCKET 0.0000
-3.1547 <s> ROCKETEER 0.0000
-3.4558 <s> ROGUE 0.0000
-3.4558 <s> RONNIE 0.0000
-3.4558 <s> ROOFTOP 0.0000
-3.4558 <s> ROTGRUB 0.0000
-3.4558 <s> ROTHAIS 0.0000
-3.4558 <s> ROUND 0.0000
-3.4558 <s> ROUTINE 0.0000
-3.4558 <s> ROXADOR 0.0000
-3.4558 <s> RUINS 0.0000
-3.4558 <s> RUSTGNAWER 0.0000
-3.4558 <s> RUSTMISER 0.0000
-3.4558 <s> SABOTAGE 0.0000
-3.4558 <s> SACK 0.0000
-3.4558 <s> SACRIFICIAL 0.0000
-3.4558 <s> SACRO-ALIEN 0.0000
-3.4558 <s> SACRO-BEAST 0.0000
-3.4558 <s> SACRO-BOT 0.0000
-3.4558 <s> SACRO-FIEND 0.0000
-3.4558 <s> SACRO-SAURUS 0.0000
-3.4558 <s> SACRO-THIEF 0.0000
-2.9786 <s> SAFE 0.0000
-3.4558 <s> SAGITTARIIS 0.0000
-3.4558 <s> SAMPLE 0.0000
-3.4558 <s> SANCTUM 0.0000
-3.4558 <s> SANITATION 0.0000
-3.4558 <s> SAURARIUM 0.0000
-3.1547 <s> SAURIAN 0.0000
-3.4558 <s> SAURUS -0.1761
-3.4558 <s> SAURY 0.0000
-3.4558 <s> SAVAGE 0.0000
-3.4558 <s> SAVE 0.0000
-3.1547 <s> SCI 0.0000
-3.4558 <s> SCIENCE 0.0000
-3.4558 <s> SCIENTIFICAL 0.0000
-3.4558 <s> SCIENTISTS 0.0000
-3.4558 <s> SCOOPED 0.0000
-3.1547 <s> SCOUT 0.0000
-3.4558 <s> SCOWLY 0.0000
-3.4558 <s> SCRAMBLER 0.0000
-3.4558 <s> SCREAMING 0.0000
-3.4558 <s> SCREECHBOMB 0.0000
-3.4558 <s> SCRIVENER 0.0000
-3.4558 <s> SCYLLA 0.0000
-3.4558 <s> SCYPHOS 0.0000
-3.1547 <s> SEA 0.0000
-3.4558 <s> SEABRINGER 0.0000
-3.4558 <s> SECURI-DROID 0.0000
-3.1547 <s> SEEKER 0.0000
-3.4558 <s> SEISMO-ENTANGLER 0.0000
-3.4558 <s> SELECTIVE 0.0000
-3.4558 <s> SELF-BOLSTERING 0.0000
-3.4558 <s> SELWYN 0.0000
-2.8537 <s> SENATOR 0.0000
-3.1547 <s> SENESCHAL 0.0000
-3.4558 <s> SENSOR 0.0000
-3.4558 <s> SEQUIS 0.0000
-3.4558 <s> SERAPHIC 0.0000
-3.4558 <s> SERGEANT 0.0000
-3.4558 <s> SGS 0.0000
-3.1547 <s> SHADOW -0.1249
-3.4558 <s> SHADOWS 0.0000
-3.4558 <s> SHADOWSAURUS 0.0000
-3.4558 <s> SHAFFLES 0.0000
-2.6107 <s> SHARD 0.0000
-3.4558 <s> SHATTER 0.0000
-3.4558 <s> SHATTERED 0.0000
-3.4558 <s> SHIELD -0.1761
-3.4558 <s> SHIELD-U-LATER 0.0000
-3.4558 <s> SHIELD-U-LATER-EVIL 0.0000
-3.4558 <s> SHIFTING 0.0000
-3.4558 <s> SHOOLER 0.0000
-3.4558 <s> SHORTY 0.0000
-3.4558 <s> SHORTYS 0.0000
-3.1547 <s> SHOULDER 0.0000
-3.4558 <s> SIC 0.0000
-3.4558 <s> SIGIL -0.2430
-3.4558 <s> SIGNAL 0.0000
-3.4558 <s> SILENT 0.0000
-3.4558 <s> SILVER 0.0000
-3.4558 <s> SILVERTOOTH 0.0000
-3.4558 <s> SINDER 0.0000
-3.4558 <s> SINESTRA 0.0000
-3.4558 <s> SINK 0.0000
-2.9786 <s> SIR 0.0000
-3.4558 <s> SIREN 0.0000
-3.4558 <s> SKELETON 0.0000
-3.4558 <s> SKIPPY 0.0000
-3.4558 <s> SKIRMISHER 0.0000
-3.4558 <s> SKIXUNO 0.0000
-3.4558 <s> SKULLION 0.0000
-3.4558 <s> SKYBOOSTER 0.0000
-3.4558 <s> SKöLL 0.0000
-3.4558 <s> SLEEP 0.0000
-3.4558 <s> SLIMY 0.0000
-3.4558 <s> SLOPPY 0.0000
-3.4558 <s> SLOTH 0.0000
-3.4558 <s> SLRS 0.0000
-3.4558 <s> SMAAASH 0.0000
-3.4558 <s> SMILING 0.0000
-3.4558 <s> SMITE 0.0000
-3.4558 <s> SMITH 0.0000
-3.4558 <s> SNAG 0.0000
-3.4558 <s> SNAGLET 0.0000
-3.4558 <s> SNAGS 0.0000
-3.4558 <s> SNARETTE 0.0000
-3.4558 <s> SNEKLIFTER 0.0000
-3.4558 <s> SNIFFER 0.0000
-3.4558 <s> SNUDGE 0.0000
-3.4558 <s> SNUFFLEGATOR 0.0000
-3.4558 <s> SOBOGGS 0.0000
-3.4558 <s> SOFT 0.0000
-3.4558 <s> SOLDIERS 0.0000
-3.1547 <s> SONG 0.0000
-3.1547 <s> SOUL 0.0000
-3.4558 <s> SOULKEEPER 0.0000
-3.4558 <s> SOUND 0.0000
-3.4558 <s> SOW -0.1761
-3.4558 <s> SPANGLER 0.0000
-3.4558 <s> SPARKFIST 0.0000
-3.4558 <s> SPARTASAUR 0.0000
-3.1547 <s> SPECIAL 0.0000
-3.4558 <s> SPECTRAL 0.0000
-3.4558 <s> SPEED 0.0000
-3.4558 <s> SPIKE -0.1761
-3.4558 <s> SPLINTER 0.0000
-3.4558 <s> SPOILS 0.0000
-3.4558 <s> SPOREGORGER 0.0000
-3.4558 <s> SPOREGORGER-EVIL 0.0000
-3.4558 <s> SPYYYDER 0.0000
-3.4558 <s> SQUAWKER 0.0000
-3.1547 <s> SQUIRE 0.0000
-3.4558 <s> STAMPEDE 0.0000
-3.4558 <s> STANDARDIZED 0.0000
-3.4558 <s> STAR -0.1761
-3.1547 <s> STATIC 0.0000
-3.4558 <s> STAUNCH 0.0000
-3.4558 <s> STEALER 0.0000
-3.4558 <s> STEALTH 0.0000
-3.4558 <s> STEALTHSTER 0.0000
-3.4558 <s> STILT-KIN 0.0000
-3.4558 <s> STIR 0.0000
-3.4558 <s> STIRRING 0.0000
-3.4558 <s> STOMP 0.0000
-3.1547 <s> STORM -0.1761
-3.1547 <s> STRANGE 0.0000
-3.4558 <s> STRANGE-SHELL 0.0000
-3.4558 <s> STREKE 0.0000
-3.4558 <s> STUNNER 0.0000
-3.4558 <s> SUBDUE 0.0000
-3.4558 <s> SUBJECT 0.0000
-3.4558 <s> SUBMERSIBLE 0.0000
-3.4558 <s> SUBMERSIVE 0.0000
-2.9786 <s> SUBTLE 0.0000
-3.4558 <s> SUCCUBUS 0.0000
-3.4558 <s> SUCKER 0.0000
-3.4558 <s> SURVEY 0.0000
-3.4558 <s> SWALLOW 0.0000
-3.4558 <s> SWAP 0.0000
-3.4558 <s> SWINDLE 0.0000
-3.4558 <s> SYMON 0.0000
-3.4558 <s> T3R-35A 0.0000
-3.4558 <s> TACHYON 0.0000
-3.4558 <s> TACTICAL 0.0000
-3.1547 <s> TAKE 0.0000
-3.1547 <s> TALMAGE 0.0000
-3.4558 <s> TANIWHA 0.0000
-3.4558 <s> TANIWHA-EVIL 0.0000
-3.4558 <s> TANTADLIN 0.0000
-3.4558 <s> TAUTAU 0.0000
-3.4558 <s> TAXING 0.0000
-3.4558 <s> TE-WHEKE 0.0000
-3.4558 <s> TECHIVORE 0.0000
-3.4558 <s> TECHNO-ALIEN 0.0000
-3.4558 <s> TECHNO-BEAST 0.0000
-3.4558 <s> TECHNO-FIEND 0.0000
-3.4558 <s> TECHNO-KNIGHT 0.0000
-3.4558 <s> TECHNO-SAURUS 0.0000
-3.4558 <s> TECHNO-THIEF 0.0000
-3.4558 <s> TECHNOBABBLE 0.0000
-3.4558 <s> TELEPORTER 0.0000
-3.4558 <s> TELIGA 0.0000
-3.4558 <s> TEMPTING 0.0000
-3.4558 <s> TENDRILS 0.0000
-3.4558 <s> TENTACLID 0.0000
-3.4558 <s> TENTACUS 0.0000
-3.4558 <s> TERMS 0.0000
-3.4558 <s> TERRORDACTYL 0.0000
-3.4558 <s> TERTIATE 0.0000
-3.4558 <s> TEZMAL 0.0000
-3.4558 <s> THALASSOPHOBIA 0.0000
-1.9372 <s> THE -0.2291
-3.4558 <s> THEORY -0.2218
-3.4558 <s> THERO 0.0000
-3.4558 <s> THEY'RE 0.0000
-3.4558 <s> THIEVES 0.0000
-3.4558 <s> THIN 0.0000
-3.4558 <s> THINK 0.0000
-3.4558 <s> THORIUM 0.0000
-3.4558 <s> THREE 0.0000
-3.4558 <s> THROWING 0.0000
-3.4558 <s> THUNDERTOW 0.0000
-3.4558 <s> TIDAL 0.0000
-3.4558 <s> TIDE -0.1761
-3.4558 <s> TIMEQUAKE 0.0000
-3.4558 <s> TIMETRAVELLER 0.0000
-3.4558 <s> TIRELESS 0.0000
-2.8537 <s> TITAN 0.0000
-3.4558 <s> TOAD 0.0000
-3.4558 <s> TOCSIN 0.0000
-3.4558 <s> TOGETHER 0.0000
-3.4558 <s> TOLAS 0.0000
-3.1547 <s> TOMWA 0.0000
-3.4558 <s> TOO 0.0000
-3.4558 <s> TOTAL 0.0000
-3.4558 <s> TRADER 0.0000
-3.4558 <s> TRANSPORTER 0.0000
-3.4558 <s> TRANSPOSITION 0.0000
-3.4558 <s> TREASURE 0.0000
-3.4558 <s> TREMOR 0.0000
-3.4558 <s> TRIAL 0.0000
-3.4558 <s> TRIBUNE 0.0000
-3.4558 <s> TRIBUTE 0.0000
-3.4558 <s> TRICERIAN 0.0000
-3.4558 <s> TRICKLE-DOWN 0.0000
-3.4558 <s> TRIMBLE 0.0000
-3.4558 <s> TRIUMPH 0.0000
-3.4558 <s> TROJAN 0.0000
-3.4558 <s> TROLL 0.0000
-3.4558 <s> TROOP 0.0000
-3.4558 <s> TRUEBARU 0.0000
-3.4558 <s> TRUST 0.0000
-3.4558 <s> TUNK 0.0000
-3.4558 <s> TURNKEY 0.0000
-3.4558 <s> TWIN -0.2967
-3.4558 <s> TYXL 0.0000
-3.4558 <s> ULTRA 0.0000
-3.4558 <s> ULYQ 0.0000
-3.4558 <s> UMBRA 0.0000
-3.4558 <s> UMBRA-ALIEN 0.0000
-3.4558 <s> UMBRA-BEAST 0.0000
-3.4558 <s> UMBRA-BOT 0.0000
-3.4558 <s> UMBRA-FIEND 0.0000
-3.4558 <s> UMBRA-KNIGHT 0.0000
-3.4558 <s> UMBRA-SAURUS 0.0000
-3.4558 <s> UNCHARTED 0.0000
-3.4558 <s> UNDAGNATHUS 0.0000
-3.4558 <s> UNDAGNATHUS-EVIL 0.0000
-3.4558 <s> UNDER 0.0000
-3.4558 <s> UNGUARDED 0.0000
-3.4558 <s> UNITED 0.0000
-3.4558 <s> UNITY 0.0000
-2.9786 <s> UNIVERSAL 0.0000
-3.4558 <s> UNLOCKED 0.0000
-3.4558 <s> UNNATURAL 0.0000
-3.4558 <s> UNSUSPECTING 0.0000
-3.1547 <s> UNTAMED 0.0000
-3.4558 <s> URCHIN 0.0000
-3.1547 <s> URIEN 0.0000
-3.4558 <s> UXLYX 0.0000
-3.4558 <s> VALDR 0.0000
-3.4558 <s> VALOOCANTH 0.0000
-3.4558 <s> VANDALIZE 0.0000
-3.4558 <s> VAULTS 0.0000
-3.4558 <s> VEEMOS 0.0000
-3.4558 <s> VELUM 0.0000
-3.4558 <s> VENATOR 0.0000
-3.4558 <s> VESPILON 0.0000
-3.4558 <s> VEYLAN 0.0000
-3.4558 <s> VEZYMA 0.0000
-3.4558 <s> VIGOR 0.0000
-3.4558 <s> VINEAPPLE 0.0000
-3.4558 <s> VIRTUOUS 0.0000
-3.4558 <s> VOICE 0.0000
-3.4558 <s> WAIL 0.0000
-3.4558 <s> WAKING 0.0000
-3.4558 <s> WALK 0.0000
-3.4558 <s> WALLS -0.1761
-3.4558 <s> WAR -0.1761
-3.4558 <s> WARDRUMMER 0.0000
-3.4558 <s> WARRIORS 0.0000
-3.4558 <s> WARSONG 0.0000
-3.4558 <s> WASHED 0.0000
-3.4558 <s> WASTE 0.0000
-2.8537 <s> WAY -0.0792
-3.4558 <s> WE 0.0000
-3.4558 <s> WEASAND 0.0000
-3.4558 <s> WHIRLPOOL 0.0000
-3.4558 <s> WHISPER 0.0000
-3.4558 <s> WHISPERING 0.0000
-3.4558 <s> WHISTLING 0.0000
-3.4558 <s> WIDESPREAD 0.0000
-3.4558 <s> WIKOLIA 0.0000
-3.4558 <s> WIKOLIA-EVIL 0.0000
-2.9786 <s> WILD -0.1461
-3.4558 <s> WIPE 0.0000
-2.8537 <s> WITCH -0.0792
-3.4558 <s> WORD 0.0000
-3.4558 <s> WORLD 0.0000
-3.4558 <s> WORMHOLE -0.1761
-3.1547 <s> WRATH 0.0000
-3.4558 <s> WRETCHED 0.0000
-3.4558 <s> XANTHYX 0.0000
-3.4558 <s> XENO-BEAST 0.0000
-3.4558 <s> XENO-BOT 0.0000
-3.4558 <s> XENO-FIEND 0.0000
-3.4558 <s> XENO-KNIGHT 0.0000
-3.4558 <s> XENO-SAURUS 0.0000
-3.4558 <s> XENO-THIEF 0.0000
-3.4558 <s> XENOS 0.0000
-3.4558 <s> XENOTRAINING 0.0000
-3.4558 <s> YANTZEE 0.0000
-3.4558 <s> YO 0.0000
-3.1547 <s> YOUNGEST 0.0000
-3.4558 <s> YURK 0.0000
-3.4558 <s> YXILI 0.0000
-3.4558 <s> YXILO 0.0000
-3.4558 <s> YXILX 0.0000
-3.4558 <s> YXLYX 0.0000
-3.4558 <s> YZPHYZ 0.0000
-3.4558 <s> Z-FORCE 0.0000
-3.4558 <s> Z-PARTICLE 0.0000
-3.4558 <s> Z-RAY 0.0000
-3.4558 <s> Z-WAVE 0.0000
-3.4558 <s> ZAP 0.0000
-3.4558 <s> ZENZIZENZIZENZIC 0.0000
-3.4558 <s> ZORG 0.0000
-3.4558 <s> ZYSYSYX 0.0000
-3.4558 <s> ZYX -0.2218
-3.4558 <s> ZYZZIX 0.0000
-0.9031 A FAIR -0.1761
-0.9031 A LIFE -0.0969
-0.9031 A VIEW 0.0000
-0.9031 A VINDA 0.0000
-0.3010 ABANDON SHIP 0.0000
-0.3010 ABDUCTION </s> -0.3010
-0.3010 ABOND THE -0.2992
-0.3010 ABOUT THAT -0.1761
-0.3010 ABYSSAL ZEALOT 0.0000
-0.3010 ACADEMY TRAINING 0.0000
-0.6021 ACCESS </s> -0.3010
-0.9031 ACCESS ARCHIVES 0.0000
-0.9031 ACCESS DENIED 0.0000
-0.3010 ACCORD </s> -0.3010
-0.3010 ACTION </s> -0.3010
-0.3010 ADAPTOID </s> -0.3010
-0.3010 ADVANTAGE </s> -0.3010
-0.3010 ADVENTURER </s> -0.3010
-0.3010 AEMBERLING </s> -0.3010
-0.3010 AGAINST MANY 0.0000
-0.9031 AGENT 14 0.0000
-0.9031 AGENT FINGERS 0.0000
-0.9031 AGENT HUMAN 0.0000
-0.9031 AGENT SEPDIA 0.0000
-0.3010 AGUNG </s> -0.3010
-0.3010 AJA THE -0.2992
-0.3010 ALAKA </s> -0.3010
-0.3010 ALAKAS BREW 0.0000
-0.3010 ALERT </s> -0.3010
-0.3010 ALI </s> -0.3010
-0.7782 ALL </s> -0.3010
-0.7782 ALL TIDE -0.1761
-0.7782 ALL WIN 0.0000
-0.7782 ALLIANCE </s> -0.3010
-0.7782 ALLIANCE COUNCIL 0.0000
-0.7782 ALLIANCE PLANT 0.0000
-0.3010 ALLIES </s> -0.3010
-0.3010 ALLUSIONS OF -0.2988
-0.3010 ALMSMASTER </s> -0.3010
-0.3010 ALMSMASTER-EVIL TWIN -0.0086
-0.3010 ALTAR </s> -0.3010
-0.3010 ALTRUISTS ROSTRUM 0.0000
-0.3010 ALTUM </s> -0.3010
-0.3010 ALYS </s> -0.3010
-0.3680 AMBASSADOR </s> -0.3010
-1.1461 AMBASSADOR LIU 0.0000
-0.6990 AMBER </s> -0.3010
-1.0000 AMBER CONDUCTION 0.0000
-1.0000 AMBER IMP 0.0000
-1.0000 AMBER VAULT 0.0000
-0.3010 AMBER-VAC </s> -0.3010
-0.6021 AMBERFIN SHARK 0.0000
-0.6021 AMBERFIN SHARK-EVIL 0.0000
-0.3010 AMBERHEART </s> -0.3010
-0.3010 AMBERLUTION </s> -0.3010
-0.3010 AMBERMANCY </s> -0.3010
-0.3010 AMBERSPINE MONGREL 0.0000
-0.3010 AMBERTRACKER </s> -0.3010
-0.3010 AMBROSIUS </s> -0.3010
-0.3010 AMBROSIUS-EVIL TWIN -0.0086
-0.3010 AMMONIA CLOUDS 0.0000
-0.3010 AMPHORA CAPTURA 0.0000
-0.3010 AN ALLIANCE -0.2218
-0.3010 ANAHITA THE -0.2992
-0.3010 ANALYSIS </s> -0.3010
-0.3010 ANALYST </s> -0.3010
-0.3010 ANAPHIEL </s> -0.3010
-0.7782 ANCIENT BEAR -0.0792
-0.7782 ANCIENT POWER -0.1249
-0.7782 ANCIENT YURK 0.0000
-0.6021 AND RUN 0.0000
-0.6021 AND SWITCH 0.0000
-0.3010 ANGA </s> -0.3010
-0.3010 ANGER </s> -0.3010
-0.3010 ANGRY MOB 0.0000
-0.3010 ANGWISH </s> -0.3010
-0.3010 ANIMATOR </s> -0.3010
-0.3010 ANKYLO FORMATION 0.0000
-0.3010 ANNIHILATION RITUAL -0.2218
-0.3010 ANNOYS </s> -0.3010
-0.3010 ANOMALY EXPLOITER 0.0000
-0.3010 ANTENNA </s> -0.3010
-0.3010 ANTONY </s> -0.3010
-0.3010 ANVIL </s> -0.3010
-0.3010 APE </s> -0.3010
-0.3010 ARCHAEOLOGIST </s> -0.3010
-0.3010 ARCHIMEDES </s> -0.3010
-0.3010 ARCHIVES </s> -0.3010
-0.3010 ARCHIVIST </s> -0.3010
-0.3010 ARCHONIS </s> -0.3010
-0.7782 ARCHONS </s> -0.3010
-0.7782 ARCHONS CALLBACK 0.0000
-0.7782 ARCHONS REVENGE 0.0000
-0.3010 ARDENT HERO 0.0000
-0.3010 ARISE </s> -0.3010
-0.3010 ARMADRONE </s> -0.3010
-0.3010 ARMADRONE-EVIL TWIN -0.0086
-0.3010 ARMAGEDDON CLOAK 0.0000
-0.3010 ARMOR </s> -0.3010
-0.3010 ARMORSMITH </s> -0.3010
-0.3010 ARMORY OFFICER -0.2852
-0.3010 ARMSMASTER MOLINA 0.0000
-0.3010 ARRAY </s> -0.3010
-0.3010 ASP </s> -0.3010
-0.3010 ASSAULT </s> -0.3010
-0.3010 ASSERT DOMINANCE 0.0000
-0.3010 ATTENDANT </s> -0.3010
-0.3010 AUBADE THE -0.2973
-0.3010 AUGUR </s> -0.3010
-0.3010 AUGUR-EVIL TWIN -0.0086
-0.3010 AURA </s> -0.3010
-0.6021 AUSTERALIS </s> -0.3010
-0.6021 AUSTERALIS SEABORG 0.0000
-0.3010 AUTO-ENCODER </s> -0.3010
-0.3010 AUTO-LEGIONARY </s> -0.3010
-0.3010 AUTO-VAC 5150 0.0000
-0.3010 AUTOCANNON </s> -0.3010
-0.3010 AUTOMATA </s> -0.3010
-0.3010 AUTOMATON </s> -0.3010
-0.3010 AUXILIARY </s> -0.3010
-0.3010 AVALANCHE </s> -0.3010
-0.3010 AVENGING AURA 0.0000
-0.6021 AWAY </s> -0.3010
-0.6021 AWAY TEAM 0.0000
-0.3010 AXIOM OF -0.2988
-0.3010 BABBLE </s> -0.3010
-0.3010 BABBLING BIBLIOPHILE 0.0000
-0.7782 BACKUP </s> -0.3010
-0.7782 BACKUP COPY 0.0000
-0.7782 BACKUP PLAN 0.0000
-0.6021 BAD ALLIES 0.0000
-0.6021 BAD PENNY 0.0000
-0.3010 BADGEMAGUS </s> -0.3010
-0.3010 BAIT AND -0.1761
-0.3010 BALANCE </s> -0.3010
-0.3010 BALDRIC THE -0.2992
-0.3010 BALL </s> -0.3010
-0.3010 BALLCANO </s> -0.3010
-0.3010 BANE </s> -0.3010
-0.3010 BANGBANG </s> -0.3010
-0.3010 BANISH </s> -0.3010
-0.3010 BANK </s> -0.3010
-0.3010 BANK-EVIL TWIN -0.0086
-0.3010 BANNER OF -0.2965
-0.3010 BARB </s> -0.3010
-0.3010 BAREHANDED </s> -0.3010
-0.3010 BARN RAZING 0.0000
-0.6021 BARON </s> -0.3010
-0.6021 BARON MENGEVIN 0.0000
-0.3010 BARRISTER JOYA 0.0000
-0.3010 BATDRONE </s> -0.3010
-0.4260 BATTLE </s> -0.3010
-0.9031 BATTLE FLEET 0.0000
-0.3010 BATTLEFIELD </s> -0.3010
-0.3010 BAUBLE </s> -0.3010
-0.3010 BAUTREM </s> -0.3010
-0.3010 BEACH DAY 0.0000
-0.3010 BEAMBUCKLER </s> -0.3010
-0.3979 BEAR </s> -0.3010
-1.0000 BEAR FLUTE 0.0000
-0.3010 BEAR-EVIL TWIN -0.0086
-0.3010 BEARD </s> -0.3010
-0.3010 BEARD-EVIL TWIN -0.0086
-0.3010 BEASTS BANE 0.0000
-0.3010 BEGONE </s> -0.3010
-0.3010 BELLATORAN-WARRIOR </s> -0.3010
-0.3010 BELLOWING PATRIZATE 0.0000
-0.3010 BERINON </s> -0.3010
-0.6021 BERSERKER </s> -0.3010
-0.6021 BERSERKER SLAM 0.0000
-0.6021 BESTIARII URSO 0.0000
-0.6021 BESTIARII URSO-EVIL 0.0000
-0.3010 BEVOR </s> -0.3010
-0.3010 BEVOR-EVIL TWIN -0.0086
-0.3010 BEWARE THE -0.2992
-0.3010 BIBLIOPHILE </s> -0.3010
-0.3010 BIG ONE -0.1761
-0.3010 BIGTWIG </s> -0.3010
-0.3010 BILGEWARDEN </s> -0.3010
-0.3010 BILGUM AVALANCHE 0.0000
-0.3010 BIN </s> -0.3010
-0.6021 BINARY MORAY 0.0000
-0.6021 BINARY MORAY-EVIL 0.0000
-0.3010 BINATE RUPTURE 0.0000
-0.6021 BINDING </s> -0.3010
-0.6021 BINDING IRONS 0.0000
-0.3010 BINGLE BANGBANG 0.0000
-0.3010 BIOMATRIX BACKUP -0.2218
-0.3010 BIOME DISCOVERY 0.0000
-0.3010 BIRDS </s> -0.3010
-0.5229 BLAST </s> -0.3010
-1.0000 BLAST FROM -0.1761
-1.0000 BLAST SHIELDING 0.0000
-0.3010 BLASTER </s> -0.3010
-0.3010 BLATANT THIEVERY 0.0000
-0.3010 BLESSING </s> -0.3010
-0.3010 BLINDING LIGHT -0.2218
-0.7782 BLOOD </s> -0.3010
-0.7782 BLOOD MONEY 0.0000
-0.7782 BLOOD OF -0.2988
-0.3010 BLOODSHADOW </s> -0.3010
-0.3010 BLOODSHARD IMP 0.0000
-0.3010 BLOOM </s> -0.3010
-0.3010 BLORB </s> -0.3010
-0.3010 BLOSSOM DRAKE 0.0000
-0.3010 BLOW </s> -0.3010
-0.3010 BLYPYP </s> -0.3010
-0.3010 BO NITHING 0.0000
-0.3010 BODIES </s> -0.3010
-0.3010 BOIL </s> -0.3010
-0.3010 BOLD </s> -0.3010
-0.6021 BOLT </s> -0.3010
-0.6021 BOLT EMISSION 0.0000
-0.3010 BOLTER </s> -0.3010
-0.3010 BOLTON </s> -0.3010
-0.3010 BOMB </s> -0.3010
-0.3010 BOMBARDMENT </s> -0.3010
-0.3010 BOMBYX </s> -0.3010
-0.3010 BONEROT VENOM 0.0000
-0.3010 BONESAW </s> -0.3010
-0.3010 BOOBY TRAP 0.0000
-0.3010 BOOK OF -0.2965
-0.3010 BOOKTON </s> -0.3010
-0.3010 BOOMY </s> -0.3010
-0.3010 BOOTS </s> -0.3010
-0.3010 BORDAN THE -0.2992
-0.6021 BORR NIT 0.0000
-0.6021 BORR NITS 0.0000
-0.3010 BORROW </s> -0.3010
-0.3010 BOSS ZAREK 0.0000
-0.6021 BOT </s> -0.3010
-0.6021 BOT BOOKTON 0.0000
-0.3010 BOUNCING DEATHQUARK 0.0000
-0.3010 BOUNTY </s> -0.3010
-0.3010 BOX </s> -0.3010
-0.3010 BRABBLE </s> -0.3010
-0.3010 BRACCHANALIA </s> -0.3010
-0.3010 BRACCHUS </s> -0.3010
-0.3010 BRACHIADITUS </s> -0.3010
-0.7782 BRAIN DRAIN 0.0000
-0.7782 BRAIN EATER -0.1761
-0.7782 BRAIN STEM 0.0000
-0.3010 BRAMBLE LYNX 0.0000
-0.3010 BRAMMO </s> -0.3010
-0.3010 BREAK-KEY </s> -0.3010
-0.3010 BREAKER HILL 0.0000
-0.3010 BREND THE -0.2992
-0.3010 BREW </s> -0.3010
-0.3010 BRIAR GRUBBLING 0.0000
-0.3010 BRING LOW -0.1761
-0.6021 BROBNAR AMBASSADOR -0.0580
-0.6021 BROBNAR PLANT 0.0000
-0.3010 BROKEN DREAMS 0.0000
-0.3010 BRONZE KEY -0.2218
-0.3010 BROTHERHOOD </s> -0.3010
-0.3010 BROTHERS IN -0.2218
-0.3010 BRUNO </s> -0.3010
-0.3010 BRUTODON AUXILIARY 0.0000
-0.3010 BUBBLES </s> -0.3010
-0.3010 BUG </s> -0.3010
-0.3010 BUGGY </s> -0.3010
-0.3010 BULL-WARK </s> -0.3010
-0.3010 BULLETEYE </s> -0.3010
-0.3010 BULLETS </s> -0.3010
-0.3010 BULWARK </s> -0.3010
-0.3010 BUMBLEBIRD </s> -0.3010
-0.3010 BUMPSY </s> -0.3010
-0.3010 BUREAUCRAT </s> -0.3010
-0.3010 BURN THE -0.2992
-0.3010 BURNING GLARE 0.0000
-0.3010 BURY RICHES 0.0000
-0.3010 BUZZLE </s> -0.3010
-0.6021 BY NATURE 0.0000
-0.6021 BY WATER 0.0000
-0.3010 CADET </s> -0.3010
-0.6021 CALL </s> -0.3010
-0.9031 CALL OF -0.2378
-0.9031 CALL TO -0.2808
-0.3010 CALLBACK </s> -0.3010
-0.3010 CALLIPYGIAN IDEAL 0.0000
-0.3010 CALV-1N </s> -0.3010
-0.3010 CAMOUFLAGE </s> -0.3010
-0.3010 CAMP </s> -0.3010
-0.3010 CAN ALL -0.2218
-0.3010 CANDLE UNIT 0.0000
-0.3010 CANNON </s> -0.3010
-0.3010 CAPER </s> -0.3010
-1.0000 CAPTAIN KRESAGE 0.0000
-1.0000 CAPTAIN KRESAGE-EVIL 0.0000
-0.6990 CAPTAIN NO -0.1761
-1.0000 CAPTAIN VAL 0.0000
-0.3010 CAPTURA </s> -0.3010
-0.3010 CARD </s> -0.3010
-0.3010 CARGO </s> -0.3010
-0.3010 CARLO PHANTOM 0.0000
-0.3010 CARPE VINUM 0.0000
-0.3010 CARPET PHLOXEM -0.1761
-0.3010 CAULDRON BOIL 0.0000
-0.3010 CAUSAL LOOP 0.0000
-0.3010 CAVE </s> -0.3010
-0.3010 CAVERN </s> -0.3010
-0.3010 CEASEFORGE </s> -0.3010
-0.3010 CEMENT SHOES 0.0000
-0.6021 CENSOR PHILO 0.0000
-0.6021 CENSOR PHILO-EVIL 0.0000
-0.3010 CENSUS </s> -0.3010
-0.4771 CENTURION </s> -0.3010
-0.7782 CENTURION STENOPIUS 0.0000
-0.3010 CEPHALOIST </s> -0.3010
-0.3010 CH-337A </s> -0.3010
-0.3010 CH-337A-EVIL TWIN -0.0086
-0.6021 CHAIN </s> -0.3010
-0.6021 CHAIN GANG 0.0000
-0.3010 CHAINED </s> -0.3010
-0.3010 CHALLE THE -0.2992
-0.3010 CHALLENGE </s> -0.3010
-0.3010 CHAMBER </s> -0.3010
-0.6021 CHAMPION ANAPHIEL 0.0000
-0.6021 CHAMPION TABRIS 0.0000
-0.3010 CHAMPIONS CHALLENGE 0.0000
-0.3010 CHAN </s> -0.3010
-0.3010 CHANS BLASTER 0.0000
-0.4771 CHANT </s> -0.3010
-0.7782 CHANT OF -0.2988
-0.3010 CHAOS PORTAL 0.0000
-0.3010 CHAPMAN </s> -0.3010
-0.3010 CHAPMAN-EVIL TWIN -0.0086
-0.3010 CHARETTE </s> -0.3010
-0.3010 CHARGE </s> -0.3010
-0.3010 CHARYBDIS </s> -0.3010
-0.3010 CHELONIA </s> -0.3010
-0.3010 CHELONIA-EVIL TWIN -0.0086
-0.3010 CHENILLE </s> -0.3010
-0.3010 CHEST </s> -0.3010
-0.7782 CHIEF ENGINEER -0.2218
-0.7782 CHIEF GARCIA 0.0000
-0.7782 CHIEF TINK 0.0000
-0.3010 CHIEFTAIN </s> -0.3010
-0.3010 CHIEFTAINS BREW 0.0000
-0.3010 CHIP </s> -0.3010
-0.3010 CHONKERS </s> -0.3010
-0.4771 CHOSEN </s> -0.3010
-0.7782 CHOSEN ONE -0.1761
-0.3010 CHOTA HAZRI 0.0000
-0.3010 CHRONICLES </s> -0.3010
-0.3010 CHRONOPHAGE </s> -0.3010
-0.3010 CHRONUS </s> -0.3010
-0.3010 CHUFF APE 0.0000
-0.3010 CINCINNATUS REX 0.0000
-0.3010 CIRCUMSPECT </s> -0.3010
-0.3010 CIRCUMSPECT-EVIL TWIN -0.0086
-0.3010 CITIZEN SHRIX 0.0000
-0.3010 CITY GATES 0.0000
-0.3010 CITY-STATE INTEREST 0.0000
-0.3010 CLAIM </s> -0.3010
-0.3010 CLARIEL </s> -0.3010
-0.3010 CLARIEL-EVIL TWIN -0.0086
-0.3010 CLASH </s> -0.3010
-0.3010 CLAWDE </s> -0.3010
-0.3010 CLEANSING WAVE 0.0000
-0.6021 CLEAR </s> -0.3010
-0.6021 CLEAR MIND -0.2430
-0.3010 CLERIC </s> -0.3010
-0.3010 CLOAK </s> -0.3010
-0.3010 CLOAKING DONGLE 0.0000
-0.3010 CLOUDS </s> -0.3010
-0.3010 CODE MONKEY 0.0000
-0.3010 COIL </s> -0.3010
-0.3010 COINS </s> -0.3010
-0.3010 COLD </s> -0.3010
-0.3010 COLLAR OF -0.2988
-0.6021 COLLECTION </s> -0.3010
-0.6021 COLLECTION ARRAY 0.0000
-0.6021 COLLECTOR </s> -0.3010
-0.6021 COLLECTOR WORM 0.0000
-0.3010 COLLISION </s> -0.3010
-0.6021 COLONIST CHAPMAN 0.0000
-0.6021 COLONIST CHAPMAN-EVIL 0.0000
-0.3010 COLOSSEUM </s> -0.3010
-0.3010 COM OFFICER -0.2518
-0.3010 COMBAT PHEROMONES 0.0000
-0.3010 COME </s> -0.3010
-0.3010 COMING </s> -0.3010
-0.3010 COMMAND </s> -0.3010
-0.3010 COMMANDEER </s> -0.3010
-0.7782 COMMANDER CHAN 0.0000
-0.7782 COMMANDER DHRXGAR 0.0000
-0.7782 COMMANDER REMIEL 0.0000
-0.3010 COMMON COLD 0.0000
-0.3010 COMMPOD </s> -0.3010
-0.3010 COMMUNE </s> -0.3010
-0.3010 COMPILER </s> -0.3010
-0.3010 CONDUCTION UNIT 0.0000
-0.3010 CONJECTURE </s> -0.3010
-0.3010 CONSUL PRIMUS -0.1249
-0.3010 CONTAINMENT FIELD 0.0000
-0.3010 CONTROL THE -0.2955
-0.3010 COOPERATIVE HUNTING -0.1249
-0.3010 COPY </s> -0.3010
-0.3010 CORE </s> -0.3010
-0.3010 CORNICEN OCTAVIA 0.0000
-0.3010 CORPULENT COLLECTOR -0.1761
-0.3010 CORRODE </s> -0.3010
-0.3010 CORRUPTION </s> -0.3010
-0.3010 COUNCIL </s> -0.3010
-0.3010 COWARDS END 0.0000
-0.3010 COWFYNE </s> -0.3010
-0.3010 COWFYNES BREW 0.0000
-0.3010 CR OFFICER -0.2688
-0.3010 CRAFT </s> -0.3010
-0.3010 CRAG </s> -0.3010
-0.3010 CRASH MULDOON 0.0000
-0.3010 CRASSOSAURUS </s> -0.3010
-0.3010 CRAWLER </s> -0.3010
-0.3010 CRAZY KILLING 0.0000
-0.3010 CREED OF -0.2965
-0.3010 CREEPER </s> -0.3010
-0.3010 CREEPING OBLIVION 0.0000
-0.3010 CREWMAN JöRG 0.0000
-0.3010 CROCAG </s> -0.3010
-0.3010 CROSS PORPOISES 0.0000
-0.3010 CRUSHING CHARGE 0.0000
-0.6021 CRYSTAL HIVE 0.0000
-0.6021 CRYSTAL SURGE 0.0000
-0.3010 CULF THE -0.2973
-0.3010 CULL THE -0.2955
-0.3010 CULTIST </s> -0.3010
-0.3010 CUNNING </s> -0.3010
-0.3010 CUP OF -0.2988
-0.3010 CURATOR </s> -0.3010
-0.3010 CURIA SAURUS -0.1761
-0.3010 CURIOSITY </s> -0.3010
-0.3010 CURSE OF -0.2988
-0.3010 CUSTOM VIRUS 0.0000
-0.3010 CUSTOMS OFFICE 0.0000
-0.3010 CUTPURSE </s> -0.3010
-0.3010 CUTTHROAT RESEARCH -0.1249
-0.3010 CXO TABER 0.0000
-0.3010 CYBER-CLONE </s> -0.3010
-0.3010 CYBERGIANT RIG 0.0000
-0.3010 CYCLE </s> -0.3010
-0.3010 D1-V3 POD 0.0000
-0.3010 DAGGER </s> -0.3010
-0.3010 DAMNED </s> -0.3010
-0.3010 DAMO-ALIEN </s> -0.3010
-0.3010 DAMO-BEAST </s> -0.3010
-0.3010 DAMO-BOT </s> -0.3010
-0.3010 DAMO-KNIGHT </s> -0.3010
-0.3010 DAMO-SAURUS </s> -0.3010
-0.3010 DAMO-THIEF </s> -0.3010
-0.3010 DANCE OF -0.2965
-1.2041 DARK AMBER -0.2553
-1.2041 DARK CENTURION -0.1249
-1.2041 DARK DISCOVERY 0.0000
-1.2041 DARK FAERIE 0.0000
-1.2041 DARK HARBINGER -0.1761
-1.2041 DARK MINION 0.0000
-1.2041 DARK QUEEN -0.2218
-1.2041 DARK WAVE 0.0000
-0.3010 DARKNESS </s> -0.3010
-0.3010 DARTS </s> -0.3010
-0.3010 DATA FORGE -0.0969
-0.3010 DAUGHTER </s> -0.3010
-0.3010 DAWN </s> -0.3010
-0.3010 DAWN-EVIL TWIN -0.0086
-0.3010 DAY </s> -0.3010
-0.6021 DEAD </s> -0.3010
-0.6021 DEAD MANS 0.0000
-0.3010 DEATH </s> -0.3010
-0.3010 DEATHQUARK </s> -0.3010
-0.3010 DECADENCE </s> -0.3010
-0.3010 DECIMUS </s> -0.3010
-0.7782 DEEP </s> -0.3010
-0.7782 DEEP PRIEST -0.2218
-0.7782 DEEP PROBE 0.0000
-0.3010 DEEPWATER GRUEN 0.0000
-0.3010 DEEPWOOD DRUID 0.0000
-0.3010 DEFENDER </s> -0.3010
-0.3010 DEFENSE INITIATIVE 0.0000
-0.3010 DEIPNO SPYMASTER 0.0000
-0.3010 DELIVERY </s> -0.3010
-0.3010 DEMON </s> -0.3010
-0.3010 DEMONS BANE 0.0000
-0.3010 DEN </s> -0.3010
-0.3010 DENDRIX </s> -0.3010
-0.3010 DENIED </s> -0.3010
-0.3010 DERRIC UNIFIER 0.0000
-0.3010 DESIRE </s> -0.3010
-0.3010 DESTROY THEM 0.0000
-0.3010 DESTRUCTIVE ANALYSIS 0.0000
-0.3010 DETENTION COIL 0.0000
-0.3010 DEUSILLUS </s> -0.3010
-0.3010 DEVICE </s> -0.3010
-0.3010 DEW FAERIE 0.0000
-0.3010 DEXTRE </s> -0.3010
-0.3010 DEXUS </s> -0.3010
-0.3010 DHARNA </s> -0.3010
-0.3010 DHRXGAR </s> -0.3010
-0.3010 DIAMETRIC CHARGE 0.0000
-0.3010 DICE </s> -0.3010
-0.3010 DIDNT </s> -0.3010
-0.3010 DIMENSION DOOR 0.0000
-0.3010 DINO YOU -0.1761
-0.3010 DINO-ALIEN </s> -0.3010
-0.3010 DINO-BEAST </s> -0.3010
-0.3010 DINO-BOT </s> -0.3010
-0.3010 DINO-FIEND </s> -0.3010
-0.3010 DINO-KNIGHT </s> -0.3010
-0.3010 DINO-THIEF </s> -0.3010
-0.3010 DINOSAUR HUNTER -0.1761
-0.3010 DINOSAURS BANE 0.0000
-0.3010 DIPLO-MACY </s> -0.3010
-0.6021 DIPLOMAT </s> -0.3010
-0.6021 DIPLOMAT AGUNG 0.0000
-0.3010 DIRECTOR OF -0.2988
-0.4472 DIS </s> -0.3010
-1.1461 DIS AMBASSADOR -0.0580
-1.1461 DIS PLANT 0.0000
-0.3010 DISCIPLE </s> -0.3010
-0.3010 DISCOMBOBULATOR </s> -0.3010
-0.3010 DISCORD </s> -0.3010
-0.3010 DISCOVERY </s> -0.3010
-0.3010 DISGUISE </s> -0.3010
-0.3010 DISINTEGRATOR </s> -0.3010
-0.3010 DISRUPTION FIELD 0.0000
-0.3010 DISTRACTION </s> -0.3010
-0.3010 DIVE DEEP -0.2218
-0.3010 DOC BOOKTON 0.0000
-0.3010 DOCTOR DRISCOLL 0.0000
-0.3010 DODGER </s> -0.3010
-0.3010 DOLL </s> -0.3010
-0.3010 DOMINANCE </s> -0.3010
-0.6021 DOMINATOR </s> -0.3010
-0.6021 DOMINATOR BAUBLE 0.0000
-0.3010 DONGLE </s> -0.3010
-0.4260 DOOM </s> -0.3010
-0.9031 DOOM SIGIL -0.0969
-0.3010 DOOR </s> -0.3010
-0.3010 DOORSTEP TO -0.2808
-0.3010 DOUBLE DOOM -0.0969
-0.3010 DOWN </s> -0.3010
-0.7782 DR ESCOTERA 0.0000
-0.7782 DR MILLI 0.0000
-0.7782 DR VEROKTER 0.0000
-0.3010 DRACO PRAECO 0.0000
-0.3010 DRAGON </s> -0.3010
-0.3010 DRAIN </s> -0.3010
-0.3010 DRAINING TOUCH 0.0000
-0.3010 DRAKE </s> -0.3010
-0.3010 DRAWN DOWN 0.0000
-0.3010 DREADBONE DECIMUS 0.0000
-0.3010 DREAMS </s> -0.3010
-0.3010 DRECKER </s> -0.3010
-0.3010 DREDGING DRUID 0.0000
-0.3010 DRIFT </s> -0.3010
-0.3010 DRISCOLL </s> -0.3010
-0.3010 DRUID </s> -0.3010
-0.3010 DRUMBLE </s> -0.3010
-0.3010 DRUMMERNAUT </s> -0.3010
-0.3010 DRY THE -0.2992
-0.3010 DUMA THE -0.2992
-0.3010 DUSK CHRONICLES 0.0000
-0.3010 DUSKRUNNER </s> -0.3010
-0.3010 DUSKWITCH </s> -0.3010
-0.6021 DUST IMP 0.0000
-0.6021 DUST PIXIE 0.0000
-0.3010 DUX </s> -0.3010
-0.3010 DYNAMO </s> -0.3010
-0.3010 DYSANIA </s> -0.3010
-0.3010 EARLY BIRDS 0.0000
-0.3010 EARTHBIND </s> -0.3010
-0.3010 EARTHSHAKER </s> -0.3010
-0.3010 EASY MARKS 0.0000
-0.6021 EATER </s> -0.3010
-0.6021 EATER OF -0.2378
-0.3010 ECHO PEARL 0.0000
-0.7782 ECLECTIC AMBROSIUS 0.0000
-0.7782 ECLECTIC AMBROSIUS-EVIL 0.0000
-0.7782 ECLECTIC INQUIRY 0.0000
-0.3010 ECLIPSE </s> -0.3010
-0.3010 ECONOMIST </s> -0.3010
-0.3010 EDAI EDIE 0.0000
-0.3010 EDIE 4X4 0.0000
-0.3010 EE ON 0.0000
-0.3010 EFFERVESCENT PRINCIPLE 0.0000
-0.3010 EFFIGY OF -0.2988
-0.3010 EGAD </s> -0.3010
-0.3010 EGAD-EVIL TWIN -0.0086
-0.3010 EGG </s> -0.3010
-0.3010 EL-SAMRA </s> -0.3010
-0.3010 ELDER </s> -0.3010
-0.3010 ELDEST BEAR -0.0792
-0.3010 EMBER IMP 0.0000
-0.3010 EMERITUS KERING 0.0000
-0.3010 EMISSION </s> -0.3010
-0.3010 EMITTER </s> -0.3010
-0.3010 EMP BLAST -0.1461
-0.3010 ENCOUNTER SUIT 0.0000
-0.3010 END </s> -0.3010
-0.3010 ENFORCER </s> -0.3010
-0.3010 ENFORCER-EVIL TWIN -0.0086
-0.4771 ENGINEER </s> -0.3010
-0.7782 ENGINEER WALLS -0.1761
-0.3010 ENLIST NUMERI 0.0000
-0.3010 ENSIGN EL-SAMRA 0.0000
-0.6021 ENTROPIC MANIPULATOR 0.0000
-0.6021 ENTROPIC SWIRL 0.0000
-0.3010 ENVY </s> -0.3010
-0.3010 EPIC QUEST 0.0000
-0.3010 EQUALIZE </s> -0.3010
-0.3010 EQUILIBRIUM </s> -0.3010
-0.3010 ESCOTERA </s> -0.3010
-0.3010 ESPION </s> -0.3010
-0.3010 ESPION-EVIL TWIN -0.0086
-0.3010 ESSENCE SCALE 0.0000
-0.3010 ETANS JAR 0.0000
-0.3010 ETAROMME </s> -0.3010
-0.3010 ETHER SPIDER 0.0000
-0.3010 EUNOIA </s> -0.3010
-0.3010 EUREKA </s> -0.3010
-0.3010 EVASION SIGIL -0.0969
-0.3010 EVEN IVAN 0.0000
-0.3010 EVERLASTING </s> -0.3010
-0.3010 EVERYWHERE </s> -0.3010
-0.3010 EVIL EYE -0.0969
-0.3010 EVOLUTION </s> -0.3010
-0.3010 EWER </s> -0.3010
-0.6021 EXCHANGE </s> -0.3010
-0.6021 EXCHANGE OFFICER -0.2852
-0.3010 EXHUME </s> -0.3010
-0.3010 EXILE </s> -0.3010
-0.3010 EXPERIMENTAL THERAPY 0.0000
-0.3010 EXPERIMENTATION </s> -0.3010
-0.3010 EXPLO-ROVER </s> -0.3010
-0.3010 EXPLOIT </s> -0.3010
-0.3010 EXPLOITER </s> -0.3010
-0.3010 EXPLORATORY CRAFT 0.0000
-0.3010 EXPLORER </s> -0.3010
-0.6021 EXTERMINATE </s> -0.3010
-0.6021 EXTERMINATE EXTERMINATE -0.1761
-0.3010 EXTINCTION </s> -0.3010
-0.4260 EYE </s> -0.3010
-0.9031 EYE OF -0.2988
-0.3010 EYEGOR </s> -0.3010
-0.3010 FAERIE </s> -0.3010
-0.6021 FAIR </s> -0.3010
-0.6021 FAIR GAME 0.0000
-0.3010 FAMINE </s> -0.3010
-0.3010 FANATIC </s> -0.3010
-0.3010 FANDANGLE </s> -0.3010
-0.3010 FANGHOUSE </s> -0.3010
-0.3010 FANGS OF -0.2988
-0.3010 FANGTOOTH CAVERN 0.0000
-0.3010 FATES </s> -0.3010
-0.3010 FATHER </s> -0.3010
-0.6021 FAUST </s> -0.3010
-0.6021 FAUST THE -0.2992
-0.3010 FAVIAN </s> -0.3010
-0.3010 FAVOR OF -0.2988
-0.3010 FAYE </s> -0.3010
-0.3010 FAYE-EVIL TWIN -0.0086
-0.3010 FAYGIN </s> -0.3010
-0.3010 FEAR </s> -0.3010
-0.3010 FEATHERED SHAMAN 0.0000
-0.3010 FEEDING PIT -0.1249
-0.3010 FELIX </s> -0.3010
-0.3010 FELIX-EVIL TWIN -0.0086
-0.3010 FENCE </s> -0.3010
-0.3010 FERTILITY CHANT -0.1249
-0.3010 FESTERING TOUCH 0.0000
