Language model created by QuickLM on Sat Nov 19 11:41:10 EST 2022
Copyright (c) 1996-2010 Carnegie Mellon University and Alexander I. Rudnicky

The model is in standard ARPA format, designed by Doug Paul while he was at MITRE.

The code that was used to produce this language model is available in Open Source.
Please visit http://www.speech.cs.cmu.edu/tools/ for more information

The (fixed) discount mass is 0.5. The backoffs are computed using the ratio method.
This model based on a corpus of 1668 sentences and 2290 words

\data\
ngram 1=2290
ngram 2=4284
ngram 3=3290

\1-grams:
-4.1273 1 -0.2433
-4.1273 14 -0.2433
-4.1273 1N -0.2433
-4.1273 2 -0.2433
-4.1273 24 -0.2433
-4.1273 3 -0.2433
-4.1273 337A -0.2433
-4.1273 337A-EVIL -0.2994
-4.1273 346E -0.2433
-4.1273 35A -0.2433
-4.1273 4X4 -0.2433
-4.1273 5150 -0.2433
-4.1273 5C077 -0.2433
-4.1273 5C077-EVIL -0.2994
-4.1273 9001 -0.2433
-0.9051 </s> -0.3010
-0.9051 <s> -0.2280
-3.5252 A -0.3007
-4.1273 ABANDON -0.3010
-4.1273 ABBESS -0.2433
-3.8263 ABDUCTION -0.2433
-4.1273 ABOND -0.2965
-4.1273 ABOUT -0.3010
-4.1273 ABSOLVE -0.2433
-3.8263 ABYSSAL -0.3009
-4.1273 ACADEMY -0.3010
-3.5252 ACCESS -0.2433
-4.1273 ACCORD -0.2433
-3.8263 ACTION -0.2433
-4.1273 ADAPTOID -0.2433
-4.1273 ADULT -0.3010
-4.1273 ADVANTAGE -0.2433
-4.1273 ADVENTURER -0.2433
-4.1273 AEDILE -0.3010
-4.1273 AEMBER -0.3010
-4.1273 AEMBERLING -0.2433
-4.1273 AEMBITRAGE -0.2433
-4.1273 AEMBROSIA -0.3008
-3.5252 AERONAUT -0.2433
-4.1273 AGAINST -0.3009
-3.5252 AGENT -0.3009
-4.1273 AGUNG -0.2433
-4.1273 AIRLOCK -0.2433
-4.1273 AJA -0.2965
-3.8263 ALAKA -0.2433
-4.1273 ALAKAS -0.3008
-4.1273 ALERT -0.2433
-4.1273 ALI -0.2433
-3.3491 ALIEN -0.2433
-3.6502 ALL -0.2432
-3.6502 ALLIANCE -0.2430
-4.1273 ALLIES -0.2433
-4.1273 ALLUSIONS -0.2976
-4.1273 ALMSMASTER -0.2433
-4.1273 ALMSMASTER-EVIL -0.2994
-4.1273 ALTAR -0.2433
-4.1273 ALTRUISTS -0.3010
-4.1273 ALTUM -0.2433
-4.1273 ALYS -0.2433
-3.2822 AMBASSADOR -0.2433
-3.3491 AMBER -0.2428
-3.8263 AMBERFIN -0.3009
-4.1273 AMBERHEART -0.2433
-4.1273 AMBERLUTION -0.2433
-4.1273 AMBERMANCY -0.2433
-4.1273 AMBERSPINE -0.3010
-4.1273 AMBERTRACKER -0.2433
-4.1273 AMBROSIUS -0.2433
-4.1273 AMBROSIUS-EVIL -0.2994
-4.1273 AMMONIA -0.3010
-4.1273 AMPHORA -0.3010
-4.1273 AN -0.3009
-4.1273 ANAHITA -0.2965
-3.8263 ANALYSIS -0.2433
-4.1273 ANALYST -0.2433
-4.1273 ANAPHIEL -0.2433
-3.5252 ANCIENT -0.3006
-3.5252 AND -0.3009
-4.1273 ANGA -0.2433
-4.1273 ANGER -0.2433
-4.1273 ANGRY -0.3010
-4.1273 ANGWISH -0.2433
-4.1273 ANIMATION -0.2433
-4.1273 ANIMATOR -0.2433
-4.1273 ANKYLO -0.3010
-4.1273 ANNIHILATION -0.3008
-4.1273 ANNOYS -0.2433
-4.1273 ANOMALY -0.3010
-4.1273 ANTENNA -0.2433
-4.1273 ANTIQUITIES -0.3010
-4.1273 ANTONY -0.2433
-4.1273 ANVIL -0.2433
-3.8263 APE -0.2433
-4.1273 APPRECIATION -0.2433
-4.1273 AQUILIA -0.3010
-4.1273 ARCANE -0.2433
-4.1273 ARCHAEOLOGIST -0.2433
-4.1273 ARCHIMEDES -0.2433
-4.1273 ARCHIVES -0.2433
-3.8263 ARCHIVIST -0.2433
-4.1273 ARCHONIS -0.2433
-3.6502 ARCHONS -0.2433
-4.1273 ARDENT -0.3010
-4.1273 ARHI -0.3010
-4.1273 ARISE -0.2433
-4.1273 ARISTOTLMIMUS -0.2433
-4.1273 ARM -0.2965
-4.1273 ARMADRONE -0.2433
-4.1273 ARMADRONE-EVIL -0.2994
-4.1273 ARMAGEDDON -0.3010
-3.6502 ARMOR -0.2433
-4.1273 ARMORSMITH -0.2433
-4.1273 ARMORY -0.3006
-4.1273 ARMSMASTER -0.3010
-4.1273 ARRAY -0.2433
-4.1273 ASP -0.2433
-4.1273 ASSAULT -0.2433
-4.1273 ASSERT -0.3010
-4.1273 ATOON -0.2433
-4.1273 ATTENDANT -0.2433
-4.1273 AUBADE -0.2965
-4.1273 AUCTION -0.3010
-4.1273 AUGUR -0.2433
-4.1273 AUGUR-EVIL -0.2994
-3.8263 AURA -0.2433
-3.8263 AUSTERALIS -0.2433
-3.6502 AUTO -0.3008
-4.1273 AUTOCANNON -0.2433
-4.1273 AUTOMATA -0.2433
-4.1273 AUTOMATON -0.2433
-4.1273 AUXILIARY -0.2433
-4.1273 AVALANCHE -0.2433
-4.1273 AVENGING -0.3010
-4.1273 AVID -0.3010
-3.8263 AWAY -0.2433
-4.1273 AXE -0.3008
-4.1273 AXIOM -0.2976
-4.1273 AZURE -0.3010
-4.1273 B0 -0.3010
-4.1273 BABBLE -0.2433
-4.1273 BABBLING -0.3010
-3.6502 BACKUP -0.2433
-3.8263 BAD -0.3009
-4.1273 BADGE -0.2976
-4.1273 BADGEMAGUS -0.2433
-4.1273 BAIT -0.3009
-4.1273 BALANCE -0.2433
-4.1273 BALDRIC -0.2965
-4.1273 BALL -0.2433
-4.1273 BALLCANO -0.2433
-4.1273 BALLISTEGO -0.2433
-3.2822 BANE -0.2433
-4.1273 BANGBANG -0.2433
-4.1273 BANISH -0.2433
-4.1273 BANK -0.2433
-4.1273 BANK-EVIL -0.2994
-3.8263 BANNER -0.2394
-4.1273 BARB -0.2433
-4.1273 BAREHANDED -0.2433
-4.1273 BARN -0.3010
-3.8263 BARON -0.2433
-4.1273 BARRISTER -0.3010
-4.1273 BASIN -0.3008
-4.1273 BATARIEL -0.2976
-4.1273 BATDRONE -0.2433
-3.5252 BATTLE -0.2433
-4.1273 BATTLEFIELD -0.2433
-4.1273 BATTLEGROUND -0.2433
-4.1273 BATTLEVANGELIST -0.2433
-4.1273 BAUBLE -0.2433
-4.1273 BAUTREM -0.2433
-4.1273 BEACH -0.3010
-4.1273 BEAMBUCKLER -0.2433
-3.4283 BEAR -0.2433
-4.1273 BEAR-EVIL -0.2994
-4.1273 BEARD -0.2433
-4.1273 BEARD-EVIL -0.2994
-3.3491 BEAST -0.2433
-4.1273 BEASTS -0.3008
-4.1273 BEFUDDLE -0.2433
-4.1273 BEGONE -0.2433
-4.1273 BELLATORAN -0.3010
-4.1273 BELLIGERENT -0.3010
-4.1273 BELLOWING -0.3010
-4.1273 BENEVOLENT -0.2433
-4.1273 BERINON -0.2433
-3.8263 BERSERKER -0.2433
-3.8263 BESTIARII -0.3010
-4.1273 BEVOR -0.2433
-4.1273 BEVOR-EVIL -0.2994
-4.1273 BEWARE -0.2965
-4.1273 BIBLIOPHILE -0.2433
-3.8263 BIG -0.3007
-4.1273 BIGTWIG -0.2433
-4.1273 BILGEWARDEN -0.2433
-4.1273 BILGUM -0.3010
-4.1273 BIN -0.2433
-3.8263 BINARY -0.3010
-4.1273 BINATE -0.3010
-3.8263 BINDING -0.2433
-4.1273 BINGLE -0.3010
-4.1273 BIOMATRIX -0.3009
-4.1273 BIOME -0.3009
-4.1273 BIRDS -0.2433
-4.1273 BLACKSMITH -0.2433
-4.1273 BLADE -0.2433
-3.2822 BLAST -0.2432
-3.0481 BLASTER -0.2433
-4.1273 BLATANT -0.3010
-4.1273 BLESSING -0.2433
-4.1273 BLINDING -0.3009
-3.5252 BLOOD -0.2394
-4.1273 BLOODSHADOW -0.2433
-4.1273 BLOODSHARD -0.3008
-4.1273 BLOOM -0.2433
-3.8263 BLORB -0.2433
-4.1273 BLOSSOM -0.3010
-3.8263 BLOW -0.2433
-4.1273 BLYPYP -0.2433
-4.1273 BO -0.3010
-4.1273 BODIES -0.2433
-4.1273 BOIL -0.2433
-4.1273 BOLD -0.2433
-4.1273 BOLSTERING -0.3010
-3.8263 BOLT -0.2433
-4.1273 BOLTER -0.2433
-4.1273 BOLTON -0.2433
-4.1273 BOMB -0.2433
-4.1273 BOMBARDMENT -0.2433
-4.1273 BOMBYX -0.2433
-4.1273 BONEROT -0.3010
-4.1273 BONESAW -0.2433
-4.1273 BOOBY -0.3009
-3.8263 BOOK -0.2976
-3.8263 BOOKTON -0.2433
-4.1273 BOOMY -0.2433
-4.1273 BOOSTER -0.2433
-4.1273 BOOTS -0.2433
-4.1273 BORDAN -0.2965
-4.1273 BOREN -0.2433
-4.1273 BORKA -0.3010
-3.8263 BORR -0.3010
-4.1273 BORROW -0.2433
-4.1273 BOSS -0.3010
-3.2242 BOT -0.2433
-4.1273 BOUNCING -0.3010
-4.1273 BOUNTY -0.2433
-4.1273 BOX -0.2433
-4.1273 BRABBLE -0.2433
-4.1273 BRACCHANALIA -0.2433
-4.1273 BRACCHUS -0.2433
-4.1273 BRACHIADITUS -0.2433
-4.1273 BRACKISH -0.3010
-3.6502 BRAIN -0.3009
-4.1273 BRAINDART -0.2433
-4.1273 BRAMBLE -0.3010
-4.1273 BRAMMO -0.2433
-4.1273 BRAWL -0.3009
-4.1273 BREAK -0.3007
-4.1273 BREAKER -0.3010
-4.1273 BREATH -0.2433
-4.1273 BREND -0.2965
-3.2242 BREW -0.2433
-4.1273 BRIAR -0.3010
-4.1273 BRIKK -0.3010
-4.1273 BRING -0.3010
-3.8263 BROBNAR -0.3006
-3.8263 BROKEN -0.3010
-4.1273 BRONZE -0.3007
-4.1273 BROTHERHOOD -0.2433
-4.1273 BROTHERS -0.3009
-4.1273 BRUNO -0.2433
-3.8263 BRUTODON -0.2433
-4.1273 BRYOZOARCH -0.2433
-4.1273 BUBBLES -0.2433
-4.1273 BUG -0.2433
-3.5252 BUGGY -0.2433
-4.1273 BULL -0.3010
-4.1273 BULLETEYE -0.2433
-4.1273 BULLETS -0.2433
-4.1273 BULWARK -0.2433
-4.1273 BUMBLEBIRD -0.2433
-4.1273 BUMPSY -0.2433
-4.1273 BUREAUCRAT -0.2433
-4.1273 BURN -0.2965
-4.1273 BURNING -0.3010
-4.1273 BURY -0.3010
-4.1273 BUYOUT -0.2433
-4.1273 BUZZLE -0.2433
-3.8263 BY -0.3009
-3.8263 CADET -0.2433
-3.5252 CALL -0.2389
-4.1273 CALLBACK -0.2433
-4.1273 CALLIPYGIAN -0.3010
-4.1273 CALV -0.3010
-4.1273 CAMARADERIE -0.2433
-4.1273 CAMOUFLAGE -0.2433
-4.1273 CAMP -0.2433
-4.1273 CAN -0.3009
-4.1273 CANDLE -0.3010
-3.8263 CANNON -0.2433
-4.1273 CAPER -0.2433
-3.3491 CAPTAIN -0.2431
-4.1273 CAPTURA -0.2433
-4.1273 CARD -0.2433
-4.1273 CARGO -0.2433
-4.1273 CARLO -0.3010
-4.1273 CARPE -0.3010
-4.1273 CARPET -0.3010
-4.1273 CATCH -0.3009
-4.1273 CAULDRON -0.3010
-4.1273 CAUSAL -0.3010
-4.1273 CAVE -0.2433
-3.8263 CAVERN -0.2433
-4.1273 CEASEFORGE -0.2433
-4.1273 CELESTIAL -0.3010
-4.1273 CEMENT -0.3010
-3.8263 CENSOR -0.3010
-4.1273 CENSUS -0.2433
-3.6502 CENTURION -0.2433
-4.1273 CEPHALOIST -0.2433
-3.8263 CH -0.3010
-3.8263 CHAIN -0.2432
-4.1273 CHAINED -0.2433
-4.1273 CHALLE -0.2965
-4.1273 CHALLENGE -0.2433
-4.1273 CHAMBER -0.2433
-3.8263 CHAMPION -0.3010
-4.1273 CHAMPIONS -0.3010
-4.1273 CHAN -0.2433
-4.1273 CHANCELLOR -0.3010
-4.1273 CHANS -0.3006
-3.6502 CHANT -0.2394
-4.1273 CHAOS -0.3010
-4.1273 CHAOSODON -0.2433
-4.1273 CHAPMAN -0.2433
-4.1273 CHAPMAN-EVIL -0.2994
-4.1273 CHARETTE -0.2433
-3.4283 CHARGE -0.2433
-4.1273 CHARYBDIS -0.2433
-4.1273 CHELONIA -0.2433
-4.1273 CHELONIA-EVIL -0.2994
-4.1273 CHENILLE -0.2433
-4.1273 CHEST -0.2433
-3.5252 CHIEF -0.3008
-3.8263 CHIEFTAIN -0.2433
-4.1273 CHIEFTAINS -0.3008
-4.1273 CHIP -0.2433
-4.1273 CHONKERS -0.2433
-3.6502 CHOSEN -0.2430
-4.1273 CHOTA -0.3010
-4.1273 CHRONICLES -0.2433
-4.1273 CHRONOPHAGE -0.2433
-4.1273 CHRONUS -0.2433
-4.1273 CHUFF -0.3010
-4.1273 CINCINNATUS -0.3009
-4.1273 CIRCUMSPECT -0.2433
-4.1273 CIRCUMSPECT-EVIL -0.2994
-4.1273 CITIZEN -0.3009
-3.8263 CITY -0.3010
-4.1273 CLAIM -0.2433
-4.1273 CLARIEL -0.2433
-4.1273 CLARIEL-EVIL -0.2994
-4.1273 CLASH -0.2433
-4.1273 CLAWDE -0.2433
-4.1273 CLEANSING -0.3009
-3.8263 CLEAR -0.2432
-4.1273 CLERIC -0.2433
-3.8263 CLOAK -0.2433
-4.1273 CLOAKING -0.3010
-3.8263 CLONE -0.2433
-4.1273 CLOSED -0.3010
-4.1273 CLOUDS -0.2433
-4.1273 CLUB -0.2433
-4.1273 CLUMSY -0.2433
-4.1273 CODE -0.3010
-4.1273 COIL -0.2433
-4.1273 COINS -0.2433
-4.1273 COLD -0.2433
-4.1273 COLLAR -0.2976
-4.1273 COLLECTING -0.2433
-3.8263 COLLECTION -0.2433
-3.6502 COLLECTOR -0.2433
-4.1273 COLLISION -0.2433
-4.1273 COLONEL -0.3010
-3.8263 COLONIST -0.3010
-4.1273 COLOSSEUM -0.2433
-3.6502 COM -0.3006
-4.1273 COMBAT -0.3010
-4.1273 COME -0.2433
-4.1273 COMING -0.2433
-3.8263 COMMAND -0.2433
-4.1273 COMMANDEER -0.2433
-3.6502 COMMANDER -0.3009
-4.1273 COMMON -0.3010
-4.1273 COMMPOD -0.2433
-4.1273 COMMUNE -0.2433
-4.1273 COMPILER -0.2433
-4.1273 CONDUCTION -0.3010
-4.1273 CONDUCTOR -0.3010
-4.1273 CONJECTURE -0.2433
-4.1273 CONSCRIPTION -0.2433
-4.1273 CONSUL -0.3009
-4.1273 CONTAINMENT -0.3009
-4.1273 CONTROL -0.2965
-4.1273 COOPERATIVE -0.3009
-4.1273 COPY -0.2433
-4.1273 CORE -0.2433
-4.1273 CORNER -0.2965
-4.1273 CORNICEN -0.3010
-4.1273 CORPULENT -0.3009
-4.1273 CORRODE -0.2433
-4.1273 CORRUPTION -0.2433
-4.1273 COST -0.2433
-4.1273 COSTS -0.2433
-3.8263 COUNCIL -0.2433
-4.1273 COVETOUS -0.3010
-4.1273 COWARDS -0.3010
-3.8263 COWFYNE -0.2433
-4.1273 COWFYNES -0.3008
-4.1273 CPO -0.3010
-3.8263 CR -0.3006
-4.1273 CRAB -0.2433
-4.1273 CRAFT -0.2433
-4.1273 CRAG -0.2433
-3.8263 CRASH -0.2433
-4.1273 CRASSOSAURUS -0.2433
-4.1273 CRAWLER -0.2433
-3.8263 CRAZY -0.2433
-3.8263 CREED -0.2976
-4.1273 CREEPER -0.2433
-4.1273 CREEPING -0.3010
-4.1273 CREWMAN -0.3010
-4.1273 CRIM -0.3010
-4.1273 CRISPUS -0.2433
-4.1273 CROCAG -0.2433
-4.1273 CROGG -0.2965
-4.1273 CROSS -0.3010
-3.8263 CRUSHING -0.3007
-3.8263 CRYSTAL -0.3009
-4.1273 CULF -0.2965
-4.1273 CULL -0.2965
-4.1273 CULTIST -0.2433
-4.1273 CULTURAL -0.3009
-4.1273 CUNNING -0.2433
-4.1273 CUP -0.2976
-4.1273 CURATOR -0.2433
-4.1273 CURIA -0.3008
-4.1273 CURIOSITY -0.2433
-4.1273 CURRENCY -0.2433
-4.1273 CURSE -0.2976
-4.1273 CURSED -0.3010
-4.1273 CUSTOM -0.3010
-4.1273 CUSTOMS -0.3010
-4.1273 CUTPURSE -0.2433
-4.1273 CUTTHROAT -0.3009
-4.1273 CXO -0.3010
-4.1273 CYBER -0.3010
-4.1273 CYBERGIANT -0.3010
-4.1273 CYCLE -0.2433
-4.1273 D1 -0.3010
-4.1273 DAGGER -0.2433
-4.1273 DAMMED -0.2433
-3.8263 DAMNED -0.2433
-3.3491 DAMO -0.2996
-4.1273 DANCE -0.2976
-3.2242 DARK -0.3002
-4.1273 DARKNESS -0.2433
-4.1273 DARTS -0.2433
-4.1273 DATA -0.3009
-4.1273 DAUGHTER -0.2433
-3.8263 DAWN -0.2433
-4.1273 DAWN-EVIL -0.2994
-4.1273 DAY -0.2433
-3.8263 DEAD -0.2433
-4.1273 DEALER -0.2433
-4.1273 DEATH -0.2433
-4.1273 DEATHQUARK -0.2433
-4.1273 DECADENCE -0.2433
-4.1273 DECIMUS -0.2433
-3.5252 DEEP -0.2432
-4.1273 DEEPWATER -0.3010
-4.1273 DEEPWOOD -0.3010
-4.1273 DEFENDER -0.2433
-4.1273 DEFENSE -0.3010
-4.1273 DEIPNO -0.3010
-4.1273 DELIVERY -0.2433
-3.8263 DEMON -0.2433
-4.1273 DEMONS -0.3008
-4.1273 DEN -0.2433
-4.1273 DENDRIX -0.2433
-4.1273 DENIED -0.2433
-4.1273 DERRIC -0.3010
-4.1273 DESIRE -0.2433
-4.1273 DESTROY -0.3010
-4.1273 DESTRUCTIVE -0.3010
-4.1273 DETENTION -0.3010
-4.1273 DEUSILLUS -0.2433
-4.1273 DEVICE -0.2433
-4.1273 DEW -0.3010
-4.1273 DEXTERUS -0.2433
-4.1273 DEXTRE -0.2433
-4.1273 DEXUS -0.2433
-4.1273 DHARNA -0.2433
-4.1273 DHRXGAR -0.2433
-4.1273 DIAMETRIC -0.3009
-4.1273 DICE -0.2433
-4.1273 DIDNT -0.2433
-4.1273 DIMENSION -0.3010
-3.2822 DINO -0.2996
-4.1273 DINOSAUR -0.3010
-4.1273 DINOSAURS -0.3008
-4.1273 DIPLO -0.3010
-3.8263 DIPLOMAT -0.2433
-4.1273 DIRECTOR -0.2976
-3.2822 DIS -0.2428
-4.1273 DISCIPLE -0.2433
-4.1273 DISCOMBOBULATOR -0.2433
-4.1273 DISCORD -0.2433
-3.6502 DISCOVERY -0.2433
-4.1273 DISGUISE -0.2433
-4.1273 DISINTEGRATOR -0.2433
-4.1273 DISRUPTION -0.3009
-4.1273 DISTRACTION -0.2433
-4.1273 DIVE -0.3009
-4.1273 DOC -0.3010
-4.1273 DOCTOR -0.3010
-4.1273 DODGER -0.2433
-4.1273 DOLL -0.2433
-4.1273 DOMINANCE -0.2433
-3.8263 DOMINATOR -0.2433
-4.1273 DONATIONS -0.2433
-4.1273 DONGLE -0.2433
-3.5252 DOOM -0.2432
-3.8263 DOOR -0.2433
-4.1273 DOORSTEP -0.3006
-4.1273 DORY -0.2433
-4.1273 DOUBLE -0.3009
-3.8263 DOWN -0.2432
-3.6502 DR -0.3009
-4.1273 DRACO -0.3010
-4.1273 DRAGNET -0.2433
-4.1273 DRAGON -0.2433
-4.1273 DRAIN -0.2433
-4.1273 DRAINING -0.3009
-4.1273 DRAKE -0.2433
-4.1273 DRAWN -0.3010
-4.1273 DREADBONE -0.3010
-4.1273 DREAMS -0.2433
-4.1273 DRECKER -0.2433
-4.1273 DREDGING -0.3010
-4.1273 DRIFT -0.2433
-4.1273 DRISCOLL -0.2433
-4.1273 DRIVE -0.2433
-4.1273 DROID -0.2433
-3.8263 DRUID -0.2433
-4.1273 DRUMBLE -0.2433
-4.1273 DRUMMERNAUT -0.2433
-4.1273 DRUSILLA -0.2433
-4.1273 DRY -0.2965
-4.1273 DTHOSHRA -0.3010
-3.8263 DUMA -0.2382
-4.1273 DUSK -0.3010
-4.1273 DUSKRUNNER -0.2433
-4.1273 DUSKWITCH -0.2433
-3.8263 DUST -0.3007
-4.1273 DUX -0.2433
-4.1273 DYNAMO -0.2433
-4.1273 DYSANIA -0.2433
-4.1273 EARLY -0.3010
-4.1273 EARTHBIND -0.2433
-4.1273 EARTHSHAKER -0.2433
-4.1273 EASY -0.3010
-3.8263 EATER -0.2394
-3.8263 ECHO -0.3010
-3.6502 ECLECTIC -0.3009
-4.1273 ECLIPSE -0.2433
-4.1273 ECONOMIST -0.2433
-4.1273 EDAI -0.3010
-4.1273 EDICT -0.2976
-4.1273 EDIE -0.3010
-4.1273 EE -0.3010
-4.1273 EFFERVESCENT -0.3010
-4.1273 EFFIGY -0.2976
-4.1273 EGAD -0.2433
-4.1273 EGAD-EVIL -0.2994
-4.1273 EGG -0.2433
-4.1273 EKWIRRE -0.2433
-4.1273 EL -0.3010
-4.1273 ELDER -0.2433
-4.1273 ELDEST -0.3009
-4.1273 ELECTION -0.2433
-4.1273 EMBER -0.3008
-4.1273 EMERITUS -0.3010
-4.1273 EMISSION -0.2433
-4.1273 EMITTER -0.2433
-4.1273 EMP -0.3008
-4.1273 ENCODER -0.2433
-4.1273 ENCOUNTER -0.3010
-3.8263 END -0.2433
-4.1273 ENDLESS -0.3010
-4.1273 ENFORCER -0.2433
-4.1273 ENFORCER-EVIL -0.2994
-3.6502 ENGINEER -0.2433
-4.1273 ENLIGHTENMENT -0.2433
-4.1273 ENLIST -0.3010
-4.1273 ENSIGN -0.3010
-4.1273 ENTANGLER -0.2433
-3.8263 ENTROPIC -0.3010
-4.1273 ENVOY -0.2976
-4.1273 ENVY -0.2433
-3.8263 EPIC -0.3010
-4.1273 EQUALIZE -0.2433
-4.1273 EQUILIBRIUM -0.2433
-4.1273 ESCOTERA -0.2433
-4.1273 ESPION -0.2433
-4.1273 ESPION-EVIL -0.2994
-4.1273 ESQUIRE -0.2433
-4.1273 ESSENCE -0.3010
-4.1273 ETANS -0.3010
-4.1273 ETAROMME -0.2433
-4.1273 ETHER -0.3010
-4.1273 EUNOIA -0.2433
-4.1273 EUREKA -0.2433
-4.1273 EVASION -0.3009
-4.1273 EVEN -0.3010
-4.1273 EVERLASTING -0.2433
-4.1273 EVERYWHERE -0.2433
-4.1273 EVIL -0.3009
-3.8263 EVOLUTION -0.2433
-4.1273 EWER -0.2433
-3.5252 EXCHANGE -0.2428
-4.1273 EXHUME -0.2433
-4.1273 EXILE -0.2433
-4.1273 EXO -0.3009
-4.1273 EXPERIMENTAL -0.3010
-4.1273 EXPERIMENTATION -0.2433
-4.1273 EXPLO -0.3010
-4.1273 EXPLOIT -0.2433
-4.1273 EXPLOITER -0.2433
-4.1273 EXPLORATORY -0.3010
-4.1273 EXPLORER -0.2433
-3.8263 EXTERMINATE -0.2433
-4.1273 EXTINCTION -0.2433
-4.1273 EXTREMATODE -0.3010
-3.5252 EYE -0.2394
-3.8263 EYED -0.3010
-4.1273 EYEGOR -0.2433
-3.8263 FAERIE -0.2433
-3.8263 FAIR -0.2433
-4.1273 FAMINE -0.2433
-4.1273 FANATIC -0.2433
-4.1273 FANDANGLE -0.2433
-4.1273 FANGHOUSE -0.2433
-4.1273 FANGS -0.2976
-4.1273 FANGTOOTH -0.3010
-4.1273 FATES -0.2433
-4.1273 FATHER -0.2433
-4.1273 FATHOM -0.3010
-3.8263 FAUST -0.2382
-4.1273 FAVIAN -0.2433
-4.1273 FAVOR -0.2976
-4.1273 FAYE -0.2433
-4.1273 FAYE-EVIL -0.2994
-4.1273 FAYGIN -0.2433
-4.1273 FEAR -0.2433
-4.1273 FEATHERED -0.3010
-4.1273 FEATS -0.2976
-4.1273 FEEDING -0.3009
-4.1273 FELIX -0.2433
-4.1273 FELIX-EVIL -0.2994
-4.1273 FENCE -0.2433
-4.1273 FERTILITY -0.3009
-4.1273 FESTERING -0.3009
-4.1273 FETCHDRONES -0.2433
-4.1273 FEW -0.2433
-4.1273 FIDDLE -0.2433
-4.1273 FIDGIT -0.2433
-3.6502 FIELD -0.2433
-3.3491 FIEND -0.2433
-4.1273 FIERCE -0.2433
-4.1273 FIFALDE -0.2433
-4.1273 FIGHT -0.2433
-4.1273 FILA -0.2965
-4.1273 FINAL -0.3010
-4.1273 FINCH -0.3010
-4.1273 FINGER -0.2433
-4.1273 FINGERS -0.2433
-4.1273 FINGERTRAP -0.2433
-4.1273 FINISHED -0.3009
-4.1273 FINISHING -0.3010
-3.8263 FIRE -0.2433
-4.1273 FIRESPITTER -0.2433
-3.4283 FIRST -0.2421
-4.1273 FISH -0.2433
-4.1273 FISHES -0.2433
-4.1273 FISSION -0.3010
-4.1273 FITTEST -0.2433
-4.1273 FIX -0.3010
-4.1273 FLAME -0.3010
-4.1273 FLAMEFIST -0.2433
-3.8263 FLAMEGILL -0.3010
-4.1273 FLAMETHROWER -0.2433
-4.1273 FLAMEWAKE -0.3010
-4.1273 FLAMEWING -0.2433
-4.1273 FLASH -0.3010
-4.1273 FLAXIA -0.2433
-4.1273 FLEA -0.3009
-4.1273 FLEET -0.2433
-4.1273 FLEX -0.2433
-4.1273 FLOOMF -0.2433
-4.1273 FLOOR -0.3010
-4.1273 FLOUNDERIGHT -0.2433
-4.1273 FLOWERS -0.2433
-4.1273 FLUTE -0.2433
-4.1273 FLUX -0.2433
-4.1273 FLYIN -0.3010
-4.1273 FOF -0.3010
-4.1273 FOGBANK -0.2433
-4.1273 FOGGIFY -0.2433
-4.1273 FOLLOW -0.2965
-4.1273 FONT -0.2976
-4.1273 FOOZLE -0.2433
-4.1273 FOR -0.3009
-3.8263 FORCE -0.3008
-4.1273 FORCED -0.3010
-4.1273 FOREST -0.2433
-3.5252 FORGE -0.2433
-4.1273 FORGEMASTER -0.3010
-4.1273 FORGET -0.2433
-4.1273 FORGING -0.3010
-4.1273 FORGIVE -0.3006
-4.1273 FORGOTTEN -0.2433
-4.1273 FORMATION -0.2433
-4.1273 FORUM -0.2976
-4.1273 FOUND -0.2433
-4.1273 FRANCIS -0.2965
-4.1273 FRANCUS -0.2433
-4.1273 FRANE -0.2433
-4.1273 FRANES -0.3006
-4.1273 FRAY -0.2433
-4.1273 FREE -0.3010
-3.8263 FREEBOOTER -0.3010
-4.1273 FREELANCER -0.2433
-4.1273 FREEZE -0.2433
-4.1273 FRENZY -0.2433
-4.1273 FRESH -0.3010
-4.1273 FRIENDLY -0.3010
-4.1273 FRIENDSHIP -0.2433
-4.1273 FRIGORIFIC -0.3010
-4.1273 FRINGES -0.2433
-3.8263 FROM -0.2965
-4.1273 FRONTIERS -0.2433
-4.1273 FROST -0.3009
-4.1273 FUGURU -0.2433
-4.1273 FULL -0.3010
-4.1273 FURTIVE -0.3010
-4.1273 FURY -0.2433
-3.8263 FUTURE -0.3009
-4.1273 FUZZY -0.3010
-4.1273 FYRE -0.3010
-4.1273 GABOON -0.2433
-4.1273 GABOS -0.3010
-4.1273 GALACTIC -0.3010
-4.1273 GALEATOPS -0.2433
-4.1273 GALLIM -0.2433
-4.1273 GAMBLING -0.3010
-4.1273 GAME -0.2433
-4.1273 GAMGEE -0.2433
-3.6502 GANG -0.2433
-3.8263 GANGER -0.3010
-3.8263 GANYMEDE -0.3007
-4.1273 GARCIA -0.2433
-4.1273 GARCIAS -0.3006
-4.1273 GARGANTES -0.3010
-4.1273 GARGANTODON -0.2433
-4.1273 GARWYNNE -0.2433
-4.1273 GARWYNNE-EVIL -0.2994
-4.1273 GAS -0.3010
-4.1273 GATEKEEPER -0.2433
-4.1273 GATES -0.2433
-3.8263 GATEWAY -0.2428
-4.1273 GAUNTLET -0.2976
-4.1273 GAZE -0.2433
-4.1273 GEBUK -0.2433
-4.1273 GED -0.3009
-4.1273 GEL -0.2433
-4.1273 GEMCOAT -0.3010
-3.5252 GENERAL -0.3009
-4.1273 GENERATOR -0.2433
-4.1273 GENEROSITY -0.2433
-4.1273 GENEROUS -0.3010
-3.8263 GENETIC -0.3008
-4.1273 GEZDRUTYO -0.2965
-4.1273 GEZRAHI -0.3010
-4.1273 GHOSTFIN -0.2433
-4.1273 GHOSTFORM -0.2433
-4.1273 GHOSTHAWK -0.2433
-4.1273 GHOSTLY -0.3009
-3.5252 GIANT -0.2432
-3.8263 GIANTS -0.2431
-4.1273 GIGANTICA -0.2433
-3.5252 GILTSPINE -0.2432
-3.8263 GIZELHART -0.2433
-3.6502 GIZELHARTS -0.3008
-4.1273 GIZMO -0.2433
-4.1273 GLADIODONTUS -0.2433
-4.1273 GLARE -0.2433
-4.1273 GLEBE -0.2433
-4.1273 GLEEFUL -0.3010
-4.1273 GLIMMER -0.2433
-4.1273 GLOOM -0.2433
-4.1273 GLORIANA -0.2433
-4.1273 GLORIANAS -0.3010
-4.1273 GLORIOUS -0.3010
-4.1273 GLORY -0.2433
-4.1273 GLOW -0.2433
-4.1273 GLOW-EVIL -0.2994
-4.1273 GLUTTONY -0.2433
-4.1273 GLYLYX -0.3010
-4.1273 GLYXL -0.3010
-4.1273 GNAWBILL -0.2433
-4.1273 GOBLIN -0.2433
-4.1273 GOLD -0.3007
-3.8263 GOLDEN -0.3009
-4.1273 GOLGOTHA -0.2433
-4.1273 GONGOOZLE -0.2433
-4.1273 GOOD -0.2976
-4.1273 GORD -0.2433
-4.1273 GORKUS -0.2433
-3.8263 GORM -0.2394
-4.1273 GORVENAL -0.2433
-4.1273 GRABBER -0.3010
-4.1273 GRAFT -0.2433
-4.1273 GRAM -0.2433
-4.1273 GRAMMARBOT -0.2433
-4.1273 GRAMMATICUS -0.3010
-3.6502 GRAND -0.3009
-4.1273 GRANDEUR -0.2433
-4.1273 GRASPING -0.3010
-4.1273 GRAVE -0.2433
-4.1273 GRAVELGUTS -0.2433
-4.1273 GRAVID -0.3010
-4.1273 GRAVITRON -0.2433
-4.1273 GRAY -0.2433
-4.1273 GREAT -0.2433
-4.1273 GREATER -0.3010
-3.8263 GREED -0.2433
-3.8263 GREEN -0.2432
-4.1273 GREKING -0.2433
-4.1273 GRENADE -0.3010
-3.2822 GREY -0.2431
-3.6502 GRIM -0.2433
-4.1273 GRIMLOCUS -0.3010
-4.1273 GRISK -0.2433
-4.1273 GROGGINS -0.2433
-3.8263 GROKE -0.2433
-4.1273 GROKES -0.3008
-4.1273 GROMMID -0.2433
-3.8263 GRON -0.3010
-4.1273 GRONDAL -0.2433
-4.1273 GRONS -0.3008
-4.1273 GROSS -0.2433
-4.1273 GROUNDBREAKING -0.3009
-4.1273 GROUNDS -0.2433
-3.8263 GROUPTHINK -0.3010
-4.1273 GROVEKEEPER -0.2433
-4.1273 GROWTH -0.3009
-4.1273 GRUBBLING -0.2433
-3.8263 GRUEN -0.2433
-4.1273 GRUMP -0.3009
-3.6502 GRUMPUS -0.2433
-3.8263 GRUNT -0.2433
-3.8263 GUARD -0.2433
-3.6502 GUARDIAN -0.2433
-4.1273 GUB -0.2433
-4.1273 GUIDE -0.2433
-4.1273 GUILTY -0.3010
-4.1273 GUJI -0.3010
-4.1273 GUN -0.2433
-4.1273 GUTHRAK -0.2433
-4.1273 HACK -0.2433
-4.1273 HADRON -0.3010
-4.1273 HAEDROTHS -0.3010
-4.1273 HALACOR -0.2433
-4.1273 HALLAFEST -0.2433
-3.8263 HALLOWED -0.3005
-4.1273 HALO -0.2976
-3.6502 HAMMER -0.2433
-3.5252 HAND -0.2393
-4.1273 HANDS -0.2433
-4.1273 HAPLESS -0.3010
-4.1273 HAPSIS -0.2433
-3.8263 HARBINGER -0.2394
-3.8263 HARD -0.3010
-4.1273 HARDER -0.3010
-4.1273 HARLAND -0.3010
-4.1273 HARM -0.2433
-4.1273 HARMAL -0.3010
-4.1273 HARMONIA -0.2433
-4.1273 HARMONIC -0.3008
-4.1273 HARUSPEX -0.2433
-4.1273 HARVEST -0.3010
-4.1273 HARVESTER -0.2433
-4.1273 HASTATUS -0.3010
-4.1273 HATE -0.2433
-4.1273 HAWKINS -0.2433
-4.1273 HAWKINS-EVIL -0.2994
-4.1273 HAYDEN -0.3010
-4.1273 HAYYEL -0.2965
-4.1273 HAZRI -0.2433
-4.1273 HEADHUNTER -0.2433
-4.1273 HEAL -0.3006
-4.1273 HEALING -0.3008
-3.8263 HEART -0.2394
-4.1273 HEARTS -0.2433
-4.1273 HEAVEN -0.2433
-4.1273 HEAVY -0.3010
-4.1273 HEBE -0.2965
-4.1273 HECATOMB -0.2433
-4.1273 HEDONISTIC -0.3010
-4.1273 HEIST -0.3010
-4.1273 HELMSMAN -0.3010
-4.1273 HELP -0.3010
-4.1273 HELPER -0.3008
-4.1273 HEMA -0.2433
-4.1273 HERD -0.2433
-4.1273 HERDER -0.2433
-3.8263 HERO -0.2433
-4.1273 HEXPION -0.2433
-4.1273 HIDDEN -0.3010
-4.1273 HIDEAWAY -0.3010
-4.1273 HIGH -0.3009
-4.1273 HILL -0.2433
-4.1273 HINGS -0.2433
-4.1273 HIRE -0.3010
-4.1273 HISSARO -0.2433
-4.1273 HISTORY -0.2433
-4.1273 HIT -0.3009
-3.8263 HIVE -0.2433
-4.1273 HOBNOBBER -0.2433
-4.1273 HOBNOBBER-EVIL -0.2994
-4.1273 HOCK -0.2433
-4.1273 HOLD -0.2965
-4.1273 HOLDFAST -0.2433
-4.1273 HOLE -0.2433
-4.1273 HOLOGRAMMOPHONE -0.2433
-4.1273 HOME -0.2433
-4.1273 HONOR -0.3006
-4.1273 HONORABLE -0.3010
-4.1273 HONORS -0.3010
-4.1273 HOOKMASTER -0.2433
-4.1273 HOOLIGANS -0.2433
-4.1273 HOPE -0.2433
-4.1273 HOPLITES -0.3010
-4.1273 HORDES -0.2433
-4.1273 HORN -0.2433
-4.1273 HORNS -0.2433
-4.1273 HORNSWOGGLE -0.2433
-3.8263 HORRID -0.3010
-3.5252 HORSEMAN -0.2976
-4.1273 HOSTAGES -0.2433
-4.1273 HOT -0.3009
-4.1273 HOUNDS -0.2433
-4.1273 HOUSE -0.2433
-4.1273 HOWLING -0.3009
-4.1273 HUBRIS -0.2433
-4.1273 HUGE -0.2433
-4.1273 HUGGER -0.3010
-4.1273 HUMAN -0.2433
-4.1273 HUMANS -0.3008
-4.1273 HUMBLE -0.2433
-4.1273 HUNT -0.2433
-4.1273 HUNTED? -0.2433
-3.8263 HUNTER -0.2429
-3.6502 HUNTING -0.2431
-4.1273 HURLING -0.3009
-4.1273 HYDE -0.2433
-4.1273 HYDROCATALOGUER -0.2433
-4.1273 HYMN -0.3006
-4.1273 HYPNOBEAM -0.2433
-4.1273 HYPNOTIC -0.3010
-4.1273 HYPOXIA -0.2433
-4.1273 HYSTERIA -0.2433
-4.1273 HYSTRICOG -0.2433
-4.1273 I -0.3010
-4.1273 ID -0.2433
-4.1273 IDEAL -0.2433
-4.1273 IDES -0.2433
-3.8263 IGON -0.2965
-4.1273 IKWIJI -0.3008
-4.1273 ILLUMINATOR -0.2433
-3.2242 IMP -0.2433
-4.1273 IMPERATOR -0.3010
-3.5252 IMPERIAL -0.3008
-4.1273 IMPERIUM -0.2433
-4.1273 IMPRINTED -0.3009
-4.1273 IMPSPECTOR -0.2433
-3.5252 IN -0.2380
-4.1273 INCONSPICUOUS -0.2433
-4.1273 INCUBATION -0.3010
-4.1273 INDOMINUS -0.2433
-4.1273 INFECTION -0.2433
-4.1273 INFIGHTING -0.2433
-4.1273 INFOMANCER -0.2433
-4.1273 INFOMORPH -0.2433
-3.8263 INFORMATION -0.3004
-4.1273 INFURNACE -0.2433
-4.1273 INGRAM -0.2433
-4.1273 INGRAMS -0.3006
-4.1273 INITIATION -0.2433
-4.1273 INITIATIVE -0.2433
-4.1273 INKA -0.2965
-4.1273 INKY -0.3010
-4.1273 INQUIRY -0.2433
-4.1273 INSIGNIFICANCE -0.2433
-4.1273 INSPIRATION -0.2433
-4.1273 INSPIRING -0.3010
-4.1273 INSTINCT -0.2433
-4.1273 INSTRUMENT -0.2976
-4.1273 INSURANCE -0.3010
-4.1273 INTENT -0.2433
-4.1273 INTERDIMENSIONAL -0.3010
-4.1273 INTEREST -0.2433
-3.6502 INTO -0.2965
-4.1273 INVADERS -0.2433
-4.1273 INVASION -0.3010
-4.1273 INVESTOR -0.2433
-4.1273 INVESTORS -0.2433
-3.8263 INVIDIUS -0.2433
-4.1273 INVISIBILITY -0.2433
-4.1273 INVULNERABILITY -0.2433
-4.1273 IRESTAFF -0.2433
-3.8263 IRON -0.3008
-4.1273 IRONS -0.2433
-3.5252 IRONYX -0.3008
-4.1273 IRRADIATED -0.3008
-3.8263 IS -0.3009
-4.1273 ISOTROPIC -0.3010
-4.1273 ISS -0.3010
-4.1273 IT -0.3010
-4.1273 ITS -0.3010
-4.1273 IVAN -0.2433
-4.1273 IXXYXLI -0.3010
-4.1273 J -0.3010
-4.1273 JACKIE -0.3010
-4.1273 JAGA -0.2433
-3.8263 JAMMER -0.2433
-4.1273 JAR -0.2433
-4.1273 JARGOGLE -0.2433
-4.1273 JARK -0.2433
-4.1273 JARL -0.3010
-4.1273 JARROYA -0.2433
-4.1273 JARTA -0.2433
-4.1273 JAVELIN -0.2433
-4.1273 JEHU -0.2965
-4.1273 JERICHO -0.2433
-3.8263 JOB -0.2433
-4.1273 JOHN -0.3010
-4.1273 JOHNNY -0.3010
-4.1273 JON -0.3010
-4.1273 JOURNEY -0.2433
-4.1273 JOYA -0.2433
-4.1273 JUDGMENT -0.2433
-4.1273 JUSTICE -0.2433
-4.1273 JöRG -0.2433
-4.1273 KABOOM -0.2433
-4.1273 KALOCH -0.3010
-4.1273 KAMALANI -0.2433
-4.1273 KANGAPHANT -0.2433
-4.1273 KARTANOO -0.2433
-4.1273 KASSIEL -0.2965
-4.1273 KATERINA -0.2965
-4.1273 KAUPE -0.2433
-4.1273 KAUPE-EVIL -0.2994
-4.1273 KEKOA -0.2433
-4.1273 KELIFI -0.3010
-4.1273 KELPING -0.3010
-4.1273 KELPMINDER -0.2433
-4.1273 KERING -0.2433
-4.1273 KERWOLLOP -0.2433
-3.1273 KEY -0.2383
-4.1273 KEYFORGERY -0.2433
-4.1273 KEYFROG -0.2433
-4.1273 KEYLOCK -0.2433
-4.1273 KEYSIS -0.2433
-4.1273 KHRKHAR -0.2433
-4.1273 KHRKHARS -0.3006
-4.1273 KILIGOG -0.2433
-4.1273 KILIGOGS -0.3010
-4.1273 KILLING -0.3010
-4.1273 KILLZORD -0.3010
-4.1273 KIN -0.2433
-4.1273 KINDRITH -0.3010
-4.1273 KING -0.2976
-3.8263 KIRBY -0.2433
-4.1273 KIRBYS -0.3006
-4.1273 KIRI -0.3009
-4.1273 KNIFE -0.2433
-3.1273 KNIGHT -0.2433
-4.1273 KNIGHTAPULT -0.2433
-4.1273 KNOWDRONE -0.2433
-3.8263 KNOWLEDGE -0.2433
-4.1273 KNOXX -0.2433
-4.1273 KNUCKLES -0.3010
-4.1273 KOMPSOS -0.3010
-4.1273 KONG -0.2433
-4.1273 KORIJIR -0.2433
-4.1273 KRAKEN -0.2433
-4.1273 KRESAGE -0.2433
-4.1273 KRESAGE-EVIL -0.2994
-4.1273 KRETCHEE -0.2433
-4.1273 KRRRZZZAAAP -0.2433
-4.1273 KRUMP -0.2433
-4.1273 KYMOOR -0.3010
-4.1273 LABORATORY -0.2433
-3.8263 LABWORK -0.2433
-4.1273 LACUS -0.2433
-3.8263 LADY -0.3010
-4.1273 LAKE -0.2433
-4.1273 LAKE-EVIL -0.2994
-4.1273 LAMINDRA -0.2433
-4.1273 LANCE -0.2433
-4.1273 LAND -0.2433
-4.1273 LANDER -0.2433
-4.1273 LANDING -0.2433
-3.8263 LANDS -0.2432
-4.1273 LANG -0.2433
-4.1273 LAPISAURUS -0.2433
-4.1273 LAPISAURUS-EVIL -0.2994
-3.8263 LARIE -0.2976
-4.1273 LASH -0.2976
-3.8263 LAST -0.2433
-4.1273 LATER -0.2433
-4.1273 LATER-EVIL -0.2994
-4.1273 LATERAL -0.3009
-3.8263 LAVA -0.2433
-4.1273 LAY -0.2976
-4.1273 LCDR -0.3010
-3.8263 LEADER -0.2433
-4.1273 LECTOR -0.2433
-4.1273 LEGATUS -0.3010
-3.6502 LEGIONARY -0.2433
-4.1273 LEGIONS -0.3010
-4.1273 LEQ -0.2433
-4.1273 LESSER -0.3010
-4.1273 LETHAL -0.3010
-4.1273 LETHOLOGICA -0.2433
-4.1273 LIAM -0.3010
-4.1273 LIBRARIAN -0.2433
-3.4283 LIBRARY -0.2975
-3.6502 LIEUTENANT -0.3009
-3.4283 LIFE -0.2433
-4.1273 LIFEWARD -0.2433
-4.1273 LIFEWEB -0.2433
-3.6502 LIGHT -0.2394
-3.8263 LIGHTBRINGER -0.2431
-4.1273 LIGHTS -0.3010
-3.8263 LIGHTSMITH -0.3010
-4.1273 LILITHAL -0.2433
-4.1273 LINE -0.2433
-4.1273 LINK -0.2433
-4.1273 LION -0.3010
-3.8263 LITTLE -0.3010
-4.1273 LIU -0.2433
-4.1273 LIVIA -0.2965
-4.1273 LLACK -0.3010
-3.8263 LOGOS -0.3006
-4.1273 LOLLOP -0.2965
-4.1273 LOMIR -0.3010
-4.1273 LONE -0.3010
-4.1273 LONGARMS -0.2433
-4.1273 LONGFINGERS -0.2433
-4.1273 LONGFUSED -0.3010
-4.1273 LONGSHOT -0.2433
-4.1273 LONGUSAUR -0.3010
-3.8263 LOOK -0.3009
-4.1273 LOOP -0.2433
-3.8263 LOOT -0.2961
-4.1273 LOOTER -0.3010
-3.8263 LORD -0.3009
-4.1273 LOREENA -0.2433
-4.1273 LOSION -0.2433
-4.1273 LOST -0.3009
-4.1273 LOTTERY -0.2433
-3.8263 LOW -0.2433
-4.1273 LUCKY -0.3010
-3.8263 LUDO -0.2433
-4.1273 LUMILU -0.2433
-4.1273 LUPO -0.2965
-3.3491 LYCO -0.2996
-4.1273 LYNX -0.2433
-4.1273 MAB -0.2965
-4.1273 MACHINE -0.2433
-4.1273 MACIS -0.3010
-4.1273 MACK -0.2965
-4.1273 MACY -0.2433
-3.8263 MAD -0.2433
-4.1273 MAGDA -0.2965
-3.8263 MAGISTRA -0.3010
-4.1273 MAGISTRATE -0.3010
-4.1273 MAGNET -0.2433
-3.8263 MAKE -0.3009
-4.1273 MAKER -0.2433
-4.1273 MAKES -0.3010
-4.1273 MALEFACTION -0.2433
-4.1273 MALEFICORN -0.2433
-4.1273 MALISON -0.2433
-4.1273 MALKIN -0.3009
-4.1273 MALONE -0.2433
-4.1273 MALSTROM -0.2433
-4.1273 MAMA -0.3010
-4.1273 MAN -0.2433
-4.1273 MANCHEGO -0.2433
-4.1273 MANEUVER -0.2433
-4.1273 MANIPULATOR -0.2433
-4.1273 MANS -0.3010
-4.1273 MANTLE -0.2976
-3.6502 MANY -0.2433
-4.1273 MAP -0.2433
-4.1273 MARAUDER -0.2433
-4.1273 MARCH -0.2433
-4.1273 MARIANA -0.2433
-4.1273 MARIUS -0.2433
-4.1273 MARK -0.2976
-4.1273 MARKED -0.2433
-3.6502 MARKET -0.2433
-4.1273 MARKETS -0.2433
-3.8263 MARKS -0.2433
-4.1273 MARMO -0.3010
-4.1273 MARROWS -0.2433
-3.6502 MARS -0.3006
-4.1273 MARSHAL -0.3010
-3.6502 MARTIAN -0.3009
-4.1273 MARTIANOLOGIST -0.2433
-4.1273 MARTIANS -0.3010
-3.8263 MARTYR -0.2394
-4.1273 MARTYRS -0.3010
-4.1273 MARUCK -0.2965
-3.8263 MASS -0.3009
-3.3491 MASTER -0.2342
-4.1273 MASTERMINDY -0.2433
-4.1273 MASTERPLAN -0.2433
-4.1273 MASTERY -0.2433
-4.1273 MATING -0.3010
-3.8263 MATTER -0.2433
-4.1273 MAUL -0.2433
-4.1273 MAX -0.2433
-4.1273 MAXENA -0.2433
-4.1273 MAYHEM -0.2433
-4.1273 MECHABUOY -0.2433
-4.1273 MECHANIC -0.2433
-4.1273 MECHS -0.2433
-4.1273 MEDIC -0.3010
-4.1273 MEDICUS -0.3010
-3.2242 MEGA -0.3005
-4.1273 MEGAMOUTH -0.2433
-4.1273 MELEE -0.2433
-4.1273 MELERUKH -0.2433
-4.1273 MEMBERSHIP -0.3010
-4.1273 MEMOLITH -0.2433
-4.1273 MEMORY -0.3010
-4.1273 MEMROX -0.2965
-4.1273 MENGEVIN -0.2433
-4.1273 MERCHANT -0.2433
-4.1273 MERCY -0.3010
-4.1273 MESMERIST -0.2433
-4.1273 METEOR -0.2433
-3.8263 MIASMA -0.2433
-3.8263 MIGHT -0.3010
-3.6502 MIGHTY -0.3009
-4.1273 MILLI -0.2433
-4.1273 MIMIC -0.3010
-4.1273 MIMICRY -0.2433
-3.5252 MIND -0.2432
-4.1273 MINDFIRE -0.2433
-4.1273 MINDLOCK -0.2433
-4.1273 MINDWARPER -0.2433
-4.1273 MINDWORM -0.2433
-4.1273 MINES -0.2433
-4.1273 MINI -0.3010
-4.1273 MINION -0.2433
-3.8263 MIRROR -0.2432
-4.1273 MISERY -0.3010
-4.1273 MISSION -0.2433
-4.1273 MK -0.3010
-4.1273 MK2 -0.3010
-4.1273 MOB -0.2433
-4.1273 MOBIUS -0.3010
-4.1273 MODE -0.2433
-3.8263 MOGGHUNTER -0.2433
-4.1273 MOGGHUNTERS -0.3008
-4.1273 MOLE -0.2433
-4.1273 MOLEPHIN -0.2433
-4.1273 MOLINA -0.2433
-4.1273 MOLINAS -0.3006
-4.1273 MOLLUSCALLER -0.2433
-4.1273 MOLLYMAWK -0.2433
-4.1273 MONEY -0.2433
-4.1273 MONGREL -0.2433
-3.8263 MONK -0.2433
-4.1273 MONKEY -0.2433
-4.1273 MONKEYS -0.2433
-3.8263 MONTY -0.3010
-3.4283 MONUMENT -0.3006
-4.1273 MOOKLING -0.2433
-4.1273 MOOKLING-EVIL -0.2994
-3.8263 MOON -0.2433
-4.1273 MOONCURSER -0.2433
-4.1273 MOOR -0.3010
-4.1273 MORAY -0.2433
-4.1273 MORAY-EVIL -0.2994
-4.1273 MORPHEUS -0.2433
-3.8263 MOTHER -0.2433
-4.1273 MOTHERGUN -0.2433
-4.1273 MOTHERSHIP -0.3010
-4.1273 MOUNT -0.2433
-4.1273 MUCH -0.3006
-4.1273 MUG -0.2433
-4.1273 MUGGER -0.2433
-4.1273 MUGWUMP -0.2433
-4.1273 MULDOON -0.2433
-4.1273 MUNCHLING -0.2433
-4.1273 MURKENS -0.2433
-3.6502 MURMOOK -0.2433
-3.8263 MUSHROOM -0.3009
-4.1273 MUSTER -0.2433
-4.1273 MUSTHIC -0.3009
-4.1273 MUTAGENESIS -0.3009
-4.1273 MUTAGENIC -0.3010
-4.1273 MUTANT -0.3010
-3.6502 MUTATION -0.2976
-4.1273 MYLIOBE -0.2433
-4.1273 MYSTICETI -0.2433
-4.1273 MYX -0.2965
-3.8263 NARP -0.2433
-4.1273 NARPS -0.3008
-4.1273 NASTEE -0.2433
-3.8263 NATURE -0.2433
-4.1273 NATURES -0.3009
-4.1273 NAUTILIXIAN -0.2433
-4.1273 NAVIGATOR -0.3010
-4.1273 NEEDLE -0.2433
-4.1273 NEEDS -0.3008
-4.1273 NEFFRU -0.2433
-4.1273 NEGOTIATION -0.2433
-4.1273 NEL -0.2433
-4.1273 NEPENTHE -0.3010
-4.1273 NEPETA -0.3010
-3.8263 NEROTAURUS -0.2433
-4.1273 NERVE -0.3008
-4.1273 NETCASTER -0.2433
-4.1273 NETCASTER-EVIL -0.2994
-4.1273 NETWORK -0.2433
-4.1273 NEURO -0.3010
-4.1273 NEUTRON -0.3010
-4.1273 NEW -0.3010
-4.1273 NEXUS -0.2433
-4.1273 NIFF -0.2433
-3.4283 NIFFLE -0.3008
-3.8263 NIGHT -0.2433
-4.1273 NIGHTFORGE -0.2433
-4.1273 NIGHTMARE -0.2433
-3.8263 NINE -0.3010
-4.1273 NIRBOR -0.3010
-4.1273 NIT -0.2433
-4.1273 NITHING -0.2433
-4.1273 NITS -0.3009
-4.1273 NIZAK -0.2965
-3.5252 NO -0.3007
-4.1273 NOCTURNAL -0.3010
-4.1273 NODDY -0.2965
-4.1273 NOGI -0.3010
-4.1273 NONAME -0.2433
-4.1273 NORBYNS -0.3010
-4.1273 NORTHELLE -0.2433
-3.8263 NOT -0.2433
-3.8263 NOVU -0.3010
-4.1273 NOZZLE -0.2433
-4.1273 NUMBERS -0.2433
-4.1273 NUMERI -0.2433
-4.1273 NUMQUID -0.2965
-4.1273 NURSE -0.3010
-4.1273 NURTURE -0.2433
-4.1273 NYYON -0.3008
-4.1273 NYZYK -0.3010
-4.1273 OATH -0.2976
-4.1273 OBELISK -0.2433
-4.1273 OBLIVION -0.2433
-4.1273 OBSERV -0.3009
-4.1273 OBSIDIAN -0.3009
-3.8263 OCTAVIA -0.2433
-4.1273 ODD -0.3010
-4.1273 ODOAC -0.2965
-2.1061 OF -0.2929
-4.1273 OFF -0.2433
-3.8263 OFFER -0.2433
-4.1273 OFFERING -0.3006
-4.1273 OFFICE -0.2433
-2.9812 OFFICER -0.2428
-4.1273 OFFICERS -0.3006
-4.1273 OG -0.2433
-4.1273 OGOPOGO -0.2433
-4.1273 OGRE -0.2433
-3.8263 OL -0.3010
-3.3491 OLD -0.3008
-4.1273 OMM -0.2433
-4.1273 OMNIPUS -0.2433
-3.8263 ON -0.2382
-3.2242 ONE -0.2431
-4.1273 ONYX -0.3007
-4.1273 OPAL -0.3007
-4.1273 OPERATION -0.2433
-4.1273 OPERATIONS -0.3006
-3.8263 OPERATIVE -0.3010
-4.1273 OPPORTUNIST -0.2433
-4.1273 OPPOSITION -0.3009
-4.1273 OPTIO -0.3010
-4.1273 OPULENT -0.2433
-3.0481 OR -0.3005
-4.1273 ORATION -0.2433
-4.1273 ORATOR -0.3010
-3.8263 ORB -0.2976
-4.1273 ORBITAL -0.3010
-4.1273 ORDER -0.3010
-4.1273 ORDINATION -0.2433
-4.1273 ORHA -0.2433
-4.1273 ORNATE -0.3010
-4.1273 ORPHIEL -0.3010
-4.1273 ORPHION -0.3010
-4.1273 ORTANNU -0.2965
-4.1273 ORTANNUS -0.3010
-4.1273 OSTENTATIOUS -0.3010
-4.1273 OSTRACIZE -0.2433
-4.1273 OSWIN -0.2433
-4.1273 OTTO -0.2433
-4.1273 OUBLIETTE -0.2433
-4.1273 OUT -0.2433
-4.1273 OUTFLANK -0.2433
-4.1273 OUTNEGOTIATE -0.2433
-3.2822 OUTPOST -0.2433
-3.8263 OVER -0.3009
-4.1273 OVERLORD -0.3010
-4.1273 OVERRUN -0.2433
-3.8263 OXTET -0.2433
-4.1273 OZMO -0.3010
-3.8263 PACK -0.2433
-4.1273 PADDY -0.2433
-4.1273 PADDY-EVIL -0.2994
-3.6502 PAIN -0.2433
-4.1273 PAINMAIL -0.2433
-3.8263 PALE -0.3009
-4.1273 PANDEMONIUM -0.2433
-4.1273 PANDULF -0.2965
-3.8263 PANPACA -0.3010
-4.1273 PARAGUARDIAN -0.2433
-3.8263 PARTICLE -0.3010
-4.1273 PAST -0.2433
-4.1273 PATRICIAN -0.2433
-4.1273 PATRIZATE -0.2433
-4.1273 PATRONAGE -0.2433
-4.1273 PAW -0.2433
-4.1273 PAWN -0.3010
-4.1273 PAX -0.3010
-4.1273 PEACE -0.3010
-4.1273 PEARL -0.2433
-4.1273 PELF -0.2433
-3.8263 PENNY -0.2433
-4.1273 PERILOUS -0.3009
-4.1273 PERPLEXING -0.3010
-4.1273 PERSISTENCE -0.3009
-4.1273 PESTERGROVE -0.2433
-4.1273 PESTERING -0.3010
-4.1273 PESTILENCE -0.2433
-4.1273 PETE -0.2433
-3.8263 PHALANX -0.3009
-4.1273 PHANTOM -0.2433
-4.1273 PHASE -0.3009
-4.1273 PHEROMONES -0.2433
-4.1273 PHILO -0.2433
-4.1273 PHILO-EVIL -0.2994
-4.1273 PHILOPHOSAURUS -0.2433
-4.1273 PHILOSOPHER -0.2433
-3.8263 PHLOXEM -0.2433
-4.1273 PHOENIX -0.3010
-4.1273 PHOSPHORUS -0.3010
-4.1273 PHOTIC -0.3010
-4.1273 PHOTON -0.3008
-4.1273 PHYLYX -0.2965
-4.1273 PHYSALOHA -0.2433
-3.8263 PHYSICUS -0.3010
-3.8263 PI -0.3010
-4.1273 PICAROON -0.2433
-4.1273 PILE -0.2976
-4.1273 PILLAGE -0.2433
-4.1273 PINCERATOR -0.2433
-4.1273 PINGLE -0.3010
-3.8263 PIP -0.2433
-4.1273 PIPES -0.3010
-4.1273 PIRANHA -0.3010
-4.1273 PISMIRE -0.2433
-3.6502 PIT -0.2433
-4.1273 PITLORD -0.2433
-3.8263 PIXIE -0.2433
-4.1273 PIXIES -0.2433
-4.1273 PLACE -0.2433
-3.8263 PLAGUE -0.3008
-4.1273 PLAN -0.2433
-4.1273 PLANET -0.3010
-4.1273 PLANK -0.2433
-3.3491 PLANT -0.2433
-4.1273 PLASMA -0.3010
-4.1273 PLASMATE -0.2433
-4.1273 PLATFORM -0.2433
-4.1273 PLATOPELTA -0.2433
-4.1273 PLAY -0.2433
-4.1273 PLEBEIANS -0.2433
-4.1273 PLUNDER -0.2433
-4.1273 POCKET -0.3010
-3.8263 POD -0.2433
-4.1273 POEM -0.2433
-4.1273 POISON -0.3009
-4.1273 POKE -0.2433
-4.1273 POLICY -0.2433
-4.1273 POLLIASAURUS -0.2433
-4.1273 POLTERGEIST -0.2433
-4.1273 POMPITUS -0.2433
-4.1273 PORCUPINE -0.2433
-4.1273 PORPOISES -0.2433
-3.8263 PORTAL -0.2433
-4.1273 PORTALMONGER -0.2433
-4.1273 POS -0.3010
-4.1273 POSITRON -0.3010
-4.1273 POTION -0.2976
-4.1273 POUND -0.2433
-4.1273 POUR -0.3010
-4.1273 POVERTY -0.2433
-3.6502 POWER -0.2394
-4.1273 PRAECO -0.2433
-4.1273 PRAEFECTUS -0.3010
-4.1273 PRAETOR -0.3010
-4.1273 PREP -0.2433
-4.1273 PRESCRIPTIVE -0.3010
-4.1273 PRESERVATION -0.2433
-4.1273 PRESS -0.3009
-4.1273 PRESSURE -0.2433
-4.1273 PREY -0.2433
-4.1273 PRIDE -0.2433
-3.6502 PRIEST -0.2433
-4.1273 PRIMAL -0.3010
-3.6502 PRIMUS -0.2433
-4.1273 PRINCE -0.3010
-3.8263 PRINCIPLE -0.2433
-4.1273 PROBE -0.2433
-4.1273 PROCLAMATION -0.3010
-3.6502 PROF -0.3009
-3.8263 PROFESSOR -0.3010
-4.1273 PROGRAM -0.2433
-4.1273 PROJECT -0.3009
-4.1273 PROLIFERATOR -0.2433
-4.1273 PROMISED -0.3010
-4.1273 PROPAGANDA -0.2433
-4.1273 PROPHET -0.3010
-4.1273 PROSPECTOR -0.2433
-3.8263 PROTECT -0.2382
-4.1273 PROTECTRIX -0.2433
-4.1273 PROVOKER -0.2433
-4.1273 PSIONIC -0.3006
-3.8263 PSYCHIC -0.3010
-4.1273 PULL -0.3009
-4.1273 PULPATE -0.2433
-4.1273 PULSE -0.2433
-3.6502 PUNCH -0.2433
-4.1273 PUNCTUATED -0.3010
-4.1273 PUPGRADE -0.2433
-4.1273 PURGE -0.2433
-4.1273 PURIFIER -0.2976
-4.1273 PURIFY -0.2433
-4.1273 PURPLE -0.3009
-4.1273 PUZZLING -0.3010
-4.1273 PYR0 -0.2433
-4.1273 Q -0.3010
-4.1273 QINCAN -0.2433
-4.1273 QINCANS -0.3006
-4.1273 QUADRACORDER -0.2433
-4.1273 QUANT -0.2433
-4.1273 QUANTUM -0.3010
-3.6502 QUEEN -0.2433
-4.1273 QUEST -0.2433
-4.1273 QUESTOR -0.3010
-4.1273 QUICKSAND -0.2433
-3.8263 QUIET -0.2433
-4.1273 QUINTINA -0.2433
-3.8263 QUINTRINO -0.3009
-4.1273 QUIXO -0.2965
-4.1273 QUIXXLE -0.3010
-4.1273 QYXXLYX -0.3010
-4.1273 R -0.3010
-4.1273 RAD -0.3010
-4.1273 RADIANT -0.3010
-3.8263 RAGNAROK -0.2433
-4.1273 RAGWARG -0.2433
-3.8263 RAIDER -0.2433
-4.1273 RAIDING -0.3007
-4.1273 RAKUZEL -0.2433
-4.1273 RAKUZELS -0.3009
-4.1273 RAMPAGING -0.3010
-4.1273 RANDOM -0.3009
-4.1273 RANSACK -0.2433
-4.1273 RANSOM -0.2433
-4.1273 RANT -0.3009
-4.1273 RAPID -0.3010
-4.1273 RAPSCAL -0.2433
-3.8263 RAPTOR -0.2433
-3.8263 RAT -0.2433
-3.8263 RAY -0.3006
-4.1273 RAZING -0.2433
-4.1273 REACH -0.3010
-4.1273 REACTION -0.2433
-3.8263 REAP -0.2429
-4.1273 REAPER -0.2433
-4.1273 REASSEMBLING -0.3010
-4.1273 REAVER -0.2433
-3.8263 REBEL -0.2433
-4.1273 RECALL -0.2433
-3.8263 RECKLESS -0.3010
-4.1273 RECLAIMED -0.3010
-4.1273 RECORDED -0.3010
-4.1273 RECRUIT -0.2433
-4.1273 RECRUITER -0.2433
-4.1273 RECRUITING -0.3010
-4.1273 RECRUITMENT -0.2433
-4.1273 RECYCLE -0.3010
-3.3491 RED -0.2430
-4.1273 REDACTED -0.2433
-4.1273 REDEEMED -0.2433
-4.1273 REDHAND -0.3010
-4.1273 REDLOCK -0.2433
-4.1273 REDRESS -0.2433
-4.1273 REFLECTOR -0.2433
-4.1273 REFRAIN -0.2433
-4.1273 REGISTRY -0.2433
-4.1273 REGRETTABLE -0.3010
-4.1273 REGROWTH -0.2433
-4.1273 RELEASE -0.2433
-3.6502 RELENTLESS -0.3009
-3.8263 RELIC -0.2433
-4.1273 RELIQUARY -0.2433
-4.1273 REMIEL -0.2433
-4.1273 REMINDER -0.2433
-4.1273 REMOTE -0.3009
-4.1273 RENEWED -0.3009
-4.1273 REPLAY -0.3010
-4.1273 REPLICATOR -0.2433
-4.1273 REQUEST -0.3010
-3.6502 RESEARCH -0.2433
-3.5252 RESEARCHER -0.2433
-4.1273 RESONATOR -0.2433
-4.1273 RESTRINGUNTUS -0.2433
-4.1273 RESURGENCE -0.2433
-4.1273 RETIREMENT -0.2433
-4.1273 RETRIBUTION -0.2433
-4.1273 RETURNING -0.2433
-4.1273 REVENGE -0.2433
-4.1273 REVERED -0.3010
-4.1273 REVERSE -0.3010
-4.1273 REVNA -0.3010
-4.1273 REVO -0.3010
-4.1273 REVOLUTION -0.2433
-3.6502 REX -0.2433
-4.1273 RHETOR -0.3010
-4.1273 RICHES -0.2433
-4.1273 RIDER -0.2433
-4.1273 RIG -0.2433
-4.1273 RIGGED -0.3010
-4.1273 RIGHT -0.2433
-4.1273 RIKK -0.2433
-4.1273 RING -0.2976
-3.3491 RITUAL -0.2394
-4.1273 RIVE -0.2433
-4.1273 RIVER -0.2433
-4.1273 RIZZO -0.2433
-3.8263 ROAD -0.2433
-4.1273 ROCK -0.3010
-4.1273 ROCKET -0.3010
-3.8263 ROCKETEER -0.3010
-4.1273 ROD -0.2433
-3.8263 ROGUE -0.3010
-4.1273 RONNIE -0.3010
-4.1273 ROOFTOP -0.3010
-4.1273 ROSTRUM -0.2433
-4.1273 ROTGRUB -0.2433
-4.1273 ROTHAIS -0.2965
-4.1273 ROUND -0.3010
-4.1273 ROUTINE -0.3010
-4.1273 ROVER -0.2433
-4.1273 ROWDY -0.3010
-4.1273 ROXADOR -0.2433
-4.1273 RUIN -0.2433
-4.1273 RUINS -0.2976
-4.1273 RUN -0.2433
-4.1273 RUPTURE -0.2433
-4.1273 RUSTGNAWER -0.2433
-4.1273 RUSTMISER -0.2433
-4.1273 RUTH -0.2433
-4.1273 SABOTAGE -0.3010
-4.1273 SACK -0.2976
-4.1273 SACRIFICE -0.2433
-4.1273 SACRIFICIAL -0.3010
-3.3491 SACRO -0.2997
-3.6502 SAFE -0.3006
-4.1273 SAFEGUARD -0.2433
-4.1273 SAFETY -0.3009
-4.1273 SAGITTARIIS -0.3010
-4.1273 SALT -0.2433
-4.1273 SAMPLE -0.3010
-4.1273 SAMRA -0.2433
-4.1273 SANCTUM -0.3009
-4.1273 SANDALS -0.2433
-4.1273 SANDHOPPER -0.2433
-4.1273 SANITATION -0.3009
-4.1273 SARGASSA -0.2433
-4.1273 SARGASSA-EVIL -0.2994
-4.1273 SARIEL -0.2965
-4.1273 SAURARIUM -0.2433
-3.8263 SAURIAN -0.3008
-4.1273 SAURIANA -0.2433
-4.1273 SAUROPOD -0.2433
-3.2242 SAURUS -0.2432
-4.1273 SAURY -0.3010
-4.1273 SAVAGE -0.3010
-4.1273 SAVE -0.2965
-4.1273 SAY -0.2433
-4.1273 SCALE -0.2433
-4.1273 SCARRED -0.2433
-4.1273 SCHOLAR -0.2433
-4.1273 SCHOOL -0.2433
-3.8263 SCI -0.3006
-4.1273 SCIENCE -0.2433
-4.1273 SCIENTIFICAL -0.3010
-4.1273 SCIENTISTS -0.3008
-4.1273 SCOOP -0.3009
-4.1273 SCOOPED -0.2433
-3.5252 SCOUT -0.2431
-4.1273 SCOWLY -0.3010
-4.1273 SCRAMBLER -0.3009
-4.1273 SCRAPPER -0.2433
-4.1273 SCRAPSCROUNGER -0.2433
-4.1273 SCREAMING -0.3010
-4.1273 SCREECHBOMB -0.2433
-4.1273 SCRIVENER -0.3010
-3.8263 SCROLL -0.2433
-4.1273 SCUTUM -0.2433
-4.1273 SCYLLA -0.2433
-4.1273 SCYPHOS -0.2433
-3.8263 SEA -0.3009
-4.1273 SEABORG -0.2433
-4.1273 SEABRINGER -0.3010
-4.1273 SEAS -0.3009
-4.1273 SEASON -0.2433
-4.1273 SECRETS -0.2433
-4.1273 SECURI -0.3010
-4.1273 SEED -0.2433
-3.8263 SEEKER -0.2976
-4.1273 SEISMO -0.3010
-4.1273 SELECTION -0.2433
-4.1273 SELECTIVE -0.3010
-3.6502 SELF -0.2433
-4.1273 SELWYN -0.2965
-4.1273 SEMPER -0.3010
-3.5252 SENATOR -0.2431
-3.8263 SENESCHAL -0.3010
-4.1273 SENSOR -0.3009
-4.1273 SEPDIA -0.2433
-4.1273 SEQUIS -0.2433
-4.1273 SERAPHIC -0.3009
-4.1273 SERGEANT -0.3010
-4.1273 SERUM -0.2433
-4.1273 SGS -0.3010
-3.6502 SHADOW -0.2975
-4.1273 SHADOWS -0.3008
-4.1273 SHADOWSAURUS -0.2433
-4.1273 SHADOWSMITH -0.2433
-4.1273 SHAFFLES -0.2433
-4.1273 SHAKEDOWN -0.3010
-3.8263 SHAMAN -0.2433
-3.2822 SHARD -0.2976
-3.8263 SHARK -0.2433
-4.1273 SHARK-EVIL -0.2994
-4.1273 SHATTER -0.3009
-4.1273 SHATTERED -0.3010
-3.6502 SHELL -0.2433
-4.1273 SHERMAN -0.2433
-3.5252 SHIELD -0.2393
-4.1273 SHIELDING -0.2433
-3.6502 SHIFT -0.2433
-4.1273 SHIFTING -0.3010
-4.1273 SHIGZISO -0.3009
-4.1273 SHIP -0.2433
-4.1273 SHISNYASI -0.3009
-3.8263 SHIZYOKU -0.3009
-4.1273 SHOCK -0.3010
-4.1273 SHOCKWORM -0.2433
-4.1273 SHOES -0.2433
-4.1273 SHOOLER -0.2433
-4.1273 SHOPPING -0.3010
-4.1273 SHORELINE -0.2433
-3.8263 SHORTY -0.2433
-4.1273 SHORTYS -0.3008
-3.8263 SHOULDER -0.3009
-4.1273 SHREWD -0.3010
-3.6502 SHRIX -0.2433
-4.1273 SIBYL -0.3010
-4.1273 SIC -0.3010
-4.1273 SIGHT -0.2433
-3.5252 SIGIL -0.2394
-4.1273 SIGNAL -0.3010
-4.1273 SILENCE -0.2433
-4.1273 SILENT -0.3010
-4.1273 SILVER -0.3007
-4.1273 SILVERTOOTH -0.2433
-4.1273 SIMPSON -0.2433
-4.1273 SIMPSON-EVIL -0.2994
-4.1273 SINDER -0.2433
-4.1273 SINESTRA -0.2433
-4.1273 SINK -0.3006
-3.6502 SIR -0.3009
-4.1273 SIREN -0.3010
-4.1273 SKALD -0.2433
-4.1273 SKELETON -0.3007
-4.1273 SKIPPY -0.3010
-4.1273 SKIRMISHER -0.2433
-4.1273 SKIXUNO -0.2433
-4.1273 SKULLBACK -0.3010
-4.1273 SKULLION -0.2433
-4.1273 SKULLS -0.2433
-4.1273 SKYBOOSTER -0.3010
-4.1273 SKöLL -0.2433
-4.1273 SLAM -0.2433
-4.1273 SLEEP -0.3009
-4.1273 SLIMY -0.3010
-4.1273 SLOPPY -0.3010
-3.8263 SLOTH -0.2433
-4.1273 SLRS -0.3010
-4.1273 SMAAASH -0.2433
-4.1273 SMARTFIST -0.2433
-4.1273 SMARTYPANTS -0.2433
-4.1273 SMILING -0.3010
-4.1273 SMITE -0.2433
-4.1273 SMITH -0.2433
-4.1273 SMOKO -0.2433
-4.1273 SMYTH -0.2433
-4.1273 SNAG -0.2433
-4.1273 SNAGLET -0.2433
-4.1273 SNAGS -0.3010
-4.1273 SNARETTE -0.2433
-4.1273 SNATCHER -0.2433
-4.1273 SNEKLIFTER -0.2433
-4.1273 SNIB -0.2433
-4.1273 SNIFFER -0.2433
-4.1273 SNUDGE -0.2433
-4.1273 SNUFFLEGATOR -0.2433
-4.1273 SO -0.2433
-4.1273 SOBOGGS -0.3010
-4.1273 SOCRATEROSAURUS -0.2433
-4.1273 SOFT -0.3010
-4.1273 SOLDIERS -0.3006
-4.1273 SOLEFT -0.2433
-3.8263 SONG -0.2976
-4.1273 SOPHISTRY -0.2433
-4.1273 SORRY -0.2433
-4.1273 SOTO -0.2433
-3.8263 SOUL -0.3010
-4.1273 SOULKEEPER -0.2433
-3.8263 SOULS -0.2433
-4.1273 SOUND -0.2965
-3.8263 SOW -0.2433
-4.1273 SPACE -0.3010
-4.1273 SPANGLER -0.3010
-4.1273 SPARKFIST -0.2433
-4.1273 SPARTASAUR -0.2433
-4.1273 SPEARS -0.2433
-3.8263 SPECIAL -0.3009
-4.1273 SPECIALIST -0.3010
-4.1273 SPECTER -0.2433
-4.1273 SPECTRAL -0.3010
-4.1273 SPEED -0.3009
-3.8263 SPIDER -0.2433
-3.8263 SPIKE -0.2432
-4.1273 SPIRAL -0.2433
-4.1273 SPIRIT -0.2433
-4.1273 SPIRITS -0.3009
-4.1273 SPLINTER -0.2433
-4.1273 SPOILS -0.2976
-4.1273 SPOREGORGER -0.2433
-4.1273 SPOREGORGER-EVIL -0.2994
-4.1273 SPREE -0.2433
-4.1273 SPRING -0.2433
-4.1273 SPYMASTER -0.2433
-4.1273 SPYYYDER -0.2433
-4.1273 SQUADRON -0.2433
-4.1273 SQUAWKER -0.2433
-3.6502 SQUIRE -0.2433
-4.1273 STAFF -0.3009
-4.1273 STAKES -0.2433
-4.1273 STAMPEDE -0.2433
-4.1273 STANDARD -0.2433
-4.1273 STANDARDIZED -0.3010
-3.8263 STAR -0.2432
-3.8263 STARS -0.2433
-4.1273 STARSONG -0.2433
-4.1273 STASH -0.2433
-4.1273 STATE -0.3010
-3.8263 STATIC -0.3008
-4.1273 STATION -0.2433
-4.1273 STAUNCH -0.3007
-4.1273 STEADFAST -0.2433
-4.1273 STEALER -0.2976
-4.1273 STEALTH -0.3010
-4.1273 STEALTHSTER -0.2433
-4.1273 STEELHEART -0.2433
-4.1273 STEELHEART-EVIL -0.2994
-4.1273 STEM -0.3010
-4.1273 STENOPIUS -0.2433
-4.1273 STEP -0.2433
-4.1273 STEWARD -0.3010
-4.1273 STILT -0.3010
-4.1273 STIMRAGER -0.2433
-4.1273 STING -0.2433
-3.8263 STIR -0.3008
-4.1273 STIRRING -0.3010
-4.1273 STOCKPILE -0.2433
-4.1273 STOMP -0.2433
-3.8263 STONE -0.2433
-4.1273 STOOD -0.3010
-3.5252 STORM -0.2432
-3.6502 STRANGE -0.3009
-4.1273 STRATOSMACK -0.2433
-4.1273 STREKE -0.2433
-3.8263 STRENGTH -0.2433
-4.1273 STRIKE -0.2433
-4.1273 STRONGER -0.3010
-4.1273 STUNNER -0.2433
-4.1273 SU -0.3010
-4.1273 SUBDUE -0.2433
-4.1273 SUBJECT -0.3010
-4.1273 SUBMERSIBLE -0.2433
-4.1273 SUBMERSIVE -0.3010
-4.1273 SUBORDINATION -0.2433
-4.1273 SUBSIDIES -0.2433
-3.6502 SUBTLE -0.3009
-4.1273 SUCCUBUS -0.2433
-4.1273 SUCKER -0.3009
-4.1273 SUIT -0.2433
-4.1273 SULLIVAN -0.2433
-4.1273 SUMMONER -0.2433
-4.1273 SUNK -0.3010
-4.1273 SUPPORT -0.2433
-3.6502 SURGE -0.2433
-4.1273 SURVEY -0.2433
-4.1273 SUSPENDED -0.3010
-4.1273 SUSURRUS -0.2433
-4.1273 SUTTERKIN -0.2433
-4.1273 SV3 -0.3010
-4.1273 SVEND -0.2433
-4.1273 SWALLOW -0.3010
-4.1273 SWAP -0.3010
-4.1273 SWARM -0.2433
-4.1273 SWEEP -0.2433
-4.1273 SWEVEN -0.2433
-4.1273 SWEVEN-EVIL -0.2994
-3.8263 SWIM -0.2433
-4.1273 SWINDLE -0.2433
-4.1273 SWIRL -0.2433
-4.1273 SWITCH -0.2433
-4.1273 SWOPPER -0.2433
-4.1273 SYMON -0.2433
-4.1273 SYMPOSIUM -0.2433
-4.1273 SYNAN -0.2433
-4.1273 SYNAN-EVIL -0.2994
-4.1273 SYPHON -0.2433
-4.1273 SYSTEM -0.2433
-4.1273 T -0.2433
-4.1273 T3R -0.3010
-4.1273 TABER -0.2433
-4.1273 TABLE -0.2433
-4.1273 TABRIS -0.2433
-4.1273 TACHYON -0.3010
-4.1273 TACTICAL -0.3006
-3.8263 TAKE -0.3009
-4.1273 TAL -0.2433
-4.1273 TALENT -0.3009
-4.1273 TALKING -0.3010
-4.1273 TALLMINDED -0.2433
-3.8263 TALMAGE -0.3010
-4.1273 TAMER -0.2433
-4.1273 TANGAIKA -0.2433
-4.1273 TANIWHA -0.2433
-4.1273 TANIWHA-EVIL -0.2994
-3.8263 TANK -0.2433
-4.1273 TANTADLIN -0.2433
-4.1273 TAR -0.2433
-4.1273 TAUTAU -0.3010
-4.1273 TAXING -0.3010
-4.1273 TE -0.3010
-4.1273 TEAM -0.2433
-4.1273 TEAMWORK -0.2433
-4.1273 TECHIVORE -0.3010
-4.1273 TECHNICIAN -0.2433
-3.3491 TECHNO -0.2996
-4.1273 TECHNOBABBLE -0.2433
-4.1273 TECTONIC -0.3009
-4.1273 TELEPORTER -0.3009
-4.1273 TELIGA -0.2433
-4.1273 TEMPORAL -0.3010
-4.1273 TEMPTING -0.3010
-4.1273 TENDRILS -0.2976
-4.1273 TENTACLID -0.2433
-4.1273 TENTACUS -0.2433
-4.1273 TERATO -0.2433
-4.1273 TERMS -0.2976
-4.1273 TERRIBLE -0.2433
-4.1273 TERROR -0.2433
-4.1273 TERRORDACTYL -0.2433
-4.1273 TERTIATE -0.2433
-4.1273 TESTING -0.2433
-4.1273 TEZMAL -0.2433
-4.1273 THALASSOPHOBIA -0.2433
-3.8263 THAT -0.2433
-1.9874 THE -0.2941
-4.1273 THEM -0.3009
-4.1273 THEORIST -0.2433
-3.6502 THEORY -0.2429
-4.1273 THERAPY -0.2433
-4.1273 THERE -0.2433
-4.1273 THERO -0.3009
-4.1273 THEY -0.3010
-4.1273 THEY'RE -0.3010
-3.2822 THIEF -0.2433
-4.1273 THIEVERY -0.2433
-4.1273 THIEVES -0.3008
-4.1273 THIN -0.2965
-4.1273 THINGAMABOB -0.2433
-4.1273 THINK -0.3010
-4.1273 THINKDRONE -0.2433
-4.1273 THORIUM -0.3010
-4.1273 THRAX -0.2433
-4.1273 THREE -0.3010
-4.1273 THRONE -0.2433
-4.1273 THROWING -0.3010
-4.1273 THUNDERTOW -0.2433
-4.1273 TIDAL -0.3009
-3.8263 TIDE -0.3008
-4.1273 TIGER -0.2433
-3.8263 TIME -0.2433
-4.1273 TIMEHOG -0.2433
-4.1273 TIMEQUAKE -0.2433
-4.1273 TIMETRAVELLER -0.2433
-4.1273 TIMOTI -0.2965
-4.1273 TINK -0.2433
-4.1273 TINKER -0.2433
-4.1273 TIRELESS -0.3010
-3.5252 TITAN -0.3008
-4.1273 TITANIC -0.2433
-4.1273 TITANS -0.2433
-3.0134 TO -0.3001
-4.1273 TOAD -0.2433
-4.1273 TOCSIN -0.2433
-3.8263 TOES -0.2433
-3.8263 TOGETHER -0.2433
-4.1273 TOGNATH -0.2433
-4.1273 TOKEN -0.2976
-4.1273 TOLAS -0.2433
-3.8263 TOMWA -0.2976
-4.1273 TOO -0.3010
-4.1273 TORCHTOOTH -0.2433
-4.1273 TORVUS -0.2433
-4.1273 TOTAL -0.3010
-3.6502 TOUCH -0.2433
-4.1273 TOURIST -0.3009
-4.1273 TOXICUDA -0.3010
-4.1273 TRACKER -0.2433
-4.1273 TRADE -0.3010
-3.8263 TRADER -0.2433
-4.1273 TRADING -0.3010
-4.1273 TRAINER -0.2433
-3.8263 TRAINING -0.2433
-4.1273 TRAITOR -0.2433
-4.1273 TRANSITORY -0.3010
-4.1273 TRANSLATOR -0.2433
-4.1273 TRANSPONDER -0.2433
-4.1273 TRANSPORTER -0.3010
-4.1273 TRANSPOSITION -0.3010
-3.6502 TRAP -0.2433
-4.1273 TRAY -0.2433
-4.1273 TREASURE -0.3010
-3.8263 TREE -0.2433
-4.1273 TREMOR -0.2433
-4.1273 TRENCH -0.2433
-4.1273 TRIAL -0.3010
-4.1273 TRIBUNE -0.3010
-4.1273 TRIBUTE -0.2433
-4.1273 TRICERIAN -0.3009
-4.1273 TRICKLE -0.3010
-4.1273 TRIGON -0.2433
-4.1273 TRIMBLE -0.2433
-4.1273 TRINKET -0.2433
-4.1273 TRIUMPH -0.2433
-4.1273 TROJAN -0.3010
-4.1273 TROLL -0.2433
-4.1273 TROOP -0.3009
-4.1273 TROOPER -0.2433
-4.1273 TROUBLE -0.2433
-4.1273 TRUEBARU -0.2433
-4.1273 TRUST -0.3009
-3.8263 TRUTH -0.2433
-4.1273 TRYSKA -0.2433
-4.1273 TRYSKA-EVIL -0.2994
-4.1273 TULLIA -0.2433
-4.1273 TUNK -0.2433
-4.1273 TUNNELER -0.2433
-4.1273 TURNKEY -0.2433
-4.1273 TWICE -0.2433
-2.4283 TWIN -0.2433
-4.1273 TWO -0.3009
-4.1273 TYA -0.3010
-4.1273 TYRANNOSAURUS -0.2433
-4.1273 TYXL -0.3010
-3.6502 U -0.3009
-4.1273 ULFBERHT -0.3010
-4.1273 ULTRA -0.3010
-4.1273 ULYQ -0.3010
-3.2822 UMBRA -0.2417
-4.1273 UNCHARTED -0.3010
-4.1273 UNCOMMON -0.3010
-4.1273 UNDAGNATHUS -0.2433
-4.1273 UNDAGNATHUS-EVIL -0.2994
-4.1273 UNDER -0.3010
-4.1273 UNGUARDED -0.3010
-4.1273 UNGUIS -0.2433
-4.1273 UNIFIER -0.2433
-3.8263 UNIT -0.2433
-4.1273 UNITED -0.3010
-3.8263 UNITY -0.2429
-3.6502 UNIVERSAL -0.3009
-4.1273 UNIVERSE -0.2433
-4.1273 UNLOCKED -0.3010
-4.1273 UNNATURAL -0.3010
-4.1273 UNSUSPECTING -0.3010
-3.8263 UNTAMED -0.3006
-3.4283 UP -0.2433
-4.1273 UPLINK -0.2433
-3.8263 URCHIN -0.2433
-4.1273 URCHIN-EVIL -0.2994
-3.8263 URIEN -0.2965
-4.1273 URSO -0.2433
-4.1273 URSO-EVIL -0.2994
-4.1273 UXLYX -0.2965
-4.1273 UZYANE -0.2433
-4.1273 V3 -0.3010
-3.8263 VAC -0.2433
-4.1273 VAL -0.3010
-4.1273 VALDR -0.2433
-4.1273 VALMART -0.2433
-4.1273 VALOOCANTH -0.2433
-4.1273 VANDALIZE -0.2433
-4.1273 VANITY -0.2433
-4.1273 VAPORS -0.2433
-4.1273 VATMINDER -0.2433
-3.8263 VAULT -0.2433
-4.1273 VAULTKEEPER -0.2433
-4.1273 VAULTS -0.3010
-4.1273 VEEMOS -0.3010
-4.1273 VELUM -0.2433
-4.1273 VENATOR -0.3010
-4.1273 VENDOR -0.2433
-3.8263 VENOM -0.2433
-4.1273 VEROKTER -0.2433
-4.1273 VESPILON -0.3010
-4.1273 VEYLAN -0.3010
-4.1273 VEZYMA -0.3010
-4.1273 VIEW -0.2433
-4.1273 VIGOR -0.2433
-3.8263 VINDA -0.2433
-4.1273 VINEAPPLE -0.3010
-4.1273 VINES -0.2433
-4.1273 VINUM -0.2433
-4.1273 VIRTUOUS -0.3010
-4.1273 VIRUS -0.2433
-4.1273 VISIBLE -0.3009
-4.1273 VITA -0.2433
-4.1273 VITA-EVIL -0.2994
-4.1273 VOICE -0.2976
-4.1273 VOID -0.2433
-4.1273 VOW -0.2976
-4.1273 VULKA -0.2433
-4.1273 WAIL -0.2976
-4.1273 WAIMARE -0.2433
-4.1273 WAKING -0.3010
-4.1273 WALK -0.2965
-4.1273 WALL -0.2433
-3.8263 WALLS -0.2429
-3.8263 WAR -0.2432
-4.1273 WARCHEST -0.2433
-4.1273 WARDRUMMER -0.2433
-4.1273 WARK -0.2433
-3.8263 WARP -0.2433
-3.8263 WARRIOR -0.2433
-4.1273 WARRIORS -0.3010
-4.1273 WARSONG -0.2433
-4.1273 WASHED -0.3010
-4.1273 WASTE -0.3010
-4.1273 WATCH -0.3010
-3.8263 WATER -0.2433
-3.4283 WAVE -0.2433
-3.4283 WAY -0.2394
-4.1273 WE -0.3010
-3.5252 WEAK -0.2433
-4.1273 WEAPONSMITH -0.2433
-4.1273 WEASAND -0.2433
-4.1273 WHAT -0.3010
-4.1273 WHEKE -0.3010
-4.1273 WHIRLPOOL -0.2433
-4.1273 WHISPER -0.2433
-4.1273 WHISPERING -0.3010
-4.1273 WHISPERS -0.2433
-4.1273 WHISTLING -0.3010
-4.1273 WHITE -0.3009
-4.1273 WHO -0.3010
-4.1273 WHOLE -0.2433
-4.1273 WIDESPREAD -0.3010
-4.1273 WIDGET -0.2433
-4.1273 WIKOLIA -0.2433
-4.1273 WIKOLIA-EVIL -0.2994
-3.4283 WILD -0.2432
-4.1273 WILDS -0.2433
-4.1273 WILLA -0.2433
-4.1273 WILLA-EVIL -0.2994
-4.1273 WIN -0.2433
-4.1273 WIPE -0.3010
-3.4283 WITCH -0.2394
-3.6502 WITH -0.2963
-3.8263 WOLF -0.2433
-4.1273 WONDER -0.2433
-4.1273 WOODS -0.2433
-4.1273 WORD -0.2976
-4.1273 WORK -0.2433
-4.1273 WORKS -0.2433
-4.1273 WORLD -0.3010
-4.1273 WORM -0.2433
-3.8263 WORMHOLE -0.2433
-3.6502 WRATH -0.2429
-4.1273 WREATHED -0.2433
-4.1273 WRETCHED -0.3010
-4.1273 WRISTCLOCKS -0.2433
-4.1273 XALVADOR -0.2433
-4.1273 XANTHYX -0.3010
-3.3491 XENO -0.2996
-4.1273 XENOS -0.3010
-4.1273 XENOTRAINING -0.2433
-4.1273 YANTHI -0.3010
-4.1273 YANTZEE -0.3009
-4.1273 YO -0.3010
-3.8263 YOU -0.2433
-3.8263 YOUNGEST -0.3008
-4.1273 YOUR -0.3010
-4.1273 YSHI -0.2433
-3.6502 YURK -0.2433
-4.1273 YXILI -0.3010
-4.1273 YXILO -0.3010
-4.1273 YXILX -0.3010
-4.1273 YXL -0.2965
-4.1273 YXLIX -0.3010
-4.1273 YXLYX -0.3010
-4.1273 YZPHYZ -0.3010
-3.5252 Z -0.3007
-4.1273 ZA -0.3010
-4.1273 ZAKIEL -0.2433
-4.1273 ZAP -0.2433
-4.1273 ZAREK -0.2433
-3.6502 ZEALOT -0.2433
-4.1273 ZENZIZENZIZENZIC -0.2433
-4.1273 ZEPHON -0.2965
-4.1273 ZIZOK -0.2433
-4.1273 ZOOKEEPER -0.2433
-4.1273 ZORG -0.2433
-4.1273 ZYSYSYX -0.3010
-4.1273 ZYTAR -0.2433
-3.6502 ZYX -0.2432
-4.1273 ZYZZIX -0.2965

\2-grams:
-0.3010 1 </s> -0.3010
-0.3010 14 </s> -0.3010
-0.3010 1N </s> -0.3010
-0.3010 2 </s> -0.3010
-0.3010 24 </s> -0.3010
-0.3010 3 </s> -0.3010
-0.3010 337A </s> -0.3010
-0.3010 337A-EVIL TWIN -0.0086
-0.3010 346E </s> -0.3010
-0.3010 35A </s> -0.3010
-0.3010 4X4 </s> -0.3010
-0.3010 5150 </s> -0.3010
-0.3010 5C077 </s> -0.3010
-0.3010 5C077-EVIL TWIN -0.0086
-0.3010 9001 </s> -0.3010
-3.5232 <s> 5C077 0.0000
-3.5232 <s> 5C077-EVIL 0.0000
-3.2222 <s> A -0.1761
-3.5232 <s> ABANDON 0.0000
-3.5232 <s> ABOND 0.0000
-3.5232 <s> ABSOLVE 0.0000
-3.2222 <s> ABYSSAL 0.0000
-3.5232 <s> ACADEMY 0.0000
-3.5232 <s> ACCESS -0.2430
-3.5232 <s> ADAPTOID 0.0000
-3.5232 <s> ADULT 0.0000
-3.5232 <s> AEDILE 0.0000
-3.5232 <s> AEMBERLING 0.0000
-3.5232 <s> AEMBITRAGE 0.0000
-3.5232 <s> AEMBROSIA 0.0000
-3.2222 <s> AGENT -0.1761
-3.5232 <s> AIRLOCK 0.0000
-3.5232 <s> AJA 0.0000
-3.5232 <s> ALAKA 0.0000
-3.5232 <s> ALAKAS 0.0000
-3.5232 <s> ALL -0.2218
-3.5232 <s> ALLUSIONS 0.0000
-3.5232 <s> ALMSMASTER 0.0000
-3.5232 <s> ALMSMASTER-EVIL 0.0000
-3.5232 <s> ALTRUISTS 0.0000
-3.5232 <s> AMBASSADOR -0.2688
-3.0461 <s> AMBER -0.1761
-3.2222 <s> AMBERFIN 0.0000
-3.5232 <s> AMBERHEART 0.0000
-3.5232 <s> AMBERLUTION 0.0000
-3.5232 <s> AMBERMANCY 0.0000
-3.5232 <s> AMBERSPINE 0.0000
-3.5232 <s> AMBERTRACKER 0.0000
-3.5232 <s> AMMONIA 0.0000
-3.5232 <s> AMPHORA 0.0000
-3.5232 <s> ANAHITA 0.0000
-2.9212 <s> ANCIENT 0.0000
-3.5232 <s> ANGER 0.0000
-3.5232 <s> ANGRY 0.0000
-3.5232 <s> ANGWISH 0.0000
-3.5232 <s> ANIMATOR 0.0000
-3.5232 <s> ANKYLO 0.0000
-3.5232 <s> ANNIHILATION 0.0000
-3.5232 <s> ANOMALY 0.0000
-3.5232 <s> ANTIQUITIES 0.0000
-3.5232 <s> ANTONY 0.0000
-3.5232 <s> AQUILIA 0.0000
-3.5232 <s> ARCHIMEDES 0.0000
-3.2222 <s> ARCHONS -0.1249
-3.5232 <s> ARDENT 0.0000
-3.5232 <s> ARISE 0.0000
-3.5232 <s> ARISTOTLMIMUS 0.0000
-3.5232 <s> ARM 0.0000
-3.5232 <s> ARMADRONE 0.0000
-3.5232 <s> ARMADRONE-EVIL 0.0000
-3.5232 <s> ARMAGEDDON 0.0000
-3.5232 <s> ARMORY 0.0000
-3.5232 <s> ARMSMASTER 0.0000
-3.5232 <s> ASSERT 0.0000
-3.5232 <s> AUBADE 0.0000
-3.5232 <s> AUCTION 0.0000
-3.5232 <s> AUSTERALIS -0.1761
-3.0461 <s> AUTO 0.0000
-3.5232 <s> AUTOCANNON 0.0000
-3.5232 <s> AVENGING 0.0000
-3.5232 <s> AVID 0.0000
-3.5232 <s> AWAY -0.1761
-3.5232 <s> AXIOM 0.0000
-3.5232 <s> AZURE 0.0000
-3.5232 <s> B0 0.0000
-3.5232 <s> BABBLING 0.0000
-3.2222 <s> BACKUP -0.1249
-3.5232 <s> BAD -0.1761
-3.5232 <s> BADGE 0.0000
-3.5232 <s> BADGEMAGUS 0.0000
-3.5232 <s> BAIT 0.0000
-3.5232 <s> BALDRIC 0.0000
-3.5232 <s> BALLCANO 0.0000
-3.5232 <s> BALLISTEGO 0.0000
-3.5232 <s> BANISH 0.0000
-3.5232 <s> BANNER -0.1761
-3.5232 <s> BAREHANDED 0.0000
-3.5232 <s> BARN 0.0000
-3.5232 <s> BARON -0.1761
-3.5232 <s> BARRISTER 0.0000
-3.5232 <s> BATARIEL 0.0000
-3.5232 <s> BATDRONE 0.0000
-3.5232 <s> BATTLE -0.2430
-3.5232 <s> BATTLEVANGELIST 0.0000
-3.5232 <s> BEACH 0.0000
-3.5232 <s> BEAR -0.2553
-3.5232 <s> BEASTS 0.0000
-3.5232 <s> BEFUDDLE 0.0000
-3.5232 <s> BEGONE 0.0000
-3.5232 <s> BELLATORAN 0.0000
-3.5232 <s> BELLIGERENT 0.0000
-3.5232 <s> BELLOWING 0.0000
-3.5232 <s> BERINON 0.0000
-3.2222 <s> BERSERKER 0.0000
-3.2222 <s> BESTIARII 0.0000
-3.5232 <s> BEWARE 0.0000
-3.5232 <s> BIG -0.1761
-3.5232 <s> BIGTWIG 0.0000
-3.5232 <s> BILGEWARDEN 0.0000
-3.5232 <s> BILGUM 0.0000
-3.2222 <s> BINARY 0.0000
-3.5232 <s> BINATE 0.0000
-3.5232 <s> BINDING -0.1761
-3.5232 <s> BINGLE 0.0000
-3.5232 <s> BIOMATRIX 0.0000
-3.5232 <s> BIOME 0.0000
-3.2222 <s> BLAST -0.2341
-3.5232 <s> BLATANT 0.0000
-3.5232 <s> BLINDING 0.0000
-3.2222 <s> BLOOD -0.1761
-3.5232 <s> BLOODSHARD 0.0000
-3.2222 <s> BLORB 0.0000
-3.5232 <s> BLOSSOM 0.0000
-3.5232 <s> BLYPYP 0.0000
-3.5232 <s> BO 0.0000
-3.5232 <s> BOMBYX 0.0000
-3.5232 <s> BONEROT 0.0000
-3.5232 <s> BONESAW 0.0000
-3.5232 <s> BOOBY 0.0000
-3.2222 <s> BOOK 0.0000
-3.5232 <s> BORDAN 0.0000
-3.5232 <s> BORKA 0.0000
-3.2222 <s> BORR 0.0000
-3.5232 <s> BORROW 0.0000
-3.5232 <s> BOSS 0.0000
-3.5232 <s> BOT -0.2730
-3.5232 <s> BOUNCING 0.0000
-3.5232 <s> BRABBLE 0.0000
-3.5232 <s> BRACCHANALIA 0.0000
-3.5232 <s> BRACHIADITUS 0.0000
-3.5232 <s> BRACKISH 0.0000
-3.0461 <s> BRAIN 0.0000
-3.5232 <s> BRAINDART 0.0000
-3.5232 <s> BRAMBLE 0.0000
-3.5232 <s> BRAMMO 0.0000
-3.5232 <s> BRAWL 0.0000
-3.5232 <s> BREAK 0.0000
-3.5232 <s> BREAKER 0.0000
-3.5232 <s> BREND 0.0000
-3.5232 <s> BRIAR 0.0000
-3.5232 <s> BRIKK 0.0000
-3.5232 <s> BRING 0.0000
-3.2222 <s> BROBNAR 0.0000
-3.5232 <s> BROKEN -0.1761
-3.5232 <s> BRONZE 0.0000
-3.5232 <s> BROTHERS 0.0000
-3.5232 <s> BRUTODON -0.1761
-3.5232 <s> BRYOZOARCH 0.0000
-3.5232 <s> BUBBLES 0.0000
-3.5232 <s> BULL 0.0000
-3.5232 <s> BULLETEYE 0.0000
-3.5232 <s> BULWARK 0.0000
-3.5232 <s> BUMBLEBIRD 0.0000
-3.5232 <s> BUMPSY 0.0000
-3.5232 <s> BURN 0.0000
-3.5232 <s> BURNING 0.0000
-3.5232 <s> BURY 0.0000
-3.5232 <s> BUZZLE 0.0000
-3.5232 <s> CADET 0.0000
-3.2222 <s> CALL -0.1761
-3.5232 <s> CALV 0.0000
-3.5232 <s> CAMARADERIE 0.0000
-3.5232 <s> CAMOUFLAGE 0.0000
-3.5232 <s> CANDLE 0.0000
-3.5232 <s> CANNON 0.0000
-2.8243 <s> CAPTAIN -0.0669
-3.5232 <s> CARLO 0.0000
-3.5232 <s> CARPE 0.0000
-3.5232 <s> CARPET 0.0000
-3.5232 <s> CATCH 0.0000
-3.5232 <s> CAULDRON 0.0000
-3.5232 <s> CAUSAL 0.0000
-3.5232 <s> CEASEFORGE 0.0000
-3.5232 <s> CELESTIAL 0.0000
-3.5232 <s> CEMENT 0.0000
-3.2222 <s> CENSOR 0.0000
-3.5232 <s> CENTURION -0.2218
-3.5232 <s> CEPHALOIST 0.0000
-3.2222 <s> CH 0.0000
-3.5232 <s> CHAIN -0.1761
-3.5232 <s> CHALLE 0.0000
-3.2222 <s> CHAMPION 0.0000
-3.5232 <s> CHAMPIONS 0.0000
-3.5232 <s> CHANCELLOR 0.0000
-3.5232 <s> CHANS 0.0000
-3.5232 <s> CHANT -0.2218
-3.5232 <s> CHAOS 0.0000
-3.5232 <s> CHAOSODON 0.0000
-3.5232 <s> CHARETTE 0.0000
-3.5232 <s> CHARGE 0.0000
-3.5232 <s> CHARYBDIS 0.0000
-3.5232 <s> CHELONIA 0.0000
-3.5232 <s> CHELONIA-EVIL 0.0000
-3.5232 <s> CHENILLE 0.0000
-3.5232 <s> CHIEF -0.2430
-3.5232 <s> CHIEFTAINS 0.0000
-3.5232 <s> CHONKERS 0.0000
-3.5232 <s> CHOTA 0.0000
-3.5232 <s> CHRONOPHAGE 0.0000
-3.5232 <s> CHRONUS 0.0000
-3.5232 <s> CHUFF 0.0000
-3.5232 <s> CINCINNATUS 0.0000
-3.5232 <s> CITIZEN 0.0000
-3.2222 <s> CITY 0.0000
-3.5232 <s> CLEANSING 0.0000
-3.5232 <s> CLEAR -0.1761
-3.5232 <s> CLERIC 0.0000
-3.5232 <s> CLOAKING 0.0000
-3.5232 <s> CLONE -0.1761
-3.5232 <s> CLOSED 0.0000
-3.5232 <s> CODE 0.0000
-3.5232 <s> COLLAR 0.0000
-3.2222 <s> COLLECTOR -0.1249
-3.5232 <s> COLONEL 0.0000
-3.2222 <s> COLONIST 0.0000
-3.0461 <s> COM 0.0000
-3.5232 <s> COMBAT 0.0000
-3.5232 <s> COMMANDEER 0.0000
-3.0461 <s> COMMANDER 0.0000
-3.5232 <s> COMMPOD 0.0000
-3.5232 <s> COMMUNE 0.0000
-3.5232 <s> CONDUCTOR 0.0000
-3.5232 <s> CONSCRIPTION 0.0000
-3.5232 <s> CONSUL 0.0000
-3.5232 <s> CONTAINMENT 0.0000
-3.5232 <s> CONTROL 0.0000
-3.5232 <s> COOPERATIVE 0.0000
-3.5232 <s> CORNER 0.0000
-3.5232 <s> CORNICEN 0.0000
-3.5232 <s> CORRODE 0.0000
-3.5232 <s> COVETOUS 0.0000
-3.5232 <s> COWARDS 0.0000
-3.5232 <s> COWFYNE 0.0000
-3.5232 <s> COWFYNES 0.0000
-3.5232 <s> CPO 0.0000
-3.2222 <s> CR 0.0000
-3.5232 <s> CRASH -0.1761
-3.5232 <s> CRASSOSAURUS 0.0000
-3.5232 <s> CRAZY -0.1761
-3.2222 <s> CREED 0.0000
-3.5232 <s> CREEPING 0.0000
-3.5232 <s> CREWMAN 0.0000
-3.5232 <s> CRIM 0.0000
-3.5232 <s> CROGG 0.0000
-3.5232 <s> CROSS 0.0000
-3.2222 <s> CRUSHING 0.0000
-3.2222 <s> CRYSTAL 0.0000
-3.5232 <s> CULF 0.0000
-3.5232 <s> CULL 0.0000
-3.5232 <s> CULTIST 0.0000
-3.5232 <s> CULTURAL 0.0000
-3.5232 <s> CUP 0.0000
-3.5232 <s> CURIA 0.0000
-3.5232 <s> CURIOSITY 0.0000
-3.5232 <s> CURSE 0.0000
-3.5232 <s> CURSED 0.0000
-3.5232 <s> CUSTOM 0.0000
-3.5232 <s> CUSTOMS 0.0000
-3.5232 <s> CUTTHROAT 0.0000
-3.5232 <s> CXO 0.0000
-3.5232 <s> CYBER 0.0000
-3.5232 <s> CYBERGIANT 0.0000
-3.5232 <s> D1 0.0000
-2.7451 <s> DAMO 0.0000
-3.5232 <s> DANCE 0.0000
-2.6201 <s> DARK 0.0000
-3.5232 <s> DATA 0.0000
-3.5232 <s> DAUGHTER 0.0000
-3.5232 <s> DEAD -0.1761
-3.5232 <s> DECADENCE 0.0000
-3.2222 <s> DEEP -0.1761
-3.5232 <s> DEEPWATER 0.0000
-3.5232 <s> DEEPWOOD 0.0000
-3.5232 <s> DEFENDER 0.0000
-3.5232 <s> DEFENSE 0.0000
-3.5232 <s> DEIPNO 0.0000
-3.5232 <s> DEMONS 0.0000
-3.5232 <s> DENDRIX 0.0000
-3.5232 <s> DESIRE 0.0000
-3.5232 <s> DESTROY 0.0000
-3.5232 <s> DESTRUCTIVE 0.0000
-3.5232 <s> DETENTION 0.0000
-3.5232 <s> DEUSILLUS 0.0000
-3.5232 <s> DEW 0.0000
-3.5232 <s> DEXTRE 0.0000
-3.5232 <s> DEXUS 0.0000
-3.5232 <s> DHARNA 0.0000
-3.5232 <s> DIAMETRIC 0.0000
-3.5232 <s> DIMENSION 0.0000
-2.6781 <s> DINO -0.0000
-3.5232 <s> DINOSAURS 0.0000
-3.5232 <s> DIPLO 0.0000
-3.2222 <s> DIPLOMAT 0.0000
-3.5232 <s> DIRECTOR 0.0000
-3.2222 <s> DIS -0.2341
-3.5232 <s> DISCIPLE 0.0000
-3.5232 <s> DISCOMBOBULATOR 0.0000
-3.5232 <s> DISRUPTION 0.0000
-3.5232 <s> DIVE 0.0000
-3.5232 <s> DOC 0.0000
-3.5232 <s> DOCTOR 0.0000
-3.5232 <s> DODGER 0.0000
-3.5232 <s> DOMINATOR -0.1761
-3.5232 <s> DOOM -0.2430
-3.5232 <s> DOORSTEP 0.0000
-3.5232 <s> DOUBLE 0.0000
-3.0461 <s> DR 0.0000
-3.5232 <s> DRACO 0.0000
-3.5232 <s> DRAGNET 0.0000
-3.5232 <s> DRAINING 0.0000
-3.5232 <s> DRAWN 0.0000
-3.5232 <s> DREADBONE 0.0000
-3.5232 <s> DRECKER 0.0000
-3.5232 <s> DREDGING 0.0000
-3.5232 <s> DRUMBLE 0.0000
-3.5232 <s> DRUMMERNAUT 0.0000
-3.5232 <s> DRY 0.0000
-3.5232 <s> DTHOSHRA 0.0000
-3.5232 <s> DUMA -0.1761
-3.5232 <s> DUSK 0.0000
-3.5232 <s> DUSKRUNNER 0.0000
-3.5232 <s> DUSKWITCH 0.0000
-3.2222 <s> DUST 0.0000
-3.5232 <s> DYSANIA 0.0000
-3.5232 <s> EARLY 0.0000
-3.5232 <s> EARTHBIND 0.0000
-3.5232 <s> EARTHSHAKER 0.0000
-3.5232 <s> EASY 0.0000
-3.5232 <s> EATER -0.1761
-3.2222 <s> ECHO 0.0000
-3.0461 <s> ECLECTIC 0.0000
-3.5232 <s> EDAI 0.0000
-3.5232 <s> EDICT 0.0000
-3.5232 <s> EE 0.0000
-3.5232 <s> EFFERVESCENT 0.0000
-3.5232 <s> EFFIGY 0.0000
-3.5232 <s> ELDEST 0.0000
-3.5232 <s> ELECTION 0.0000
-3.5232 <s> EMBER 0.0000
-3.5232 <s> EMP 0.0000
-3.5232 <s> ENCOUNTER 0.0000
-3.5232 <s> ENDLESS 0.0000
-3.5232 <s> ENLIST 0.0000
-3.5232 <s> ENSIGN 0.0000
-3.2222 <s> ENTROPIC 0.0000
-3.5232 <s> ENVOY 0.0000
-3.5232 <s> ENVY 0.0000
-3.2222 <s> EPIC 0.0000
-3.5232 <s> EQUALIZE 0.0000
-3.5232 <s> ESSENCE 0.0000
-3.5232 <s> ETANS 0.0000
-3.5232 <s> ETAROMME 0.0000
-3.5232 <s> ETHER 0.0000
-3.5232 <s> EUNOIA 0.0000
-3.5232 <s> EUREKA 0.0000
-3.5232 <s> EVASION 0.0000
-3.5232 <s> EVEN 0.0000
-3.2222 <s> EXCHANGE -0.1761
-3.5232 <s> EXHUME 0.0000
-3.5232 <s> EXILE 0.0000
-3.5232 <s> EXO 0.0000
-3.5232 <s> EXPERIMENTAL 0.0000
-3.5232 <s> EXPLO 0.0000
-3.5232 <s> EXPLORATORY 0.0000
-3.5232 <s> EXPLORER 0.0000
-3.5232 <s> EXTERMINATE -0.1761
-3.5232 <s> EXTINCTION 0.0000
-3.5232 <s> EXTREMATODE 0.0000
-3.5232 <s> EYE -0.2430
-3.5232 <s> EYEGOR 0.0000
-3.5232 <s> FANDANGLE 0.0000
-3.5232 <s> FANGHOUSE 0.0000
-3.5232 <s> FANGS 0.0000
-3.5232 <s> FANGTOOTH 0.0000
-3.5232 <s> FATHOM 0.0000
-3.5232 <s> FAUST -0.1761
-3.5232 <s> FAVOR 0.0000
-3.5232 <s> FAYGIN 0.0000
-3.5232 <s> FEAR 0.0000
-3.5232 <s> FEATS 0.0000
-3.5232 <s> FEEDING 0.0000
-3.5232 <s> FERTILITY 0.0000
-3.5232 <s> FESTERING 0.0000
-3.5232 <s> FETCHDRONES 0.0000
-3.5232 <s> FIDGIT 0.0000
-3.5232 <s> FIFALDE 0.0000
-3.5232 <s> FIGHT 0.0000
-3.5232 <s> FILA 0.0000
-3.5232 <s> FINAL 0.0000
-3.5232 <s> FINCH 0.0000
-3.5232 <s> FINISHING 0.0000
-3.5232 <s> FIRESPITTER 0.0000
-3.0461 <s> FIRST -0.1461
-3.5232 <s> FISH 0.0000
-3.5232 <s> FISSION 0.0000
-3.5232 <s> FLAME 0.0000
-3.2222 <s> FLAMEGILL 0.0000
-3.5232 <s> FLAMETHROWER 0.0000
-3.5232 <s> FLAMEWAKE 0.0000
-3.5232 <s> FLASH 0.0000
-3.5232 <s> FLAXIA 0.0000
-3.5232 <s> FLEA 0.0000
-3.5232 <s> FLOOMF 0.0000
-3.5232 <s> FLOUNDERIGHT 0.0000
-3.5232 <s> FOF 0.0000
-3.5232 <s> FOGBANK 0.0000
-3.5232 <s> FOGGIFY 0.0000
-3.5232 <s> FOLLOW 0.0000
-3.5232 <s> FONT 0.0000
-3.5232 <s> FOOZLE 0.0000
-3.5232 <s> FORCE -0.1761
-3.5232 <s> FORCED 0.0000
-3.5232 <s> FORGE -0.2430
-3.5232 <s> FORGEMASTER 0.0000
-3.5232 <s> FORGING 0.0000
-3.5232 <s> FORGIVE 0.0000
-3.5232 <s> FORUM 0.0000
-3.5232 <s> FRANCIS 0.0000
-3.5232 <s> FRANCUS 0.0000
-3.5232 <s> FRANES 0.0000
-3.5232 <s> FREE 0.0000
-3.2222 <s> FREEBOOTER 0.0000
-3.5232 <s> FREELANCER 0.0000
-3.5232 <s> FRESH 0.0000
-3.5232 <s> FRIENDLY 0.0000
-3.5232 <s> FRIENDSHIP 0.0000
-3.5232 <s> FRIGORIFIC 0.0000
-3.5232 <s> FROST 0.0000
-3.5232 <s> FUGURU 0.0000
-3.5232 <s> FULL 0.0000
-3.5232 <s> FURTIVE 0.0000
-3.5232 <s> FUTURE -0.1761
-3.5232 <s> FUZZY 0.0000
-3.5232 <s> FYRE 0.0000
-3.5232 <s> GABOS 0.0000
-3.5232 <s> GALACTIC 0.0000
-3.5232 <s> GALEATOPS 0.0000
-3.5232 <s> GAMBLING 0.0000
-3.5232 <s> GAMGEE 0.0000
-3.5232 <s> GANGER 0.0000
-3.2222 <s> GANYMEDE 0.0000
-3.5232 <s> GARCIAS 0.0000
-3.5232 <s> GARGANTES 0.0000
-3.5232 <s> GARGANTODON 0.0000
-3.5232 <s> GAS 0.0000
-3.5232 <s> GATEKEEPER 0.0000
-3.5232 <s> GATEWAY -0.1761
-3.5232 <s> GAUNTLET 0.0000
-3.5232 <s> GEBUK 0.0000
-3.5232 <s> GED 0.0000
-3.5232 <s> GEMCOAT 0.0000
-2.9212 <s> GENERAL 0.0000
-3.5232 <s> GENEROUS 0.0000
-3.2222 <s> GENETIC 0.0000
-3.5232 <s> GEZDRUTYO 0.0000
-3.5232 <s> GEZRAHI 0.0000
-3.5232 <s> GHOSTFORM 0.0000
-3.5232 <s> GHOSTHAWK 0.0000
-3.5232 <s> GHOSTLY 0.0000
-3.2222 <s> GIANT -0.1761
-3.5232 <s> GIANTS -0.1761
-3.0461 <s> GILTSPINE -0.0969
-3.0461 <s> GIZELHARTS 0.0000
-3.5232 <s> GLADIODONTUS 0.0000
-3.5232 <s> GLEEFUL 0.0000
-3.5232 <s> GLIMMER 0.0000
-3.5232 <s> GLORIANAS 0.0000
-3.5232 <s> GLORIOUS 0.0000
-3.5232 <s> GLUTTONY 0.0000
-3.5232 <s> GLYLYX 0.0000
-3.5232 <s> GLYXL 0.0000
-3.5232 <s> GOLD 0.0000
-3.5232 <s> GOLDEN -0.1761
-3.5232 <s> GONGOOZLE 0.0000
-3.5232 <s> GOOD 0.0000
-3.5232 <s> GORM -0.1761
-3.5232 <s> GRABBER 0.0000
-3.5232 <s> GRAMMATICUS 0.0000
-3.2222 <s> GRAND -0.1249
-3.5232 <s> GRASPING 0.0000
-3.5232 <s> GRAVELGUTS 0.0000
-3.5232 <s> GRAVID 0.0000
-3.5232 <s> GREATER 0.0000
-3.5232 <s> GREED 0.0000
-3.5232 <s> GREEN -0.1761
-3.5232 <s> GRENADE 0.0000
-2.9212 <s> GREY -0.1549
-3.5232 <s> GRIM -0.2218
-3.5232 <s> GRIMLOCUS 0.0000
-3.5232 <s> GROGGINS 0.0000
-3.5232 <s> GROKE 0.0000
-3.5232 <s> GROKES 0.0000
-3.5232 <s> GROMMID 0.0000
-3.5232 <s> GRON 0.0000
-3.5232 <s> GRONDAL 0.0000
-3.5232 <s> GRONS 0.0000
-3.5232 <s> GROUNDBREAKING 0.0000
-3.5232 <s> GROUPTHINK 0.0000
-3.5232 <s> GROVEKEEPER 0.0000
-3.5232 <s> GROWTH 0.0000
-3.5232 <s> GRUMP 0.0000
-3.2222 <s> GRUMPUS 0.0000
-3.2222 <s> GRUNT 0.0000
-3.5232 <s> GUARD -0.1761
-3.5232 <s> GUARDIAN -0.2218
-3.5232 <s> GUB 0.0000
-3.5232 <s> GUILTY 0.0000
-3.5232 <s> GUJI 0.0000
-3.5232 <s> HADRON 0.0000
-3.5232 <s> HAEDROTHS 0.0000
-3.5232 <s> HALACOR 0.0000
-3.5232 <s> HALLAFEST 0.0000
-3.2222 <s> HALLOWED 0.0000
-3.5232 <s> HALO 0.0000
-3.5232 <s> HAMMER -0.2218
-3.2222 <s> HAND -0.1761
-3.5232 <s> HAPLESS 0.0000
-3.5232 <s> HAPSIS 0.0000
-3.5232 <s> HARBINGER -0.1761
-3.2222 <s> HARD 0.0000
-3.5232 <s> HARLAND 0.0000
-3.5232 <s> HARMAL 0.0000
-3.5232 <s> HARMONIA 0.0000
-3.5232 <s> HARMONIC 0.0000
-3.5232 <s> HARVEST 0.0000
-3.5232 <s> HASTATUS 0.0000
-3.5232 <s> HAYDEN 0.0000
-3.5232 <s> HAYYEL 0.0000
-3.5232 <s> HEADHUNTER 0.0000
-3.5232 <s> HEAL 0.0000
-3.5232 <s> HEALING 0.0000
-3.5232 <s> HEART -0.1761
-3.5232 <s> HEAVY 0.0000
-3.5232 <s> HEBE 0.0000
-3.5232 <s> HECATOMB 0.0000
-3.5232 <s> HEDONISTIC 0.0000
-3.5232 <s> HEIST 0.0000
-3.5232 <s> HELMSMAN 0.0000
-3.5232 <s> HELP 0.0000
-3.5232 <s> HELPER 0.0000
-3.5232 <s> HEXPION 0.0000
-3.5232 <s> HIDDEN 0.0000
-3.5232 <s> HIDEAWAY 0.0000
-3.5232 <s> HIGH 0.0000
-3.5232 <s> HIRE 0.0000
-3.5232 <s> HIT 0.0000
-3.5232 <s> HOBNOBBER 0.0000
-3.5232 <s> HOBNOBBER-EVIL 0.0000
-3.5232 <s> HOCK 0.0000
-3.5232 <s> HOLD 0.0000
-3.5232 <s> HOLDFAST 0.0000
-3.5232 <s> HOLOGRAMMOPHONE 0.0000
-3.5232 <s> HONOR 0.0000
-3.5232 <s> HONORABLE 0.0000
-3.5232 <s> HONORS 0.0000
-3.5232 <s> HOOKMASTER 0.0000
-3.5232 <s> HOPLITES 0.0000
-3.5232 <s> HORNSWOGGLE 0.0000
-3.2222 <s> HORRID 0.0000
-2.9212 <s> HORSEMAN 0.0000
-3.5232 <s> HUGGER 0.0000
-3.5232 <s> HUMANS 0.0000
-3.5232 <s> HUMBLE 0.0000
-3.5232 <s> HUNTER -0.1761
-3.5232 <s> HUNTING -0.2218
-3.5232 <s> HYDE 0.0000
-3.5232 <s> HYDROCATALOGUER 0.0000
-3.5232 <s> HYMN 0.0000
-3.5232 <s> HYPNOBEAM 0.0000
-3.5232 <s> HYPNOTIC 0.0000
-3.5232 <s> HYPOXIA 0.0000
-3.5232 <s> HYSTERIA 0.0000
-3.5232 <s> HYSTRICOG 0.0000
-3.2222 <s> IGON 0.0000
-3.5232 <s> IKWIJI 0.0000
-3.5232 <s> IMP -0.2730
-3.5232 <s> IMPERATOR 0.0000
-2.9212 <s> IMPERIAL 0.0000
-3.5232 <s> IMPERIUM 0.0000
-3.5232 <s> IMPRINTED 0.0000
-3.5232 <s> IMPSPECTOR 0.0000
-3.5232 <s> INCUBATION 0.0000
-3.5232 <s> INFIGHTING 0.0000
-3.5232 <s> INFOMANCER 0.0000
-3.5232 <s> INFOMORPH 0.0000
-3.2222 <s> INFORMATION 0.0000
-3.5232 <s> INFURNACE 0.0000
-3.5232 <s> INGRAMS 0.0000
-3.5232 <s> INITIATION 0.0000
-3.5232 <s> INKA 0.0000
-3.5232 <s> INKY 0.0000
-3.5232 <s> INSPIRATION 0.0000
-3.5232 <s> INSPIRING 0.0000
-3.5232 <s> INSTRUMENT 0.0000
-3.5232 <s> INSURANCE 0.0000
-3.5232 <s> INTERDIMENSIONAL 0.0000
-3.2222 <s> INTO -0.1249
-3.5232 <s> INVASION 0.0000
-3.5232 <s> IRESTAFF 0.0000
-3.5232 <s> IRON -0.1761
-2.9212 <s> IRONYX 0.0000
-3.5232 <s> IRRADIATED 0.0000
-3.5232 <s> ISOTROPIC 0.0000
-3.5232 <s> ISS 0.0000
-3.5232 <s> ITS 0.0000
-3.5232 <s> IXXYXLI 0.0000
-3.5232 <s> J 0.0000
-3.5232 <s> JACKIE 0.0000
-3.5232 <s> JAMMER -0.1761
-3.5232 <s> JARGOGLE 0.0000
-3.5232 <s> JARL 0.0000
-3.5232 <s> JEHU 0.0000
-3.5232 <s> JOHN 0.0000
-3.5232 <s> JOHNNY 0.0000
-3.5232 <s> JON 0.0000
-3.5232 <s> KABOOM 0.0000
-3.5232 <s> KALOCH 0.0000
-3.5232 <s> KAMALANI 0.0000
-3.5232 <s> KANGAPHANT 0.0000
-3.5232 <s> KARTANOO 0.0000
-3.5232 <s> KASSIEL 0.0000
-3.5232 <s> KATERINA 0.0000
-3.5232 <s> KAUPE 0.0000
-3.5232 <s> KAUPE-EVIL 0.0000
-3.5232 <s> KELIFI 0.0000
-3.5232 <s> KELPING 0.0000
-3.5232 <s> KELPMINDER 0.0000
-3.5232 <s> KERWOLLOP 0.0000
-2.8243 <s> KEY -0.1761
-3.5232 <s> KEYFORGERY 0.0000
-3.5232 <s> KEYFROG 0.0000
-3.5232 <s> KHRKHARS 0.0000
-3.5232 <s> KILIGOGS 0.0000
-3.5232 <s> KILLZORD 0.0000
-3.5232 <s> KINDRITH 0.0000
-3.5232 <s> KING 0.0000
-3.5232 <s> KIRBYS 0.0000
-3.5232 <s> KIRI 0.0000
-3.5232 <s> KNIGHTAPULT 0.0000
-3.5232 <s> KNOWLEDGE -0.1761
-3.5232 <s> KNOXX 0.0000
-3.5232 <s> KNUCKLES 0.0000
-3.5232 <s> KOMPSOS 0.0000
-3.5232 <s> KRETCHEE 0.0000
-3.5232 <s> KRRRZZZAAAP 0.0000
-3.5232 <s> KRUMP 0.0000
-3.5232 <s> KYMOOR 0.0000
-3.5232 <s> LABWORK 0.0000
-3.2222 <s> LADY 0.0000
-3.5232 <s> LAMINDRA 0.0000
-3.5232 <s> LAPISAURUS 0.0000
-3.5232 <s> LAPISAURUS-EVIL 0.0000
-3.2222 <s> LARIE 0.0000
-3.5232 <s> LASH 0.0000
-3.5232 <s> LATERAL 0.0000
-3.5232 <s> LAVA -0.1761
-3.5232 <s> LAY 0.0000
-3.5232 <s> LCDR 0.0000
-3.5232 <s> LEGATUS 0.0000
-3.5232 <s> LEGIONARY -0.2218
-3.5232 <s> LEGIONS 0.0000
-3.5232 <s> LESSER 0.0000
-3.5232 <s> LETHAL 0.0000
-3.5232 <s> LETHOLOGICA 0.0000
-3.5232 <s> LIAM 0.0000
-2.8243 <s> LIBRARY 0.0000
-3.0461 <s> LIEUTENANT 0.0000
-3.5232 <s> LIFE -0.2553
-3.5232 <s> LIFEWARD 0.0000
-3.5232 <s> LIFEWEB 0.0000
-3.2222 <s> LIGHT -0.1249
-3.5232 <s> LIGHTBRINGER -0.1761
-3.5232 <s> LIGHTS 0.0000
-3.2222 <s> LIGHTSMITH 0.0000
-3.5232 <s> LILITHAL 0.0000
-3.5232 <s> LION 0.0000
-3.2222 <s> LITTLE 0.0000
-3.5232 <s> LIVIA 0.0000
-3.5232 <s> LLACK 0.0000
-3.2222 <s> LOGOS 0.0000
-3.5232 <s> LOLLOP 0.0000
-3.5232 <s> LOMIR 0.0000
-3.5232 <s> LONGFUSED 0.0000
-3.5232 <s> LONGUSAUR 0.0000
-3.2222 <s> LOOK 0.0000
-3.2222 <s> LOOT 0.0000
-3.5232 <s> LOOTER 0.0000
-3.2222 <s> LORD 0.0000
-3.5232 <s> LOST 0.0000
-3.5232 <s> LOW -0.1761
-3.5232 <s> LUCKY 0.0000
-3.5232 <s> LUMILU 0.0000
-3.5232 <s> LUPO 0.0000
-2.7451 <s> LYCO 0.0000
-3.5232 <s> MAB 0.0000
-3.5232 <s> MACIS 0.0000
-3.5232 <s> MACK 0.0000
-3.5232 <s> MAD -0.1761
-3.5232 <s> MAGDA 0.0000
-3.2222 <s> MAGISTRA 0.0000
-3.5232 <s> MAGISTRATE 0.0000
-3.5232 <s> MAKE -0.1761
-3.5232 <s> MALEFICORN 0.0000
-3.5232 <s> MALISON 0.0000
-3.5232 <s> MALSTROM 0.0000
-3.5232 <s> MANCHEGO 0.0000
-3.5232 <s> MANTLE 0.0000
-3.5232 <s> MARK 0.0000
-3.5232 <s> MARKET -0.2218
-3.5232 <s> MARMO 0.0000
-3.0461 <s> MARS 0.0000
-3.5232 <s> MARSHAL 0.0000
-3.0461 <s> MARTIAN 0.0000
-3.5232 <s> MARTIANS 0.0000
-3.5232 <s> MARTYR -0.1761
-3.5232 <s> MARTYRS 0.0000
-3.5232 <s> MARUCK 0.0000
-3.2222 <s> MASS 0.0000
-2.8243 <s> MASTER -0.0669
-3.5232 <s> MASTERMINDY 0.0000
-3.5232 <s> MASTERPLAN 0.0000
-3.5232 <s> MATING 0.0000
-3.5232 <s> MATTER -0.1761
-3.5232 <s> MECHABUOY 0.0000
-3.5232 <s> MEDIC 0.0000
-3.5232 <s> MEDICUS 0.0000
-2.6201 <s> MEGA 0.0000
-3.5232 <s> MEMBERSHIP 0.0000
-3.5232 <s> MEMOLITH 0.0000
-3.5232 <s> MEMORY 0.0000
-3.5232 <s> MEMROX 0.0000
-3.5232 <s> MERCY 0.0000
-3.2222 <s> MIASMA 0.0000
-3.2222 <s> MIGHT 0.0000
-3.0461 <s> MIGHTY 0.0000
-3.5232 <s> MIMIC 0.0000
-3.5232 <s> MIMICRY 0.0000
-3.0461 <s> MIND -0.0969
-3.5232 <s> MINDFIRE 0.0000
-3.5232 <s> MINDWARPER 0.0000
-3.5232 <s> MINDWORM 0.0000
-3.5232 <s> MINI 0.0000
-3.5232 <s> MIRROR -0.1761
-3.5232 <s> MISERY 0.0000
-3.5232 <s> MK2 0.0000
-3.5232 <s> MOBIUS 0.0000
-3.5232 <s> MOGGHUNTER 0.0000
-3.5232 <s> MOGGHUNTERS 0.0000
-3.5232 <s> MOLE 0.0000
-3.5232 <s> MOLEPHIN 0.0000
-3.5232 <s> MOLINAS 0.0000
-3.5232 <s> MOLLUSCALLER 0.0000
-3.5232 <s> MOLLYMAWK 0.0000
-3.2222 <s> MONTY 0.0000
-2.8243 <s> MONUMENT 0.0000
-3.5232 <s> MOOKLING 0.0000
-3.5232 <s> MOOKLING-EVIL 0.0000
-3.5232 <s> MOONCURSER 0.0000
-3.5232 <s> MOOR 0.0000
-3.2222 <s> MOTHER 0.0000
-3.5232 <s> MOTHERGUN 0.0000
-3.5232 <s> MOTHERSHIP 0.0000
-3.5232 <s> MUG 0.0000
-3.5232 <s> MUGWUMP 0.0000
-3.5232 <s> MUNCHLING 0.0000
-3.5232 <s> MURKENS 0.0000
-3.5232 <s> MURMOOK 0.0000
-3.2222 <s> MUSHROOM 0.0000
-3.5232 <s> MUSTER 0.0000
-3.5232 <s> MUSTHIC 0.0000
-3.5232 <s> MUTAGENESIS 0.0000
-3.5232 <s> MUTAGENIC 0.0000
-3.5232 <s> MUTANT 0.0000
-3.0461 <s> MUTATION 0.0000
-3.5232 <s> MYLIOBE 0.0000
-3.5232 <s> MYX 0.0000
-3.5232 <s> NARP 0.0000
-3.5232 <s> NARPS 0.0000
-3.5232 <s> NATURES 0.0000
-3.5232 <s> NAUTILIXIAN 0.0000
-3.5232 <s> NAVIGATOR 0.0000
-3.5232 <s> NEFFRU 0.0000
-3.5232 <s> NEPENTHE 0.0000
-3.5232 <s> NEPETA 0.0000
-3.5232 <s> NEROTAURUS 0.0000
-3.5232 <s> NERVE 0.0000
-3.5232 <s> NEURO 0.0000
-3.5232 <s> NEUTRON 0.0000
-3.5232 <s> NEW 0.0000
-3.5232 <s> NEXUS 0.0000
-2.8243 <s> NIFFLE 0.0000
-3.5232 <s> NIGHTFORGE 0.0000
-3.5232 <s> NIRBOR 0.0000
-3.5232 <s> NIZAK 0.0000
-3.5232 <s> NO -0.2430
-3.5232 <s> NOCTURNAL 0.0000
-3.5232 <s> NODDY 0.0000
-3.5232 <s> NOGI 0.0000
-3.5232 <s> NONAME 0.0000
-3.5232 <s> NORBYNS 0.0000
-3.5232 <s> NOT -0.1761
-3.2222 <s> NOVU 0.0000
-3.5232 <s> NUMQUID 0.0000
-3.5232 <s> NURSE 0.0000
-3.5232 <s> NYYON 0.0000
-3.5232 <s> NYZYK 0.0000
-3.5232 <s> OATH 0.0000
-3.5232 <s> OBSERV 0.0000
-3.5232 <s> OBSIDIAN 0.0000
-3.5232 <s> ODD 0.0000
-3.5232 <s> ODOAC 0.0000
-3.5232 <s> OFFERING 0.0000
-3.5232 <s> OFFICERS 0.0000
-3.5232 <s> OGOPOGO 0.0000
-3.2222 <s> OL 0.0000
-2.8243 <s> OLD -0.0669
-3.5232 <s> OMNIPUS 0.0000
-2.8243 <s> ONE -0.1383
-3.5232 <s> ONYX 0.0000
-3.5232 <s> OPAL 0.0000
-3.5232 <s> OPERATIONS 0.0000
-3.2222 <s> OPERATIVE 0.0000
-3.5232 <s> OPPORTUNIST 0.0000
-3.5232 <s> OPPOSITION 0.0000
-3.5232 <s> OPTIO 0.0000
-3.5232 <s> ORATOR 0.0000
-3.2222 <s> ORB 0.0000
-3.5232 <s> ORBITAL 0.0000
-3.5232 <s> ORNATE 0.0000
-3.5232 <s> ORPHIEL 0.0000
-3.5232 <s> ORPHION 0.0000
-3.5232 <s> ORTANNU 0.0000
-3.5232 <s> ORTANNUS 0.0000
-3.5232 <s> OSTENTATIOUS 0.0000
-3.5232 <s> OSTRACIZE 0.0000
-3.5232 <s> OUBLIETTE 0.0000
-3.5232 <s> OUTFLANK 0.0000
-3.5232 <s> OUTNEGOTIATE 0.0000
-3.5232 <s> OVERLORD 0.0000
-3.5232 <s> OVERRUN 0.0000
-3.5232 <s> OZMO 0.0000
-3.5232 <s> PAIN -0.2218
-3.5232 <s> PAINMAIL 0.0000
-3.5232 <s> PALE -0.1761
-3.5232 <s> PANDEMONIUM 0.0000
-3.5232 <s> PANDULF 0.0000
-3.2222 <s> PANPACA 0.0000
-3.5232 <s> PARAGUARDIAN 0.0000
-3.5232 <s> PARTICLE -0.1761
-3.5232 <s> PATRONAGE 0.0000
-3.5232 <s> PAWN 0.0000
-3.5232 <s> PAX 0.0000
-3.5232 <s> PEACE 0.0000
-3.5232 <s> PELF 0.0000
-3.5232 <s> PERILOUS 0.0000
-3.5232 <s> PERPLEXING 0.0000
-3.5232 <s> PERSISTENCE 0.0000
-3.5232 <s> PESTERGROVE 0.0000
-3.5232 <s> PESTERING 0.0000
-3.2222 <s> PHALANX 0.0000
-3.5232 <s> PHASE 0.0000
-3.5232 <s> PHILOPHOSAURUS 0.0000
-3.5232 <s> PHLOXEM -0.1761
-3.5232 <s> PHOENIX 0.0000
-3.5232 <s> PHOSPHORUS 0.0000
-3.5232 <s> PHOTIC 0.0000
-3.5232 <s> PHOTON 0.0000
-3.5232 <s> PHYLYX 0.0000
-3.5232 <s> PHYSALOHA 0.0000
-3.2222 <s> PHYSICUS 0.0000
-3.2222 <s> PI 0.0000
-3.5232 <s> PICAROON 0.0000
-3.5232 <s> PILE 0.0000
-3.5232 <s> PINCERATOR 0.0000
-3.5232 <s> PINGLE 0.0000
-3.5232 <s> PIP -0.1761
-3.5232 <s> PIRANHA 0.0000
-3.5232 <s> PISMIRE 0.0000
-3.5232 <s> PIT -0.2218
-3.5232 <s> PITLORD 0.0000
-3.5232 <s> PLAGUE -0.1761
-3.5232 <s> PLASMA 0.0000
-3.5232 <s> PLATOPELTA 0.0000
-3.5232 <s> PLAY 0.0000
-3.5232 <s> PLUNDER 0.0000
-3.5232 <s> POCKET 0.0000
-3.5232 <s> POISON 0.0000
-3.5232 <s> POKE 0.0000
-3.5232 <s> POLTERGEIST 0.0000
-3.5232 <s> PORTALMONGER 0.0000
-3.5232 <s> POS 0.0000
-3.5232 <s> POSITRON 0.0000
-3.5232 <s> POTION 0.0000
-3.5232 <s> POUND 0.0000
-3.5232 <s> POUR 0.0000
-3.5232 <s> POWER -0.2218
-3.5232 <s> PRAEFECTUS 0.0000
-3.5232 <s> PRAETOR 0.0000
-3.5232 <s> PRESCRIPTIVE 0.0000
-3.5232 <s> PRESS 0.0000
-3.5232 <s> PRIDE 0.0000
-3.5232 <s> PRIEST -0.2218
-3.5232 <s> PRIMAL 0.0000
-3.5232 <s> PRIMUS -0.2218
-3.5232 <s> PRINCE 0.0000
-3.5232 <s> PROCLAMATION 0.0000
-3.0461 <s> PROF 0.0000
-3.2222 <s> PROFESSOR 0.0000
-3.5232 <s> PROJECT 0.0000
-3.5232 <s> PROSPECTOR 0.0000
-3.5232 <s> PROTECT -0.1761
-3.5232 <s> PROTECTRIX 0.0000
-3.5232 <s> PSIONIC 0.0000
-3.2222 <s> PSYCHIC 0.0000
-3.5232 <s> PULL 0.0000
-3.5232 <s> PUNCH 0.0000
-3.5232 <s> PUNCTUATED 0.0000
-3.5232 <s> PUPGRADE 0.0000
-3.5232 <s> PURIFIER 0.0000
-3.5232 <s> PURIFY 0.0000
-3.5232 <s> PURPLE 0.0000
-3.5232 <s> PUZZLING 0.0000
-3.5232 <s> PYR0 0.0000
-3.5232 <s> Q 0.0000
-3.5232 <s> QINCANS 0.0000
-3.5232 <s> QUADRACORDER 0.0000
-3.5232 <s> QUANT 0.0000
-3.5232 <s> QUANTUM 0.0000
-3.5232 <s> QUESTOR 0.0000
-3.5232 <s> QUICKSAND 0.0000
-3.2222 <s> QUINTRINO 0.0000
-3.5232 <s> QUIXO 0.0000
-3.5232 <s> QUIXXLE 0.0000
-3.5232 <s> QYXXLYX 0.0000
-3.5232 <s> R 0.0000
-3.5232 <s> RAD 0.0000
-3.5232 <s> RADIANT 0.0000
-3.2222 <s> RAGNAROK 0.0000
-3.5232 <s> RAGWARG 0.0000
-3.5232 <s> RAIDER 0.0000
-3.5232 <s> RAIDING 0.0000
-3.5232 <s> RAKUZELS 0.0000
-3.5232 <s> RAMPAGING 0.0000
-3.5232 <s> RANDOM 0.0000
-3.5232 <s> RANSACK 0.0000
-3.5232 <s> RANSOM 0.0000
-3.5232 <s> RANT 0.0000
-3.5232 <s> RAPID 0.0000
-3.5232 <s> REACH 0.0000
-3.2222 <s> REAP 0.0000
-3.5232 <s> REASSEMBLING 0.0000
-3.5232 <s> REBEL 0.0000
-3.2222 <s> RECKLESS 0.0000
-3.5232 <s> RECLAIMED 0.0000
-3.5232 <s> RECORDED 0.0000
-3.5232 <s> RECRUIT 0.0000
-3.5232 <s> RECRUITING 0.0000
-2.9212 <s> RED -0.1249
-3.5232 <s> REDACTED 0.0000
-3.5232 <s> REDHAND 0.0000
-3.5232 <s> REDLOCK 0.0000
-3.5232 <s> REGRETTABLE 0.0000
-3.5232 <s> REGROWTH 0.0000
-3.0461 <s> RELENTLESS 0.0000
-3.5232 <s> REMOTE 0.0000
-3.5232 <s> RENEWED 0.0000
-3.5232 <s> REPLAY 0.0000
-3.5232 <s> REPLICATOR 0.0000
-3.5232 <s> REQUEST 0.0000
-3.5232 <s> RESEARCH -0.2218
-3.5232 <s> RESEARCHER 0.0000
-3.5232 <s> RESTRINGUNTUS 0.0000
-3.5232 <s> RESURGENCE 0.0000
-3.5232 <s> RETRIBUTION 0.0000
-3.5232 <s> REVERED 0.0000
-3.5232 <s> REVERSE 0.0000
-3.5232 <s> REVNA 0.0000
-3.5232 <s> REVO 0.0000
-3.5232 <s> RHETOR 0.0000
-3.5232 <s> RIGGED 0.0000
-3.5232 <s> RING 0.0000
-2.9212 <s> RITUAL -0.1249
-3.5232 <s> ROCK 0.0000
-3.5232 <s> ROCKET 0.0000
-3.2222 <s> ROCKETEER 0.0000
-3.2222 <s> ROGUE 0.0000
-3.5232 <s> RONNIE 0.0000
-3.5232 <s> ROOFTOP 0.0000
-3.5232 <s> ROTGRUB 0.0000
-3.5232 <s> ROTHAIS 0.0000
-3.5232 <s> ROUND 0.0000
-3.5232 <s> ROUTINE 0.0000
-3.5232 <s> ROWDY 0.0000
-3.5232 <s> ROXADOR 0.0000
-3.5232 <s> RUINS 0.0000
-3.5232 <s> RUSTGNAWER 0.0000
-3.5232 <s> RUSTMISER 0.0000
-3.5232 <s> SABOTAGE 0.0000
-3.5232 <s> SACK 0.0000
-3.5232 <s> SACRIFICIAL 0.0000
-2.7451 <s> SACRO 0.0000
-3.0461 <s> SAFE 0.0000
-3.5232 <s> SAGITTARIIS 0.0000
-3.5232 <s> SAMPLE 0.0000
-3.5232 <s> SANCTUM 0.0000
-3.5232 <s> SANDHOPPER 0.0000
-3.5232 <s> SANITATION 0.0000
-3.5232 <s> SARIEL 0.0000
-3.5232 <s> SAURARIUM 0.0000
-3.2222 <s> SAURIAN 0.0000
-3.5232 <s> SAURUS -0.2730
-3.5232 <s> SAURY 0.0000
-3.5232 <s> SAVAGE 0.0000
-3.5232 <s> SAVE 0.0000
-3.5232 <s> SCHOLAR 0.0000
-3.2222 <s> SCI 0.0000
-3.5232 <s> SCIENCE 0.0000
-3.5232 <s> SCIENTIFICAL 0.0000
-3.5232 <s> SCIENTISTS 0.0000
-3.5232 <s> SCOOP 0.0000
-3.5232 <s> SCOOPED 0.0000
-3.0461 <s> SCOUT 0.0000
-3.5232 <s> SCOWLY 0.0000
-3.5232 <s> SCRAMBLER 0.0000
-3.5232 <s> SCRAPSCROUNGER 0.0000
-3.5232 <s> SCREAMING 0.0000
-3.5232 <s> SCREECHBOMB 0.0000
-3.5232 <s> SCRIVENER 0.0000
-3.5232 <s> SCYLLA 0.0000
-3.5232 <s> SCYPHOS 0.0000
-3.2222 <s> SEA 0.0000
-3.5232 <s> SEABRINGER 0.0000
-3.5232 <s> SECURI 0.0000
-3.2222 <s> SEEKER 0.0000
-3.5232 <s> SEISMO 0.0000
-3.5232 <s> SELECTIVE 0.0000
-3.5232 <s> SELF -0.2218
-3.5232 <s> SELWYN 0.0000
-2.9212 <s> SENATOR 0.0000
-3.2222 <s> SENESCHAL 0.0000
-3.5232 <s> SENSOR 0.0000
-3.5232 <s> SEQUIS 0.0000
-3.5232 <s> SERAPHIC 0.0000
-3.5232 <s> SERGEANT 0.0000
-3.5232 <s> SGS 0.0000
-3.2222 <s> SHADOW -0.1249
-3.5232 <s> SHADOWS 0.0000
-3.5232 <s> SHADOWSAURUS 0.0000
-3.5232 <s> SHAFFLES 0.0000
-3.5232 <s> SHAKEDOWN 0.0000
-2.6781 <s> SHARD 0.0000
-3.5232 <s> SHATTER 0.0000
-3.5232 <s> SHATTERED 0.0000
-3.0461 <s> SHIELD -0.0969
-3.5232 <s> SHIFTING 0.0000
-3.5232 <s> SHIGZISO 0.0000
-3.5232 <s> SHISNYASI 0.0000
-3.2222 <s> SHIZYOKU 0.0000
-3.5232 <s> SHOCK 0.0000
-3.5232 <s> SHOOLER 0.0000
-3.5232 <s> SHOPPING 0.0000
-3.5232 <s> SHORTY 0.0000
-3.5232 <s> SHORTYS 0.0000
-3.2222 <s> SHOULDER 0.0000
-3.5232 <s> SHREWD 0.0000
-3.5232 <s> SIBYL 0.0000
-3.5232 <s> SIC 0.0000
-3.5232 <s> SIGIL -0.2430
-3.5232 <s> SIGNAL 0.0000
-3.5232 <s> SILENT 0.0000
-3.5232 <s> SILVER 0.0000
-3.5232 <s> SILVERTOOTH 0.0000
-3.5232 <s> SINDER 0.0000
-3.5232 <s> SINESTRA 0.0000
-3.5232 <s> SINK 0.0000
-3.0461 <s> SIR 0.0000
-3.5232 <s> SIREN 0.0000
-3.5232 <s> SKELETON 0.0000
-3.5232 <s> SKIPPY 0.0000
-3.5232 <s> SKIRMISHER 0.0000
-3.5232 <s> SKIXUNO 0.0000
-3.5232 <s> SKULLBACK 0.0000
-3.5232 <s> SKULLION 0.0000
-3.5232 <s> SKYBOOSTER 0.0000
-3.5232 <s> SKöLL 0.0000
-3.5232 <s> SLEEP 0.0000
-3.5232 <s> SLIMY 0.0000
-3.5232 <s> SLOPPY 0.0000
-3.5232 <s> SLOTH 0.0000
-3.5232 <s> SLRS 0.0000
-3.5232 <s> SMAAASH 0.0000
-3.5232 <s> SMILING 0.0000
-3.5232 <s> SMITE 0.0000
-3.5232 <s> SMITH 0.0000
-3.5232 <s> SNAG 0.0000
-3.5232 <s> SNAGLET 0.0000
-3.5232 <s> SNAGS 0.0000
-3.5232 <s> SNARETTE 0.0000
-3.5232 <s> SNEKLIFTER 0.0000
-3.5232 <s> SNIFFER 0.0000
-3.5232 <s> SNUDGE 0.0000
-3.5232 <s> SNUFFLEGATOR 0.0000
-3.5232 <s> SOBOGGS 0.0000
-3.5232 <s> SOCRATEROSAURUS 0.0000
-3.5232 <s> SOFT 0.0000
-3.5232 <s> SOLDIERS 0.0000
-3.5232 <s> SOLEFT 0.0000
-3.2222 <s> SONG 0.0000
-3.2222 <s> SOUL 0.0000
-3.5232 <s> SOULKEEPER 0.0000
-3.5232 <s> SOUND 0.0000
-3.5232 <s> SOW -0.1761
-3.5232 <s> SPACE 0.0000
-3.5232 <s> SPANGLER 0.0000
-3.5232 <s> SPARKFIST 0.0000
-3.5232 <s> SPARTASAUR 0.0000
-3.2222 <s> SPECIAL 0.0000
-3.5232 <s> SPECIALIST 0.0000
-3.5232 <s> SPECTRAL 0.0000
-3.5232 <s> SPEED 0.0000
-3.5232 <s> SPIKE -0.1761
-3.5232 <s> SPLINTER 0.0000
-3.5232 <s> SPOILS 0.0000
-3.5232 <s> SPOREGORGER 0.0000
-3.5232 <s> SPOREGORGER-EVIL 0.0000
-3.5232 <s> SPYYYDER 0.0000
-3.5232 <s> SQUAWKER 0.0000
-3.0461 <s> SQUIRE 0.0000
-3.5232 <s> STAFF 0.0000
-3.5232 <s> STAMPEDE 0.0000
-3.5232 <s> STANDARDIZED 0.0000
-3.5232 <s> STAR -0.1761
-3.2222 <s> STATIC 0.0000
-3.5232 <s> STAUNCH 0.0000
-3.5232 <s> STEALER 0.0000
-3.5232 <s> STEALTH 0.0000
-3.5232 <s> STEALTHSTER 0.0000
-3.5232 <s> STEWARD 0.0000
-3.5232 <s> STILT 0.0000
-3.2222 <s> STIR 0.0000
-3.5232 <s> STIRRING 0.0000
-3.5232 <s> STOMP 0.0000
-3.2222 <s> STORM -0.1761
-3.0461 <s> STRANGE 0.0000
-3.5232 <s> STRATOSMACK 0.0000
-3.5232 <s> STREKE 0.0000
-3.5232 <s> STRONGER 0.0000
-3.5232 <s> STUNNER 0.0000
-3.5232 <s> SUBDUE 0.0000
-3.5232 <s> SUBJECT 0.0000
-3.5232 <s> SUBMERSIBLE 0.0000
-3.5232 <s> SUBMERSIVE 0.0000
-3.0461 <s> SUBTLE 0.0000
-3.5232 <s> SUCCUBUS 0.0000
-3.5232 <s> SUCKER 0.0000
-3.5232 <s> SUNK 0.0000
-3.5232 <s> SURVEY 0.0000
-3.5232 <s> SUSPENDED 0.0000
-3.5232 <s> SV3 0.0000
-3.5232 <s> SWALLOW 0.0000
-3.5232 <s> SWAP 0.0000
-3.5232 <s> SWINDLE 0.0000
-3.5232 <s> SYMON 0.0000
-3.5232 <s> SYMPOSIUM 0.0000
-3.5232 <s> T3R 0.0000
-3.5232 <s> TACHYON 0.0000
-3.5232 <s> TACTICAL 0.0000
-3.2222 <s> TAKE 0.0000
-3.5232 <s> TALENT 0.0000
-3.2222 <s> TALMAGE 0.0000
-3.5232 <s> TANGAIKA 0.0000
-3.5232 <s> TANIWHA 0.0000
-3.5232 <s> TANIWHA-EVIL 0.0000
-3.5232 <s> TANTADLIN 0.0000
-3.5232 <s> TAUTAU 0.0000
-3.5232 <s> TAXING 0.0000
-3.5232 <s> TE 0.0000
-3.5232 <s> TEAMWORK 0.0000
-3.5232 <s> TECHIVORE 0.0000
-2.7451 <s> TECHNO 0.0000
-3.5232 <s> TECHNOBABBLE 0.0000
-3.5232 <s> TECTONIC 0.0000
-3.5232 <s> TELEPORTER 0.0000
-3.5232 <s> TELIGA 0.0000
-3.5232 <s> TEMPORAL 0.0000
-3.5232 <s> TEMPTING 0.0000
-3.5232 <s> TENDRILS 0.0000
-3.5232 <s> TENTACLID 0.0000
-3.5232 <s> TENTACUS 0.0000
-3.5232 <s> TERMS 0.0000
-3.5232 <s> TERRORDACTYL 0.0000
-3.5232 <s> TERTIATE 0.0000
-3.5232 <s> TEZMAL 0.0000
-3.5232 <s> THALASSOPHOBIA 0.0000
-1.9434 <s> THE -0.2275
-3.5232 <s> THEORY -0.2218
-3.5232 <s> THERO 0.0000
-3.5232 <s> THEY'RE 0.0000
-3.5232 <s> THIEVES 0.0000
-3.5232 <s> THIN 0.0000
-3.5232 <s> THINK 0.0000
-3.5232 <s> THORIUM 0.0000
-3.5232 <s> THREE 0.0000
-3.5232 <s> THROWING 0.0000
-3.5232 <s> THUNDERTOW 0.0000
-3.5232 <s> TIDAL 0.0000
-3.5232 <s> TIDE -0.1761
-3.5232 <s> TIMEQUAKE 0.0000
-3.5232 <s> TIMETRAVELLER 0.0000
-3.5232 <s> TIMOTI 0.0000
-3.5232 <s> TIRELESS 0.0000
-2.9212 <s> TITAN 0.0000
-3.5232 <s> TOAD 0.0000
-3.5232 <s> TOCSIN 0.0000
-3.5232 <s> TOGETHER 0.0000
-3.5232 <s> TOKEN 0.0000
-3.5232 <s> TOLAS 0.0000
-3.2222 <s> TOMWA 0.0000
-3.5232 <s> TOO 0.0000
-3.5232 <s> TOTAL 0.0000
-3.5232 <s> TOURIST 0.0000
-3.5232 <s> TOXICUDA 0.0000
-3.5232 <s> TRADE 0.0000
-3.5232 <s> TRADER 0.0000
-3.5232 <s> TRADING 0.0000
-3.5232 <s> TRAINING -0.1761
-3.5232 <s> TRANSITORY 0.0000
-3.5232 <s> TRANSPORTER 0.0000
-3.5232 <s> TRANSPOSITION 0.0000
-3.5232 <s> TREASURE 0.0000
-3.5232 <s> TREMOR 0.0000
-3.5232 <s> TRIAL 0.0000
-3.5232 <s> TRIBUNE 0.0000
-3.5232 <s> TRIBUTE 0.0000
-3.5232 <s> TRICERIAN 0.0000
-3.5232 <s> TRICKLE 0.0000
-3.5232 <s> TRIMBLE 0.0000
-3.5232 <s> TRIUMPH 0.0000
-3.5232 <s> TROJAN 0.0000
-3.5232 <s> TROLL 0.0000
-3.5232 <s> TROOP 0.0000
-3.5232 <s> TROOPER 0.0000
-3.5232 <s> TRUEBARU 0.0000
-3.5232 <s> TRUST 0.0000
-3.5232 <s> TUNK 0.0000
-3.5232 <s> TURNKEY 0.0000
-3.5232 <s> TWIN -0.2967
-3.5232 <s> TYA 0.0000
-3.5232 <s> TYXL 0.0000
-3.5232 <s> ULTRA 0.0000
-3.5232 <s> ULYQ 0.0000
-2.6781 <s> UMBRA -0.0000
-3.5232 <s> UNCHARTED 0.0000
-3.5232 <s> UNCOMMON 0.0000
-3.5232 <s> UNDAGNATHUS 0.0000
-3.5232 <s> UNDAGNATHUS-EVIL 0.0000
-3.5232 <s> UNDER 0.0000
-3.5232 <s> UNGUARDED 0.0000
-3.5232 <s> UNITED 0.0000
-3.5232 <s> UNITY -0.1761
-3.0461 <s> UNIVERSAL 0.0000
-3.5232 <s> UNLOCKED 0.0000
-3.5232 <s> UNNATURAL 0.0000
-3.5232 <s> UNSUSPECTING 0.0000
-3.2222 <s> UNTAMED 0.0000
-3.5232 <s> UPLINK 0.0000
-3.5232 <s> URCHIN 0.0000
-3.2222 <s> URIEN 0.0000
-3.5232 <s> UXLYX 0.0000
-3.5232 <s> VALDR 0.0000
-3.5232 <s> VALOOCANTH 0.0000
-3.5232 <s> VANDALIZE 0.0000
-3.5232 <s> VAULTS 0.0000
-3.5232 <s> VEEMOS 0.0000
-3.5232 <s> VELUM 0.0000
-3.5232 <s> VENATOR 0.0000
-3.5232 <s> VESPILON 0.0000
-3.5232 <s> VEYLAN 0.0000
-3.5232 <s> VEZYMA 0.0000
-3.5232 <s> VIGOR 0.0000
-3.5232 <s> VINEAPPLE 0.0000
-3.5232 <s> VIRTUOUS 0.0000
-3.5232 <s> VOICE 0.0000
-3.5232 <s> VOW 0.0000
-3.5232 <s> VULKA 0.0000
-3.5232 <s> WAIL 0.0000
-3.5232 <s> WAKING 0.0000
-3.5232 <s> WALK 0.0000
-3.5232 <s> WALLS -0.1761
-3.5232 <s> WAR -0.1761
-3.5232 <s> WARDRUMMER 0.0000
-3.5232 <s> WARRIOR 0.0000
-3.5232 <s> WARRIORS 0.0000
-3.5232 <s> WARSONG 0.0000
-3.5232 <s> WASHED 0.0000
-3.5232 <s> WASTE 0.0000
-3.5232 <s> WATCH 0.0000
-2.9212 <s> WAY -0.0792
-3.5232 <s> WE 0.0000
-3.5232 <s> WEAK -0.2430
-3.5232 <s> WEASAND 0.0000
-3.5232 <s> WHIRLPOOL 0.0000
-3.5232 <s> WHISPER 0.0000
-3.5232 <s> WHISPERING 0.0000
-3.5232 <s> WHISTLING 0.0000
-3.5232 <s> WHITE 0.0000
-3.5232 <s> WIDESPREAD 0.0000
-3.5232 <s> WIKOLIA 0.0000
-3.5232 <s> WIKOLIA-EVIL 0.0000
-3.0461 <s> WILD -0.1461
-3.5232 <s> WIPE 0.0000
-2.9212 <s> WITCH -0.0792
-3.5232 <s> WORD 0.0000
-3.5232 <s> WORLD 0.0000
-3.5232 <s> WORMHOLE -0.1761
-3.2222 <s> WRATH 0.0000
-3.5232 <s> WRETCHED 0.0000
-3.5232 <s> XANTHYX 0.0000
-2.7451 <s> XENO 0.0000
-3.5232 <s> XENOS 0.0000
-3.5232 <s> XENOTRAINING 0.0000
-3.5232 <s> YANTHI 0.0000
-3.5232 <s> YANTZEE 0.0000
-3.5232 <s> YO 0.0000
-3.2222 <s> YOUNGEST 0.0000
-3.5232 <s> YURK 0.0000
-3.5232 <s> YXILI 0.0000
-3.5232 <s> YXILO 0.0000
-3.5232 <s> YXILX 0.0000
-3.5232 <s> YXL 0.0000
-3.5232 <s> YXLIX 0.0000
-3.5232 <s> YXLYX 0.0000
-3.5232 <s> YZPHYZ 0.0000
-2.9212 <s> Z 0.0000
-3.5232 <s> ZAP 0.0000
-3.5232 <s> ZENZIZENZIZENZIC 0.0000
-3.5232 <s> ZEPHON 0.0000
-3.5232 <s> ZIZOK 0.0000
-3.5232 <s> ZORG 0.0000
-3.5232 <s> ZYSYSYX 0.0000
-3.5232 <s> ZYX -0.2218
-3.5232 <s> ZYZZIX 0.0000
-0.9031 A FAIR -0.1761
-0.9031 A LIFE -0.0792
-0.9031 A VIEW 0.0000
-0.9031 A VINDA 0.0000
-0.3010 ABANDON SHIP 0.0000
-0.3010 ABBESS </s> -0.3010
-0.3010 ABDUCTION </s> -0.3010
-0.3010 ABOND THE -0.2995
-0.3010 ABOUT THAT -0.1761
-0.3010 ABSOLVE </s> -0.3010
-0.6021 ABYSSAL SIGHT 0.0000
-0.6021 ABYSSAL ZEALOT 0.0000
-0.3010 ACADEMY TRAINING -0.1761
-0.6021 ACCESS </s> -0.3010
-0.9031 ACCESS ARCHIVES 0.0000
-0.9031 ACCESS DENIED 0.0000
-0.3010 ACCORD </s> -0.3010
-0.3010 ACTION </s> -0.3010
-0.3010 ADAPTOID </s> -0.3010
-0.3010 ADULT SWIM 0.0000
-0.3010 ADVANTAGE </s> -0.3010
-0.3010 ADVENTURER </s> -0.3010
-0.3010 AEDILE TULLIA 0.0000
-0.3010 AEMBER ROAD 0.0000
-0.3010 AEMBERLING </s> -0.3010
-0.3010 AEMBITRAGE </s> -0.3010
-0.3010 AEMBROSIA OUTPOST 0.0000
-0.3010 AERONAUT </s> -0.3010
-0.3010 AGAINST MANY 0.0000
-0.9031 AGENT 14 0.0000
-0.9031 AGENT FINGERS 0.0000
-0.9031 AGENT HUMAN 0.0000
-0.9031 AGENT SEPDIA 0.0000
-0.3010 AGUNG </s> -0.3010
-0.3010 AIRLOCK </s> -0.3010
-0.3010 AJA THE -0.2995
-0.3010 ALAKA </s> -0.3010
-0.3010 ALAKAS BREW 0.0000
-0.3010 ALERT </s> -0.3010
-0.3010 ALI </s> -0.3010
-0.3010 ALIEN </s> -0.3010
-0.7782 ALL </s> -0.3010
-0.7782 ALL TIDE -0.1761
-0.7782 ALL WIN 0.0000
-0.7782 ALLIANCE </s> -0.3010
-0.7782 ALLIANCE COUNCIL 0.0000
-0.7782 ALLIANCE PLANT 0.0000
-0.3010 ALLIES </s> -0.3010
-0.3010 ALLUSIONS OF -0.2990
-0.3010 ALMSMASTER </s> -0.3010
-0.3010 ALMSMASTER-EVIL TWIN -0.0086
-0.3010 ALTAR </s> -0.3010
-0.3010 ALTRUISTS ROSTRUM 0.0000
-0.3010 ALTUM </s> -0.3010
-0.3010 ALYS </s> -0.3010
-0.3680 AMBASSADOR </s> -0.3010
-1.1461 AMBASSADOR LIU 0.0000
-0.7782 AMBER </s> -0.3010
-1.0792 AMBER CONDUCTION 0.0000
-1.0792 AMBER IMP -0.0512
-1.0792 AMBER VAC -0.1761
-1.0792 AMBER VAULT 0.0000
-0.6021 AMBERFIN SHARK 0.0000
-0.6021 AMBERFIN SHARK-EVIL 0.0000
-0.3010 AMBERHEART </s> -0.3010
-0.3010 AMBERLUTION </s> -0.3010
-0.3010 AMBERMANCY </s> -0.3010
-0.3010 AMBERSPINE MONGREL 0.0000
-0.3010 AMBERTRACKER </s> -0.3010
-0.3010 AMBROSIUS </s> -0.3010
-0.3010 AMBROSIUS-EVIL TWIN -0.0086
-0.3010 AMMONIA CLOUDS 0.0000
-0.3010 AMPHORA CAPTURA 0.0000
-0.3010 AN ALLIANCE -0.2218
-0.3010 ANAHITA THE -0.2995
-0.3010 ANALYSIS </s> -0.3010
-0.3010 ANALYST </s> -0.3010
-0.3010 ANAPHIEL </s> -0.3010
-0.9031 ANCIENT BATTLEGROUND 0.0000
-0.9031 ANCIENT BEAR -0.0792
-0.9031 ANCIENT POWER -0.1249
-0.9031 ANCIENT YURK 0.0000
-0.9031 AND RELEASE 0.0000
-0.9031 AND RIVE 0.0000
-0.9031 AND RUN 0.0000
-0.9031 AND SWITCH 0.0000
-0.3010 ANGA </s> -0.3010
-0.3010 ANGER </s> -0.3010
-0.3010 ANGRY MOB 0.0000
-0.3010 ANGWISH </s> -0.3010
-0.3010 ANIMATION </s> -0.3010
-0.3010 ANIMATOR </s> -0.3010
-0.3010 ANKYLO FORMATION 0.0000
-0.3010 ANNIHILATION RITUAL -0.2218
-0.3010 ANNOYS </s> -0.3010
-0.3010 ANOMALY EXPLOITER 0.0000
-0.3010 ANTENNA </s> -0.3010
-0.3010 ANTIQUITIES DEALER 0.0000
-0.3010 ANTONY </s> -0.3010
-0.3010 ANVIL </s> -0.3010
-0.3010 APE </s> -0.3010
-0.3010 APPRECIATION </s> -0.3010
-0.3010 AQUILIA LONE 0.0000
-0.3010 ARCANE </s> -0.3010
-0.3010 ARCHAEOLOGIST </s> -0.3010
-0.3010 ARCHIMEDES </s> -0.3010
-0.3010 ARCHIVES </s> -0.3010
-0.3010 ARCHIVIST </s> -0.3010
-0.3010 ARCHONIS </s> -0.3010
-0.7782 ARCHONS </s> -0.3010
-0.7782 ARCHONS CALLBACK 0.0000
-0.7782 ARCHONS REVENGE 0.0000
-0.3010 ARDENT HERO 0.0000
-0.3010 ARHI ESQUIRE 0.0000
-0.3010 ARISE </s> -0.3010
-0.3010 ARISTOTLMIMUS </s> -0.3010
-0.3010 ARM THE -0.2995
-0.3010 ARMADRONE </s> -0.3010
-0.3010 ARMADRONE-EVIL TWIN -0.0086
-0.3010 ARMAGEDDON CLOAK 0.0000
-0.3010 ARMOR </s> -0.3010
-0.3010 ARMORSMITH </s> -0.3010
-0.3010 ARMORY OFFICER -0.2852
-0.3010 ARMSMASTER MOLINA 0.0000
-0.3010 ARRAY </s> -0.3010
-0.3010 ASP </s> -0.3010
-0.3010 ASSAULT </s> -0.3010
-0.3010 ASSERT DOMINANCE 0.0000
-0.3010 ATOON </s> -0.3010
-0.3010 ATTENDANT </s> -0.3010
-0.3010 AUBADE THE -0.2979
-0.3010 AUCTION OFF 0.0000
-0.3010 AUGUR </s> -0.3010
-0.3010 AUGUR-EVIL TWIN -0.0086
-0.3010 AURA </s> -0.3010
-0.6021 AUSTERALIS </s> -0.3010
-0.6021 AUSTERALIS SEABORG 0.0000
-0.7782 AUTO ENCODER 0.0000
-0.7782 AUTO LEGIONARY -0.1249
-0.7782 AUTO VAC -0.1761
-0.3010 AUTOCANNON </s> -0.3010
-0.3010 AUTOMATA </s> -0.3010
-0.3010 AUTOMATON </s> -0.3010
-0.3010 AUXILIARY </s> -0.3010
-0.3010 AVALANCHE </s> -0.3010
-0.3010 AVENGING AURA 0.0000
-0.3010 AVID COLLECTING 0.0000
-0.6021 AWAY </s> -0.3010
-0.6021 AWAY TEAM 0.0000
-0.3010 AXE OUTPOST 0.0000
-0.3010 AXIOM OF -0.2990
-0.3010 AZURE BASIN 0.0000
-0.3010 B0 T 0.0000
-0.3010 BABBLE </s> -0.3010
-0.3010 BABBLING BIBLIOPHILE 0.0000
-0.7782 BACKUP </s> -0.3010
-0.7782 BACKUP COPY 0.0000
-0.7782 BACKUP PLAN 0.0000
-0.6021 BAD ALLIES 0.0000
-0.6021 BAD PENNY 0.0000
-0.3010 BADGE OF -0.2990
-0.3010 BADGEMAGUS </s> -0.3010
-0.3010 BAIT AND -0.2430
-0.3010 BALANCE </s> -0.3010
-0.3010 BALDRIC THE -0.2995
-0.3010 BALL </s> -0.3010
-0.3010 BALLCANO </s> -0.3010
-0.3010 BALLISTEGO </s> -0.3010
-0.3010 BANE </s> -0.3010
-0.3010 BANGBANG </s> -0.3010
-0.3010 BANISH </s> -0.3010
-0.3010 BANK </s> -0.3010
-0.3010 BANK-EVIL TWIN -0.0086
-0.6021 BANNER </s> -0.3010
-0.6021 BANNER OF -0.2969
-0.3010 BARB </s> -0.3010
-0.3010 BAREHANDED </s> -0.3010
-0.3010 BARN RAZING 0.0000
-0.6021 BARON </s> -0.3010
-0.6021 BARON MENGEVIN 0.0000
-0.3010 BARRISTER JOYA 0.0000
-0.3010 BASIN OUTPOST 0.0000
-0.3010 BATARIEL OF -0.2389
-0.3010 BATDRONE </s> -0.3010
-0.4260 BATTLE </s> -0.3010
-0.9031 BATTLE FLEET 0.0000
-0.3010 BATTLEFIELD </s> -0.3010
-0.3010 BATTLEGROUND </s> -0.3010
-0.3010 BATTLEVANGELIST </s> -0.3010
-0.3010 BAUBLE </s> -0.3010
-0.3010 BAUTREM </s> -0.3010
-0.3010 BEACH DAY 0.0000
-0.3010 BEAMBUCKLER </s> -0.3010
-0.3979 BEAR </s> -0.3010
-1.0000 BEAR FLUTE 0.0000
-0.3010 BEAR-EVIL TWIN -0.0086
-0.3010 BEARD </s> -0.3010
-0.3010 BEARD-EVIL TWIN -0.0086
-0.3010 BEAST </s> -0.3010
-0.3010 BEASTS BANE 0.0000
-0.3010 BEFUDDLE </s> -0.3010
-0.3010 BEGONE </s> -0.3010
-0.3010 BELLATORAN WARRIOR 0.0000
-0.3010 BELLIGERENT GUARD -0.1761
-0.3010 BELLOWING PATRIZATE 0.0000
-0.3010 BENEVOLENT </s> -0.3010
-0.3010 BERINON </s> -0.3010
-0.6021 BERSERKER </s> -0.3010
-0.6021 BERSERKER SLAM 0.0000
-0.6021 BESTIARII URSO 0.0000
-0.6021 BESTIARII URSO-EVIL 0.0000
-0.3010 BEVOR </s> -0.3010
-0.3010 BEVOR-EVIL TWIN -0.0086
-0.3010 BEWARE THE -0.2995
-0.3010 BIBLIOPHILE </s> -0.3010
-0.6021 BIG MAGNET 0.0000
-0.6021 BIG ONE -0.2109
-0.3010 BIGTWIG </s> -0.3010
-0.3010 BILGEWARDEN </s> -0.3010
-0.3010 BILGUM AVALANCHE 0.0000
-0.3010 BIN </s> -0.3010
-0.6021 BINARY MORAY 0.0000
-0.6021 BINARY MORAY-EVIL 0.0000
-0.3010 BINATE RUPTURE 0.0000
-0.6021 BINDING </s> -0.3010
-0.6021 BINDING IRONS 0.0000
-0.3010 BINGLE BANGBANG 0.0000
-0.3010 BIOMATRIX BACKUP -0.2218
-0.3010 BIOME DISCOVERY 0.0000
-0.3010 BIRDS </s> -0.3010
-0.3010 BLACKSMITH </s> -0.3010
-0.3010 BLADE </s> -0.3010
-0.4472 BLAST </s> -0.3010
-1.1461 BLAST FROM -0.1761
-1.1461 BLAST SHIELDING 0.0000
-0.3010 BLASTER </s> -0.3010
-0.3010 BLATANT THIEVERY 0.0000
-0.3010 BLESSING </s> -0.3010
-0.3010 BLINDING LIGHT -0.2218
-0.6021 BLOOD </s> -0.3010
-0.9031 BLOOD MONEY 0.0000
-0.9031 BLOOD OF -0.2990
-0.3010 BLOODSHADOW </s> -0.3010
-0.3010 BLOODSHARD IMP -0.0512
-0.3010 BLOOM </s> -0.3010
-0.6021 BLORB </s> -0.3010
-0.6021 BLORB HIVE 0.0000
-0.3010 BLOSSOM DRAKE 0.0000
-0.3010 BLOW </s> -0.3010
-0.3010 BLYPYP </s> -0.3010
-0.3010 BO NITHING 0.0000
-0.3010 BODIES </s> -0.3010
-0.3010 BOIL </s> -0.3010
-0.3010 BOLD </s> -0.3010
-0.3010 BOLSTERING AUTOMATA 0.0000
-0.6021 BOLT </s> -0.3010
-0.6021 BOLT EMISSION 0.0000
-0.3010 BOLTER </s> -0.3010
-0.3010 BOLTON </s> -0.3010
-0.3010 BOMB </s> -0.3010
-0.3010 BOMBARDMENT </s> -0.3010
-0.3010 BOMBYX </s> -0.3010
-0.3010 BONEROT VENOM 0.0000
-0.3010 BONESAW </s> -0.3010
-0.3010 BOOBY TRAP 0.0000
-0.3010 BOOK OF -0.2969
-0.3010 BOOKTON </s> -0.3010
-0.3010 BOOMY </s> -0.3010
-0.3010 BOOSTER </s> -0.3010
-0.3010 BOOTS </s> -0.3010
-0.3010 BORDAN THE -0.2995
-0.3010 BOREN </s> -0.3010
-0.3010 BORKA RIKK 0.0000
-0.6021 BORR NIT 0.0000
-0.6021 BORR NITS 0.0000
-0.3010 BORROW </s> -0.3010
-0.3010 BOSS ZAREK 0.0000
-0.3590 BOT </s> -0.3010
-1.2041 BOT BOOKTON 0.0000
-0.3010 BOUNCING DEATHQUARK 0.0000
-0.3010 BOUNTY </s> -0.3010
-0.3010 BOX </s> -0.3010
-0.3010 BRABBLE </s> -0.3010
-0.3010 BRACCHANALIA </s> -0.3010
-0.3010 BRACCHUS </s> -0.3010
-0.3010 BRACHIADITUS </s> -0.3010
-0.3010 BRACKISH SHORELINE 0.0000
-0.7782 BRAIN DRAIN 0.0000
-0.7782 BRAIN EATER -0.1761
-0.7782 BRAIN STEM 0.0000
-0.3010 BRAINDART </s> -0.3010
-0.3010 BRAMBLE LYNX 0.0000
-0.3010 BRAMMO </s> -0.3010
-0.3010 BRAWL IN -0.2430
-0.3010 BREAK KEY -0.2553
-0.3010 BREAKER HILL 0.0000
-0.3010 BREATH </s> -0.3010
-0.3010 BREND THE -0.2995
